{"learner":{"attributes":{"best_iteration":"499","best_ntree_limit":"500"},"feature_names":[],"feature_types":[],"gradient_booster":{"model":{"gbtree_model_param":{"num_parallel_tree":"1","num_trees":"1000","size_leaf_vector":"0"},"tree_info":[0,1,0,1,0,1,0,1,0,1,0,1,0,1,0,1,0,1,0,1,0,1,0,1,0,1,0,1,0,1,0,1,0,1,0,1,0,1,0,1,0,1,0,1,0,1,0,1,0,1,0,1,0,1,0,1,0,1,0,1,0,1,0,1,0,1,0,1,0,1,0,1,0,1,0,1,0,1,0,1,0,1,0,1,0,1,0,1,0,1,0,1,0,1,0,1,0,1,0,1,0,1,0,1,0,1,0,1,0,1,0,1,0,1,0,1,0,1,0,1,0,1,0,1,0,1,0,1,0,1,0,1,0,1,0,1,0,1,0,1,0,1,0,1,0,1,0,1,0,1,0,1,0,1,0,1,0,1,0,1,0,1,0,1,0,1,0,1,0,1,0,1,0,1,0,1,0,1,0,1,0,1,0,1,0,1,0,1,0,1,0,1,0,1,0,1,0,1,0,1,0,1,0,1,0,1,0,1,0,1,0,1,0,1,0,1,0,1,0,1,0,1,0,1,0,1,0,1,0,1,0,1,0,1,0,1,0,1,0,1,0,1,0,1,0,1,0,1,0,1,0,1,0,1,0,1,0,1,0,1,0,1,0,1,0,1,0,1,0,1,0,1,0,1,0,1,0,1,0,1,0,1,0,1,0,1,0,1,0,1,0,1,0,1,0,1,0,1,0,1,0,1,0,1,0,1,0,1,0,1,0,1,0,1,0,1,0,1,0,1,0,1,0,1,0,1,0,1,0,1,0,1,0,1,0,1,0,1,0,1,0,1,0,1,0,1,0,1,0,1,0,1,0,1,0,1,0,1,0,1,0,1,0,1,0,1,0,1,0,1,0,1,0,1,0,1,0,1,0,1,0,1,0,1,0,1,0,1,0,1,0,1,0,1,0,1,0,1,0,1,0,1,0,1,0,1,0,1,0,1,0,1,0,1,0,1,0,1,0,1,0,1,0,1,0,1,0,1,0,1,0,1,0,1,0,1,0,1,0,1,0,1,0,1,0,1,0,1,0,1,0,1,0,1,0,1,0,1,0,1,0,1,0,1,0,1,0,1,0,1,0,1,0,1,0,1,0,1,0,1,0,1,0,1,0,1,0,1,0,1,0,1,0,1,0,1,0,1,0,1,0,1,0,1,0,1,0,1,0,1,0,1,0,1,0,1,0,1,0,1,0,1,0,1,0,1,0,1,0,1,0,1,0,1,0,1,0,1,0,1,0,1,0,1,0,1,0,1,0,1,0,1,0,1,0,1,0,1,0,1,0,1,0,1,0,1,0,1,0,1,0,1,0,1,0,1,0,1,0,1,0,1,0,1,0,1,0,1,0,1,0,1,0,1,0,1,0,1,0,1,0,1,0,1,0,1,0,1,0,1,0,1,0,1,0,1,0,1,0,1,0,1,0,1,0,1,0,1,0,1,0,1,0,1,0,1,0,1,0,1,0,1,0,1,0,1,0,1,0,1,0,1,0,1,0,1,0,1,0,1,0,1,0,1,0,1,0,1,0,1,0,1,0,1,0,1,0,1,0,1,0,1,0,1,0,1,0,1,0,1,0,1,0,1,0,1,0,1,0,1,0,1,0,1,0,1,0,1,0,1,0,1,0,1,0,1,0,1,0,1,0,1,0,1,0,1,0,1,0,1,0,1,0,1,0,1,0,1,0,1,0,1,0,1,0,1,0,1,0,1,0,1,0,1,0,1,0,1,0,1,0,1,0,1,0,1,0,1,0,1,0,1,0,1,0,1,0,1,0,1,0,1,0,1,0,1,0,1,0,1,0,1,0,1,0,1,0,1,0,1,0,1,0,1,0,1,0,1,0,1,0,1,0,1,0,1,0,1,0,1,0,1,0,1,0,1,0,1,0,1,0,1,0,1,0,1,0,1,0,1,0,1,0,1,0,1,0,1,0,1,0,1,0,1,0,1,0,1,0,1,0,1,0,1,0,1,0,1,0,1,0,1,0,1,0,1,0,1,0,1,0,1,0,1,0,1,0,1,0,1,0,1,0,1,0,1,0,1,0,1,0,1,0,1,0,1,0,1,0,1,0,1,0,1,0,1,0,1,0,1,0,1,0,1,0,1,0,1,0,1,0,1,0,1,0,1,0,1,0,1,0,1,0,1,0,1,0,1,0,1,0,1,0,1,0,1,0,1,0,1,0,1,0,1,0,1,0,1,0,1,0,1,0,1,0,1,0,1,0,1,0,1,0,1,0,1,0,1,0,1,0,1,0,1,0,1,0,1,0,1],"trees":[{"base_weights":[-1.3478486E-1,-3.6924446E-1,8.6876154E-2,-4.7607303E-1,-9.3452E-2,-1.3408393E-1,3.0112508E-1],"categories":[],"categories_nodes":[],"categories_segments":[],"categories_sizes":[],"default_left":[1,1,1,0,0,0,0],"id":0,"left_children":[1,3,5,-1,-1,-1,-1],"loss_changes":[3.0078564E2,8.281882E1,1.4090192E2,0E0,0E0,0E0,0E0],"parents":[2147483647,0,0,1,1,2,2],"right_children":[2,4,6,-1,-1,-1,-1],"split_conditions":[1.45E1,3.75E0,5.03E-1,-4.76073E-3,-9.3452E-4,-1.3408392E-3,3.0112506E-3],"split_indices":[51,77,55,0,0,0,0],"split_type":[0,0,0,0,0,0,0],"sum_hessian":[5.786E3,2.8115E3,2.9745E3,2.026E3,7.855E2,1.4645E3,1.51E3],"tree_param":{"num_deleted":"0","num_feature":"106","num_nodes":"7","size_leaf_vector":"0"}},{"base_weights":[1.3478486E-1,3.6924446E-1,-8.6876154E-2,4.7607303E-1,9.3452E-2,1.3408393E-1,-3.0112508E-1],"categories":[],"categories_nodes":[],"categories_segments":[],"categories_sizes":[],"default_left":[1,1,1,0,0,0,0],"id":1,"left_children":[1,3,5,-1,-1,-1,-1],"loss_changes":[3.0078564E2,8.281882E1,1.4090192E2,0E0,0E0,0E0,0E0],"parents":[2147483647,0,0,1,1,2,2],"right_children":[2,4,6,-1,-1,-1,-1],"split_conditions":[1.45E1,3.75E0,5.03E-1,4.76073E-3,9.3452E-4,1.3408392E-3,-3.0112506E-3],"split_indices":[51,77,55,0,0,0,0],"split_type":[0,0,0,0,0,0,0],"sum_hessian":[5.786E3,2.8115E3,2.9745E3,2.026E3,7.855E2,1.4645E3,1.51E3],"tree_param":{"num_deleted":"0","num_feature":"106","num_nodes":"7","size_leaf_vector":"0"}},{"base_weights":[-1.3343915E-1,-3.6556005E-1,8.600843E-2,-1.9704336E-1,-5.3750974E-1,-1.23157255E-1,3.0793548E-1],"categories":[],"categories_nodes":[],"categories_segments":[],"categories_sizes":[],"default_left":[1,1,1,0,0,0,0],"id":2,"left_children":[1,3,5,-1,-1,-1,-1],"loss_changes":[2.948086E2,8.1388855E1,1.3815845E2,0E0,0E0,0E0,0E0],"parents":[2147483647,0,0,1,1,2,2],"right_children":[2,4,6,-1,-1,-1,-1],"split_conditions":[1.45E1,1.25E1,5.1750004E-1,-1.9704336E-3,-5.3750975E-3,-1.2315725E-3,3.0793548E-3],"split_indices":[51,80,55,0,0,0,0],"split_type":[0,0,0,0,0,0,0],"sum_hessian":[5.7859375E3,2.8114536E3,2.974484E3,1.4209847E3,1.3904689E3,1.5314968E3,1.4429869E3],"tree_param":{"num_deleted":"0","num_feature":"106","num_nodes":"7","size_leaf_vector":"0"}},{"base_weights":[1.3343915E-1,3.6556008E-1,-8.600844E-2,1.970434E-1,5.3750974E-1,1.23157226E-1,-3.0793545E-1],"categories":[],"categories_nodes":[],"categories_segments":[],"categories_sizes":[],"default_left":[1,1,1,0,0,0,0],"id":3,"left_children":[1,3,5,-1,-1,-1,-1],"loss_changes":[2.948086E2,8.1388824E1,1.3815842E2,0E0,0E0,0E0,0E0],"parents":[2147483647,0,0,1,1,2,2],"right_children":[2,4,6,-1,-1,-1,-1],"split_conditions":[1.45E1,1.25E1,5.1750004E-1,1.970434E-3,5.3750975E-3,1.2315722E-3,-3.0793543E-3],"split_indices":[51,80,55,0,0,0,0],"split_type":[0,0,0,0,0,0,0],"sum_hessian":[5.785937E3,2.8114534E3,2.9744836E3,1.4209846E3,1.3904688E3,1.5314968E3,1.4429868E3],"tree_param":{"num_deleted":"0","num_feature":"106","num_nodes":"7","size_leaf_vector":"0"}},{"base_weights":[-1.3210985E-1,-3.6192417E-1,8.515034E-2,-4.6707028E-1,-9.04975E-2,-1.3151413E-1,2.9524022E-1],"categories":[],"categories_nodes":[],"categories_segments":[],"categories_sizes":[],"default_left":[1,1,1,0,0,0,0],"id":4,"left_children":[1,3,5,-1,-1,-1,-1],"loss_changes":[2.889608E2,8.021991E1,1.3547778E2,0E0,0E0,0E0,0E0],"parents":[2147483647,0,0,1,1,2,2],"right_children":[2,4,6,-1,-1,-1,-1],"split_conditions":[1.45E1,3.75E0,5.03E-1,-4.670703E-3,-9.04975E-4,-1.3151413E-3,2.9524022E-3],"split_indices":[51,77,55,0,0,0,0],"split_type":[0,0,0,0,0,0,0],"sum_hessian":[5.785759E3,2.811322E3,2.9744365E3,2.0258291E3,7.85493E2,1.4644904E3,1.5099463E3],"tree_param":{"num_deleted":"0","num_feature":"106","num_nodes":"7","size_leaf_vector":"0"}},{"base_weights":[1.321098E-1,3.6192405E-1,-8.515034E-2,4.670702E-1,9.049739E-2,1.3151413E-1,-2.9524022E-1],"categories":[],"categories_nodes":[],"categories_segments":[],"categories_sizes":[],"default_left":[1,1,1,0,0,0,0],"id":5,"left_children":[1,3,5,-1,-1,-1,-1],"loss_changes":[2.8896066E2,8.021985E1,1.3547778E2,0E0,0E0,0E0,0E0],"parents":[2147483647,0,0,1,1,2,2],"right_children":[2,4,6,-1,-1,-1,-1],"split_conditions":[1.45E1,3.75E0,5.03E-1,4.670702E-3,9.049739E-4,1.3151413E-3,-2.9524022E-3],"split_indices":[51,77,55,0,0,0,0],"split_type":[0,0,0,0,0,0,0],"sum_hessian":[5.785759E3,2.811322E3,2.9744365E3,2.0258291E3,7.85493E2,1.4644904E3,1.5099463E3],"tree_param":{"num_deleted":"0","num_feature":"106","num_nodes":"7","size_leaf_vector":"0"}},{"base_weights":[-1.3079624E-1,-3.5833508E-1,8.4301636E-2,-2.0106962E-1,-5.3704363E-1,-1.208004E-1,3.0193E-1],"categories":[],"categories_nodes":[],"categories_segments":[],"categories_sizes":[],"default_left":[1,1,1,0,0,0,0],"id":6,"left_children":[1,3,5,-1,-1,-1,-1],"loss_changes":[2.8323764E2,7.892526E1,1.3284465E2,0E0,0E0,0E0,0E0],"parents":[2147483647,0,0,1,1,2,2],"right_children":[2,4,6,-1,-1,-1,-1],"split_conditions":[1.45E1,1.35E1,5.1750004E-1,-2.010696E-3,-5.3704362E-3,-1.208004E-3,3.0193E-3],"split_indices":[51,80,55,0,0,0,0],"split_type":[0,0,0,0,0,0,0],"sum_hessian":[5.78546E3,2.8111018E3,2.9743584E3,1.4963887E3,1.3147131E3,1.5314763E3,1.442882E3],"tree_param":{"num_deleted":"0","num_feature":"106","num_nodes":"7","size_leaf_vector":"0"}},{"base_weights":[1.3079624E-1,3.5833508E-1,-8.430162E-2,2.0106962E-1,5.3704363E-1,1.20800406E-1,-3.0193E-1],"categories":[],"categories_nodes":[],"categories_segments":[],"categories_sizes":[],"default_left":[1,1,1,0,0,0,0],"id":7,"left_children":[1,3,5,-1,-1,-1,-1],"loss_changes":[2.832376E2,7.892526E1,1.3284462E2,0E0,0E0,0E0,0E0],"parents":[2147483647,0,0,1,1,2,2],"right_children":[2,4,6,-1,-1,-1,-1],"split_conditions":[1.45E1,1.35E1,5.1750004E-1,2.010696E-3,5.3704362E-3,1.2080041E-3,-3.0193E-3],"split_indices":[51,80,55,0,0,0,0],"split_type":[0,0,0,0,0,0,0],"sum_hessian":[5.78546E3,2.8111018E3,2.9743582E3,1.4963887E3,1.3147131E3,1.5314763E3,1.442882E3],"tree_param":{"num_deleted":"0","num_feature":"106","num_nodes":"7","size_leaf_vector":"0"}},{"base_weights":[-1.294984E-1,-3.5479224E-1,8.346225E-2,-4.583402E-1,-8.755155E-2,-1.2899527E-1,2.894903E-1],"categories":[],"categories_nodes":[],"categories_segments":[],"categories_sizes":[],"default_left":[1,1,1,0,0,0,0],"id":8,"left_children":[1,3,5,-1,-1,-1,-1],"loss_changes":[2.7763715E2,7.776874E1,1.3027066E2,0E0,0E0,0E0,0E0],"parents":[2147483647,0,0,1,1,2,2],"right_children":[2,4,6,-1,-1,-1,-1],"split_conditions":[1.45E1,3.75E0,5.03E-1,-4.583402E-3,-8.7551546E-4,-1.2899527E-3,2.894903E-3],"split_indices":[51,77,55,0,0,0,0],"split_type":[0,0,0,0,0,0,0],"sum_hessian":[5.7850547E3,2.8108037E3,2.9742512E3,2.0253315E3,7.854721E2,1.4644619E3,1.5097892E3],"tree_param":{"num_deleted":"0","num_feature":"106","num_nodes":"7","size_leaf_vector":"0"}},{"base_weights":[1.2949839E-1,3.5479218E-1,-8.346225E-2,4.583402E-1,8.755146E-2,1.2899527E-1,-2.894903E-1],"categories":[],"categories_nodes":[],"categories_segments":[],"categories_sizes":[],"default_left":[1,1,1,0,0,0,0],"id":9,"left_children":[1,3,5,-1,-1,-1,-1],"loss_changes":[2.776371E2,7.776877E1,1.3027066E2,0E0,0E0,0E0,0E0],"parents":[2147483647,0,0,1,1,2,2],"right_children":[2,4,6,-1,-1,-1,-1],"split_conditions":[1.45E1,3.75E0,5.03E-1,4.583402E-3,8.755146E-4,1.2899527E-3,-2.894903E-3],"split_indices":[51,77,55,0,0,0,0],"split_type":[0,0,0,0,0,0,0],"sum_hessian":[5.7850547E3,2.8108037E3,2.9742512E3,2.0253315E3,7.8547217E2,1.4644619E3,1.5097892E3],"tree_param":{"num_deleted":"0","num_feature":"106","num_nodes":"7","size_leaf_vector":"0"}},{"base_weights":[-1.2821575E-1,-3.512945E-1,8.263202E-2,-1.9642612E-1,-5.273297E-1,-1.00105494E-1,3.1794736E-1],"categories":[],"categories_nodes":[],"categories_segments":[],"categories_sizes":[],"default_left":[1,1,1,0,0,0,0],"id":10,"left_children":[1,3,5,-1,-1,-1,-1],"loss_changes":[2.7215543E2,7.6542175E1,1.27964554E2,0E0,0E0,0E0,0E0],"parents":[2147483647,0,0,1,1,2,2],"right_children":[2,4,6,-1,-1,-1,-1],"split_conditions":[1.45E1,1.35E1,5.445E-1,-1.9642613E-3,-5.2732965E-3,-1.0010549E-3,3.1794736E-3],"split_indices":[51,80,55,0,0,0,0],"split_type":[0,0,0,0,0,0,0],"sum_hessian":[5.7845347E3,2.8104202E3,2.9741147E3,1.4962223E3,1.3141978E3,1.6744055E3,1.2997092E3],"tree_param":{"num_deleted":"0","num_feature":"106","num_nodes":"7","size_leaf_vector":"0"}},{"base_weights":[1.2821567E-1,3.512944E-1,-8.263208E-2,1.9642603E-1,5.273296E-1,1.0010549E-1,-3.1794748E-1],"categories":[],"categories_nodes":[],"categories_segments":[],"categories_sizes":[],"default_left":[1,1,1,0,0,0,0],"id":11,"left_children":[1,3,5,-1,-1,-1,-1],"loss_changes":[2.7215543E2,7.6542175E1,1.2796464E2,0E0,0E0,0E0,0E0],"parents":[2147483647,0,0,1,1,2,2],"right_children":[2,4,6,-1,-1,-1,-1],"split_conditions":[1.45E1,1.35E1,5.445E-1,1.9642604E-3,5.273296E-3,1.0010549E-3,-3.1794747E-3],"split_indices":[51,80,55,0,0,0,0],"split_type":[0,0,0,0,0,0,0],"sum_hessian":[5.784535E3,2.8104202E3,2.9741147E3,1.4962224E3,1.3141978E3,1.6744055E3,1.2997092E3],"tree_param":{"num_deleted":"0","num_feature":"106","num_nodes":"7","size_leaf_vector":"0"}},{"base_weights":[-1.2694795E-1,-3.4784096E-1,8.181068E-2,-4.498439E-1,-8.4683284E-2,-1.2670943E-1,2.8404775E-1],"categories":[],"categories_nodes":[],"categories_segments":[],"categories_sizes":[],"default_left":[1,1,1,0,0,0,0],"id":12,"left_children":[1,3,5,-1,-1,-1,-1],"loss_changes":[2.6679065E2,7.541617E1,1.2549165E2,0E0,0E0,0E0,0E0],"parents":[2147483647,0,0,1,1,2,2],"right_children":[2,4,6,-1,-1,-1,-1],"split_conditions":[1.45E1,3.75E0,5.03E-1,-4.498439E-3,-8.468328E-4,-1.2670943E-3,2.8404775E-3],"split_indices":[51,77,55,0,0,0,0],"split_type":[0,0,0,0,0,0,0],"sum_hessian":[5.7839263E3,2.8099634E3,2.973963E3,2.024525E3,7.854385E2,1.4644202E3,1.5095427E3],"tree_param":{"num_deleted":"0","num_feature":"106","num_nodes":"7","size_leaf_vector":"0"}},{"base_weights":[1.2694792E-1,3.4784093E-1,-8.181072E-2,4.4984385E-1,8.4683284E-2,1.2670943E-1,-2.8404787E-1],"categories":[],"categories_nodes":[],"categories_segments":[],"categories_sizes":[],"default_left":[1,1,1,0,0,0,0],"id":13,"left_children":[1,3,5,-1,-1,-1,-1],"loss_changes":[2.6679065E2,7.541614E1,1.25491714E2,0E0,0E0,0E0,0E0],"parents":[2147483647,0,0,1,1,2,2],"right_children":[2,4,6,-1,-1,-1,-1],"split_conditions":[1.45E1,3.75E0,5.03E-1,4.4984384E-3,8.468328E-4,1.2670943E-3,-2.8404787E-3],"split_indices":[51,77,55,0,0,0,0],"split_type":[0,0,0,0,0,0,0],"sum_hessian":[5.7839263E3,2.8099636E3,2.9739626E3,2.0245251E3,7.854385E2,1.4644202E3,1.5095426E3],"tree_param":{"num_deleted":"0","num_feature":"106","num_nodes":"7","size_leaf_vector":"0"}},{"base_weights":[-1.2569506E-1,-3.4443066E-1,8.099834E-2,-1.8346626E-1,-5.0881374E-1,-9.835705E-2,3.1200013E-1],"categories":[],"categories_nodes":[],"categories_segments":[],"categories_sizes":[],"default_left":[1,1,1,0,0,0,0],"id":14,"left_children":[1,3,5,-1,-1,-1,-1],"loss_changes":[2.6153857E2,7.427002E1,1.2327977E2,0E0,0E0,0E0,0E0],"parents":[2147483647,0,0,1,1,2,2],"right_children":[2,4,6,-1,-1,-1,-1],"split_conditions":[1.45E1,1.25E1,5.445E-1,-1.8346625E-3,-5.0881375E-3,-9.835705E-4,3.1200012E-3],"split_indices":[51,80,55,0,0,0,0],"split_type":[0,0,0,0,0,0,0],"sum_hessian":[5.7832E3,2.8094265E3,2.9737734E3,1.4205426E3,1.3888839E3,1.6743453E3,1.2994281E3],"tree_param":{"num_deleted":"0","num_feature":"106","num_nodes":"7","size_leaf_vector":"0"}},{"base_weights":[1.2569502E-1,3.4443063E-1,-8.099838E-2,1.834662E-1,5.0881374E-1,9.835697E-2,-3.1200013E-1],"categories":[],"categories_nodes":[],"categories_segments":[],"categories_sizes":[],"default_left":[1,1,1,0,0,0,0],"id":15,"left_children":[1,3,5,-1,-1,-1,-1],"loss_changes":[2.615386E2,7.427005E1,1.23279724E2,0E0,0E0,0E0,0E0],"parents":[2147483647,0,0,1,1,2,2],"right_children":[2,4,6,-1,-1,-1,-1],"split_conditions":[1.45E1,1.25E1,5.445E-1,1.8346619E-3,5.0881375E-3,9.835697E-4,-3.1200012E-3],"split_indices":[51,80,55,0,0,0,0],"split_type":[0,0,0,0,0,0,0],"sum_hessian":[5.7832E3,2.8094265E3,2.9737737E3,1.4205426E3,1.3888839E3,1.6743455E3,1.2994281E3],"tree_param":{"num_deleted":"0","num_feature":"106","num_nodes":"7","size_leaf_vector":"0"}},{"base_weights":[-1.24456555E-1,-3.4106287E-1,8.01946E-2,-4.4154438E-1,-8.195817E-2,-1.2446515E-1,2.7872434E-1],"categories":[],"categories_nodes":[],"categories_segments":[],"categories_sizes":[],"default_left":[1,1,1,0,0,0,0],"id":16,"left_children":[1,3,5,-1,-1,-1,-1],"loss_changes":[2.563977E2,7.31181E1,1.2089459E2,0E0,0E0,0E0,0E0],"parents":[2147483647,0,0,1,1,2,2],"right_children":[2,4,6,-1,-1,-1,-1],"split_conditions":[1.45E1,3.75E0,5.03E-1,-4.4154436E-3,-8.195817E-4,-1.2446515E-3,2.7872433E-3],"split_indices":[51,77,55,0,0,0,0],"split_type":[0,0,0,0,0,0,0],"sum_hessian":[5.78239E3,2.80882E3,2.97357E3,2.0234259E3,7.853941E2,1.4643639E3,1.5092062E3],"tree_param":{"num_deleted":"0","num_feature":"106","num_nodes":"7","size_leaf_vector":"0"}},{"base_weights":[1.244565E-1,3.4106287E-1,-8.01947E-2,4.4154435E-1,8.195817E-2,1.24465056E-1,-2.7872443E-1],"categories":[],"categories_nodes":[],"categories_segments":[],"categories_sizes":[],"default_left":[1,1,1,0,0,0,0],"id":17,"left_children":[1,3,5,-1,-1,-1,-1],"loss_changes":[2.5639783E2,7.31181E1,1.2089461E2,0E0,0E0,0E0,0E0],"parents":[2147483647,0,0,1,1,2,2],"right_children":[2,4,6,-1,-1,-1,-1],"split_conditions":[1.45E1,3.75E0,5.03E-1,4.4154436E-3,8.195817E-4,1.2446506E-3,-2.7872443E-3],"split_indices":[51,77,55,0,0,0,0],"split_type":[0,0,0,0,0,0,0],"sum_hessian":[5.78239E3,2.80882E3,2.97357E3,2.0234259E3,7.853941E2,1.464364E3,1.5092062E3],"tree_param":{"num_deleted":"0","num_feature":"106","num_nodes":"7","size_leaf_vector":"0"}},{"base_weights":[-1.23232424E-1,-3.3773658E-1,7.93997E-2,-1.8738937E-1,-5.087979E-1,-9.663979E-2,3.061847E-1],"categories":[],"categories_nodes":[],"categories_segments":[],"categories_sizes":[],"default_left":[1,1,1,0,0,0,0],"id":18,"left_children":[1,3,5,-1,-1,-1,-1],"loss_changes":[2.5136432E2,7.215173E1,1.1877414E2,0E0,0E0,0E0,0E0],"parents":[2147483647,0,0,1,1,2,2],"right_children":[2,4,6,-1,-1,-1,-1],"split_conditions":[1.45E1,1.35E1,5.445E-1,-1.8738937E-3,-5.0879787E-3,-9.6639787E-4,3.061847E-3],"split_indices":[51,80,55,0,0,0,0],"split_type":[0,0,0,0,0,0,0],"sum_hessian":[5.781469E3,2.8081382E3,2.973331E3,1.4956738E3,1.3124644E3,1.6742703E3,1.2990609E3],"tree_param":{"num_deleted":"0","num_feature":"106","num_nodes":"7","size_leaf_vector":"0"}},{"base_weights":[1.232324E-1,3.3773658E-1,-7.9399735E-2,1.873894E-1,5.087979E-1,9.6639715E-2,-3.061847E-1],"categories":[],"categories_nodes":[],"categories_segments":[],"categories_sizes":[],"default_left":[1,1,1,0,0,0,0],"id":19,"left_children":[1,3,5,-1,-1,-1,-1],"loss_changes":[2.5136438E2,7.215173E1,1.1877411E2,0E0,0E0,0E0,0E0],"parents":[2147483647,0,0,1,1,2,2],"right_children":[2,4,6,-1,-1,-1,-1],"split_conditions":[1.45E1,1.35E1,5.445E-1,1.873894E-3,5.0879787E-3,9.663971E-4,-3.061847E-3],"split_indices":[51,80,55,0,0,0,0],"split_type":[0,0,0,0,0,0,0],"sum_hessian":[5.781469E3,2.8081382E3,2.9733313E3,1.4956738E3,1.3124642E3,1.6742703E3,1.2990609E3],"tree_param":{"num_deleted":"0","num_feature":"106","num_nodes":"7","size_leaf_vector":"0"}},{"base_weights":[-1.2202221E-1,-3.3445102E-1,7.861316E-2,-4.334836E-1,-7.923913E-2,-1.2226143E-1,2.735163E-1],"categories":[],"categories_nodes":[],"categories_segments":[],"categories_sizes":[],"default_left":[1,1,1,0,0,0,0],"id":20,"left_children":[1,3,5,-1,-1,-1,-1],"loss_changes":[2.4643689E2,7.09458E1,1.1647188E2,0E0,0E0,0E0,0E0],"parents":[2147483647,0,0,1,1,2,2],"right_children":[2,4,6,-1,-1,-1,-1],"split_conditions":[1.45E1,3.75E0,5.03E-1,-4.334836E-3,-7.923913E-4,-1.2226142E-3,2.7351629E-3],"split_indices":[51,77,55,0,0,0,0],"split_type":[0,0,0,0,0,0,0],"sum_hessian":[5.780472E3,2.8073928E3,2.9730793E3,2.0220548E3,7.853381E2,1.4642944E3,1.5087849E3],"tree_param":{"num_deleted":"0","num_feature":"106","num_nodes":"7","size_leaf_vector":"0"}},{"base_weights":[1.22022234E-1,3.3445105E-1,-7.861316E-2,4.334836E-1,7.923925E-2,1.2226143E-1,-2.735163E-1],"categories":[],"categories_nodes":[],"categories_segments":[],"categories_sizes":[],"default_left":[1,1,1,0,0,0,0],"id":21,"left_children":[1,3,5,-1,-1,-1,-1],"loss_changes":[2.4643692E2,7.094577E1,1.1647188E2,0E0,0E0,0E0,0E0],"parents":[2147483647,0,0,1,1,2,2],"right_children":[2,4,6,-1,-1,-1,-1],"split_conditions":[1.45E1,3.75E0,5.03E-1,4.334836E-3,7.923925E-4,1.2226142E-3,-2.7351629E-3],"split_indices":[51,77,55,0,0,0,0],"split_type":[0,0,0,0,0,0,0],"sum_hessian":[5.780472E3,2.8073928E3,2.9730793E3,2.0220548E3,7.853381E2,1.4642944E3,1.5087849E3],"tree_param":{"num_deleted":"0","num_feature":"106","num_nodes":"7","size_leaf_vector":"0"}},{"base_weights":[-1.2082593E-1,-3.3120534E-1,7.78351E-2,-1.8306872E-1,-4.9986574E-1,-9.495318E-2,3.0049673E-1],"categories":[],"categories_nodes":[],"categories_segments":[],"categories_sizes":[],"default_left":[1,1,1,0,0,0,0],"id":22,"left_children":[1,3,5,-1,-1,-1,-1],"loss_changes":[2.4161163E2,7.0055145E1,1.1444025E2,0E0,0E0,0E0,0E0],"parents":[2147483647,0,0,1,1,2,2],"right_children":[2,4,6,-1,-1,-1,-1],"split_conditions":[1.45E1,1.35E1,5.445E-1,-1.8306872E-3,-4.9986574E-3,-9.495318E-4,3.0049672E-3],"split_indices":[51,80,55,0,0,0,0],"split_type":[0,0,0,0,0,0,0],"sum_hessian":[5.7793687E3,2.8065754E3,2.9727935E3,1.4953103E3,1.311265E3,1.674181E3,1.2986124E3],"tree_param":{"num_deleted":"0","num_feature":"106","num_nodes":"7","size_leaf_vector":"0"}},{"base_weights":[1.2082594E-1,3.3120543E-1,-7.783515E-2,1.8306877E-1,4.9986586E-1,9.4953105E-2,-3.0049676E-1],"categories":[],"categories_nodes":[],"categories_segments":[],"categories_sizes":[],"default_left":[1,1,1,0,0,0,0],"id":23,"left_children":[1,3,5,-1,-1,-1,-1],"loss_changes":[2.4161182E2,7.0055176E1,1.1444021E2,0E0,0E0,0E0,0E0],"parents":[2147483647,0,0,1,1,2,2],"right_children":[2,4,6,-1,-1,-1,-1],"split_conditions":[1.45E1,1.35E1,5.445E-1,1.8306876E-3,4.9986583E-3,9.4953104E-4,-3.0049675E-3],"split_indices":[51,80,55,0,0,0,0],"split_type":[0,0,0,0,0,0,0],"sum_hessian":[5.779369E3,2.8065752E3,2.9727937E3,1.4953103E3,1.311265E3,1.6741812E3,1.2986125E3],"tree_param":{"num_deleted":"0","num_feature":"106","num_nodes":"7","size_leaf_vector":"0"}},{"base_weights":[-1.1964304E-1,-3.2799888E-1,7.706534E-2,-4.256262E-1,-7.6591685E-2,2.2313304E-1,-1.8155992E-1],"categories":[],"categories_nodes":[],"categories_segments":[],"categories_sizes":[],"default_left":[1,1,1,0,0,0,0],"id":24,"left_children":[1,3,5,-1,-1,-1,-1],"loss_changes":[2.3688748E2,6.885559E1,1.1236966E2,0E0,0E0,0E0,0E0],"parents":[2147483647,0,0,1,1,2,2],"right_children":[2,4,6,-1,-1,-1,-1],"split_conditions":[1.45E1,3.75E0,1.85E1,-4.256262E-3,-7.6591683E-4,2.2313304E-3,-1.8155992E-3],"split_indices":[51,77,81,0,0,0,0],"split_type":[0,0,0,0,0,0,0],"sum_hessian":[5.7781943E3,2.8056985E3,2.972496E3,2.0204263E3,7.852721E2,1.899707E3,1.0727891E3],"tree_param":{"num_deleted":"0","num_feature":"106","num_nodes":"7","size_leaf_vector":"0"}},{"base_weights":[1.196431E-1,3.279989E-1,-7.706527E-2,4.2562622E-1,7.6591805E-2,-2.2313295E-1,1.8155994E-1],"categories":[],"categories_nodes":[],"categories_segments":[],"categories_sizes":[],"default_left":[1,1,1,0,0,0,0],"id":25,"left_children":[1,3,5,-1,-1,-1,-1],"loss_changes":[2.3688748E2,6.885559E1,1.1236963E2,0E0,0E0,0E0,0E0],"parents":[2147483647,0,0,1,1,2,2],"right_children":[2,4,6,-1,-1,-1,-1],"split_conditions":[1.45E1,3.75E0,1.85E1,4.256262E-3,7.6591806E-4,-2.2313294E-3,1.8155993E-3],"split_indices":[51,77,81,0,0,0,0],"split_type":[0,0,0,0,0,0,0],"sum_hessian":[5.778195E3,2.8056985E3,2.972496E3,2.0204264E3,7.852721E2,1.899707E3,1.0727892E3],"tree_param":{"num_deleted":"0","num_feature":"106","num_nodes":"7","size_leaf_vector":"0"}},{"base_weights":[-1.18472554E-1,-3.2483074E-1,7.630166E-2,-1.7884894E-1,-4.9116993E-1,-9.36472E-2,2.9537448E-1],"categories":[],"categories_nodes":[],"categories_segments":[],"categories_sizes":[],"default_left":[1,1,1,0,0,0,0],"id":26,"left_children":[1,3,5,-1,-1,-1,-1],"loss_changes":[2.3226074E2,6.804285E1,1.1072453E2,0E0,0E0,0E0,0E0],"parents":[2147483647,0,0,1,1,2,2],"right_children":[2,4,6,-1,-1,-1,-1],"split_conditions":[1.45E1,1.35E1,5.445E-1,-1.7884893E-3,-4.9116993E-3,-9.36472E-4,2.9537447E-3],"split_indices":[51,80,55,0,0,0,0],"split_type":[0,0,0,0,0,0,0],"sum_hessian":[5.7769844E3,2.8047534E3,2.9722307E3,1.4948901E3,1.3098633E3,1.674098E3,1.2981327E3],"tree_param":{"num_deleted":"0","num_feature":"106","num_nodes":"7","size_leaf_vector":"0"}},{"base_weights":[1.18472576E-1,3.248308E-1,-7.630166E-2,1.788489E-1,4.9117005E-1,9.364719E-2,-2.9537448E-1],"categories":[],"categories_nodes":[],"categories_segments":[],"categories_sizes":[],"default_left":[1,1,1,0,0,0,0],"id":27,"left_children":[1,3,5,-1,-1,-1,-1],"loss_changes":[2.3226082E2,6.804291E1,1.1072453E2,0E0,0E0,0E0,0E0],"parents":[2147483647,0,0,1,1,2,2],"right_children":[2,4,6,-1,-1,-1,-1],"split_conditions":[1.45E1,1.35E1,5.445E-1,1.788489E-3,4.9117003E-3,9.3647186E-4,-2.9537447E-3],"split_indices":[51,80,55,0,0,0,0],"split_type":[0,0,0,0,0,0,0],"sum_hessian":[5.776984E3,2.8047534E3,2.9722307E3,1.49489E3,1.3098633E3,1.674098E3,1.2981327E3],"tree_param":{"num_deleted":"0","num_feature":"106","num_nodes":"7","size_leaf_vector":"0"}},{"base_weights":[-1.173161E-1,-3.217003E-1,7.5547986E-2,-1.6771448E-1,-4.7667164E-1,2.1924102E-1,-1.7882563E-1],"categories":[],"categories_nodes":[],"categories_segments":[],"categories_sizes":[],"default_left":[1,1,1,0,0,0,0],"id":28,"left_children":[1,3,5,-1,-1,-1,-1],"loss_changes":[2.2773033E2,6.685095E1,1.0870359E2,0E0,0E0,0E0,0E0],"parents":[2147483647,0,0,1,1,2,2],"right_children":[2,4,6,-1,-1,-1,-1],"split_conditions":[1.45E1,1.35E1,1.85E1,-1.6771448E-3,-4.766716E-3,2.1924102E-3,-1.7882562E-3],"split_indices":[51,81,81,0,0,0,0],"split_type":[0,0,0,0,0,0,0],"sum_hessian":[5.7756475E3,2.803753E3,2.9718943E3,1.4073927E3,1.3963604E3,1.8991962E3,1.0726982E3],"tree_param":{"num_deleted":"0","num_feature":"106","num_nodes":"7","size_leaf_vector":"0"}},{"base_weights":[1.1731611E-1,3.217003E-1,-7.554796E-2,1.6771458E-1,4.7667158E-1,-2.1924104E-1,1.7882575E-1],"categories":[],"categories_nodes":[],"categories_segments":[],"categories_sizes":[],"default_left":[1,1,1,0,0,0,0],"id":29,"left_children":[1,3,5,-1,-1,-1,-1],"loss_changes":[2.2773032E2,6.685092E1,1.08703674E2,0E0,0E0,0E0,0E0],"parents":[2147483647,0,0,1,1,2,2],"right_children":[2,4,6,-1,-1,-1,-1],"split_conditions":[1.45E1,1.35E1,1.85E1,1.6771457E-3,4.7667157E-3,-2.1924104E-3,1.7882575E-3],"split_indices":[51,81,81,0,0,0,0],"split_type":[0,0,0,0,0,0,0],"sum_hessian":[5.7756475E3,2.803753E3,2.9718943E3,1.4073928E3,1.3963602E3,1.8991962E3,1.0726982E3],"tree_param":{"num_deleted":"0","num_feature":"106","num_nodes":"7","size_leaf_vector":"0"}},{"base_weights":[-1.1617173E-1,-3.186067E-1,7.4800394E-2,-3.9719817E-1,-1.8394066E-2,-9.2358746E-2,2.903542E-1],"categories":[],"categories_nodes":[],"categories_segments":[],"categories_sizes":[],"default_left":[1,1,1,0,0,0,0],"id":30,"left_children":[1,3,5,-1,-1,-1,-1],"loss_changes":[2.2329306E2,6.614349E1,1.0713457E2,0E0,0E0,0E0,0E0],"parents":[2147483647,0,0,1,1,2,2],"right_children":[2,4,6,-1,-1,-1,-1],"split_conditions":[1.45E1,4.8500004E0,5.445E-1,-3.971982E-3,-1.8394066E-4,-9.235874E-4,2.9035418E-3],"split_indices":[51,77,55,0,0,0,0],"split_type":[0,0,0,0,0,0,0],"sum_hessian":[5.774284E3,2.802694E3,2.9715903E3,2.2209558E3,5.8173816E2,1.6739982E3,1.2975922E3],"tree_param":{"num_deleted":"0","num_feature":"106","num_nodes":"7","size_leaf_vector":"0"}},{"base_weights":[1.1617179E-1,3.1860676E-1,-7.480034E-2,3.9719823E-1,1.8394066E-2,9.235876E-2,-2.9035407E-1],"categories":[],"categories_nodes":[],"categories_segments":[],"categories_sizes":[],"default_left":[1,1,1,0,0,0,0],"id":31,"left_children":[1,3,5,-1,-1,-1,-1],"loss_changes":[2.2329309E2,6.614349E1,1.071345E2,0E0,0E0,0E0,0E0],"parents":[2147483647,0,0,1,1,2,2],"right_children":[2,4,6,-1,-1,-1,-1],"split_conditions":[1.45E1,4.8500004E0,5.445E-1,3.9719823E-3,1.8394066E-4,9.235876E-4,-2.9035406E-3],"split_indices":[51,77,55,0,0,0,0],"split_type":[0,0,0,0,0,0,0],"sum_hessian":[5.774284E3,2.802694E3,2.9715903E3,2.2209558E3,5.8173816E2,1.6739982E3,1.2975922E3],"tree_param":{"num_deleted":"0","num_feature":"106","num_nodes":"7","size_leaf_vector":"0"}},{"base_weights":[-1.1503986E-1,-3.1554565E-1,7.4062474E-2,-2.2055423E-1,-5.6269604E-1,-1.8497847E-1,2.1094327E-1],"categories":[],"categories_nodes":[],"categories_segments":[],"categories_sizes":[],"default_left":[1,1,1,0,0,0,0],"id":32,"left_children":[1,3,5,-1,-1,-1,-1],"loss_changes":[2.1894418E2,6.5673096E1,1.054271E2,0E0,0E0,0E0,0E0],"parents":[2147483647,0,0,1,1,2,2],"right_children":[2,4,6,-1,-1,-1,-1],"split_conditions":[1.45E1,1.95E1,-1.55E0,-2.2055423E-3,-5.62696E-3,-1.8497846E-3,2.1094326E-3],"split_indices":[51,80,77,0,0,0,0],"split_type":[0,0,0,0,0,0,0],"sum_hessian":[5.7728203E3,2.8016033E3,2.9712173E3,2.02514E3,7.764634E2,1.0271082E3,1.944109E3],"tree_param":{"num_deleted":"0","num_feature":"106","num_nodes":"7","size_leaf_vector":"0"}},{"base_weights":[1.1503986E-1,3.1554562E-1,-7.406244E-2,2.205542E-1,5.6269604E-1,1.8497846E-1,-2.1094319E-1],"categories":[],"categories_nodes":[],"categories_segments":[],"categories_sizes":[],"default_left":[1,1,1,0,0,0,0],"id":33,"left_children":[1,3,5,-1,-1,-1,-1],"loss_changes":[2.1894412E2,6.5673096E1,1.0542705E2,0E0,0E0,0E0,0E0],"parents":[2147483647,0,0,1,1,2,2],"right_children":[2,4,6,-1,-1,-1,-1],"split_conditions":[1.45E1,1.95E1,-1.55E0,2.205542E-3,5.62696E-3,1.8497845E-3,-2.109432E-3],"split_indices":[51,80,77,0,0,0,0],"split_type":[0,0,0,0,0,0,0],"sum_hessian":[5.7728203E3,2.8016033E3,2.971217E3,2.02514E3,7.764633E2,1.0271082E3,1.944109E3],"tree_param":{"num_deleted":"0","num_feature":"106","num_nodes":"7","size_leaf_vector":"0"}},{"base_weights":[-1.13919295E-1,-3.1251824E-1,7.332965E-2,-4.073082E-1,-6.894376E-2,-1.0788873E-1,2.6594886E-1],"categories":[],"categories_nodes":[],"categories_segments":[],"categories_sizes":[],"default_left":[1,1,1,0,0,0,0],"id":34,"left_children":[1,3,5,-1,-1,-1,-1],"loss_changes":[2.1468347E2,6.465381E1,1.0376649E2,0E0,0E0,0E0,0E0],"parents":[2147483647,0,0,1,1,2,2],"right_children":[2,4,6,-1,-1,-1,-1],"split_conditions":[1.45E1,3.75E0,5.1750004E-1,-4.073082E-3,-6.894376E-4,-1.0788873E-3,2.6594885E-3],"split_indices":[51,77,55,0,0,0,0],"split_type":[0,0,0,0,0,0,0],"sum_hessian":[5.771394E3,2.8004875E3,2.9709065E3,2.0154706E3,7.85017E2,1.5309814E3,1.439925E3],"tree_param":{"num_deleted":"0","num_feature":"106","num_nodes":"7","size_leaf_vector":"0"}},{"base_weights":[1.1391929E-1,3.1251824E-1,-7.332967E-2,4.073082E-1,6.894373E-2,1.0788869E-1,-2.659489E-1],"categories":[],"categories_nodes":[],"categories_segments":[],"categories_sizes":[],"default_left":[1,1,1,0,0,0,0],"id":35,"left_children":[1,3,5,-1,-1,-1,-1],"loss_changes":[2.146835E2,6.465381E1,1.03766464E2,0E0,0E0,0E0,0E0],"parents":[2147483647,0,0,1,1,2,2],"right_children":[2,4,6,-1,-1,-1,-1],"split_conditions":[1.45E1,3.75E0,5.1750004E-1,4.073082E-3,6.894373E-4,1.0788869E-3,-2.659489E-3],"split_indices":[51,77,55,0,0,0,0],"split_type":[0,0,0,0,0,0,0],"sum_hessian":[5.771394E3,2.8004875E3,2.9709065E3,2.0154705E3,7.8501697E2,1.5309814E3,1.439925E3],"tree_param":{"num_deleted":"0","num_feature":"106","num_nodes":"7","size_leaf_vector":"0"}},{"base_weights":[-1.1281302E-1,-3.0953082E-1,7.26072E-2,-2.1571061E-1,-5.5388486E-1,2.119445E-1,-1.7394675E-1],"categories":[],"categories_nodes":[],"categories_segments":[],"categories_sizes":[],"default_left":[1,1,1,0,0,0,0],"id":36,"left_children":[1,3,5,-1,-1,-1,-1],"loss_changes":[2.1051337E2,6.4077545E1,1.0211995E2,0E0,0E0,0E0,0E0],"parents":[2147483647,0,0,1,1,2,2],"right_children":[2,4,6,-1,-1,-1,-1],"split_conditions":[1.45E1,1.95E1,1.85E1,-2.157106E-3,-5.5388487E-3,2.119445E-3,-1.7394675E-3],"split_indices":[51,80,81,0,0,0,0],"split_type":[0,0,0,0,0,0,0],"sum_hessian":[5.769755E3,2.7992637E3,2.9704912E3,2.02402E3,7.752436E2,1.8979983E3,1.0724929E3],"tree_param":{"num_deleted":"0","num_feature":"106","num_nodes":"7","size_leaf_vector":"0"}},{"base_weights":[1.1281305E-1,3.0953085E-1,-7.260719E-2,2.1571064E-1,5.53885E-1,-2.1194449E-1,1.7394675E-1],"categories":[],"categories_nodes":[],"categories_segments":[],"categories_sizes":[],"default_left":[1,1,1,0,0,0,0],"id":37,"left_children":[1,3,5,-1,-1,-1,-1],"loss_changes":[2.1051346E2,6.4077545E1,1.0211995E2,0E0,0E0,0E0,0E0],"parents":[2147483647,0,0,1,1,2,2],"right_children":[2,4,6,-1,-1,-1,-1],"split_conditions":[1.45E1,1.95E1,1.85E1,2.1571063E-3,5.5388496E-3,-2.1194448E-3,1.7394675E-3],"split_indices":[51,80,81,0,0,0,0],"split_type":[0,0,0,0,0,0,0],"sum_hessian":[5.769755E3,2.7992637E3,2.9704912E3,2.02402E3,7.752436E2,1.8979983E3,1.0724929E3],"tree_param":{"num_deleted":"0","num_feature":"106","num_nodes":"7","size_leaf_vector":"0"}},{"base_weights":[-1.11717395E-1,-3.065727E-1,7.1890295E-2,-3.835203E-1,-1.3170898E-2,-9.00606E-2,2.8089064E-1],"categories":[],"categories_nodes":[],"categories_segments":[],"categories_sizes":[],"default_left":[1,1,1,0,0,0,0],"id":38,"left_children":[1,3,5,-1,-1,-1,-1],"loss_changes":[2.0642502E2,6.3187775E1,1.0059114E2,0E0,0E0,0E0,0E0],"parents":[2147483647,0,0,1,1,2,2],"right_children":[2,4,6,-1,-1,-1,-1],"split_conditions":[1.45E1,4.8500004E0,5.445E-1,-3.835203E-3,-1.3170898E-4,-9.00606E-4,2.8089064E-3],"split_indices":[51,77,55,0,0,0,0],"split_type":[0,0,0,0,0,0,0],"sum_hessian":[5.7681636E3,2.7980442E3,2.9701194E3,2.2164504E3,5.8159375E2,1.6737372E3,1.2963821E3],"tree_param":{"num_deleted":"0","num_feature":"106","num_nodes":"7","size_leaf_vector":"0"}},{"base_weights":[1.1171737E-1,3.065727E-1,-7.1890324E-2,3.835203E-1,1.3170869E-2,9.006057E-2,-2.8089064E-1],"categories":[],"categories_nodes":[],"categories_segments":[],"categories_sizes":[],"default_left":[1,1,1,0,0,0,0],"id":39,"left_children":[1,3,5,-1,-1,-1,-1],"loss_changes":[2.0642506E2,6.3187775E1,1.00591125E2,0E0,0E0,0E0,0E0],"parents":[2147483647,0,0,1,1,2,2],"right_children":[2,4,6,-1,-1,-1,-1],"split_conditions":[1.45E1,4.8500004E0,5.445E-1,3.835203E-3,1.3170869E-4,9.006057E-4,-2.8089064E-3],"split_indices":[51,77,55,0,0,0,0],"split_type":[0,0,0,0,0,0,0],"sum_hessian":[5.7681636E3,2.7980442E3,2.9701194E3,2.2164504E3,5.815937E2,1.6737372E3,1.2963822E3],"tree_param":{"num_deleted":"0","num_feature":"106","num_nodes":"7","size_leaf_vector":"0"}},{"base_weights":[-1.1063413E-1,-3.0364963E-1,7.1182705E-2,-2.1091166E-1,-5.454542E-1,-1.8018587E-1,2.0406857E-1],"categories":[],"categories_nodes":[],"categories_segments":[],"categories_sizes":[],"default_left":[1,1,1,0,0,0,0],"id":40,"left_children":[1,3,5,-1,-1,-1,-1],"loss_changes":[2.0242079E2,6.2623016E1,9.92674E1,0E0,0E0,0E0,0E0],"parents":[2147483647,0,0,1,1,2,2],"right_children":[2,4,6,-1,-1,-1,-1],"split_conditions":[1.45E1,1.95E1,-1.55E0,-2.1091166E-3,-5.454542E-3,-1.8018587E-3,2.0406856E-3],"split_indices":[51,80,77,0,0,0,0],"split_type":[0,0,0,0,0,0,0],"sum_hessian":[5.766431E3,2.7967502E3,2.969681E3,2.0228209E3,7.739293E2,1.0268751E3,1.9428059E3],"tree_param":{"num_deleted":"0","num_feature":"106","num_nodes":"7","size_leaf_vector":"0"}},{"base_weights":[1.1063411E-1,3.0364963E-1,-7.118275E-2,2.1091163E-1,5.4545426E-1,1.8018588E-1,-2.0406865E-1],"categories":[],"categories_nodes":[],"categories_segments":[],"categories_sizes":[],"default_left":[1,1,1,0,0,0,0],"id":41,"left_children":[1,3,5,-1,-1,-1,-1],"loss_changes":[2.0242085E2,6.2623047E1,9.926746E1,0E0,0E0,0E0,0E0],"parents":[2147483647,0,0,1,1,2,2],"right_children":[2,4,6,-1,-1,-1,-1],"split_conditions":[1.45E1,1.95E1,-1.55E0,2.1091162E-3,5.4545426E-3,1.8018588E-3,-2.0406863E-3],"split_indices":[51,80,77,0,0,0,0],"split_type":[0,0,0,0,0,0,0],"sum_hessian":[5.766431E3,2.7967502E3,2.969681E3,2.0228209E3,7.739293E2,1.0268751E3,1.9428059E3],"tree_param":{"num_deleted":"0","num_feature":"106","num_nodes":"7","size_leaf_vector":"0"}},{"base_weights":[-1.0956159E-1,-3.007583E-1,7.047993E-2,-1.5400122E-1,-4.5151737E-1,-8.889176E-2,2.762454E-1],"categories":[],"categories_nodes":[],"categories_segments":[],"categories_sizes":[],"default_left":[1,1,1,0,0,0,0],"id":42,"left_children":[1,3,5,-1,-1,-1,-1],"loss_changes":[1.9849731E2,6.1801483E1,9.74304E1,0E0,0E0,0E0,0E0],"parents":[2147483647,0,0,1,1,2,2],"right_children":[2,4,6,-1,-1,-1,-1],"split_conditions":[1.45E1,1.25E1,5.445E-1,-1.5400122E-3,-4.515174E-3,-8.889176E-4,2.7624539E-3],"split_indices":[51,80,55,0,0,0,0],"split_type":[0,0,0,0,0,0,0],"sum_hessian":[5.7647417E3,2.7954346E3,2.9693074E3,1.4175427E3,1.3778917E3,1.6736116E3,1.2956958E3],"tree_param":{"num_deleted":"0","num_feature":"106","num_nodes":"7","size_leaf_vector":"0"}},{"base_weights":[1.0956159E-1,3.007583E-1,-7.047993E-2,1.5400124E-1,4.5151737E-1,8.889176E-2,-2.762454E-1],"categories":[],"categories_nodes":[],"categories_segments":[],"categories_sizes":[],"default_left":[1,1,1,0,0,0,0],"id":43,"left_children":[1,3,5,-1,-1,-1,-1],"loss_changes":[1.9849734E2,6.1801422E1,9.74304E1,0E0,0E0,0E0,0E0],"parents":[2147483647,0,0,1,1,2,2],"right_children":[2,4,6,-1,-1,-1,-1],"split_conditions":[1.45E1,1.25E1,5.445E-1,1.5400123E-3,4.515174E-3,8.889176E-4,-2.7624539E-3],"split_indices":[51,80,55,0,0,0,0],"split_type":[0,0,0,0,0,0,0],"sum_hessian":[5.7647417E3,2.7954343E3,2.9693074E3,1.4175427E3,1.3778917E3,1.6736116E3,1.2956958E3],"tree_param":{"num_deleted":"0","num_feature":"106","num_nodes":"7","size_leaf_vector":"0"}},{"base_weights":[-1.0850249E-1,-2.9790437E-1,6.978698E-2,-3.7369487E-1,-9.365925E-3,-1.7758481E-1,2.0059069E-1],"categories":[],"categories_nodes":[],"categories_segments":[],"categories_sizes":[],"default_left":[1,1,1,0,0,0,0],"id":44,"left_children":[1,3,5,-1,-1,-1,-1],"loss_changes":[1.9465692E2,6.111934E1,9.613113E1,0E0,0E0,0E0,0E0],"parents":[2147483647,0,0,1,1,2,2],"right_children":[2,4,6,-1,-1,-1,-1],"split_conditions":[1.45E1,4.8500004E0,-1.55E0,-3.7369486E-3,-9.365925E-5,-1.7758481E-3,2.0059068E-3],"split_indices":[51,77,77,0,0,0,0],"split_type":[0,0,0,0,0,0,0],"sum_hessian":[5.762861E3,2.7940222E3,2.9688389E3,2.2125547E3,5.814676E2,1.0267411E3,1.9420977E3],"tree_param":{"num_deleted":"0","num_feature":"106","num_nodes":"7","size_leaf_vector":"0"}},{"base_weights":[1.0850247E-1,2.979043E-1,-6.9786966E-2,3.7369484E-1,9.365837E-3,1.7758483E-1,-2.0059067E-1],"categories":[],"categories_nodes":[],"categories_segments":[],"categories_sizes":[],"default_left":[1,1,1,0,0,0,0],"id":45,"left_children":[1,3,5,-1,-1,-1,-1],"loss_changes":[1.9465688E2,6.111937E1,9.613114E1,0E0,0E0,0E0,0E0],"parents":[2147483647,0,0,1,1,2,2],"right_children":[2,4,6,-1,-1,-1,-1],"split_conditions":[1.45E1,4.8500004E0,-1.55E0,3.7369484E-3,9.365837E-5,1.7758482E-3,-2.0059065E-3],"split_indices":[51,77,77,0,0,0,0],"split_type":[0,0,0,0,0,0,0],"sum_hessian":[5.7628613E3,2.7940222E3,2.9688389E3,2.2125547E3,5.8146765E2,1.0267412E3,1.9420977E3],"tree_param":{"num_deleted":"0","num_feature":"106","num_nodes":"7","size_leaf_vector":"0"}},{"base_weights":[-1.0745268E-1,7.435144E-2,-2.8970358E-1,2.0761566E-1,-1.5932207E-1,-1.3585599E-1,-4.4591647E-1],"categories":[],"categories_nodes":[],"categories_segments":[],"categories_sizes":[],"default_left":[1,1,1,0,0,0,0],"id":46,"left_children":[1,3,5,-1,-1,-1,-1],"loss_changes":[1.9094037E2,8.9883644E1,6.909866E1,0E0,0E0,0E0,0E0],"parents":[2147483647,0,0,1,1,2,2],"right_children":[2,4,6,-1,-1,-1,-1],"split_conditions":[2.5E-1,1.85E1,1.35E1,2.0761564E-3,-1.5932206E-3,-1.3585598E-3,-4.4591646E-3],"split_indices":[25,81,81,0,0,0,0],"split_type":[0,0,0,0,0,0,0],"sum_hessian":[5.761028E3,2.8843455E3,2.8766824E3,1.8368816E3,1.0474639E3,1.4502556E3,1.4264269E3],"tree_param":{"num_deleted":"0","num_feature":"106","num_nodes":"7","size_leaf_vector":"0"}},{"base_weights":[1.0745266E-1,-7.435145E-2,2.8970355E-1,-2.0761573E-1,1.5932214E-1,1.3585599E-1,4.4591638E-1],"categories":[],"categories_nodes":[],"categories_segments":[],"categories_sizes":[],"default_left":[1,1,1,0,0,0,0],"id":47,"left_children":[1,3,5,-1,-1,-1,-1],"loss_changes":[1.9094034E2,8.988371E1,6.909866E1,0E0,0E0,0E0,0E0],"parents":[2147483647,0,0,1,1,2,2],"right_children":[2,4,6,-1,-1,-1,-1],"split_conditions":[2.5E-1,1.85E1,1.35E1,-2.0761574E-3,1.5932214E-3,1.3585598E-3,4.4591636E-3],"split_indices":[25,81,81,0,0,0,0],"split_type":[0,0,0,0,0,0,0],"sum_hessian":[5.761028E3,2.8843452E3,2.8766824E3,1.8368815E3,1.0474637E3,1.4502556E3,1.4264269E3],"tree_param":{"num_deleted":"0","num_feature":"106","num_nodes":"7","size_leaf_vector":"0"}},{"base_weights":[-1.06414124E-1,-2.9241446E-1,6.854147E-2,-2.0174938E-1,-5.293949E-1,-8.730183E-2,2.6988274E-1],"categories":[],"categories_nodes":[],"categories_segments":[],"categories_sizes":[],"default_left":[1,1,1,0,0,0,0],"id":48,"left_children":[1,3,5,-1,-1,-1,-1],"loss_changes":[1.8746588E2,5.9884735E1,9.318436E1,0E0,0E0,0E0,0E0],"parents":[2147483647,0,0,1,1,2,2],"right_children":[2,4,6,-1,-1,-1,-1],"split_conditions":[1.45E1,1.95E1,5.445E-1,-2.0174938E-3,-5.293949E-3,-8.730183E-4,2.6988273E-3],"split_indices":[51,80,55,0,0,0,0],"split_type":[0,0,0,0,0,0,0],"sum_hessian":[5.759156E3,2.7911414E3,2.9680142E3,2.0201244E3,7.71017E2,1.6733584E3,1.2946559E3],"tree_param":{"num_deleted":"0","num_feature":"106","num_nodes":"7","size_leaf_vector":"0"}},{"base_weights":[1.06414124E-1,2.924145E-1,-6.8541504E-2,2.0174941E-1,5.29395E-1,8.730182E-2,-2.6988283E-1],"categories":[],"categories_nodes":[],"categories_segments":[],"categories_sizes":[],"default_left":[1,1,1,0,0,0,0],"id":49,"left_children":[1,3,5,-1,-1,-1,-1],"loss_changes":[1.8746594E2,5.988475E1,9.31844E1,0E0,0E0,0E0,0E0],"parents":[2147483647,0,0,1,1,2,2],"right_children":[2,4,6,-1,-1,-1,-1],"split_conditions":[1.45E1,1.95E1,5.445E-1,2.017494E-3,5.2939495E-3,8.730182E-4,-2.6988282E-3],"split_indices":[51,80,55,0,0,0,0],"split_type":[0,0,0,0,0,0,0],"sum_hessian":[5.759156E3,2.7911414E3,2.9680142E3,2.0201244E3,7.710171E2,1.6733584E3,1.2946558E3],"tree_param":{"num_deleted":"0","num_feature":"106","num_nodes":"7","size_leaf_vector":"0"}},{"base_weights":[-1.05387844E-1,7.3037274E-2,-2.8437638E-1,-1.786855E-1,1.929854E-1,-1.2771332E-1,-4.337095E-1],"categories":[],"categories_nodes":[],"categories_segments":[],"categories_sizes":[],"default_left":[1,1,1,0,0,0,0],"id":50,"left_children":[1,3,5,-1,-1,-1,-1],"loss_changes":[1.8391367E2,8.712556E1,6.7199234E1,0E0,0E0,0E0,0E0],"parents":[2147483647,0,0,1,1,2,2],"right_children":[2,4,6,-1,-1,-1,-1],"split_conditions":[2.5E-1,-1.95E0,1.25E1,-1.7868549E-3,1.9298539E-3,-1.2771332E-3,-4.3370947E-3],"split_indices":[25,77,79,0,0,0,0],"split_type":[0,0,0,0,0,0,0],"sum_hessian":[5.7571597E3,2.883414E3,2.8737458E3,9.303967E2,1.9530173E3,1.4033589E3,1.470387E3],"tree_param":{"num_deleted":"0","num_feature":"106","num_nodes":"7","size_leaf_vector":"0"}},{"base_weights":[1.05387874E-1,-7.303727E-2,2.843764E-1,1.7868553E-1,-1.929854E-1,1.2771337E-1,4.337095E-1],"categories":[],"categories_nodes":[],"categories_segments":[],"categories_sizes":[],"default_left":[1,1,1,0,0,0,0],"id":51,"left_children":[1,3,5,-1,-1,-1,-1],"loss_changes":[1.8391368E2,8.7125565E1,6.7199234E1,0E0,0E0,0E0,0E0],"parents":[2147483647,0,0,1,1,2,2],"right_children":[2,4,6,-1,-1,-1,-1],"split_conditions":[2.5E-1,-1.95E0,1.25E1,1.7868553E-3,-1.9298539E-3,1.2771336E-3,4.3370947E-3],"split_indices":[25,77,79,0,0,0,0],"split_type":[0,0,0,0,0,0,0],"sum_hessian":[5.75716E3,2.883414E3,2.8737458E3,9.303967E2,1.9530173E3,1.4033589E3,1.4703871E3],"tree_param":{"num_deleted":"0","num_feature":"106","num_nodes":"7","size_leaf_vector":"0"}},{"base_weights":[-1.0437052E-1,-2.8704503E-1,6.732455E-2,-3.6138192E-1,-4.6919324E-3,1.9852987E-1,-1.6461651E-1],"categories":[],"categories_nodes":[],"categories_segments":[],"categories_sizes":[],"default_left":[1,1,1,0,0,0,0],"id":52,"left_children":[1,3,5,-1,-1,-1,-1],"loss_changes":[1.8055937E2,5.854004E1,9.035746E1,0E0,0E0,0E0,0E0],"parents":[2147483647,0,0,1,1,2,2],"right_children":[2,4,6,-1,-1,-1,-1],"split_conditions":[1.45E1,4.8500004E0,1.85E1,-3.6138191E-3,-4.6919322E-5,1.9852987E-3,-1.646165E-3],"split_indices":[51,77,81,0,0,0,0],"split_type":[0,0,0,0,0,0,0],"sum_hessian":[5.7552246E3,2.7881296E3,2.967095E3,2.2068408E3,5.8128876E2,1.8951713E3,1.0719238E3],"tree_param":{"num_deleted":"0","num_feature":"106","num_nodes":"7","size_leaf_vector":"0"}},{"base_weights":[1.043705E-1,2.87045E-1,-6.732455E-2,3.613819E-1,4.6918164E-3,-1.9852987E-1,1.646165E-1],"categories":[],"categories_nodes":[],"categories_segments":[],"categories_sizes":[],"default_left":[1,1,1,0,0,0,0],"id":53,"left_children":[1,3,5,-1,-1,-1,-1],"loss_changes":[1.8055931E2,5.8540024E1,9.035745E1,0E0,0E0,0E0,0E0],"parents":[2147483647,0,0,1,1,2,2],"right_children":[2,4,6,-1,-1,-1,-1],"split_conditions":[1.45E1,4.8500004E0,1.85E1,3.613819E-3,4.691816E-5,-1.9852987E-3,1.6461649E-3],"split_indices":[51,77,81,0,0,0,0],"split_type":[0,0,0,0,0,0,0],"sum_hessian":[5.7552246E3,2.7881296E3,2.967095E3,2.206841E3,5.8128876E2,1.8951713E3,1.0719238E3],"tree_param":{"num_deleted":"0","num_feature":"106","num_nodes":"7","size_leaf_vector":"0"}},{"base_weights":[-1.03364974E-1,7.174145E-2,-2.7915952E-1,-1.7569247E-1,1.8966164E-1,-1.2944822E-1,-4.315792E-1],"categories":[],"categories_nodes":[],"categories_segments":[],"categories_sizes":[],"default_left":[1,1,1,0,0,0,0],"id":54,"left_children":[1,3,5,-1,-1,-1,-1],"loss_changes":[1.7714877E2,8.416696E1,6.547197E1,0E0,0E0,0E0,0E0],"parents":[2147483647,0,0,1,1,2,2],"right_children":[2,4,6,-1,-1,-1,-1],"split_conditions":[2.5E-1,-1.95E0,1.35E1,-1.7569247E-3,1.8966163E-3,-1.2944822E-3,-4.315792E-3],"split_indices":[25,77,81,0,0,0,0],"split_type":[0,0,0,0,0,0,0],"sum_hessian":[5.753156E3,2.8825156E3,2.8706404E3,9.3019073E2,1.9523248E3,1.4491198E3,1.4215206E3],"tree_param":{"num_deleted":"0","num_feature":"106","num_nodes":"7","size_leaf_vector":"0"}},{"base_weights":[1.03365E-1,-7.174141E-2,2.7915952E-1,1.7569257E-1,-1.8966164E-1,1.2944824E-1,4.3157917E-1],"categories":[],"categories_nodes":[],"categories_segments":[],"categories_sizes":[],"default_left":[1,1,1,0,0,0,0],"id":55,"left_children":[1,3,5,-1,-1,-1,-1],"loss_changes":[1.7714874E2,8.4167E1,6.5471924E1,0E0,0E0,0E0,0E0],"parents":[2147483647,0,0,1,1,2,2],"right_children":[2,4,6,-1,-1,-1,-1],"split_conditions":[2.5E-1,-1.95E0,1.35E1,1.7569257E-3,-1.8966163E-3,1.2944823E-3,4.3157917E-3],"split_indices":[25,77,81,0,0,0,0],"split_type":[0,0,0,0,0,0,0],"sum_hessian":[5.753156E3,2.8825154E3,2.8706404E3,9.301907E2,1.9523247E3,1.4491198E3,1.4215208E3],"tree_param":{"num_deleted":"0","num_feature":"106","num_nodes":"7","size_leaf_vector":"0"}},{"base_weights":[-1.0236924E-1,-2.8179088E-1,6.612809E-2,-2.1170387E-1,-5.7844895E-1,-8.545799E-2,2.6213685E-1],"categories":[],"categories_nodes":[],"categories_segments":[],"categories_sizes":[],"default_left":[1,1,1,0,0,0,0],"id":56,"left_children":[1,3,5,-1,-1,-1,-1],"loss_changes":[1.7391678E2,5.7802444E1,8.818353E1,0E0,0E0,0E0,0E0],"parents":[2147483647,0,0,1,1,2,2],"right_children":[2,4,6,-1,-1,-1,-1],"split_conditions":[1.45E1,2.25E1,5.445E-1,-2.1170387E-3,-5.784489E-3,-8.5457985E-4,2.6213685E-3],"split_indices":[51,80,55,0,0,0,0],"split_type":[0,0,0,0,0,0,0],"sum_hessian":[5.7511084E3,2.784939E3,2.9661694E3,2.254108E3,5.308311E2,1.6729412E3,1.2932283E3],"tree_param":{"num_deleted":"0","num_feature":"106","num_nodes":"7","size_leaf_vector":"0"}},{"base_weights":[1.0236923E-1,2.8179085E-1,-6.6128075E-2,2.1170384E-1,5.7844895E-1,8.545802E-2,-2.6213685E-1],"categories":[],"categories_nodes":[],"categories_segments":[],"categories_sizes":[],"default_left":[1,1,1,0,0,0,0],"id":57,"left_children":[1,3,5,-1,-1,-1,-1],"loss_changes":[1.7391672E2,5.7802475E1,8.818354E1,0E0,0E0,0E0,0E0],"parents":[2147483647,0,0,1,1,2,2],"right_children":[2,4,6,-1,-1,-1,-1],"split_conditions":[1.45E1,2.25E1,5.445E-1,2.1170382E-3,5.784489E-3,8.5458014E-4,-2.6213685E-3],"split_indices":[51,80,55,0,0,0,0],"split_type":[0,0,0,0,0,0,0],"sum_hessian":[5.7511084E3,2.7849392E3,2.9661694E3,2.254108E3,5.3083105E2,1.6729413E3,1.2932283E3],"tree_param":{"num_deleted":"0","num_feature":"106","num_nodes":"7","size_leaf_vector":"0"}},{"base_weights":[-1.0138488E-1,7.047001E-2,-2.740491E-1,1.9762923E-1,-1.5233862E-1,-1.2140777E-1,-4.1994393E-1],"categories":[],"categories_nodes":[],"categories_segments":[],"categories_sizes":[],"default_left":[1,1,1,0,0,0,0],"id":58,"left_children":[1,3,5,-1,-1,-1,-1],"loss_changes":[1.7063902E2,8.169845E1,6.382776E1,0E0,0E0,0E0,0E0],"parents":[2147483647,0,0,1,1,2,2],"right_children":[2,4,6,-1,-1,-1,-1],"split_conditions":[2.5E-1,1.85E1,1.25E1,1.9762923E-3,-1.5233862E-3,-1.2140777E-3,-4.199439E-3],"split_indices":[25,81,79,0,0,0,0],"split_type":[0,0,0,0,0,0,0],"sum_hessian":[5.7489614E3,2.88153E3,2.8674316E3,1.8346112E3,1.0469188E3,1.4022113E3,1.4652203E3],"tree_param":{"num_deleted":"0","num_feature":"106","num_nodes":"7","size_leaf_vector":"0"}},{"base_weights":[1.01384886E-1,-7.047001E-2,2.740491E-1,-1.9762921E-1,1.5233858E-1,1.2140781E-1,4.1994393E-1],"categories":[],"categories_nodes":[],"categories_segments":[],"categories_sizes":[],"default_left":[1,1,1,0,0,0,0],"id":59,"left_children":[1,3,5,-1,-1,-1,-1],"loss_changes":[1.7063902E2,8.169842E1,6.3827774E1,0E0,0E0,0E0,0E0],"parents":[2147483647,0,0,1,1,2,2],"right_children":[2,4,6,-1,-1,-1,-1],"split_conditions":[2.5E-1,1.85E1,1.25E1,-1.976292E-3,1.5233858E-3,1.214078E-3,4.199439E-3],"split_indices":[25,81,79,0,0,0,0],"split_type":[0,0,0,0,0,0,0],"sum_hessian":[5.7489614E3,2.88153E3,2.8674316E3,1.8346112E3,1.0469188E3,1.4022113E3,1.4652203E3],"tree_param":{"num_deleted":"0","num_feature":"106","num_nodes":"7","size_leaf_vector":"0"}},{"base_weights":[-1.0041035E-1,-2.7663997E-1,6.495418E-2,-2.074474E-1,-5.7006264E-1,-8.418875E-2,2.579074E-1],"categories":[],"categories_nodes":[],"categories_segments":[],"categories_sizes":[],"default_left":[1,1,1,0,0,0,0],"id":60,"left_children":[1,3,5,-1,-1,-1,-1],"loss_changes":[1.6752075E2,5.6377457E1,8.537937E1,0E0,0E0,0E0,0E0],"parents":[2147483647,0,0,1,1,2,2],"right_children":[2,4,6,-1,-1,-1,-1],"split_conditions":[1.45E1,2.25E1,5.445E-1,-2.074474E-3,-5.7006264E-3,-8.418875E-4,2.579074E-3],"split_indices":[51,80,55,0,0,0,0],"split_type":[0,0,0,0,0,0,0],"sum_hessian":[5.746788E3,2.781674E3,2.965114E3,2.252269E3,5.29405E2,1.6727374E3,1.2923765E3],"tree_param":{"num_deleted":"0","num_feature":"106","num_nodes":"7","size_leaf_vector":"0"}},{"base_weights":[1.00410365E-1,2.7664E-1,-6.4954154E-2,2.0744741E-1,5.700627E-1,8.418873E-2,-2.579073E-1],"categories":[],"categories_nodes":[],"categories_segments":[],"categories_sizes":[],"default_left":[1,1,1,0,0,0,0],"id":61,"left_children":[1,3,5,-1,-1,-1,-1],"loss_changes":[1.6752075E2,5.6377487E1,8.537933E1,0E0,0E0,0E0,0E0],"parents":[2147483647,0,0,1,1,2,2],"right_children":[2,4,6,-1,-1,-1,-1],"split_conditions":[1.45E1,2.25E1,5.445E-1,2.074474E-3,5.700627E-3,8.4188726E-4,-2.579073E-3],"split_indices":[51,80,55,0,0,0,0],"split_type":[0,0,0,0,0,0,0],"sum_hessian":[5.746788E3,2.781674E3,2.965114E3,2.252269E3,5.29405E2,1.6727374E3,1.2923765E3],"tree_param":{"num_deleted":"0","num_feature":"106","num_nodes":"7","size_leaf_vector":"0"}},{"base_weights":[-9.9446505E-2,-2.1457271E-1,1.5001684E-1,-6.509531E-2,-3.8281694E-1,-7.938289E-2,2.510456E-1],"categories":[],"categories_nodes":[],"categories_segments":[],"categories_sizes":[],"default_left":[1,1,1,0,0,0,0],"id":62,"left_children":[1,3,5,-1,-1,-1,-1],"loss_changes":[1.6504303E2,9.8852036E1,4.2080994E1,0E0,0E0,0E0,0E0],"parents":[2147483647,0,0,1,1,2,2],"right_children":[2,4,6,-1,-1,-1,-1],"split_conditions":[2.05E1,1.35E1,-2.05E0,-6.509531E-4,-3.8281693E-3,-7.9382886E-4,2.5104561E-3],"split_indices":[51,80,77,0,0,0,0],"split_type":[0,0,0,0,0,0,0],"sum_hessian":[5.744549E3,3.9306921E3,1.8138567E3,2.0821672E3,1.8485248E3,5.5465356E2,1.2592032E3],"tree_param":{"num_deleted":"0","num_feature":"106","num_nodes":"7","size_leaf_vector":"0"}},{"base_weights":[9.94465E-2,2.1457271E-1,-1.5001686E-1,6.509533E-2,3.828169E-1,7.938287E-2,-2.510456E-1],"categories":[],"categories_nodes":[],"categories_segments":[],"categories_sizes":[],"default_left":[1,1,1,0,0,0,0],"id":63,"left_children":[1,3,5,-1,-1,-1,-1],"loss_changes":[1.6504306E2,9.885202E1,4.2080986E1,0E0,0E0,0E0,0E0],"parents":[2147483647,0,0,1,1,2,2],"right_children":[2,4,6,-1,-1,-1,-1],"split_conditions":[2.05E1,1.35E1,-2.05E0,6.5095327E-4,3.828169E-3,7.938286E-4,-2.5104561E-3],"split_indices":[51,80,77,0,0,0,0],"split_type":[0,0,0,0,0,0,0],"sum_hessian":[5.744549E3,3.930692E3,1.8138567E3,2.0821672E3,1.8485248E3,5.546535E2,1.2592031E3],"tree_param":{"num_deleted":"0","num_feature":"106","num_nodes":"7","size_leaf_vector":"0"}},{"base_weights":[-9.848573E-2,6.9104694E-2,-2.670598E-1,-1.6938025E-1,1.8281464E-1,-1.1768218E-1,-4.1016927E-1],"categories":[],"categories_nodes":[],"categories_segments":[],"categories_sizes":[],"default_left":[1,1,1,0,0,0,0],"id":64,"left_children":[1,3,5,-1,-1,-1,-1],"loss_changes":[1.622842E2,7.815867E1,6.1168365E1,0E0,0E0,0E0,0E0],"parents":[2147483647,0,0,1,1,2,2],"right_children":[2,4,6,-1,-1,-1,-1],"split_conditions":[2.5E-1,-1.95E0,1.25E1,-1.6938024E-3,1.8281464E-3,-1.1768218E-3,-4.1016927E-3],"split_indices":[25,77,79,0,0,0,0],"split_type":[0,0,0,0,0,0,0],"sum_hessian":[5.7426357E3,2.8800156E3,2.8626204E3,9.296863E2,1.9503293E3,1.4015281E3,1.4610922E3],"tree_param":{"num_deleted":"0","num_feature":"106","num_nodes":"7","size_leaf_vector":"0"}},{"base_weights":[9.848576E-2,-6.9104694E-2,2.6705986E-1,1.6938023E-1,-1.8281463E-1,1.17682226E-1,4.1016933E-1],"categories":[],"categories_nodes":[],"categories_segments":[],"categories_sizes":[],"default_left":[1,1,1,0,0,0,0],"id":65,"left_children":[1,3,5,-1,-1,-1,-1],"loss_changes":[1.6228426E2,7.8158646E1,6.1168365E1,0E0,0E0,0E0,0E0],"parents":[2147483647,0,0,1,1,2,2],"right_children":[2,4,6,-1,-1,-1,-1],"split_conditions":[2.5E-1,-1.95E0,1.25E1,1.6938023E-3,-1.8281463E-3,1.1768222E-3,4.101693E-3],"split_indices":[25,77,79,0,0,0,0],"split_type":[0,0,0,0,0,0,0],"sum_hessian":[5.7426357E3,2.8800156E3,2.8626204E3,9.296863E2,1.9503293E3,1.4015281E3,1.4610923E3],"tree_param":{"num_deleted":"0","num_feature":"106","num_nodes":"7","size_leaf_vector":"0"}},{"base_weights":[-9.7540714E-2,-2.1084645E-1,1.4785054E-1,-6.380188E-2,-3.7657967E-1,2.3234275E-1,-1.15583755E-1],"categories":[],"categories_nodes":[],"categories_segments":[],"categories_sizes":[],"default_left":[1,1,1,0,0,0,0],"id":66,"left_children":[1,3,5,-1,-1,-1,-1],"loss_changes":[1.5966571E2,9.570668E1,4.0407173E1,0E0,0E0,0E0,0E0],"parents":[2147483647,0,0,1,1,2,2],"right_children":[2,4,6,-1,-1,-1,-1],"split_conditions":[2.05E1,1.35E1,2.25E1,-6.3801877E-4,-3.7657965E-3,2.3234275E-3,-1.1558376E-3],"split_indices":[51,80,103,0,0,0,0],"split_type":[0,0,0,0,0,0,0],"sum_hessian":[5.7403745E3,3.9271929E3,1.8131818E3,2.0816562E3,1.8455367E3,1.372949E3,4.402327E2],"tree_param":{"num_deleted":"0","num_feature":"106","num_nodes":"7","size_leaf_vector":"0"}},{"base_weights":[9.7540714E-2,2.1084647E-1,-1.4785057E-1,6.380189E-2,3.7657967E-1,-2.323428E-1,1.15583755E-1],"categories":[],"categories_nodes":[],"categories_segments":[],"categories_sizes":[],"default_left":[1,1,1,0,0,0,0],"id":67,"left_children":[1,3,5,-1,-1,-1,-1],"loss_changes":[1.5966577E2,9.5706726E1,4.0407185E1,0E0,0E0,0E0,0E0],"parents":[2147483647,0,0,1,1,2,2],"right_children":[2,4,6,-1,-1,-1,-1],"split_conditions":[2.05E1,1.35E1,2.25E1,6.380189E-4,3.7657965E-3,-2.323428E-3,1.1558376E-3],"split_indices":[51,80,103,0,0,0,0],"split_type":[0,0,0,0,0,0,0],"sum_hessian":[5.7403745E3,3.9271929E3,1.8131816E3,2.0816562E3,1.8455366E3,1.372949E3,4.402327E2],"tree_param":{"num_deleted":"0","num_feature":"106","num_nodes":"7","size_leaf_vector":"0"}},{"base_weights":[-9.6599534E-2,-2.6770222E-1,6.368758E-2,-3.3971596E-1,4.467134E-3,-8.144492E-2,2.515917E-1],"categories":[],"categories_nodes":[],"categories_segments":[],"categories_sizes":[],"default_left":[1,1,1,0,0,0,0],"id":68,"left_children":[1,3,5,-1,-1,-1,-1],"loss_changes":[1.5742334E2,5.4415512E1,8.085628E1,0E0,0E0,0E0,0E0],"parents":[2147483647,0,0,1,1,2,2],"right_children":[2,4,6,-1,-1,-1,-1],"split_conditions":[1.45E1,4.8500004E0,5.445E-1,-3.3971595E-3,4.467134E-5,-8.1444916E-4,2.5159172E-3],"split_indices":[51,77,55,0,0,0,0],"split_type":[0,0,0,0,0,0,0],"sum_hessian":[5.738401E3,2.775234E3,2.963167E3,2.194373E3,5.8086096E2,1.6721818E3,1.2909851E3],"tree_param":{"num_deleted":"0","num_feature":"106","num_nodes":"7","size_leaf_vector":"0"}},{"base_weights":[9.6599534E-2,2.6770225E-1,-6.368759E-2,3.39716E-1,-4.4670487E-3,8.144489E-2,-2.515917E-1],"categories":[],"categories_nodes":[],"categories_segments":[],"categories_sizes":[],"default_left":[1,1,1,0,0,0,0],"id":69,"left_children":[1,3,5,-1,-1,-1,-1],"loss_changes":[1.5742337E2,5.4415466E1,8.085627E1,0E0,0E0,0E0,0E0],"parents":[2147483647,0,0,1,1,2,2],"right_children":[2,4,6,-1,-1,-1,-1],"split_conditions":[1.45E1,4.8500004E0,5.445E-1,3.3971597E-3,-4.4670487E-5,8.1444887E-4,-2.5159172E-3],"split_indices":[51,77,55,0,0,0,0],"split_type":[0,0,0,0,0,0,0],"sum_hessian":[5.738401E3,2.775234E3,2.963167E3,2.194373E3,5.808609E2,1.6721818E3,1.2909852E3],"tree_param":{"num_deleted":"0","num_feature":"106","num_nodes":"7","size_leaf_vector":"0"}},{"base_weights":[-9.567477E-2,-2.0723136E-1,1.457988E-1,-6.227791E-2,-3.707999E-1,-7.573022E-2,2.4342653E-1],"categories":[],"categories_nodes":[],"categories_segments":[],"categories_sizes":[],"default_left":[1,1,1,0,0,0,0],"id":70,"left_children":[1,3,5,-1,-1,-1,-1],"loss_changes":[1.5457251E2,9.302646E1,3.923868E1,0E0,0E0,0E0,0E0],"parents":[2147483647,0,0,1,1,2,2],"right_children":[2,4,6,-1,-1,-1,-1],"split_conditions":[2.05E1,1.35E1,-2.05E0,-6.227791E-4,-3.707999E-3,-7.5730216E-4,2.4342653E-3],"split_indices":[51,80,77,0,0,0,0],"split_type":[0,0,0,0,0,0,0],"sum_hessian":[5.7359688E3,3.923515E3,1.812454E3,2.0808547E3,1.8426602E3,5.544851E2,1.2579689E3],"tree_param":{"num_deleted":"0","num_feature":"106","num_nodes":"7","size_leaf_vector":"0"}},{"base_weights":[9.567479E-2,2.0723137E-1,-1.4579876E-1,6.2277928E-2,3.707999E-1,7.57303E-2,-2.4342652E-1],"categories":[],"categories_nodes":[],"categories_segments":[],"categories_sizes":[],"default_left":[1,1,1,0,0,0,0],"id":71,"left_children":[1,3,5,-1,-1,-1,-1],"loss_changes":[1.5457246E2,9.3026474E1,3.92387E1,0E0,0E0,0E0,0E0],"parents":[2147483647,0,0,1,1,2,2],"right_children":[2,4,6,-1,-1,-1,-1],"split_conditions":[2.05E1,1.35E1,-2.05E0,6.2277925E-4,3.707999E-3,7.57303E-4,-2.434265E-3],"split_indices":[51,80,77,0,0,0,0],"split_type":[0,0,0,0,0,0,0],"sum_hessian":[5.7359688E3,3.923515E3,1.8124539E3,2.0808547E3,1.8426603E3,5.5448505E2,1.2579689E3],"tree_param":{"num_deleted":"0","num_feature":"106","num_nodes":"7","size_leaf_vector":"0"}},{"base_weights":[-9.475329E-2,-2.633004E-1,6.300563E-2,-1.9606586E-1,-5.497998E-1,-7.982921E-2,2.4802448E-1],"categories":[],"categories_nodes":[],"categories_segments":[],"categories_sizes":[],"default_left":[1,1,1,0,0,0,0],"id":72,"left_children":[1,3,5,-1,-1,-1,-1],"loss_changes":[1.5250621E2,5.3304382E1,7.832483E1,0E0,0E0,0E0,0E0],"parents":[2147483647,0,0,1,1,2,2],"right_children":[2,4,6,-1,-1,-1,-1],"split_conditions":[1.45E1,2.25E1,5.445E-1,-1.9606585E-3,-5.497998E-3,-7.9829205E-4,2.4802447E-3],"split_indices":[51,80,55,0,0,0,0],"split_type":[0,0,0,0,0,0,0],"sum_hessian":[5.7338887E3,2.7718352E3,2.9620535E3,2.2463542E3,5.254811E2,1.6719071E3,1.2901464E3],"tree_param":{"num_deleted":"0","num_feature":"106","num_nodes":"7","size_leaf_vector":"0"}},{"base_weights":[9.475331E-2,2.6330042E-1,-6.300561E-2,1.9606586E-1,5.497999E-1,7.9829216E-2,-2.4802442E-1],"categories":[],"categories_nodes":[],"categories_segments":[],"categories_sizes":[],"default_left":[1,1,1,0,0,0,0],"id":73,"left_children":[1,3,5,-1,-1,-1,-1],"loss_changes":[1.5250616E2,5.3304413E1,7.83248E1,0E0,0E0,0E0,0E0],"parents":[2147483647,0,0,1,1,2,2],"right_children":[2,4,6,-1,-1,-1,-1],"split_conditions":[1.45E1,2.25E1,5.445E-1,1.9606585E-3,5.497999E-3,7.9829217E-4,-2.480244E-3],"split_indices":[51,80,55,0,0,0,0],"split_type":[0,0,0,0,0,0,0],"sum_hessian":[5.7338887E3,2.7718352E3,2.9620535E3,2.2463542E3,5.254811E2,1.6719071E3,1.2901465E3],"tree_param":{"num_deleted":"0","num_feature":"106","num_nodes":"7","size_leaf_vector":"0"}},{"base_weights":[-9.384736E-2,6.711507E-2,-2.5608462E-1,1.873845E-1,-1.4343634E-1,-1.1174362E-1,-3.9492473E-1],"categories":[],"categories_nodes":[],"categories_segments":[],"categories_sizes":[],"default_left":[1,1,1,0,0,0,0],"id":74,"left_children":[1,3,5,-1,-1,-1,-1],"loss_changes":[1.4971469E2,7.291423E1,5.717343E1,0E0,0E0,0E0,0E0],"parents":[2147483647,0,0,1,1,2,2],"right_children":[2,4,6,-1,-1,-1,-1],"split_conditions":[2.5E-1,1.85E1,1.25E1,1.873845E-3,-1.4343634E-3,-1.1174362E-3,-3.9492473E-3],"split_indices":[25,81,79,0,0,0,0],"split_type":[0,0,0,0,0,0,0],"sum_hessian":[5.7314395E3,2.8773179E3,2.8541218E3,1.8313431E3,1.0459746E3,1.4002249E3,1.4538971E3],"tree_param":{"num_deleted":"0","num_feature":"106","num_nodes":"7","size_leaf_vector":"0"}},{"base_weights":[9.3847334E-2,-6.711507E-2,2.5608456E-1,-1.8738452E-1,1.4343639E-1,1.11743525E-1,3.9492476E-1],"categories":[],"categories_nodes":[],"categories_segments":[],"categories_sizes":[],"default_left":[1,1,1,0,0,0,0],"id":75,"left_children":[1,3,5,-1,-1,-1,-1],"loss_changes":[1.4971466E2,7.291426E1,5.7173477E1,0E0,0E0,0E0,0E0],"parents":[2147483647,0,0,1,1,2,2],"right_children":[2,4,6,-1,-1,-1,-1],"split_conditions":[2.5E-1,1.85E1,1.25E1,-1.8738451E-3,1.4343639E-3,1.1174352E-3,3.9492473E-3],"split_indices":[25,81,79,0,0,0,0],"split_type":[0,0,0,0,0,0,0],"sum_hessian":[5.73144E3,2.8773179E3,2.854122E3,1.8313431E3,1.0459746E3,1.4002249E3,1.4538971E3],"tree_param":{"num_deleted":"0","num_feature":"106","num_nodes":"7","size_leaf_vector":"0"}},{"base_weights":[-9.295038E-2,-2.0211154E-1,1.4313734E-1,-6.0268458E-2,-3.6248818E-1,2.246924E-1,-1.10932715E-1],"categories":[],"categories_nodes":[],"categories_segments":[],"categories_sizes":[],"default_left":[1,1,1,0,0,0,0],"id":76,"left_children":[1,3,5,-1,-1,-1,-1],"loss_changes":[1.4769937E2,8.912132E1,3.757688E1,0E0,0E0,0E0,0E0],"parents":[2147483647,0,0,1,1,2,2],"right_children":[2,4,6,-1,-1,-1,-1],"split_conditions":[2.05E1,1.35E1,2.25E1,-6.0268457E-4,-3.6248816E-3,2.246924E-3,-1.1093271E-3],"split_indices":[51,80,103,0,0,0,0],"split_type":[0,0,0,0,0,0,0],"sum_hessian":[5.7289644E3,3.9176726E3,1.8112917E3,2.0796914E3,1.8379812E3,1.3712454E3,4.4004642E2],"tree_param":{"num_deleted":"0","num_feature":"106","num_nodes":"7","size_leaf_vector":"0"}},{"base_weights":[9.2950374E-2,2.0211154E-1,-1.4313735E-1,6.0268424E-2,3.6248818E-1,-2.2469242E-1,1.10932715E-1],"categories":[],"categories_nodes":[],"categories_segments":[],"categories_sizes":[],"default_left":[1,1,1,0,0,0,0],"id":77,"left_children":[1,3,5,-1,-1,-1,-1],"loss_changes":[1.4769936E2,8.912137E1,3.7576878E1,0E0,0E0,0E0,0E0],"parents":[2147483647,0,0,1,1,2,2],"right_children":[2,4,6,-1,-1,-1,-1],"split_conditions":[2.05E1,1.35E1,2.25E1,6.026842E-4,3.6248816E-3,-2.2469242E-3,1.1093271E-3],"split_indices":[51,80,103,0,0,0,0],"split_type":[0,0,0,0,0,0,0],"sum_hessian":[5.7289644E3,3.9176726E3,1.8112917E3,2.0796914E3,1.8379812E3,1.3712454E3,4.4004642E2],"tree_param":{"num_deleted":"0","num_feature":"106","num_nodes":"7","size_leaf_vector":"0"}},{"base_weights":[-9.205652E-2,-2.5668442E-1,6.1826352E-2,-3.271606E-1,8.740102E-3,-7.792203E-2,2.4297221E-1],"categories":[],"categories_nodes":[],"categories_segments":[],"categories_sizes":[],"default_left":[1,1,1,0,0,0,0],"id":78,"left_children":[1,3,5,-1,-1,-1,-1],"loss_changes":[1.4512082E2,5.1771698E1,7.498439E1,0E0,0E0,0E0,0E0],"parents":[2147483647,0,0,1,1,2,2],"right_children":[2,4,6,-1,-1,-1,-1],"split_conditions":[1.45E1,4.8500004E0,5.445E-1,-3.2716058E-3,8.7401015E-5,-7.792203E-4,2.429722E-3],"split_indices":[51,77,55,0,0,0,0],"split_type":[0,0,0,0,0,0,0],"sum_hessian":[5.7268086E3,2.766484E3,2.9603247E3,2.1858572E3,5.806267E2,1.6714347E3,1.28889E3],"tree_param":{"num_deleted":"0","num_feature":"106","num_nodes":"7","size_leaf_vector":"0"}},{"base_weights":[9.205652E-2,2.5668442E-1,-6.182635E-2,3.271606E-1,-8.740103E-3,7.792204E-2,-2.4297221E-1],"categories":[],"categories_nodes":[],"categories_segments":[],"categories_sizes":[],"default_left":[1,1,1,0,0,0,0],"id":79,"left_children":[1,3,5,-1,-1,-1,-1],"loss_changes":[1.4512082E2,5.1771683E1,7.49844E1,0E0,0E0,0E0,0E0],"parents":[2147483647,0,0,1,1,2,2],"right_children":[2,4,6,-1,-1,-1,-1],"split_conditions":[1.45E1,4.8500004E0,5.445E-1,3.2716058E-3,-8.740103E-5,7.7922037E-4,-2.429722E-3],"split_indices":[51,77,55,0,0,0,0],"split_type":[0,0,0,0,0,0,0],"sum_hessian":[5.7268086E3,2.766484E3,2.9603247E3,2.1858572E3,5.806267E2,1.6714347E3,1.2888899E3],"tree_param":{"num_deleted":"0","num_feature":"106","num_nodes":"7","size_leaf_vector":"0"}},{"base_weights":[-9.1177896E-2,-1.9866413E-1,1.411554E-1,-5.8828086E-2,-3.56976E-1,7.8749746E-2,4.6458673E-1],"categories":[],"categories_nodes":[],"categories_segments":[],"categories_sizes":[],"default_left":[1,1,1,0,0,0,0],"id":80,"left_children":[1,3,5,-1,-1,-1,-1],"loss_changes":[1.4300183E2,8.6642044E1,3.6526505E1,0E0,0E0,0E0,0E0],"parents":[2147483647,0,0,1,1,2,2],"right_children":[2,4,6,-1,-1,-1,-1],"split_conditions":[2.05E1,1.35E1,3.65E1,-5.8828085E-4,-3.56976E-3,7.8749744E-4,4.6458673E-3],"split_indices":[51,80,53,0,0,0,0],"split_type":[0,0,0,0,0,0,0],"sum_hessian":[5.7242188E3,3.9137253E3,1.8104935E3,2.078855E3,1.8348702E3,1.5187048E3,2.917887E2],"tree_param":{"num_deleted":"0","num_feature":"106","num_nodes":"7","size_leaf_vector":"0"}},{"base_weights":[9.1177896E-2,1.9866414E-1,-1.4115542E-1,5.8828082E-2,3.56976E-1,-7.874976E-2,-4.6458673E-1],"categories":[],"categories_nodes":[],"categories_segments":[],"categories_sizes":[],"default_left":[1,1,1,0,0,0,0],"id":81,"left_children":[1,3,5,-1,-1,-1,-1],"loss_changes":[1.4300185E2,8.6642044E1,3.6526497E1,0E0,0E0,0E0,0E0],"parents":[2147483647,0,0,1,1,2,2],"right_children":[2,4,6,-1,-1,-1,-1],"split_conditions":[2.05E1,1.35E1,3.65E1,5.882808E-4,3.56976E-3,-7.874976E-4,-4.6458673E-3],"split_indices":[51,80,53,0,0,0,0],"split_type":[0,0,0,0,0,0,0],"sum_hessian":[5.7242188E3,3.9137253E3,1.8104935E3,2.078855E3,1.8348704E3,1.5187048E3,2.917887E2],"tree_param":{"num_deleted":"0","num_feature":"106","num_nodes":"7","size_leaf_vector":"0"}},{"base_weights":[-9.029987E-2,6.569702E-2,-2.4780586E-1,-1.586724E-1,1.7275557E-1,-1.0772404E-1,-3.8303214E-1],"categories":[],"categories_nodes":[],"categories_segments":[],"categories_sizes":[],"default_left":[1,1,1,0,0,0,0],"id":82,"left_children":[1,3,5,-1,-1,-1,-1],"loss_changes":[1.4063521E2,6.911352E1,5.390732E1,0E0,0E0,0E0,0E0],"parents":[2147483647,0,0,1,1,2,2],"right_children":[2,4,6,-1,-1,-1,-1],"split_conditions":[2.5E-1,-1.95E0,1.25E1,-1.5867241E-3,1.7275556E-3,-1.0772403E-3,-3.8303214E-3],"split_indices":[25,77,79,0,0,0,0],"split_type":[0,0,0,0,0,0,0],"sum_hessian":[5.7220923E3,2.8751113E3,2.846981E3,9.2856866E2,1.9465427E3,1.3992672E3,1.4477137E3],"tree_param":{"num_deleted":"0","num_feature":"106","num_nodes":"7","size_leaf_vector":"0"}},{"base_weights":[9.0299875E-2,-6.569701E-2,2.4780588E-1,1.5867244E-1,-1.7275555E-1,1.0772401E-1,3.830322E-1],"categories":[],"categories_nodes":[],"categories_segments":[],"categories_sizes":[],"default_left":[1,1,1,0,0,0,0],"id":83,"left_children":[1,3,5,-1,-1,-1,-1],"loss_changes":[1.4063521E2,6.9113525E1,5.390735E1,0E0,0E0,0E0,0E0],"parents":[2147483647,0,0,1,1,2,2],"right_children":[2,4,6,-1,-1,-1,-1],"split_conditions":[2.5E-1,-1.95E0,1.25E1,1.5867243E-3,-1.7275555E-3,1.0772401E-3,3.8303218E-3],"split_indices":[25,77,79,0,0,0,0],"split_type":[0,0,0,0,0,0,0],"sum_hessian":[5.7220923E3,2.8751113E3,2.846981E3,9.285686E2,1.9465427E3,1.3992672E3,1.4477137E3],"tree_param":{"num_deleted":"0","num_feature":"106","num_nodes":"7","size_leaf_vector":"0"}},{"base_weights":[-8.94383E-2,-1.9524355E-1,1.3911435E-1,-5.7660684E-2,-3.512565E-1,7.749367E-2,4.5880035E-1],"categories":[],"categories_nodes":[],"categories_segments":[],"categories_sizes":[],"default_left":[1,1,1,0,0,0,0],"id":84,"left_children":[1,3,5,-1,-1,-1,-1],"loss_changes":[1.3836151E2,8.39223E1,3.5636024E1,0E0,0E0,0E0,0E0],"parents":[2147483647,0,0,1,1,2,2],"right_children":[2,4,6,-1,-1,-1,-1],"split_conditions":[2.05E1,1.35E1,3.65E1,-5.7660684E-4,-3.5125648E-3,7.7493663E-4,4.5880033E-3],"split_indices":[51,80,53,0,0,0,0],"split_type":[0,0,0,0,0,0,0],"sum_hessian":[5.7195327E3,3.9097256E3,1.8098071E3,2.0783044E3,1.8314214E3,1.5183767E3,2.9143042E2],"tree_param":{"num_deleted":"0","num_feature":"106","num_nodes":"7","size_leaf_vector":"0"}},{"base_weights":[8.9438275E-2,1.9524352E-1,-1.3911438E-1,5.766061E-2,3.5125652E-1,-7.749371E-2,-4.5880032E-1],"categories":[],"categories_nodes":[],"categories_segments":[],"categories_sizes":[],"default_left":[1,1,1,0,0,0,0],"id":85,"left_children":[1,3,5,-1,-1,-1,-1],"loss_changes":[1.3836148E2,8.392238E1,3.5636E1,0E0,0E0,0E0,0E0],"parents":[2147483647,0,0,1,1,2,2],"right_children":[2,4,6,-1,-1,-1,-1],"split_conditions":[2.05E1,1.35E1,3.65E1,5.766061E-4,3.512565E-3,-7.749371E-4,-4.5880033E-3],"split_indices":[51,80,53,0,0,0,0],"split_type":[0,0,0,0,0,0,0],"sum_hessian":[5.7195327E3,3.9097258E3,1.8098071E3,2.0783044E3,1.8314214E3,1.5183767E3,2.9143042E2],"tree_param":{"num_deleted":"0","num_feature":"106","num_nodes":"7","size_leaf_vector":"0"}},{"base_weights":[-8.857803E-2,-2.4848478E-1,6.060671E-2,-1.8333538E-1,-5.278433E-1,1.7749849E-1,-1.4567304E-1],"categories":[],"categories_nodes":[],"categories_segments":[],"categories_sizes":[],"default_left":[1,1,1,0,0,0,0],"id":86,"left_children":[1,3,5,-1,-1,-1,-1],"loss_changes":[1.3642981E2,5.0138718E1,7.137823E1,0E0,0E0,0E0,0E0],"parents":[2147483647,0,0,1,1,2,2],"right_children":[2,4,6,-1,-1,-1,-1],"split_conditions":[1.45E1,2.25E1,1.85E1,-1.8333538E-3,-5.2784327E-3,1.7749849E-3,-1.4567303E-3],"split_indices":[51,80,81,0,0,0,0],"split_type":[0,0,0,0,0,0,0],"sum_hessian":[5.717342E3,2.7591858E3,2.9581558E3,2.2387432E3,5.204426E2,1.888274E3,1.0698817E3],"tree_param":{"num_deleted":"0","num_feature":"106","num_nodes":"7","size_leaf_vector":"0"}},{"base_weights":[8.8578045E-2,2.4848479E-1,-6.06067E-2,1.833354E-1,5.2784324E-1,-1.7749847E-1,1.4567304E-1],"categories":[],"categories_nodes":[],"categories_segments":[],"categories_sizes":[],"default_left":[1,1,1,0,0,0,0],"id":87,"left_children":[1,3,5,-1,-1,-1,-1],"loss_changes":[1.364298E2,5.0138718E1,7.1378204E1,0E0,0E0,0E0,0E0],"parents":[2147483647,0,0,1,1,2,2],"right_children":[2,4,6,-1,-1,-1,-1],"split_conditions":[1.45E1,2.25E1,1.85E1,1.8333539E-3,5.2784323E-3,-1.7749848E-3,1.4567303E-3],"split_indices":[51,80,81,0,0,0,0],"split_type":[0,0,0,0,0,0,0],"sum_hessian":[5.717342E3,2.7591858E3,2.9581558E3,2.2387432E3,5.204426E2,1.8882742E3,1.0698817E3],"tree_param":{"num_deleted":"0","num_feature":"106","num_nodes":"7","size_leaf_vector":"0"}},{"base_weights":[-8.773386E-2,-1.9192229E-1,1.3718303E-1,-5.628884E-2,-3.4595877E-1,2.1593164E-1,-1.0784715E-1],"categories":[],"categories_nodes":[],"categories_segments":[],"categories_sizes":[],"default_left":[1,1,1,0,0,0,0],"id":88,"left_children":[1,3,5,-1,-1,-1,-1],"loss_changes":[1.339676E2,8.1600525E1,3.4950172E1,0E0,0E0,0E0,0E0],"parents":[2147483647,0,0,1,1,2,2],"right_children":[2,4,6,-1,-1,-1,-1],"split_conditions":[2.05E1,1.35E1,2.25E1,-5.628884E-4,-3.4595877E-3,2.1593163E-3,-1.0784714E-3],"split_indices":[51,80,103,0,0,0,0],"split_type":[0,0,0,0,0,0,0],"sum_hessian":[5.7147446E3,3.905666E3,1.8090784E3,2.0776245E3,1.8280416E3,1.3691691E3,4.399093E2],"tree_param":{"num_deleted":"0","num_feature":"106","num_nodes":"7","size_leaf_vector":"0"}},{"base_weights":[8.773387E-2,1.9192232E-1,-1.3718304E-1,5.628888E-2,3.459588E-1,-2.1593164E-1,1.0784713E-1],"categories":[],"categories_nodes":[],"categories_segments":[],"categories_sizes":[],"default_left":[1,1,1,0,0,0,0],"id":89,"left_children":[1,3,5,-1,-1,-1,-1],"loss_changes":[1.3396762E2,8.1600555E1,3.495017E1,0E0,0E0,0E0,0E0],"parents":[2147483647,0,0,1,1,2,2],"right_children":[2,4,6,-1,-1,-1,-1],"split_conditions":[2.05E1,1.35E1,2.25E1,5.628888E-4,3.459588E-3,-2.1593163E-3,1.0784713E-3],"split_indices":[51,80,103,0,0,0,0],"split_type":[0,0,0,0,0,0,0],"sum_hessian":[5.7147446E3,3.9056663E3,1.8090784E3,2.0776245E3,1.8280415E3,1.3691691E3,4.3990927E2],"tree_param":{"num_deleted":"0","num_feature":"106","num_nodes":"7","size_leaf_vector":"0"}},{"base_weights":[-8.689309E-2,-2.4443616E-1,5.9950113E-2,-1.8012455E-1,-5.20901E-1,-6.262725E-2,2.5245348E-1],"categories":[],"categories_nodes":[],"categories_segments":[],"categories_sizes":[],"default_left":[1,1,1,0,0,0,0],"id":90,"left_children":[1,3,5,-1,-1,-1,-1],"loss_changes":[1.321893E2,4.8916107E1,6.981265E1,0E0,0E0,0E0,0E0],"parents":[2147483647,0,0,1,1,2,2],"right_children":[2,4,6,-1,-1,-1,-1],"split_conditions":[1.45E1,2.25E1,5.675E-1,-1.8012455E-3,-5.20901E-3,-6.2627246E-4,2.5245347E-3],"split_indices":[51,80,55,0,0,0,0],"split_type":[0,0,0,0,0,0,0],"sum_hessian":[5.712406E3,2.7554802E3,2.9569253E3,2.2368037E3,5.1867664E2,1.8069907E3,1.1499346E3],"tree_param":{"num_deleted":"0","num_feature":"106","num_nodes":"7","size_leaf_vector":"0"}},{"base_weights":[8.689308E-2,2.4443614E-1,-5.995011E-2,1.8012455E-1,5.209009E-1,6.262729E-2,-2.5245354E-1],"categories":[],"categories_nodes":[],"categories_segments":[],"categories_sizes":[],"default_left":[1,1,1,0,0,0,0],"id":91,"left_children":[1,3,5,-1,-1,-1,-1],"loss_changes":[1.321893E2,4.8916077E1,6.9812706E1,0E0,0E0,0E0,0E0],"parents":[2147483647,0,0,1,1,2,2],"right_children":[2,4,6,-1,-1,-1,-1],"split_conditions":[1.45E1,2.25E1,5.675E-1,1.8012455E-3,5.209009E-3,6.2627293E-4,-2.5245354E-3],"split_indices":[51,80,55,0,0,0,0],"split_type":[0,0,0,0,0,0,0],"sum_hessian":[5.712406E3,2.7554802E3,2.9569255E3,2.2368037E3,5.186766E2,1.8069907E3,1.1499347E3],"tree_param":{"num_deleted":"0","num_feature":"106","num_nodes":"7","size_leaf_vector":"0"}},{"base_weights":[-8.606536E-2,6.377665E-2,-2.3770367E-1,5.369223E-1,1.4892702E-2,-3.2233205E-1,-2.601996E-2],"categories":[],"categories_nodes":[],"categories_segments":[],"categories_sizes":[],"default_left":[1,1,1,0,0,0,0],"id":92,"left_children":[1,3,5,-1,-1,-1,-1],"loss_changes":[1.2977394E2,6.644651E1,5.08432E1,0E0,0E0,0E0,0E0],"parents":[2147483647,0,0,1,1,2,2],"right_children":[2,4,6,-1,-1,-1,-1],"split_conditions":[2.5E-1,2.5E0,3.75E0,5.3692227E-3,1.4892702E-4,-3.2233205E-3,-2.601996E-4],"split_indices":[25,85,77,0,0,0,0],"split_type":[0,0,0,0,0,0,0],"sum_hessian":[5.709764E3,2.8721836E3,2.8375806E3,2.6802243E2,2.6041614E3,2.0267784E3,8.1080225E2],"tree_param":{"num_deleted":"0","num_feature":"106","num_nodes":"7","size_leaf_vector":"0"}},{"base_weights":[8.606536E-2,-6.377666E-2,2.3770368E-1,-5.369223E-1,-1.489271E-2,3.2233205E-1,2.6019944E-2],"categories":[],"categories_nodes":[],"categories_segments":[],"categories_sizes":[],"default_left":[1,1,1,0,0,0,0],"id":93,"left_children":[1,3,5,-1,-1,-1,-1],"loss_changes":[1.2977397E2,6.644652E1,5.0843216E1,0E0,0E0,0E0,0E0],"parents":[2147483647,0,0,1,1,2,2],"right_children":[2,4,6,-1,-1,-1,-1],"split_conditions":[2.5E-1,2.5E0,3.75E0,-5.3692227E-3,-1.489271E-4,3.2233205E-3,2.6019942E-4],"split_indices":[25,85,77,0,0,0,0],"split_type":[0,0,0,0,0,0,0],"sum_hessian":[5.709764E3,2.8721838E3,2.8375806E3,2.6802243E2,2.6041614E3,2.0267784E3,8.1080225E2],"tree_param":{"num_deleted":"0","num_feature":"106","num_nodes":"7","size_leaf_vector":"0"}},{"base_weights":[-8.524005E-2,-1.8721169E-1,1.3466479E-1,-9.2005864E-2,-4.0078822E-1,7.445638E-2,4.4766214E-1],"categories":[],"categories_nodes":[],"categories_segments":[],"categories_sizes":[],"default_left":[1,1,1,0,0,0,0],"id":94,"left_children":[1,3,5,-1,-1,-1,-1],"loss_changes":[1.2803076E2,7.927234E1,3.4057858E1,0E0,0E0,0E0,0E0],"parents":[2147483647,0,0,1,1,2,2],"right_children":[2,4,6,-1,-1,-1,-1],"split_conditions":[2.05E1,1.85E1,3.65E1,-9.2005864E-4,-4.007882E-3,7.4456376E-4,4.4766213E-3],"split_indices":[51,80,53,0,0,0,0],"split_type":[0,0,0,0,0,0,0],"sum_hessian":[5.707402E3,3.8993774E3,1.808024E3,2.6980852E3,1.2012925E3,1.5173779E3,2.9064615E2],"tree_param":{"num_deleted":"0","num_feature":"106","num_nodes":"7","size_leaf_vector":"0"}},{"base_weights":[8.5240036E-2,1.8721169E-1,-1.3466483E-1,9.2005834E-2,4.0078825E-1,-7.4456416E-2,-4.4766214E-1],"categories":[],"categories_nodes":[],"categories_segments":[],"categories_sizes":[],"default_left":[1,1,1,0,0,0,0],"id":95,"left_children":[1,3,5,-1,-1,-1,-1],"loss_changes":[1.2803076E2,7.9272415E1,3.4057858E1,0E0,0E0,0E0,0E0],"parents":[2147483647,0,0,1,1,2,2],"right_children":[2,4,6,-1,-1,-1,-1],"split_conditions":[2.05E1,1.85E1,3.65E1,9.2005834E-4,4.0078824E-3,-7.4456417E-4,-4.4766213E-3],"split_indices":[51,80,53,0,0,0,0],"split_type":[0,0,0,0,0,0,0],"sum_hessian":[5.707402E3,3.8993777E3,1.808024E3,2.6980852E3,1.2012925E3,1.5173779E3,2.9064615E2],"tree_param":{"num_deleted":"0","num_feature":"106","num_nodes":"7","size_leaf_vector":"0"}},{"base_weights":[-8.4420696E-2,4.6195015E-2,-2.5367168E-1,-1.66967E-1,1.574635E-1,-3.236665E-1,7.5161722E-3],"categories":[],"categories_nodes":[],"categories_segments":[],"categories_sizes":[],"default_left":[1,1,1,0,0,0,0],"id":96,"left_children":[1,3,5,-1,-1,-1,-1],"loss_changes":[1.2615756E2,7.6435455E1,4.5444687E1,0E0,0E0,0E0,0E0],"parents":[2147483647,0,0,1,1,2,2],"right_children":[2,4,6,-1,-1,-1,-1],"split_conditions":[9.5E-1,-1.55E0,4.8500004E0,-1.66967E-3,1.574635E-3,-3.2366652E-3,7.516172E-5],"split_indices":[25,77,77,0,0,0,0],"split_type":[0,0,0,0,0,0,0],"sum_hessian":[5.7051924E3,3.2205393E3,2.4846533E3,1.1043624E3,2.116177E3,1.9593376E3,5.253155E2],"tree_param":{"num_deleted":"0","num_feature":"106","num_nodes":"7","size_leaf_vector":"0"}},{"base_weights":[8.442071E-2,-4.6194997E-2,2.5367168E-1,1.6696703E-1,-1.5746349E-1,3.236665E-1,-7.5160856E-3],"categories":[],"categories_nodes":[],"categories_segments":[],"categories_sizes":[],"default_left":[1,1,1,0,0,0,0],"id":97,"left_children":[1,3,5,-1,-1,-1,-1],"loss_changes":[1.2615758E2,7.643546E1,4.544464E1,0E0,0E0,0E0,0E0],"parents":[2147483647,0,0,1,1,2,2],"right_children":[2,4,6,-1,-1,-1,-1],"split_conditions":[9.5E-1,-1.55E0,4.8500004E0,1.6696703E-3,-1.5746349E-3,3.2366652E-3,-7.516085E-5],"split_indices":[25,77,77,0,0,0,0],"split_type":[0,0,0,0,0,0,0],"sum_hessian":[5.7051924E3,3.2205393E3,2.4846533E3,1.1043624E3,2.116177E3,1.9593378E3,5.253155E2],"tree_param":{"num_deleted":"0","num_feature":"106","num_nodes":"7","size_leaf_vector":"0"}},{"base_weights":[-8.361589E-2,-1.840801E-1,1.329021E-1,-9.012937E-2,-3.951964E-1,7.346267E-2,4.422584E-1],"categories":[],"categories_nodes":[],"categories_segments":[],"categories_sizes":[],"default_left":[1,1,1,0,0,0,0],"id":98,"left_children":[1,3,5,-1,-1,-1,-1],"loss_changes":[1.24090515E2,7.7245865E1,3.3217922E1,0E0,0E0,0E0,0E0],"parents":[2147483647,0,0,1,1,2,2],"right_children":[2,4,6,-1,-1,-1,-1],"split_conditions":[2.05E1,1.85E1,3.65E1,-9.0129365E-4,-3.951964E-3,7.346267E-4,4.4225836E-3],"split_indices":[51,80,53,0,0,0,0],"split_type":[0,0,0,0,0,0,0],"sum_hessian":[5.702581E3,3.8953096E3,1.8072714E3,2.6966685E3,1.1986412E3,1.5170284E3,2.9024292E2],"tree_param":{"num_deleted":"0","num_feature":"106","num_nodes":"7","size_leaf_vector":"0"}},{"base_weights":[8.361591E-2,1.840801E-1,-1.3290207E-1,9.0129346E-2,3.9519647E-1,-7.346264E-2,-4.4225836E-1],"categories":[],"categories_nodes":[],"categories_segments":[],"categories_sizes":[],"default_left":[1,1,1,0,0,0,0],"id":99,"left_children":[1,3,5,-1,-1,-1,-1],"loss_changes":[1.2409049E2,7.7245895E1,3.3217926E1,0E0,0E0,0E0,0E0],"parents":[2147483647,0,0,1,1,2,2],"right_children":[2,4,6,-1,-1,-1,-1],"split_conditions":[2.05E1,1.85E1,3.65E1,9.012934E-4,3.9519644E-3,-7.3462643E-4,-4.4225836E-3],"split_indices":[51,80,53,0,0,0,0],"split_type":[0,0,0,0,0,0,0],"sum_hessian":[5.702581E3,3.8953096E3,1.8072712E3,2.6966685E3,1.1986412E3,1.5170284E3,2.9024292E2],"tree_param":{"num_deleted":"0","num_feature":"106","num_nodes":"7","size_leaf_vector":"0"}},{"base_weights":[-8.281293E-2,4.583963E-2,-2.4969006E-1,5.182658E-1,-3.7199366E-3,-3.1895685E-1,8.34133E-3],"categories":[],"categories_nodes":[],"categories_segments":[],"categories_sizes":[],"default_left":[1,1,1,0,0,0,0],"id":100,"left_children":[1,3,5,-1,-1,-1,-1],"loss_changes":[1.2241412E2,7.539767E1,4.4365326E1,0E0,0E0,0E0,0E0],"parents":[2147483647,0,0,1,1,2,2],"right_children":[2,4,6,-1,-1,-1,-1],"split_conditions":[9.5E-1,2.5E0,4.8500004E0,5.182658E-3,-3.7199366E-5,-3.1895684E-3,8.34133E-5],"split_indices":[25,85,77,0,0,0,0],"split_type":[0,0,0,0,0,0,0],"sum_hessian":[5.700323E3,3.2192185E3,2.4811047E3,3.047485E2,2.91447E3,1.9558373E3,5.2526746E2],"tree_param":{"num_deleted":"0","num_feature":"106","num_nodes":"7","size_leaf_vector":"0"}},{"base_weights":[8.2812935E-2,-4.5839615E-2,2.4969006E-1,-5.182658E-1,3.7199566E-3,3.1895685E-1,-8.34133E-3],"categories":[],"categories_nodes":[],"categories_segments":[],"categories_sizes":[],"default_left":[1,1,1,0,0,0,0],"id":101,"left_children":[1,3,5,-1,-1,-1,-1],"loss_changes":[1.2241411E2,7.5397675E1,4.4365326E1,0E0,0E0,0E0,0E0],"parents":[2147483647,0,0,1,1,2,2],"right_children":[2,4,6,-1,-1,-1,-1],"split_conditions":[9.5E-1,2.5E0,4.8500004E0,-5.182658E-3,3.7199567E-5,3.1895684E-3,-8.34133E-5],"split_indices":[25,85,77,0,0,0,0],"split_type":[0,0,0,0,0,0,0],"sum_hessian":[5.700323E3,3.2192185E3,2.4811047E3,3.047485E2,2.91447E3,1.9558373E3,5.2526746E2],"tree_param":{"num_deleted":"0","num_feature":"106","num_nodes":"7","size_leaf_vector":"0"}},{"base_weights":[-8.201852E-2,-1.7731474E-1,1.4085647E-1,-3.2974064E-1,-2.7684597E-2,-1.3805504E-1,2.1468483E-1],"categories":[],"categories_nodes":[],"categories_segments":[],"categories_sizes":[],"default_left":[1,1,1,0,0,0,0],"id":102,"left_children":[1,3,5,-1,-1,-1,-1],"loss_changes":[1.2106651E2,9.105007E1,3.5189205E1,0E0,0E0,0E0,0E0],"parents":[2147483647,0,0,1,1,2,2],"right_children":[2,4,6,-1,-1,-1,-1],"split_conditions":[1.95E1,6.5E-1,3.585E-1,-3.2974062E-3,-2.7684597E-4,-1.3805503E-3,2.1468482E-3],"split_indices":[28,77,55,0,0,0,0],"split_type":[0,0,0,0,0,0,0],"sum_hessian":[5.6979834E3,3.9915098E3,1.7064735E3,1.9766864E3,2.0148234E3,3.5698233E2,1.3494912E3],"tree_param":{"num_deleted":"0","num_feature":"106","num_nodes":"7","size_leaf_vector":"0"}},{"base_weights":[8.201855E-2,1.7731479E-1,-1.4085646E-1,3.297407E-1,2.7684622E-2,1.3805506E-1,-2.1468481E-1],"categories":[],"categories_nodes":[],"categories_segments":[],"categories_sizes":[],"default_left":[1,1,1,0,0,0,0],"id":103,"left_children":[1,3,5,-1,-1,-1,-1],"loss_changes":[1.2106654E2,9.105009E1,3.5189213E1,0E0,0E0,0E0,0E0],"parents":[2147483647,0,0,1,1,2,2],"right_children":[2,4,6,-1,-1,-1,-1],"split_conditions":[1.95E1,6.5E-1,3.585E-1,3.297407E-3,2.768462E-4,1.3805506E-3,-2.146848E-3],"split_indices":[28,77,55,0,0,0,0],"split_type":[0,0,0,0,0,0,0],"sum_hessian":[5.6979834E3,3.9915098E3,1.7064735E3,1.9766864E3,2.0148232E3,3.5698233E2,1.3494911E3],"tree_param":{"num_deleted":"0","num_feature":"106","num_nodes":"7","size_leaf_vector":"0"}},{"base_weights":[-8.1232265E-2,4.549977E-2,-2.4580795E-1,5.1311505E-1,-3.507598E-3,-3.1420758E-1,8.525451E-3],"categories":[],"categories_nodes":[],"categories_segments":[],"categories_sizes":[],"default_left":[1,1,1,0,0,0,0],"id":104,"left_children":[1,3,5,-1,-1,-1,-1],"loss_changes":[1.18826744E2,7.377505E1,4.311885E1,0E0,0E0,0E0,0E0],"parents":[2147483647,0,0,1,1,2,2],"right_children":[2,4,6,-1,-1,-1,-1],"split_conditions":[9.5E-1,2.5E0,4.8500004E0,5.1311506E-3,-3.507598E-5,-3.1420758E-3,8.5254505E-5],"split_indices":[25,85,77,0,0,0,0],"split_type":[0,0,0,0,0,0,0],"sum_hessian":[5.6956724E3,3.2182063E3,2.4774663E3,3.0438406E2,2.913822E3,1.9522097E3,5.2525665E2],"tree_param":{"num_deleted":"0","num_feature":"106","num_nodes":"7","size_leaf_vector":"0"}},{"base_weights":[8.1232265E-2,-4.549977E-2,2.4580796E-1,-5.1311505E-1,3.5075955E-3,3.1420758E-1,-8.525452E-3],"categories":[],"categories_nodes":[],"categories_segments":[],"categories_sizes":[],"default_left":[1,1,1,0,0,0,0],"id":105,"left_children":[1,3,5,-1,-1,-1,-1],"loss_changes":[1.18826744E2,7.377504E1,4.311885E1,0E0,0E0,0E0,0E0],"parents":[2147483647,0,0,1,1,2,2],"right_children":[2,4,6,-1,-1,-1,-1],"split_conditions":[9.5E-1,2.5E0,4.8500004E0,-5.1311506E-3,3.5075955E-5,3.1420758E-3,-8.525451E-5],"split_indices":[25,85,77,0,0,0,0],"split_type":[0,0,0,0,0,0,0],"sum_hessian":[5.6956724E3,3.218206E3,2.4774663E3,3.0438406E2,2.913822E3,1.9522097E3,5.2525665E2],"tree_param":{"num_deleted":"0","num_feature":"106","num_nodes":"7","size_leaf_vector":"0"}},{"base_weights":[-8.0453664E-2,-1.7443775E-1,1.3919291E-1,2.7617243E-1,-2.2395986E-1,-1.3663542E-1,2.1221751E-1],"categories":[],"categories_nodes":[],"categories_segments":[],"categories_sizes":[],"default_left":[1,1,1,0,0,0,0],"id":106,"left_children":[1,3,5,-1,-1,-1,-1],"loss_changes":[1.1757312E2,8.906266E1,3.4410503E1,0E0,0E0,0E0,0E0],"parents":[2147483647,0,0,1,1,2,2],"right_children":[2,4,6,-1,-1,-1,-1],"split_conditions":[1.95E1,2.5E0,3.585E-1,2.7617242E-3,-2.2395987E-3,-1.3663542E-3,2.122175E-3],"split_indices":[28,85,55,0,0,0,0],"split_type":[0,0,0,0,0,0,0],"sum_hessian":[5.69329E3,3.9873552E3,1.7059347E3,3.9436688E2,3.5929883E3,3.5691714E2,1.3490176E3],"tree_param":{"num_deleted":"0","num_feature":"106","num_nodes":"7","size_leaf_vector":"0"}},{"base_weights":[8.045364E-2,1.7443773E-1,-1.3919294E-1,-2.7617243E-1,2.2395983E-1,1.3663535E-1,-2.1221752E-1],"categories":[],"categories_nodes":[],"categories_segments":[],"categories_sizes":[],"default_left":[1,1,1,0,0,0,0],"id":107,"left_children":[1,3,5,-1,-1,-1,-1],"loss_changes":[1.1757311E2,8.9062675E1,3.4410496E1,0E0,0E0,0E0,0E0],"parents":[2147483647,0,0,1,1,2,2],"right_children":[2,4,6,-1,-1,-1,-1],"split_conditions":[1.95E1,2.5E0,3.585E-1,-2.7617242E-3,2.2395982E-3,1.3663535E-3,-2.1221752E-3],"split_indices":[28,85,55,0,0,0,0],"split_type":[0,0,0,0,0,0,0],"sum_hessian":[5.69329E3,3.9873552E3,1.7059347E3,3.9436688E2,3.5929883E3,3.5691714E2,1.3490176E3],"tree_param":{"num_deleted":"0","num_feature":"106","num_nodes":"7","size_leaf_vector":"0"}},{"base_weights":[-7.967821E-2,1.711615E-2,-2.8999156E-1,-2.0211548E-1,1.1885E-1,-3.5840365E-1,-3.8420167E-2],"categories":[],"categories_nodes":[],"categories_segments":[],"categories_sizes":[],"default_left":[1,1,1,0,0,0,0],"id":108,"left_children":[1,3,5,-1,-1,-1,-1],"loss_changes":[1.158822E2,8.698636E1,3.0864166E1,0E0,0E0,0E0,0E0],"parents":[2147483647,0,0,1,1,2,2],"right_children":[2,4,6,-1,-1,-1,-1],"split_conditions":[2.75E0,-1.95E0,4.8500004E0,-2.0211546E-3,1.1885E-3,-3.5840364E-3,-3.8420167E-4],"split_indices":[25,77,77,0,0,0,0],"split_type":[0,0,0,0,0,0,0],"sum_hessian":[5.6912144E3,3.8980837E3,1.7931307E3,1.2352316E3,2.662852E3,1.4094276E3,3.8370312E2],"tree_param":{"num_deleted":"0","num_feature":"106","num_nodes":"7","size_leaf_vector":"0"}},{"base_weights":[7.967821E-2,-1.7116148E-2,2.8999156E-1,2.0211548E-1,-1.1884999E-1,3.5840365E-1,3.842014E-2],"categories":[],"categories_nodes":[],"categories_segments":[],"categories_sizes":[],"default_left":[1,1,1,0,0,0,0],"id":109,"left_children":[1,3,5,-1,-1,-1,-1],"loss_changes":[1.1588222E2,8.698636E1,3.0864151E1,0E0,0E0,0E0,0E0],"parents":[2147483647,0,0,1,1,2,2],"right_children":[2,4,6,-1,-1,-1,-1],"split_conditions":[2.75E0,-1.95E0,4.8500004E0,2.0211546E-3,-1.1884999E-3,3.5840364E-3,3.842014E-4],"split_indices":[25,77,77,0,0,0,0],"split_type":[0,0,0,0,0,0,0],"sum_hessian":[5.6912144E3,3.8980837E3,1.7931306E3,1.2352316E3,2.662852E3,1.4094275E3,3.8370312E2],"tree_param":{"num_deleted":"0","num_feature":"106","num_nodes":"7","size_leaf_vector":"0"}},{"base_weights":[-7.8916416E-2,-1.7562677E-1,1.2909186E-1,-8.404582E-2,-3.8222256E-1,7.1157075E-2,4.3136555E-1],"categories":[],"categories_nodes":[],"categories_segments":[],"categories_sizes":[],"default_left":[1,1,1,0,0,0,0],"id":110,"left_children":[1,3,5,-1,-1,-1,-1],"loss_changes":[1.1448178E2,7.346196E1,3.1602942E1,0E0,0E0,0E0,0E0],"parents":[2147483647,0,0,1,1,2,2],"right_children":[2,4,6,-1,-1,-1,-1],"split_conditions":[2.05E1,1.85E1,3.65E1,-8.404582E-4,-3.8222256E-3,7.115707E-4,4.313655E-3],"split_indices":[51,80,53,0,0,0,0],"split_type":[0,0,0,0,0,0,0],"sum_hessian":[5.688797E3,3.883416E3,1.805381E3,2.6916519E3,1.1917639E3,1.516046E3,2.89335E2],"tree_param":{"num_deleted":"0","num_feature":"106","num_nodes":"7","size_leaf_vector":"0"}},{"base_weights":[7.89164E-2,1.7562677E-1,-1.2909187E-1,8.404581E-2,3.8222253E-1,-7.115709E-2,-4.313656E-1],"categories":[],"categories_nodes":[],"categories_segments":[],"categories_sizes":[],"default_left":[1,1,1,0,0,0,0],"id":111,"left_children":[1,3,5,-1,-1,-1,-1],"loss_changes":[1.144818E2,7.346197E1,3.1602945E1,0E0,0E0,0E0,0E0],"parents":[2147483647,0,0,1,1,2,2],"right_children":[2,4,6,-1,-1,-1,-1],"split_conditions":[2.05E1,1.85E1,3.65E1,8.404581E-4,3.8222251E-3,-7.115709E-4,-4.313656E-3],"split_indices":[51,80,53,0,0,0,0],"split_type":[0,0,0,0,0,0,0],"sum_hessian":[5.688797E3,3.8834158E3,1.8053811E3,2.6916519E3,1.1917639E3,1.516046E3,2.8933502E2],"tree_param":{"num_deleted":"0","num_feature":"106","num_nodes":"7","size_leaf_vector":"0"}},{"base_weights":[-7.816002E-2,-1.703228E-1,1.3705416E-1,-3.1930166E-1,-2.4527017E-2,-1.3337135E-1,2.086612E-1],"categories":[],"categories_nodes":[],"categories_segments":[],"categories_sizes":[],"default_left":[1,1,1,0,0,0,0],"id":112,"left_children":[1,3,5,-1,-1,-1,-1],"loss_changes":[1.12832214E2,8.6495834E1,3.306064E1,0E0,0E0,0E0,0E0],"parents":[2147483647,0,0,1,1,2,2],"right_children":[2,4,6,-1,-1,-1,-1],"split_conditions":[1.95E1,6.5E-1,3.585E-1,-3.1930166E-3,-2.4527017E-4,-1.3337135E-3,2.086612E-3],"split_indices":[28,77,55,0,0,0,0],"split_type":[0,0,0,0,0,0,0],"sum_hessian":[5.686439E3,3.9815837E3,1.7048551E3,1.968706E3,2.0128777E3,3.5674344E2,1.3481116E3],"tree_param":{"num_deleted":"0","num_feature":"106","num_nodes":"7","size_leaf_vector":"0"}},{"base_weights":[7.816001E-2,1.7032279E-1,-1.3705415E-1,3.1930166E-1,2.452699E-2,1.3337128E-1,-2.0866117E-1],"categories":[],"categories_nodes":[],"categories_segments":[],"categories_sizes":[],"default_left":[1,1,1,0,0,0,0],"id":113,"left_children":[1,3,5,-1,-1,-1,-1],"loss_changes":[1.1283218E2,8.649587E1,3.306062E1,0E0,0E0,0E0,0E0],"parents":[2147483647,0,0,1,1,2,2],"right_children":[2,4,6,-1,-1,-1,-1],"split_conditions":[1.95E1,6.5E-1,3.585E-1,3.1930166E-3,2.4526988E-4,1.3337127E-3,-2.0866117E-3],"split_indices":[28,77,55,0,0,0,0],"split_type":[0,0,0,0,0,0,0],"sum_hessian":[5.686439E3,3.9815837E3,1.704855E3,1.968706E3,2.0128777E3,3.5674347E2,1.3481116E3],"tree_param":{"num_deleted":"0","num_feature":"106","num_nodes":"7","size_leaf_vector":"0"}},{"base_weights":[-7.7412166E-2,1.7698137E-2,-2.8437853E-1,-1.9717976E-1,1.17322646E-1,-3.5184377E-1,-3.6960483E-2],"categories":[],"categories_nodes":[],"categories_segments":[],"categories_sizes":[],"default_left":[1,1,1,0,0,0,0],"id":114,"left_children":[1,3,5,-1,-1,-1,-1],"loss_changes":[1.11912766E2,8.342548E1,2.9866196E1,0E0,0E0,0E0,0E0],"parents":[2147483647,0,0,1,1,2,2],"right_children":[2,4,6,-1,-1,-1,-1],"split_conditions":[2.75E0,-1.95E0,4.8500004E0,-1.9717976E-3,1.1732264E-3,-3.5184377E-3,-3.6960482E-4],"split_indices":[25,77,77,0,0,0,0],"split_type":[0,0,0,0,0,0,0],"sum_hessian":[5.6840303E3,3.8950122E3,1.7890178E3,1.2335076E3,2.6615046E3,1.4053806E3,3.8363724E2],"tree_param":{"num_deleted":"0","num_feature":"106","num_nodes":"7","size_leaf_vector":"0"}},{"base_weights":[7.741217E-2,-1.7698118E-2,2.8437853E-1,1.971798E-1,-1.1732263E-1,3.5184377E-1,3.6960453E-2],"categories":[],"categories_nodes":[],"categories_segments":[],"categories_sizes":[],"default_left":[1,1,1,0,0,0,0],"id":115,"left_children":[1,3,5,-1,-1,-1,-1],"loss_changes":[1.1191276E2,8.342548E1,2.986618E1,0E0,0E0,0E0,0E0],"parents":[2147483647,0,0,1,1,2,2],"right_children":[2,4,6,-1,-1,-1,-1],"split_conditions":[2.75E0,-1.95E0,4.8500004E0,1.9717978E-3,-1.1732263E-3,3.5184377E-3,3.6960453E-4],"split_indices":[25,77,77,0,0,0,0],"split_type":[0,0,0,0,0,0,0],"sum_hessian":[5.68403E3,3.8950122E3,1.7890177E3,1.2335076E3,2.6615046E3,1.4053805E3,3.836372E2],"tree_param":{"num_deleted":"0","num_feature":"106","num_nodes":"7","size_leaf_vector":"0"}},{"base_weights":[-7.667279E-2,1.7523885E-2,-2.8182164E-1,-1.9528885E-1,1.1615752E-1,-3.4684032E-1,-2.926739E-2],"categories":[],"categories_nodes":[],"categories_segments":[],"categories_sizes":[],"default_left":[1,1,1,0,0,0,0],"id":116,"left_children":[1,3,5,-1,-1,-1,-1],"loss_changes":[1.0981665E2,8.178779E1,2.9353775E1,0E0,0E0,0E0,0E0],"parents":[2147483647,0,0,1,1,2,2],"right_children":[2,4,6,-1,-1,-1,-1],"split_conditions":[2.75E0,-1.95E0,5.05E0,-1.9528884E-3,1.1615751E-3,-3.4684031E-3,-2.9267388E-4],"split_indices":[25,77,77,0,0,0,0],"split_type":[0,0,0,0,0,0,0],"sum_hessian":[5.6815596E3,3.894339E3,1.7872205E3,1.2330089E3,2.66133E3,1.4210148E3,3.6620575E2],"tree_param":{"num_deleted":"0","num_feature":"106","num_nodes":"7","size_leaf_vector":"0"}},{"base_weights":[7.667279E-2,-1.7523872E-2,2.818216E-1,1.9528885E-1,-1.161575E-1,3.4684032E-1,2.92673E-2],"categories":[],"categories_nodes":[],"categories_segments":[],"categories_sizes":[],"default_left":[1,1,1,0,0,0,0],"id":117,"left_children":[1,3,5,-1,-1,-1,-1],"loss_changes":[1.0981662E2,8.1787766E1,2.935379E1,0E0,0E0,0E0,0E0],"parents":[2147483647,0,0,1,1,2,2],"right_children":[2,4,6,-1,-1,-1,-1],"split_conditions":[2.75E0,-1.95E0,5.05E0,1.9528884E-3,-1.161575E-3,3.4684031E-3,2.9267298E-4],"split_indices":[25,77,77,0,0,0,0],"split_type":[0,0,0,0,0,0,0],"sum_hessian":[5.6815596E3,3.894339E3,1.7872205E3,1.2330089E3,2.6613303E3,1.4210146E3,3.6620578E2],"tree_param":{"num_deleted":"0","num_feature":"106","num_nodes":"7","size_leaf_vector":"0"}},{"base_weights":[-7.5940765E-2,-1.6658285E-1,1.3552548E-1,2.7318713E-1,-2.1503375E-1,-1.2844755E-1,2.0541978E-1],"categories":[],"categories_nodes":[],"categories_segments":[],"categories_sizes":[],"default_left":[1,1,1,0,0,0,0],"id":118,"left_children":[1,3,5,-1,-1,-1,-1],"loss_changes":[1.0889669E2,8.4783165E1,3.1479433E1,0E0,0E0,0E0,0E0],"parents":[2147483647,0,0,1,1,2,2],"right_children":[2,4,6,-1,-1,-1,-1],"split_conditions":[1.95E1,2.5E0,3.585E-1,2.7318713E-3,-2.1503374E-3,-1.2844754E-3,2.0541977E-3],"split_indices":[28,85,55,0,0,0,0],"split_type":[0,0,0,0,0,0,0],"sum_hessian":[5.679071E3,3.9753179E3,1.7037528E3,3.9404913E2,3.5812688E3,3.5650104E2,1.3472517E3],"tree_param":{"num_deleted":"0","num_feature":"106","num_nodes":"7","size_leaf_vector":"0"}},{"base_weights":[7.594075E-2,1.6658284E-1,-1.3552551E-1,-2.7318713E-1,2.1503375E-1,1.2844747E-1,-2.054198E-1],"categories":[],"categories_nodes":[],"categories_segments":[],"categories_sizes":[],"default_left":[1,1,1,0,0,0,0],"id":119,"left_children":[1,3,5,-1,-1,-1,-1],"loss_changes":[1.0889671E2,8.478316E1,3.1479427E1,0E0,0E0,0E0,0E0],"parents":[2147483647,0,0,1,1,2,2],"right_children":[2,4,6,-1,-1,-1,-1],"split_conditions":[1.95E1,2.5E0,3.585E-1,-2.7318713E-3,2.1503374E-3,1.2844747E-3,-2.054198E-3],"split_indices":[28,85,55,0,0,0,0],"split_type":[0,0,0,0,0,0,0],"sum_hessian":[5.679071E3,3.9753179E3,1.7037528E3,3.9404913E2,3.5812688E3,3.5650104E2,1.3472517E3],"tree_param":{"num_deleted":"0","num_feature":"106","num_nodes":"7","size_leaf_vector":"0"}},{"base_weights":[-7.5210236E-2,-1.6892554E-1,1.2605338E-1,-7.9705685E-2,-3.709626E-1,6.9332644E-2,4.2256156E-1],"categories":[],"categories_nodes":[],"categories_segments":[],"categories_sizes":[],"default_left":[1,1,1,0,0,0,0],"id":120,"left_children":[1,3,5,-1,-1,-1,-1],"loss_changes":[1.07114716E2,6.9810036E1,3.0318203E1,0E0,0E0,0E0,0E0],"parents":[2147483647,0,0,1,1,2,2],"right_children":[2,4,6,-1,-1,-1,-1],"split_conditions":[2.05E1,1.85E1,3.65E1,-7.970568E-4,-3.709626E-3,6.933264E-4,4.2256154E-3],"split_indices":[51,80,53,0,0,0,0],"split_type":[0,0,0,0,0,0,0],"sum_hessian":[5.67689E3,3.8734421E3,1.8034481E3,2.6878696E3,1.1855725E3,1.51489E3,2.8855807E2],"tree_param":{"num_deleted":"0","num_feature":"106","num_nodes":"7","size_leaf_vector":"0"}},{"base_weights":[7.521025E-2,1.6892554E-1,-1.2605335E-1,7.970569E-2,3.7096262E-1,-6.9332615E-2,-4.225615E-1],"categories":[],"categories_nodes":[],"categories_segments":[],"categories_sizes":[],"default_left":[1,1,1,0,0,0,0],"id":121,"left_children":[1,3,5,-1,-1,-1,-1],"loss_changes":[1.071147E2,6.9810036E1,3.0318195E1,0E0,0E0,0E0,0E0],"parents":[2147483647,0,0,1,1,2,2],"right_children":[2,4,6,-1,-1,-1,-1],"split_conditions":[2.05E1,1.85E1,3.65E1,7.970569E-4,3.7096262E-3,-6.933261E-4,-4.225615E-3],"split_indices":[51,80,53,0,0,0,0],"split_type":[0,0,0,0,0,0,0],"sum_hessian":[5.67689E3,3.8734421E3,1.8034481E3,2.6878696E3,1.1855725E3,1.51489E3,2.8855807E2],"tree_param":{"num_deleted":"0","num_feature":"106","num_nodes":"7","size_leaf_vector":"0"}},{"base_weights":[-7.449041E-2,1.8031415E-2,-2.7629858E-1,-1.9102038E-1,1.1484847E-1,-3.4240323E-1,-3.4802355E-2],"categories":[],"categories_nodes":[],"categories_segments":[],"categories_sizes":[],"default_left":[1,1,1,0,0,0,0],"id":122,"left_children":[1,3,5,-1,-1,-1,-1],"loss_changes":[1.0597525E2,7.880191E1,2.846991E1,0E0,0E0,0E0,0E0],"parents":[2147483647,0,0,1,1,2,2],"right_children":[2,4,6,-1,-1,-1,-1],"split_conditions":[2.75E0,-1.95E0,4.8500004E0,-1.9102038E-3,1.1484846E-3,-3.4240324E-3,-3.4802355E-4],"split_indices":[25,77,77,0,0,0,0],"split_type":[0,0,0,0,0,0,0],"sum_hessian":[5.67446E3,3.8913335E3,1.7831263E3,1.2314208E3,2.6599128E3,1.3995975E3,3.8352887E2],"tree_param":{"num_deleted":"0","num_feature":"106","num_nodes":"7","size_leaf_vector":"0"}},{"base_weights":[7.449039E-2,-1.8031428E-2,2.7629855E-1,1.9102035E-1,-1.1484848E-1,3.424032E-1,3.4802284E-2],"categories":[],"categories_nodes":[],"categories_segments":[],"categories_sizes":[],"default_left":[1,1,1,0,0,0,0],"id":123,"left_children":[1,3,5,-1,-1,-1,-1],"loss_changes":[1.05975235E2,7.88019E1,2.8469925E1,0E0,0E0,0E0,0E0],"parents":[2147483647,0,0,1,1,2,2],"right_children":[2,4,6,-1,-1,-1,-1],"split_conditions":[2.75E0,-1.95E0,4.8500004E0,1.9102035E-3,-1.1484848E-3,3.424032E-3,3.4802282E-4],"split_indices":[25,77,77,0,0,0,0],"split_type":[0,0,0,0,0,0,0],"sum_hessian":[5.67446E3,3.8913335E3,1.7831263E3,1.2314208E3,2.6599128E3,1.3995975E3,3.8352887E2],"tree_param":{"num_deleted":"0","num_feature":"106","num_nodes":"7","size_leaf_vector":"0"}},{"base_weights":[-7.3779896E-2,-1.6267176E-1,1.3343021E-1,2.7034864E-1,-2.1043473E-1,-1.25376E-1,2.0196968E-1],"categories":[],"categories_nodes":[],"categories_segments":[],"categories_sizes":[],"default_left":[1,1,1,0,0,0,0],"id":124,"left_children":[1,3,5,-1,-1,-1,-1],"loss_changes":[1.04512924E2,8.217244E1,3.0244526E1,0E0,0E0,0E0,0E0],"parents":[2147483647,0,0,1,1,2,2],"right_children":[2,4,6,-1,-1,-1,-1],"split_conditions":[1.95E1,2.5E0,3.585E-1,2.7034862E-3,-2.1043473E-3,-1.25376E-3,2.0196969E-3],"split_indices":[28,85,55,0,0,0,0],"split_type":[0,0,0,0,0,0,0],"sum_hessian":[5.671922E3,3.969322E3,1.7025999E3,3.9386554E2,3.5754565E3,3.5631583E2,1.346284E3],"tree_param":{"num_deleted":"0","num_feature":"106","num_nodes":"7","size_leaf_vector":"0"}},{"base_weights":[7.3779896E-2,1.6267177E-1,-1.3343023E-1,-2.7034867E-1,2.1043473E-1,1.2537594E-1,-2.0196968E-1],"categories":[],"categories_nodes":[],"categories_segments":[],"categories_sizes":[],"default_left":[1,1,1,0,0,0,0],"id":125,"left_children":[1,3,5,-1,-1,-1,-1],"loss_changes":[1.0451294E2,8.217245E1,3.0244518E1,0E0,0E0,0E0,0E0],"parents":[2147483647,0,0,1,1,2,2],"right_children":[2,4,6,-1,-1,-1,-1],"split_conditions":[1.95E1,2.5E0,3.585E-1,-2.7034867E-3,2.1043473E-3,1.2537594E-3,-2.0196969E-3],"split_indices":[28,85,55,0,0,0,0],"split_type":[0,0,0,0,0,0,0],"sum_hessian":[5.671922E3,3.969322E3,1.7026E3,3.9386554E2,3.5754565E3,3.5631586E2,1.346284E3],"tree_param":{"num_deleted":"0","num_feature":"106","num_nodes":"7","size_leaf_vector":"0"}},{"base_weights":[-7.307083E-2,1.8166114E-2,-2.7231663E-1,-1.8814272E-1,1.136684E-1,-3.3770207E-1,-3.391351E-2],"categories":[],"categories_nodes":[],"categories_segments":[],"categories_sizes":[],"default_left":[1,1,1,0,0,0,0],"id":126,"left_children":[1,3,5,-1,-1,-1,-1],"loss_changes":[1.03090065E2,7.6676506E1,2.7753372E1,0E0,0E0,0E0,0E0],"parents":[2147483647,0,0,1,1,2,2],"right_children":[2,4,6,-1,-1,-1,-1],"split_conditions":[2.75E0,-1.95E0,4.8500004E0,-1.8814271E-3,1.136684E-3,-3.3770206E-3,-3.3913512E-4],"split_indices":[25,77,77,0,0,0,0],"split_type":[0,0,0,0,0,0,0],"sum_hessian":[5.6696924E3,3.8895374E3,1.7801552E3,1.2304618E3,2.6590754E3,1.3966794E3,3.8347574E2],"tree_param":{"num_deleted":"0","num_feature":"106","num_nodes":"7","size_leaf_vector":"0"}},{"base_weights":[7.307083E-2,-1.816611E-2,2.7231663E-1,1.8814269E-1,-1.1366838E-1,3.3770207E-1,3.391351E-2],"categories":[],"categories_nodes":[],"categories_segments":[],"categories_sizes":[],"default_left":[1,1,1,0,0,0,0],"id":127,"left_children":[1,3,5,-1,-1,-1,-1],"loss_changes":[1.0309005E2,7.667648E1,2.7753372E1,0E0,0E0,0E0,0E0],"parents":[2147483647,0,0,1,1,2,2],"right_children":[2,4,6,-1,-1,-1,-1],"split_conditions":[2.75E0,-1.95E0,4.8500004E0,1.8814268E-3,-1.1366837E-3,3.3770206E-3,3.3913512E-4],"split_indices":[25,77,77,0,0,0,0],"split_type":[0,0,0,0,0,0,0],"sum_hessian":[5.6696924E3,3.889537E3,1.7801552E3,1.2304618E3,2.6590754E3,1.3966794E3,3.8347574E2],"tree_param":{"num_deleted":"0","num_feature":"106","num_nodes":"7","size_leaf_vector":"0"}},{"base_weights":[-7.23743E-2,-1.6010948E-1,1.3202946E-1,-2.0119499E-1,3.3292466E-1,-1.2241695E-1,1.9941533E-1],"categories":[],"categories_nodes":[],"categories_segments":[],"categories_sizes":[],"default_left":[1,1,1,0,0,0,0],"id":128,"left_children":[1,3,5,-1,-1,-1,-1],"loss_changes":[1.01669876E2,