{"learner":{"attributes":{"best_iteration":"499","best_ntree_limit":"500"},"feature_names":[],"feature_types":[],"gradient_booster":{"model":{"gbtree_model_param":{"num_parallel_tree":"1","num_trees":"1000","size_leaf_vector":"0"},"tree_info":[0,1,0,1,0,1,0,1,0,1,0,1,0,1,0,1,0,1,0,1,0,1,0,1,0,1,0,1,0,1,0,1,0,1,0,1,0,1,0,1,0,1,0,1,0,1,0,1,0,1,0,1,0,1,0,1,0,1,0,1,0,1,0,1,0,1,0,1,0,1,0,1,0,1,0,1,0,1,0,1,0,1,0,1,0,1,0,1,0,1,0,1,0,1,0,1,0,1,0,1,0,1,0,1,0,1,0,1,0,1,0,1,0,1,0,1,0,1,0,1,0,1,0,1,0,1,0,1,0,1,0,1,0,1,0,1,0,1,0,1,0,1,0,1,0,1,0,1,0,1,0,1,0,1,0,1,0,1,0,1,0,1,0,1,0,1,0,1,0,1,0,1,0,1,0,1,0,1,0,1,0,1,0,1,0,1,0,1,0,1,0,1,0,1,0,1,0,1,0,1,0,1,0,1,0,1,0,1,0,1,0,1,0,1,0,1,0,1,0,1,0,1,0,1,0,1,0,1,0,1,0,1,0,1,0,1,0,1,0,1,0,1,0,1,0,1,0,1,0,1,0,1,0,1,0,1,0,1,0,1,0,1,0,1,0,1,0,1,0,1,0,1,0,1,0,1,0,1,0,1,0,1,0,1,0,1,0,1,0,1,0,1,0,1,0,1,0,1,0,1,0,1,0,1,0,1,0,1,0,1,0,1,0,1,0,1,0,1,0,1,0,1,0,1,0,1,0,1,0,1,0,1,0,1,0,1,0,1,0,1,0,1,0,1,0,1,0,1,0,1,0,1,0,1,0,1,0,1,0,1,0,1,0,1,0,1,0,1,0,1,0,1,0,1,0,1,0,1,0,1,0,1,0,1,0,1,0,1,0,1,0,1,0,1,0,1,0,1,0,1,0,1,0,1,0,1,0,1,0,1,0,1,0,1,0,1,0,1,0,1,0,1,0,1,0,1,0,1,0,1,0,1,0,1,0,1,0,1,0,1,0,1,0,1,0,1,0,1,0,1,0,1,0,1,0,1,0,1,0,1,0,1,0,1,0,1,0,1,0,1,0,1,0,1,0,1,0,1,0,1,0,1,0,1,0,1,0,1,0,1,0,1,0,1,0,1,0,1,0,1,0,1,0,1,0,1,0,1,0,1,0,1,0,1,0,1,0,1,0,1,0,1,0,1,0,1,0,1,0,1,0,1,0,1,0,1,0,1,0,1,0,1,0,1,0,1,0,1,0,1,0,1,0,1,0,1,0,1,0,1,0,1,0,1,0,1,0,1,0,1,0,1,0,1,0,1,0,1,0,1,0,1,0,1,0,1,0,1,0,1,0,1,0,1,0,1,0,1,0,1,0,1,0,1,0,1,0,1,0,1,0,1,0,1,0,1,0,1,0,1,0,1,0,1,0,1,0,1,0,1,0,1,0,1,0,1,0,1,0,1,0,1,0,1,0,1,0,1,0,1,0,1,0,1,0,1,0,1,0,1,0,1,0,1,0,1,0,1,0,1,0,1,0,1,0,1,0,1,0,1,0,1,0,1,0,1,0,1,0,1,0,1,0,1,0,1,0,1,0,1,0,1,0,1,0,1,0,1,0,1,0,1,0,1,0,1,0,1,0,1,0,1,0,1,0,1,0,1,0,1,0,1,0,1,0,1,0,1,0,1,0,1,0,1,0,1,0,1,0,1,0,1,0,1,0,1,0,1,0,1,0,1,0,1,0,1,0,1,0,1,0,1,0,1,0,1,0,1,0,1,0,1,0,1,0,1,0,1,0,1,0,1,0,1,0,1,0,1,0,1,0,1,0,1,0,1,0,1,0,1,0,1,0,1,0,1,0,1,0,1,0,1,0,1,0,1,0,1,0,1,0,1,0,1,0,1,0,1,0,1,0,1,0,1,0,1,0,1,0,1,0,1,0,1,0,1,0,1,0,1,0,1,0,1,0,1,0,1,0,1,0,1,0,1,0,1,0,1,0,1,0,1,0,1,0,1,0,1,0,1,0,1,0,1,0,1,0,1,0,1,0,1,0,1,0,1,0,1,0,1,0,1,0,1,0,1,0,1,0,1,0,1,0,1,0,1,0,1,0,1,0,1,0,1,0,1,0,1,0,1,0,1,0,1,0,1,0,1,0,1,0,1,0,1,0,1,0,1,0,1,0,1,0,1,0,1,0,1,0,1,0,1,0,1,0,1,0,1,0,1,0,1,0,1,0,1,0,1,0,1,0,1,0,1,0,1,0,1,0,1],"trees":[{"base_weights":[-1.3046484E-1,-3.619502E-1,9.112426E-2,-1.9073947E-1,-5.406284E-1,2.6551145E-1,-1.7571612E-1],"categories":[],"categories_nodes":[],"categories_segments":[],"categories_sizes":[],"default_left":[1,1,1,0,0,0,0],"id":0,"left_children":[1,3,5,-1,-1,-1,-1],"loss_changes":[2.96875E2,8.648648E1,1.3766962E2,0E0,0E0,0E0,0E0],"parents":[2147483647,0,0,1,1,2,2],"right_children":[2,4,6,-1,-1,-1,-1],"split_conditions":[1.45E1,1.25E1,1.75E1,-1.9073946E-3,-5.406284E-3,2.6551145E-3,-1.7571611E-3],"split_indices":[51,80,81,0,0,0,0],"split_type":[0,0,0,0,0,0,0],"sum_hessian":[5.786E3,2.8295E3,2.9565E3,1.446E3,1.3835E3,1.788E3,1.1685E3],"tree_param":{"num_deleted":"0","num_feature":"106","num_nodes":"7","size_leaf_vector":"0"}},{"base_weights":[1.3046484E-1,3.619502E-1,-9.112426E-2,1.9073947E-1,5.406284E-1,-2.6551145E-1,1.7571612E-1],"categories":[],"categories_nodes":[],"categories_segments":[],"categories_sizes":[],"default_left":[1,1,1,0,0,0,0],"id":1,"left_children":[1,3,5,-1,-1,-1,-1],"loss_changes":[2.96875E2,8.648648E1,1.3766962E2,0E0,0E0,0E0,0E0],"parents":[2147483647,0,0,1,1,2,2],"right_children":[2,4,6,-1,-1,-1,-1],"split_conditions":[1.45E1,1.25E1,1.75E1,1.9073946E-3,5.406284E-3,-2.6551145E-3,1.7571611E-3],"split_indices":[51,80,81,0,0,0,0],"split_type":[0,0,0,0,0,0,0],"sum_hessian":[5.786E3,2.8295E3,2.9565E3,1.446E3,1.3835E3,1.788E3,1.1685E3],"tree_param":{"num_deleted":"0","num_feature":"106","num_nodes":"7","size_leaf_vector":"0"}},{"base_weights":[-1.2916268E-1,-3.5833913E-1,9.021388E-2,-1.8883409E-1,-5.352418E-1,2.6285976E-1,-1.7396098E-1],"categories":[],"categories_nodes":[],"categories_segments":[],"categories_sizes":[],"default_left":[1,1,1,0,0,0,0],"id":2,"left_children":[1,3,5,-1,-1,-1,-1],"loss_changes":[2.9097607E2,8.477261E1,1.3493272E2,0E0,0E0,0E0,0E0],"parents":[2147483647,0,0,1,1,2,2],"right_children":[2,4,6,-1,-1,-1,-1],"split_conditions":[1.45E1,1.25E1,1.75E1,-1.8883408E-3,-5.352418E-3,2.6285977E-3,-1.7396098E-3],"split_indices":[51,80,81,0,0,0,0],"split_type":[0,0,0,0,0,0,0],"sum_hessian":[5.785938E3,2.829454E3,2.9564836E3,1.4459946E3,1.3834595E3,1.7879874E3,1.1684963E3],"tree_param":{"num_deleted":"0","num_feature":"106","num_nodes":"7","size_leaf_vector":"0"}},{"base_weights":[1.2916268E-1,3.5833907E-1,-9.021384E-2,1.8883412E-1,5.3524166E-1,-2.6285973E-1,1.7396101E-1],"categories":[],"categories_nodes":[],"categories_segments":[],"categories_sizes":[],"default_left":[1,1,1,0,0,0,0],"id":3,"left_children":[1,3,5,-1,-1,-1,-1],"loss_changes":[2.9097595E2,8.477258E1,1.3493272E2,0E0,0E0,0E0,0E0],"parents":[2147483647,0,0,1,1,2,2],"right_children":[2,4,6,-1,-1,-1,-1],"split_conditions":[1.45E1,1.25E1,1.75E1,1.8883412E-3,5.3524165E-3,-2.6285972E-3,1.7396101E-3],"split_indices":[51,80,81,0,0,0,0],"split_type":[0,0,0,0,0,0,0],"sum_hessian":[5.785938E3,2.8294543E3,2.9564836E3,1.4459948E3,1.3834596E3,1.7879873E3,1.1684963E3],"tree_param":{"num_deleted":"0","num_feature":"106","num_nodes":"7","size_leaf_vector":"0"}},{"base_weights":[-1.2787628E-1,-3.547753E-1,8.931338E-2,-1.8694903E-1,-5.299392E-1,2.6023796E-1,-1.7222454E-1],"categories":[],"categories_nodes":[],"categories_segments":[],"categories_sizes":[],"default_left":[1,1,1,0,0,0,0],"id":4,"left_children":[1,3,5,-1,-1,-1,-1],"loss_changes":[2.852036E2,8.3104126E1,1.3225183E2,0E0,0E0,0E0,0E0],"parents":[2147483647,0,0,1,1,2,2],"right_children":[2,4,6,-1,-1,-1,-1],"split_conditions":[1.45E1,1.25E1,1.75E1,-1.8694903E-3,-5.2993917E-3,2.6023795E-3,-1.7222454E-3],"split_indices":[51,80,81,0,0,0,0],"split_type":[0,0,0,0,0,0,0],"sum_hessian":[5.785755E3,2.829319E3,2.9564358E3,1.4459791E3,1.3833398E3,1.7879501E3,1.1684856E3],"tree_param":{"num_deleted":"0","num_feature":"106","num_nodes":"7","size_leaf_vector":"0"}},{"base_weights":[1.2787624E-1,3.547753E-1,-8.931347E-2,1.8694903E-1,5.299392E-1,-2.6023805E-1,1.7222445E-1],"categories":[],"categories_nodes":[],"categories_segments":[],"categories_sizes":[],"default_left":[1,1,1,0,0,0,0],"id":5,"left_children":[1,3,5,-1,-1,-1,-1],"loss_changes":[2.8520374E2,8.3104126E1,1.3225183E2,0E0,0E0,0E0,0E0],"parents":[2147483647,0,0,1,1,2,2],"right_children":[2,4,6,-1,-1,-1,-1],"split_conditions":[1.45E1,1.25E1,1.75E1,1.8694903E-3,5.2993917E-3,-2.6023805E-3,1.7222444E-3],"split_indices":[51,80,81,0,0,0,0],"split_type":[0,0,0,0,0,0,0],"sum_hessian":[5.785755E3,2.829319E3,2.9564358E3,1.4459791E3,1.3833398E3,1.7879501E3,1.1684857E3],"tree_param":{"num_deleted":"0","num_feature":"106","num_nodes":"7","size_leaf_vector":"0"}},{"base_weights":[-1.2660524E-1,-3.5125783E-1,8.8422984E-2,-1.8508412E-1,-5.247185E-1,-9.572129E-2,3.2702604E-1],"categories":[],"categories_nodes":[],"categories_segments":[],"categories_sizes":[],"default_left":[1,1,1,0,0,0,0],"id":6,"left_children":[1,3,5,-1,-1,-1,-1],"loss_changes":[2.7955527E2,8.147934E1,1.2996983E2,0E0,0E0,0E0,0E0],"parents":[2147483647,0,0,1,1,2,2],"right_children":[2,4,6,-1,-1,-1,-1],"split_conditions":[1.45E1,1.25E1,5.445E-1,-1.8508411E-3,-5.247185E-3,-9.572129E-4,3.2702603E-3],"split_indices":[51,80,55,0,0,0,0],"split_type":[0,0,0,0,0,0,0],"sum_hessian":[5.785454E3,2.829097E3,2.956357E3,1.4459536E3,1.3831433E3,1.668937E3,1.2874199E3],"tree_param":{"num_deleted":"0","num_feature":"106","num_nodes":"7","size_leaf_vector":"0"}},{"base_weights":[1.2660521E-1,3.512578E-1,-8.8422984E-2,1.8508412E-1,5.247184E-1,9.572129E-2,-3.2702604E-1],"categories":[],"categories_nodes":[],"categories_segments":[],"categories_sizes":[],"default_left":[1,1,1,0,0,0,0],"id":7,"left_children":[1,3,5,-1,-1,-1,-1],"loss_changes":[2.7955518E2,8.147928E1,1.2996983E2,0E0,0E0,0E0,0E0],"parents":[2147483647,0,0,1,1,2,2],"right_children":[2,4,6,-1,-1,-1,-1],"split_conditions":[1.45E1,1.25E1,5.445E-1,1.8508411E-3,5.247184E-3,9.572129E-4,-3.2702603E-3],"split_indices":[51,80,55,0,0,0,0],"split_type":[0,0,0,0,0,0,0],"sum_hessian":[5.785454E3,2.829097E3,2.956357E3,1.4459536E3,1.3831433E3,1.668937E3,1.2874199E3],"tree_param":{"num_deleted":"0","num_feature":"106","num_nodes":"7","size_leaf_vector":"0"}},{"base_weights":[-1.253486E-1,-3.4778568E-1,8.754215E-2,-4.5289937E-1,-7.8391165E-2,2.5557074E-1,-1.6955166E-1],"categories":[],"categories_nodes":[],"categories_segments":[],"categories_sizes":[],"default_left":[1,1,1,0,0,0,0],"id":8,"left_children":[1,3,5,-1,-1,-1,-1],"loss_changes":[2.7402823E2,8.0095795E1,1.2779483E2,0E0,0E0,0E0,0E0],"parents":[2147483647,0,0,1,1,2,2],"right_children":[2,4,6,-1,-1,-1,-1],"split_conditions":[1.45E1,3.75E0,1.75E1,-4.5289937E-3,-7.839116E-4,2.5557072E-3,-1.6955165E-3],"split_indices":[51,77,81,0,0,0,0],"split_type":[0,0,0,0,0,0,0],"sum_hessian":[5.7850615E3,2.8287903E3,2.9562712E3,2.0343402E3,7.944501E2,1.7878158E3,1.1684554E3],"tree_param":{"num_deleted":"0","num_feature":"106","num_nodes":"7","size_leaf_vector":"0"}},{"base_weights":[1.2534864E-1,3.477857E-1,-8.754212E-2,4.528994E-1,7.8391194E-2,-2.5557077E-1,1.6955175E-1],"categories":[],"categories_nodes":[],"categories_segments":[],"categories_sizes":[],"default_left":[1,1,1,0,0,0,0],"id":9,"left_children":[1,3,5,-1,-1,-1,-1],"loss_changes":[2.7402823E2,8.0095795E1,1.27794876E2,0E0,0E0,0E0,0E0],"parents":[2147483647,0,0,1,1,2,2],"right_children":[2,4,6,-1,-1,-1,-1],"split_conditions":[1.45E1,3.75E0,1.75E1,4.5289937E-3,7.839119E-4,-2.5557077E-3,1.6955175E-3],"split_indices":[51,77,81,0,0,0,0],"split_type":[0,0,0,0,0,0,0],"sum_hessian":[5.7850615E3,2.8287905E3,2.956271E3,2.0343403E3,7.9445013E2,1.7878157E3,1.1684554E3],"tree_param":{"num_deleted":"0","num_feature":"106","num_nodes":"7","size_leaf_vector":"0"}},{"base_weights":[-1.24106586E-1,-3.4435394E-1,8.6670816E-2,-1.8074577E-1,-5.1519495E-1,-9.434737E-2,3.212453E-1],"categories":[],"categories_nodes":[],"categories_segments":[],"categories_sizes":[],"default_left":[1,1,1,0,0,0,0],"id":10,"left_children":[1,3,5,-1,-1,-1,-1],"loss_changes":[2.686143E2,7.899222E1,1.25597145E2,0E0,0E0,0E0,0E0],"parents":[2147483647,0,0,1,1,2,2],"right_children":[2,4,6,-1,-1,-1,-1],"split_conditions":[1.45E1,1.25E1,5.445E-1,-1.8074577E-3,-5.1519494E-3,-9.434737E-4,3.212453E-3],"split_indices":[51,80,55,0,0,0,0],"split_type":[0,0,0,0,0,0,0],"sum_hessian":[5.78457E3,2.8284292E3,2.9561406E3,1.4458499E3,1.3825793E3,1.6688826E3,1.2872579E3],"tree_param":{"num_deleted":"0","num_feature":"106","num_nodes":"7","size_leaf_vector":"0"}},{"base_weights":[1.2410657E-1,3.4435397E-1,-8.667086E-2,1.8074581E-1,5.1519495E-1,9.434729E-2,-3.212453E-1],"categories":[],"categories_nodes":[],"categories_segments":[],"categories_sizes":[],"default_left":[1,1,1,0,0,0,0],"id":11,"left_children":[1,3,5,-1,-1,-1,-1],"loss_changes":[2.6861438E2,7.899222E1,1.2559709E2,0E0,0E0,0E0,0E0],"parents":[2147483647,0,0,1,1,2,2],"right_children":[2,4,6,-1,-1,-1,-1],"split_conditions":[1.45E1,1.25E1,5.445E-1,1.8074581E-3,5.1519494E-3,9.434729E-4,-3.212453E-3],"split_indices":[51,80,55,0,0,0,0],"split_type":[0,0,0,0,0,0,0],"sum_hessian":[5.78457E3,2.8284292E3,2.9561406E3,1.4458497E3,1.3825793E3,1.6688826E3,1.2872579E3],"tree_param":{"num_deleted":"0","num_feature":"106","num_nodes":"7","size_leaf_vector":"0"}},{"base_weights":[-1.2287913E-1,-3.409688E-1,8.580896E-2,-4.4448692E-1,-7.575428E-2,2.509999E-1,-1.6692159E-1],"categories":[],"categories_nodes":[],"categories_segments":[],"categories_sizes":[],"default_left":[1,1,1,0,0,0,0],"id":12,"left_children":[1,3,5,-1,-1,-1,-1],"loss_changes":[2.6331903E2,7.763428E1,1.23493256E2,0E0,0E0,0E0,0E0],"parents":[2147483647,0,0,1,1,2,2],"right_children":[2,4,6,-1,-1,-1,-1],"split_conditions":[1.45E1,3.75E0,1.75E1,-4.4448692E-3,-7.5754273E-4,2.5099989E-3,-1.6692159E-3],"split_indices":[51,77,81,0,0,0,0],"split_type":[0,0,0,0,0,0,0],"sum_hessian":[5.783972E3,2.827968E3,2.956004E3,2.0335571E3,7.944108E2,1.7875947E3,1.1684093E3],"tree_param":{"num_deleted":"0","num_feature":"106","num_nodes":"7","size_leaf_vector":"0"}},{"base_weights":[1.22879185E-1,3.4096882E-1,-8.5808896E-2,4.4448692E-1,7.575439E-2,-2.5099984E-1,1.6692169E-1],"categories":[],"categories_nodes":[],"categories_segments":[],"categories_sizes":[],"default_left":[1,1,1,0,0,0,0],"id":13,"left_children":[1,3,5,-1,-1,-1,-1],"loss_changes":[2.63319E2,7.7634186E1,1.2349328E2,0E0,0E0,0E0,0E0],"parents":[2147483647,0,0,1,1,2,2],"right_children":[2,4,6,-1,-1,-1,-1],"split_conditions":[1.45E1,3.75E0,1.75E1,4.4448692E-3,7.575439E-4,-2.5099984E-3,1.6692169E-3],"split_indices":[51,77,81,0,0,0,0],"split_type":[0,0,0,0,0,0,0],"sum_hessian":[5.7839717E3,2.827968E3,2.956004E3,2.0335571E3,7.944108E2,1.7875947E3,1.1684092E3],"tree_param":{"num_deleted":"0","num_feature":"106","num_nodes":"7","size_leaf_vector":"0"}},{"base_weights":[-1.21665806E-1,-3.376224E-1,8.4956355E-2,-1.7651093E-1,-5.059366E-1,-9.2992716E-2,3.155876E-1],"categories":[],"categories_nodes":[],"categories_segments":[],"categories_sizes":[],"default_left":[1,1,1,0,0,0,0],"id":14,"left_children":[1,3,5,-1,-1,-1,-1],"loss_changes":[2.581315E2,7.661093E1,1.2137924E2,0E0,0E0,0E0,0E0],"parents":[2147483647,0,0,1,1,2,2],"right_children":[2,4,6,-1,-1,-1,-1],"split_conditions":[1.45E1,1.25E1,5.445E-1,-1.7651092E-3,-5.059366E-3,-9.2992716E-4,3.155876E-3],"split_indices":[51,80,55,0,0,0,0],"split_type":[0,0,0,0,0,0,0],"sum_hessian":[5.7832803E3,2.827456E3,2.9558242E3,1.4456854E3,1.3817706E3,1.6688104E3,1.2870138E3],"tree_param":{"num_deleted":"0","num_feature":"106","num_nodes":"7","size_leaf_vector":"0"}},{"base_weights":[1.2166584E-1,3.3762246E-1,-8.495631E-2,1.7651093E-1,5.0593674E-1,9.299279E-2,-3.155876E-1],"categories":[],"categories_nodes":[],"categories_segments":[],"categories_sizes":[],"default_left":[1,1,1,0,0,0,0],"id":15,"left_children":[1,3,5,-1,-1,-1,-1],"loss_changes":[2.5813147E2,7.661099E1,1.21379295E2,0E0,0E0,0E0,0E0],"parents":[2147483647,0,0,1,1,2,2],"right_children":[2,4,6,-1,-1,-1,-1],"split_conditions":[1.45E1,1.25E1,5.445E-1,1.7651092E-3,5.0593675E-3,9.2992786E-4,-3.155876E-3],"split_indices":[51,80,55,0,0,0,0],"split_type":[0,0,0,0,0,0,0],"sum_hessian":[5.7832803E3,2.827456E3,2.9558242E3,1.4456854E3,1.3817705E3,1.6688104E3,1.2870138E3],"tree_param":{"num_deleted":"0","num_feature":"106","num_nodes":"7","size_leaf_vector":"0"}},{"base_weights":[-1.2046665E-1,-3.343208E-1,8.4112845E-2,-4.362939E-1,-7.318768E-2,2.4652255E-1,-1.6433343E-1],"categories":[],"categories_nodes":[],"categories_segments":[],"categories_sizes":[],"default_left":[1,1,1,0,0,0,0],"id":16,"left_children":[1,3,5,-1,-1,-1,-1],"loss_changes":[2.5305682E2,7.526956E1,1.1934119E2,0E0,0E0,0E0,0E0],"parents":[2147483647,0,0,1,1,2,2],"right_children":[2,4,6,-1,-1,-1,-1],"split_conditions":[1.45E1,3.75E0,1.75E1,-4.362939E-3,-7.3187676E-4,2.4652253E-3,-1.6433343E-3],"split_indices":[51,77,81,0,0,0,0],"split_type":[0,0,0,0,0,0,0],"sum_hessian":[5.782489E3,2.826849E3,2.9556396E3,2.0324875E3,7.943617E2,1.7872919E3,1.1683477E3],"tree_param":{"num_deleted":"0","num_feature":"106","num_nodes":"7","size_leaf_vector":"0"}},{"base_weights":[1.2046664E-1,3.3432084E-1,-8.4112875E-2,4.362939E-1,7.318777E-2,-2.4652255E-1,1.6433334E-1],"categories":[],"categories_nodes":[],"categories_segments":[],"categories_sizes":[],"default_left":[1,1,1,0,0,0,0],"id":17,"left_children":[1,3,5,-1,-1,-1,-1],"loss_changes":[2.5305685E2,7.526953E1,1.19341125E2,0E0,0E0,0E0,0E0],"parents":[2147483647,0,0,1,1,2,2],"right_children":[2,4,6,-1,-1,-1,-1],"split_conditions":[1.45E1,3.75E0,1.75E1,4.362939E-3,7.318777E-4,-2.4652253E-3,1.6433334E-3],"split_indices":[51,77,81,0,0,0,0],"split_type":[0,0,0,0,0,0,0],"sum_hessian":[5.782489E3,2.826849E3,2.9556396E3,2.0324875E3,7.9436163E2,1.7872919E3,1.1683478E3],"tree_param":{"num_deleted":"0","num_feature":"106","num_nodes":"7","size_leaf_vector":"0"}},{"base_weights":[-1.19281046E-1,-3.310564E-1,8.327845E-2,-1.7237633E-1,-4.969309E-1,-9.165724E-2,3.1004897E-1],"categories":[],"categories_nodes":[],"categories_segments":[],"categories_sizes":[],"default_left":[1,1,1,0,0,0,0],"id":18,"left_children":[1,3,5,-1,-1,-1,-1],"loss_changes":[2.4808475E2,7.432889E1,1.1731012E2,0E0,0E0,0E0,0E0],"parents":[2147483647,0,0,1,1,2,2],"right_children":[2,4,6,-1,-1,-1,-1],"split_conditions":[1.45E1,1.25E1,5.445E-1,-1.7237633E-3,-4.969309E-3,-9.165724E-4,3.1004895E-3],"split_indices":[51,80,55,0,0,0,0],"split_type":[0,0,0,0,0,0,0],"sum_hessian":[5.7816094E3,2.8261958E3,2.9554136E3,1.4454645E3,1.3807313E3,1.6687216E3,1.286692E3],"tree_param":{"num_deleted":"0","num_feature":"106","num_nodes":"7","size_leaf_vector":"0"}},{"base_weights":[1.1928106E-1,3.3105645E-1,-8.327845E-2,1.7237633E-1,4.96931E-1,9.165724E-2,-3.1004897E-1],"categories":[],"categories_nodes":[],"categories_segments":[],"categories_sizes":[],"default_left":[1,1,1,0,0,0,0],"id":19,"left_children":[1,3,5,-1,-1,-1,-1],"loss_changes":[2.4808482E2,7.432892E1,1.1731012E2,0E0,0E0,0E0,0E0],"parents":[2147483647,0,0,1,1,2,2],"right_children":[2,4,6,-1,-1,-1,-1],"split_conditions":[1.45E1,1.25E1,5.445E-1,1.7237633E-3,4.9693095E-3,9.165724E-4,-3.1004895E-3],"split_indices":[51,80,55,0,0,0,0],"split_type":[0,0,0,0,0,0,0],"sum_hessian":[5.7816094E3,2.8261956E3,2.9554136E3,1.4454645E3,1.3807312E3,1.6687216E3,1.286692E3],"tree_param":{"num_deleted":"0","num_feature":"106","num_nodes":"7","size_leaf_vector":"0"}},{"base_weights":[-1.18109144E-1,-3.2783502E-1,8.2452916E-2,-4.283104E-1,-7.068948E-2,2.421361E-1,-1.6178618E-1],"categories":[],"categories_nodes":[],"categories_segments":[],"categories_sizes":[],"default_left":[1,1,1,0,0,0,0],"id":20,"left_children":[1,3,5,-1,-1,-1,-1],"loss_changes":[2.4322029E2,7.2996155E1,1.1533293E2,0E0,0E0,0E0,0E0],"parents":[2147483647,0,0,1,1,2,2],"right_children":[2,4,6,-1,-1,-1,-1],"split_conditions":[1.45E1,3.75E0,1.75E1,-4.2831036E-3,-7.0689473E-4,2.421361E-3,-1.6178618E-3],"split_indices":[51,77,81,0,0,0,0],"split_type":[0,0,0,0,0,0,0],"sum_hessian":[5.7806357E3,2.825452E3,2.9551836E3,2.0311487E3,7.943033E2,1.7869117E3,1.1682719E3],"tree_param":{"num_deleted":"0","num_feature":"106","num_nodes":"7","size_leaf_vector":"0"}},{"base_weights":[1.1810913E-1,3.2783502E-1,-8.2452916E-2,4.2831036E-1,7.0689484E-2,-2.4213617E-1,1.6178627E-1],"categories":[],"categories_nodes":[],"categories_segments":[],"categories_sizes":[],"default_left":[1,1,1,0,0,0,0],"id":21,"left_children":[1,3,5,-1,-1,-1,-1],"loss_changes":[2.4322025E2,7.2996185E1,1.1533302E2,0E0,0E0,0E0,0E0],"parents":[2147483647,0,0,1,1,2,2],"right_children":[2,4,6,-1,-1,-1,-1],"split_conditions":[1.45E1,3.75E0,1.75E1,4.2831036E-3,7.0689485E-4,-2.4213616E-3,1.6178627E-3],"split_indices":[51,77,81,0,0,0,0],"split_type":[0,0,0,0,0,0,0],"sum_hessian":[5.7806353E3,2.825452E3,2.9551836E3,2.0311486E3,7.943033E2,1.7869117E3,1.1682719E3],"tree_param":{"num_deleted":"0","num_feature":"106","num_nodes":"7","size_leaf_vector":"0"}},{"base_weights":[-1.1695039E-1,-3.2464936E-1,8.163619E-2,-1.6833903E-1,-4.881655E-1,-9.0340614E-2,3.0462566E-1],"categories":[],"categories_nodes":[],"categories_segments":[],"categories_sizes":[],"default_left":[1,1,1,0,0,0,0],"id":22,"left_children":[1,3,5,-1,-1,-1,-1],"loss_changes":[2.3845358E2,7.213971E1,1.1338391E2,0E0,0E0,0E0,0E0],"parents":[2147483647,0,0,1,1,2,2],"right_children":[2,4,6,-1,-1,-1,-1],"split_conditions":[1.45E1,1.25E1,5.445E-1,-1.6833902E-3,-4.881655E-3,-9.034061E-4,3.0462565E-3],"split_indices":[51,80,55,0,0,0,0],"split_type":[0,0,0,0,0,0,0],"sum_hessian":[5.7795786E3,2.8246653E3,2.9549136E3,1.4451904E3,1.3794749E3,1.6686166E3,1.2862969E3],"tree_param":{"num_deleted":"0","num_feature":"106","num_nodes":"7","size_leaf_vector":"0"}},{"base_weights":[1.16950415E-1,3.2464942E-1,-8.1636176E-2,1.6833909E-1,4.881655E-1,9.034064E-2,-3.0462566E-1],"categories":[],"categories_nodes":[],"categories_segments":[],"categories_sizes":[],"default_left":[1,1,1,0,0,0,0],"id":23,"left_children":[1,3,5,-1,-1,-1,-1],"loss_changes":[2.3845361E2,7.213968E1,1.1338391E2,0E0,0E0,0E0,0E0],"parents":[2147483647,0,0,1,1,2,2],"right_children":[2,4,6,-1,-1,-1,-1],"split_conditions":[1.45E1,1.25E1,5.445E-1,1.6833908E-3,4.881655E-3,9.0340636E-4,-3.0462565E-3],"split_indices":[51,80,55,0,0,0,0],"split_type":[0,0,0,0,0,0,0],"sum_hessian":[5.7795786E3,2.8246653E3,2.9549136E3,1.4451904E3,1.3794749E3,1.6686166E3,1.2862969E3],"tree_param":{"num_deleted":"0","num_feature":"106","num_nodes":"7","size_leaf_vector":"0"}},{"base_weights":[-1.1580487E-1,-3.2150513E-1,8.08281E-2,-1.0713515E-1,-4.3855402E-1,2.3783797E-1,-1.5927945E-1],"categories":[],"categories_nodes":[],"categories_segments":[],"categories_sizes":[],"default_left":[1,1,1,0,0,0,0],"id":24,"left_children":[1,3,5,-1,-1,-1,-1],"loss_changes":[2.3378934E2,7.083203E1,1.1146333E2,0E0,0E0,0E0,0E0],"parents":[2147483647,0,0,1,1,2,2],"right_children":[2,4,6,-1,-1,-1,-1],"split_conditions":[1.45E1,9.5E0,1.75E1,-1.0713515E-3,-4.3855403E-3,2.3783797E-3,-1.5927944E-3],"split_indices":[51,103,81,0,0,0,0],"split_type":[0,0,0,0,0,0,0],"sum_hessian":[5.7784336E3,2.8237927E3,2.9546406E3,9.9796985E2,1.825823E3,1.7864585E3,1.168182E3],"tree_param":{"num_deleted":"0","num_feature":"106","num_nodes":"7","size_leaf_vector":"0"}},{"base_weights":[1.158049E-1,3.2150522E-1,-8.082812E-2,1.0713524E-1,4.385541E-1,-2.3783803E-1,1.5927948E-1],"categories":[],"categories_nodes":[],"categories_segments":[],"categories_sizes":[],"default_left":[1,1,1,0,0,0,0],"id":25,"left_children":[1,3,5,-1,-1,-1,-1],"loss_changes":[2.3378946E2,7.083206E1,1.1146339E2,0E0,0E0,0E0,0E0],"parents":[2147483647,0,0,1,1,2,2],"right_children":[2,4,6,-1,-1,-1,-1],"split_conditions":[1.45E1,9.5E0,1.75E1,1.0713524E-3,4.385541E-3,-2.3783802E-3,1.5927948E-3],"split_indices":[51,103,81,0,0,0,0],"split_type":[0,0,0,0,0,0,0],"sum_hessian":[5.7784336E3,2.823793E3,2.9546406E3,9.9796985E2,1.8258231E3,1.7864584E3,1.1681821E3],"tree_param":{"num_deleted":"0","num_feature":"106","num_nodes":"7","size_leaf_vector":"0"}},{"base_weights":[-1.1467219E-1,-3.1839544E-1,8.002862E-2,-1.6452405E-1,-4.7950086E-1,-1.06497556E-1,2.7884886E-1],"categories":[],"categories_nodes":[],"categories_segments":[],"categories_sizes":[],"default_left":[1,1,1,0,0,0,0],"id":26,"left_children":[1,3,5,-1,-1,-1,-1],"loss_changes":[2.2921869E2,6.992374E1,1.0962862E2,0E0,0E0,0E0,0E0],"parents":[2147483647,0,0,1,1,2,2],"right_children":[2,4,6,-1,-1,-1,-1],"split_conditions":[1.45E1,1.25E1,5.1750004E-1,-1.6452405E-3,-4.7950083E-3,-1.0649755E-3,2.7884885E-3],"split_indices":[51,80,55,0,0,0,0],"split_type":[0,0,0,0,0,0,0],"sum_hessian":[5.777211E3,2.8228816E3,2.954329E3,1.4448911E3,1.3779906E3,1.5245315E3,1.4297976E3],"tree_param":{"num_deleted":"0","num_feature":"106","num_nodes":"7","size_leaf_vector":"0"}},{"base_weights":[1.1467217E-1,3.183954E-1,-8.002864E-2,1.6452405E-1,4.795008E-1,1.06497556E-1,-2.788489E-1],"categories":[],"categories_nodes":[],"categories_segments":[],"categories_sizes":[],"default_left":[1,1,1,0,0,0,0],"id":27,"left_children":[1,3,5,-1,-1,-1,-1],"loss_changes":[2.2921866E2,6.9923706E1,1.09628624E2,0E0,0E0,0E0,0E0],"parents":[2147483647,0,0,1,1,2,2],"right_children":[2,4,6,-1,-1,-1,-1],"split_conditions":[1.45E1,1.25E1,5.1750004E-1,1.6452405E-3,4.795008E-3,1.0649755E-3,-2.7884888E-3],"split_indices":[51,80,55,0,0,0,0],"split_type":[0,0,0,0,0,0,0],"sum_hessian":[5.777211E3,2.8228816E3,2.9543293E3,1.4448911E3,1.3779906E3,1.5245315E3,1.4297977E3],"tree_param":{"num_deleted":"0","num_feature":"106","num_nodes":"7","size_leaf_vector":"0"}},{"base_weights":[-1.1355232E-1,-3.153255E-1,7.923754E-2,-4.1310808E-1,-6.544643E-2,-8.831311E-2,2.9658997E-1],"categories":[],"categories_nodes":[],"categories_segments":[],"categories_sizes":[],"default_left":[1,1,1,0,0,0,0],"id":28,"left_children":[1,3,5,-1,-1,-1,-1],"loss_changes":[2.2474539E2,6.89469E1,1.076405E2,0E0,0E0,0E0,0E0],"parents":[2147483647,0,0,1,1,2,2],"right_children":[2,4,6,-1,-1,-1,-1],"split_conditions":[1.45E1,3.75E0,5.445E-1,-4.1310806E-3,-6.544643E-4,-8.8313106E-4,2.9658997E-3],"split_indices":[51,77,55,0,0,0,0],"split_type":[0,0,0,0,0,0,0],"sum_hessian":[5.7759004E3,2.8218875E3,2.954013E3,2.0277397E3,7.9414777E2,1.6684484E3,1.2855646E3],"tree_param":{"num_deleted":"0","num_feature":"106","num_nodes":"7","size_leaf_vector":"0"}},{"base_weights":[1.13552324E-1,3.153255E-1,-7.923753E-2,4.1310805E-1,6.544652E-2,8.831311E-2,-2.9658994E-1],"categories":[],"categories_nodes":[],"categories_segments":[],"categories_sizes":[],"default_left":[1,1,1,0,0,0,0],"id":29,"left_children":[1,3,5,-1,-1,-1,-1],"loss_changes":[2.2474538E2,6.894684E1,1.0764047E2,0E0,0E0,0E0,0E0],"parents":[2147483647,0,0,1,1,2,2],"right_children":[2,4,6,-1,-1,-1,-1],"split_conditions":[1.45E1,3.75E0,5.445E-1,4.1310806E-3,6.5446517E-4,8.8313106E-4,-2.9658994E-3],"split_indices":[51,77,55,0,0,0,0],"split_type":[0,0,0,0,0,0,0],"sum_hessian":[5.7759004E3,2.8218875E3,2.954013E3,2.0277399E3,7.941477E2,1.6684484E3,1.2855646E3],"tree_param":{"num_deleted":"0","num_feature":"106","num_nodes":"7","size_leaf_vector":"0"}},{"base_weights":[-1.1244406E-1,-3.1228822E-1,7.845483E-2,-1.6067258E-1,-4.7118354E-1,2.3166582E-1,-1.557669E-1],"categories":[],"categories_nodes":[],"categories_segments":[],"categories_sizes":[],"default_left":[1,1,1,0,0,0,0],"id":30,"left_children":[1,3,5,-1,-1,-1,-1],"loss_changes":[2.2036153E2,6.790579E1,1.0606575E2,0E0,0E0,0E0,0E0],"parents":[2147483647,0,0,1,1,2,2],"right_children":[2,4,6,-1,-1,-1,-1],"split_conditions":[1.45E1,1.25E1,1.75E1,-1.6067257E-3,-4.711835E-3,2.3166582E-3,-1.557669E-3],"split_indices":[51,80,81,0,0,0,0],"split_type":[0,0,0,0,0,0,0],"sum_hessian":[5.77454E3,2.820861E3,2.953679E3,1.4445261E3,1.3763351E3,1.7856478E3,1.1680312E3],"tree_param":{"num_deleted":"0","num_feature":"106","num_nodes":"7","size_leaf_vector":"0"}},{"base_weights":[1.1244403E-1,3.1228822E-1,-7.845489E-2,1.6067256E-1,4.7118357E-1,-2.3166583E-1,1.557668E-1],"categories":[],"categories_nodes":[],"categories_segments":[],"categories_sizes":[],"default_left":[1,1,1,0,0,0,0],"id":31,"left_children":[1,3,5,-1,-1,-1,-1],"loss_changes":[2.2036163E2,6.790582E1,1.06065704E2,0E0,0E0,0E0,0E0],"parents":[2147483647,0,0,1,1,2,2],"right_children":[2,4,6,-1,-1,-1,-1],"split_conditions":[1.45E1,1.25E1,1.75E1,1.6067256E-3,4.7118356E-3,-2.3166584E-3,1.557668E-3],"split_indices":[51,80,81,0,0,0,0],"split_type":[0,0,0,0,0,0,0],"sum_hessian":[5.7745405E3,2.820861E3,2.9536792E3,1.4445261E3,1.3763351E3,1.785648E3,1.1680312E3],"tree_param":{"num_deleted":"0","num_feature":"106","num_nodes":"7","size_leaf_vector":"0"}},{"base_weights":[-1.1134939E-1,-3.092898E-1,7.768031E-2,-4.0569872E-1,-6.314621E-2,-8.704238E-2,2.9143992E-1],"categories":[],"categories_nodes":[],"categories_segments":[],"categories_sizes":[],"default_left":[1,1,1,0,0,0,0],"id":32,"left_children":[1,3,5,-1,-1,-1,-1],"loss_changes":[2.1607E2,6.691211E1,1.04049774E2,0E0,0E0,0E0,0E0],"parents":[2147483647,0,0,1,1,2,2],"right_children":[2,4,6,-1,-1,-1,-1],"split_conditions":[1.45E1,3.75E0,5.445E-1,-4.056987E-3,-6.314621E-4,-8.7042374E-4,2.9143991E-3],"split_indices":[51,77,55,0,0,0,0],"split_type":[0,0,0,0,0,0,0],"sum_hessian":[5.773065E3,2.819754E3,2.953311E3,2.0256888E3,7.94065E2,1.6683087E3,1.2850023E3],"tree_param":{"num_deleted":"0","num_feature":"106","num_nodes":"7","size_leaf_vector":"0"}},{"base_weights":[1.1134935E-1,3.0928975E-1,-7.768036E-2,4.056987E-1,6.314613E-2,8.7042294E-2,-2.9143992E-1],"categories":[],"categories_nodes":[],"categories_segments":[],"categories_sizes":[],"default_left":[1,1,1,0,0,0,0],"id":33,"left_children":[1,3,5,-1,-1,-1,-1],"loss_changes":[2.1607002E2,6.691211E1,1.0404973E2,0E0,0E0,0E0,0E0],"parents":[2147483647,0,0,1,1,2,2],"right_children":[2,4,6,-1,-1,-1,-1],"split_conditions":[1.45E1,3.75E0,5.445E-1,4.056987E-3,6.3146127E-4,8.704229E-4,-2.9143991E-3],"split_indices":[51,77,55,0,0,0,0],"split_type":[0,0,0,0,0,0,0],"sum_hessian":[5.773065E3,2.819754E3,2.953311E3,2.025689E3,7.9406506E2,1.6683088E3,1.2850023E3],"tree_param":{"num_deleted":"0","num_feature":"106","num_nodes":"7","size_leaf_vector":"0"}},{"base_weights":[-1.1026544E-1,-3.0632275E-1,7.691403E-2,-1.5691012E-1,-4.6307492E-1,2.2757734E-1,-1.533568E-1],"categories":[],"categories_nodes":[],"categories_segments":[],"categories_sizes":[],"default_left":[1,1,1,0,0,0,0],"id":34,"left_children":[1,3,5,-1,-1,-1,-1],"loss_changes":[2.1186432E2,6.5964935E1,1.0251703E2,0E0,0E0,0E0,0E0],"parents":[2147483647,0,0,1,1,2,2],"right_children":[2,4,6,-1,-1,-1,-1],"split_conditions":[1.45E1,1.25E1,1.75E1,-1.5691011E-3,-4.630749E-3,2.2757733E-3,-1.533568E-3],"split_indices":[51,80,81,0,0,0,0],"split_type":[0,0,0,0,0,0,0],"sum_hessian":[5.7715576E3,2.8186177E3,2.95294E3,1.444118E3,1.3744996E3,1.7850294E3,1.1679106E3],"tree_param":{"num_deleted":"0","num_feature":"106","num_nodes":"7","size_leaf_vector":"0"}},{"base_weights":[1.1026544E-1,3.0632272E-1,-7.691401E-2,1.5691009E-1,4.6307492E-1,-2.2757734E-1,1.5335684E-1],"categories":[],"categories_nodes":[],"categories_segments":[],"categories_sizes":[],"default_left":[1,1,1,0,0,0,0],"id":35,"left_children":[1,3,5,-1,-1,-1,-1],"loss_changes":[2.1186432E2,6.5964905E1,1.02517044E2,0E0,0E0,0E0,0E0],"parents":[2147483647,0,0,1,1,2,2],"right_children":[2,4,6,-1,-1,-1,-1],"split_conditions":[1.45E1,1.25E1,1.75E1,1.5691009E-3,4.630749E-3,-2.2757733E-3,1.5335684E-3],"split_indices":[51,80,81,0,0,0,0],"split_type":[0,0,0,0,0,0,0],"sum_hessian":[5.7715576E3,2.8186177E3,2.9529402E3,1.444118E3,1.3744996E3,1.7850294E3,1.1679108E3],"tree_param":{"num_deleted":"0","num_feature":"106","num_nodes":"7","size_leaf_vector":"0"}},{"base_weights":[-1.091947E-1,-3.0339313E-1,7.615561E-2,-3.984654E-1,-6.0907364E-2,-8.578956E-2,2.8639346E-1],"categories":[],"categories_nodes":[],"categories_segments":[],"categories_sizes":[],"default_left":[1,1,1,0,0,0,0],"id":36,"left_children":[1,3,5,-1,-1,-1,-1],"loss_changes":[2.0774658E2,6.495032E1,1.0058363E2,0E0,0E0,0E0,0E0],"parents":[2147483647,0,0,1,1,2,2],"right_children":[2,4,6,-1,-1,-1,-1],"split_conditions":[1.45E1,3.75E0,5.445E-1,-3.984654E-3,-6.090736E-4,-8.578956E-4,2.8639345E-3],"split_indices":[51,77,55,0,0,0,0],"split_type":[0,0,0,0,0,0,0],"sum_hessian":[5.769941E3,2.8174048E3,2.9525364E3,2.0234285E3,7.9397626E2,1.668156E3,1.2843804E3],"tree_param":{"num_deleted":"0","num_feature":"106","num_nodes":"7","size_leaf_vector":"0"}},{"base_weights":[1.09194696E-1,3.0339316E-1,-7.615566E-2,3.9846545E-1,6.0907334E-2,8.578956E-2,-2.8639355E-1],"categories":[],"categories_nodes":[],"categories_segments":[],"categories_sizes":[],"default_left":[1,1,1,0,0,0,0],"id":37,"left_children":[1,3,5,-1,-1,-1,-1],"loss_changes":[2.0774669E2,6.495038E1,1.00583694E2,0E0,0E0,0E0,0E0],"parents":[2147483647,0,0,1,1,2,2],"right_children":[2,4,6,-1,-1,-1,-1],"split_conditions":[1.45E1,3.75E0,5.445E-1,3.9846543E-3,6.090733E-4,8.578956E-4,-2.8639354E-3],"split_indices":[51,77,55,0,0,0,0],"split_type":[0,0,0,0,0,0,0],"sum_hessian":[5.7699414E3,2.8174048E3,2.9525364E3,2.0234285E3,7.939762E2,1.668156E3,1.2843805E3],"tree_param":{"num_deleted":"0","num_feature":"106","num_nodes":"7","size_leaf_vector":"0"}},{"base_weights":[-1.0813437E-1,-3.0049375E-1,7.540526E-2,-2.070704E-1,-5.445623E-1,-1.5883456E-1,2.1887538E-1],"categories":[],"categories_nodes":[],"categories_segments":[],"categories_sizes":[],"default_left":[1,1,1,0,0,0,0],"id":38,"left_children":[1,3,5,-1,-1,-1,-1],"loss_changes":[2.0371095E2,6.412338E1,9.9278885E1,0E0,0E0,0E0,0E0],"parents":[2147483647,0,0,1,1,2,2],"right_children":[2,4,6,-1,-1,-1,-1],"split_conditions":[1.45E1,1.95E1,-1.1500001E0,-2.070704E-3,-5.445623E-3,-1.5883456E-3,2.1887538E-3],"split_indices":[51,80,77,0,0,0,0],"split_type":[0,0,0,0,0,0,0],"sum_hessian":[5.768296E3,2.8161658E3,2.9521301E3,2.037941E3,7.7822473E2,1.1213025E3,1.8308278E3],"tree_param":{"num_deleted":"0","num_feature":"106","num_nodes":"7","size_leaf_vector":"0"}},{"base_weights":[1.0813436E-1,3.004938E-1,-7.5405315E-2,2.0707043E-1,5.4456234E-1,1.5883456E-1,-2.1887547E-1],"categories":[],"categories_nodes":[],"categories_segments":[],"categories_sizes":[],"default_left":[1,1,1,0,0,0,0],"id":39,"left_children":[1,3,5,-1,-1,-1,-1],"loss_changes":[2.0371106E2,6.412341E1,9.927893E1,0E0,0E0,0E0,0E0],"parents":[2147483647,0,0,1,1,2,2],"right_children":[2,4,6,-1,-1,-1,-1],"split_conditions":[1.45E1,1.95E1,-1.1500001E0,2.0707042E-3,5.4456233E-3,1.5883456E-3,-2.1887547E-3],"split_indices":[51,80,77,0,0,0,0],"split_type":[0,0,0,0,0,0,0],"sum_hessian":[5.768296E3,2.8161658E3,2.9521304E3,2.037941E3,7.7822473E2,1.1213026E3,1.8308278E3],"tree_param":{"num_deleted":"0","num_feature":"106","num_nodes":"7","size_leaf_vector":"0"}},{"base_weights":[-1.0708436E-1,-2.3268673E-1,1.6865686E-1,-7.740482E-2,-4.092425E-1,2.630387E-1,-1.2250351E-1],"categories":[],"categories_nodes":[],"categories_segments":[],"categories_sizes":[],"default_left":[1,1,1,0,0,0,0],"id":40,"left_children":[1,3,5,-1,-1,-1,-1],"loss_changes":[1.9979599E2,1.0861992E2,4.965073E1,0E0,0E0,0E0,0E0],"parents":[2147483647,0,0,1,1,2,2],"right_children":[2,4,6,-1,-1,-1,-1],"split_conditions":[2.05E1,1.35E1,2.25E1,-7.7404815E-4,-4.092425E-3,2.630387E-3,-1.225035E-3],"split_indices":[51,80,103,0,0,0,0],"split_type":[0,0,0,0,0,0,0],"sum_hessian":[5.7666904E3,3.9620847E3,1.8046057E3,2.1088108E3,1.8532738E3,1.3629059E3,4.4169977E2],"tree_param":{"num_deleted":"0","num_feature":"106","num_nodes":"7","size_leaf_vector":"0"}},{"base_weights":[1.0708443E-1,2.3268677E-1,-1.6865677E-1,7.740482E-2,4.0924263E-1,-2.6303864E-1,1.2250362E-1],"categories":[],"categories_nodes":[],"categories_segments":[],"categories_sizes":[],"default_left":[1,1,1,0,0,0,0],"id":41,"left_children":[1,3,5,-1,-1,-1,-1],"loss_changes":[1.9979594E2,1.0862001E2,4.965073E1,0E0,0E0,0E0,0E0],"parents":[2147483647,0,0,1,1,2,2],"right_children":[2,4,6,-1,-1,-1,-1],"split_conditions":[2.05E1,1.35E1,2.25E1,7.7404815E-4,4.092426E-3,-2.6303863E-3,1.2250362E-3],"split_indices":[51,80,103,0,0,0,0],"split_type":[0,0,0,0,0,0,0],"sum_hessian":[5.7666904E3,3.9620847E3,1.8046056E3,2.1088108E3,1.8532738E3,1.3629059E3,4.4169977E2],"tree_param":{"num_deleted":"0","num_feature":"106","num_nodes":"7","size_leaf_vector":"0"}},{"base_weights":[-1.0604028E-1,-2.9544055E-1,7.456609E-2,-9.398349E-2,-4.059E-1,2.207168E-1,-1.4871325E-1],"categories":[],"categories_nodes":[],"categories_segments":[],"categories_sizes":[],"default_left":[1,1,1,0,0,0,0],"id":42,"left_children":[1,3,5,-1,-1,-1,-1],"loss_changes":[1.972688E2,6.2599655E1,9.6378975E1,0E0,0E0,0E0,0E0],"parents":[2147483647,0,0,1,1,2,2],"right_children":[2,4,6,-1,-1,-1,-1],"split_conditions":[1.45E1,9.5E0,1.75E1,-9.3983486E-4,-4.059E-3,2.207168E-3,-1.4871324E-3],"split_indices":[51,103,81,0,0,0,0],"split_type":[0,0,0,0,0,0,0],"sum_hessian":[5.765288E3,2.8138223E3,2.9514658E3,9.971184E2,1.8167037E3,1.7838394E3,1.1676265E3],"tree_param":{"num_deleted":"0","num_feature":"106","num_nodes":"7","size_leaf_vector":"0"}},{"base_weights":[1.0604028E-1,2.9544055E-1,-7.456609E-2,9.398341E-2,4.0590003E-1,-2.207168E-1,1.4871325E-1],"categories":[],"categories_nodes":[],"categories_segments":[],"categories_sizes":[],"default_left":[1,1,1,0,0,0,0],"id":43,"left_children":[1,3,5,-1,-1,-1,-1],"loss_changes":[1.9726883E2,6.2599655E1,9.6378975E1,0E0,0E0,0E0,0E0],"parents":[2147483647,0,0,1,1,2,2],"right_children":[2,4,6,-1,-1,-1,-1],"split_conditions":[1.45E1,9.5E0,1.75E1,9.398341E-4,4.0590004E-3,-2.207168E-3,1.4871324E-3],"split_indices":[51,103,81,0,0,0,0],"split_type":[0,0,0,0,0,0,0],"sum_hessian":[5.765288E3,2.8138223E3,2.9514658E3,9.9711847E2,1.8167039E3,1.7838394E3,1.1676265E3],"tree_param":{"num_deleted":"0","num_feature":"106","num_nodes":"7","size_leaf_vector":"0"}},{"base_weights":[-1.0501438E-1,-2.9263115E-1,7.383234E-2,-2.0102052E-1,-5.323942E-1,-8.3462566E-2,2.7817437E-1],"categories":[],"categories_nodes":[],"categories_segments":[],"categories_sizes":[],"default_left":[1,1,1,0,0,0,0],"id":44,"left_children":[1,3,5,-1,-1,-1,-1],"loss_changes":[1.934459E2,6.1690063E1,9.4906395E1,0E0,0E0,0E0,0E0],"parents":[2147483647,0,0,1,1,2,2],"right_children":[2,4,6,-1,-1,-1,-1],"split_conditions":[1.45E1,1.95E1,5.445E-1,-2.0102053E-3,-5.323942E-3,-8.346256E-4,2.7817436E-3],"split_indices":[51,80,55,0,0,0,0],"split_type":[0,0,0,0,0,0,0],"sum_hessian":[5.763457E3,2.8124536E3,2.9510037E3,2.0362606E3,7.7619293E2,1.6677913E3,1.2832123E3],"tree_param":{"num_deleted":"0","num_feature":"106","num_nodes":"7","size_leaf_vector":"0"}},{"base_weights":[1.0501434E-1,2.926311E-1,-7.383234E-2,2.0102043E-1,5.323942E-1,8.346259E-2,-2.781744E-1],"categories":[],"categories_nodes":[],"categories_segments":[],"categories_sizes":[],"default_left":[1,1,1,0,0,0,0],"id":45,"left_children":[1,3,5,-1,-1,-1,-1],"loss_changes":[1.9344583E2,6.169008E1,9.490643E1,0E0,0E0,0E0,0E0],"parents":[2147483647,0,0,1,1,2,2],"right_children":[2,4,6,-1,-1,-1,-1],"split_conditions":[1.45E1,1.95E1,5.445E-1,2.0102044E-3,5.323942E-3,8.3462585E-4,-2.7817439E-3],"split_indices":[51,80,55,0,0,0,0],"split_type":[0,0,0,0,0,0,0],"sum_hessian":[5.763457E3,2.8124536E3,2.9510034E3,2.0362606E3,7.7619293E2,1.6677913E3,1.2832122E3],"tree_param":{"num_deleted":"0","num_feature":"106","num_nodes":"7","size_leaf_vector":"0"}},{"base_weights":[-1.0399839E-1,-2.2686337E-1,1.6556711E-1,-7.494592E-2,-3.9982098E-1,2.5789893E-1,-1.191712E-1],"categories":[],"categories_nodes":[],"categories_segments":[],"categories_sizes":[],"default_left":[1,1,1,0,0,0,0],"id":46,"left_children":[1,3,5,-1,-1,-1,-1],"loss_changes":[1.9089697E2,1.03989914E2,4.7479286E1,0E0,0E0,0E0,0E0],"parents":[2147483647,0,0,1,1,2,2],"right_children":[2,4,6,-1,-1,-1,-1],"split_conditions":[2.05E1,1.35E1,2.25E1,-7.494592E-4,-3.9982097E-3,2.5789891E-3,-1.191712E-3],"split_indices":[51,80,103,0,0,0,0],"split_type":[0,0,0,0,0,0,0],"sum_hessian":[5.7616353E3,3.9578494E3,1.8037856E3,2.1078506E3,1.8499989E3,1.3621703E3,4.416154E2],"tree_param":{"num_deleted":"0","num_feature":"106","num_nodes":"7","size_leaf_vector":"0"}},{"base_weights":[1.039984E-1,2.2686337E-1,-1.6556707E-1,7.4945934E-2,3.9982098E-1,-2.5789893E-1,1.19171314E-1],"categories":[],"categories_nodes":[],"categories_segments":[],"categories_sizes":[],"default_left":[1,1,1,0,0,0,0],"id":47,"left_children":[1,3,5,-1,-1,-1,-1],"loss_changes":[1.9089693E2,1.0398993E2,4.7479305E1,0E0,0E0,0E0,0E0],"parents":[2147483647,0,0,1,1,2,2],"right_children":[2,4,6,-1,-1,-1,-1],"split_conditions":[2.05E1,1.35E1,2.25E1,7.494593E-4,3.9982097E-3,-2.5789891E-3,1.1917131E-3],"split_indices":[51,80,103,0,0,0,0],"split_type":[0,0,0,0,0,0,0],"sum_hessian":[5.7616353E3,3.9578496E3,1.8037856E3,2.1078506E3,1.8499989E3,1.3621703E3,4.416154E2],"tree_param":{"num_deleted":"0","num_feature":"106","num_nodes":"7","size_leaf_vector":"0"}},{"base_weights":[-1.0298732E-1,-2.8773257E-1,7.300894E-2,-3.7979478E-1,-5.366455E-2,2.1481328E-1,-1.4711142E-1],"categories":[],"categories_nodes":[],"categories_segments":[],"categories_sizes":[],"default_left":[1,1,1,0,0,0,0],"id":48,"left_children":[1,3,5,-1,-1,-1,-1],"loss_changes":[1.8733923E2,6.0550644E1,9.215025E1,0E0,0E0,0E0,0E0],"parents":[2147483647,0,0,1,1,2,2],"right_children":[2,4,6,-1,-1,-1,-1],"split_conditions":[1.45E1,3.75E0,1.65E1,-3.7979477E-3,-5.366455E-4,2.1481328E-3,-1.4711141E-3],"split_indices":[51,77,80,0,0,0,0],"split_type":[0,0,0,0,0,0,0],"sum_hessian":[5.7600713E3,2.809877E3,2.9501946E3,2.0162395E3,7.9363745E2,1.7943047E3,1.1558899E3],"tree_param":{"num_deleted":"0","num_feature":"106","num_nodes":"7","size_leaf_vector":"0"}},{"base_weights":[1.0298731E-1,2.8773254E-1,-7.3008925E-2,3.7979478E-1,5.3664465E-2,-2.1481326E-1,1.4711142E-1],"categories":[],"categories_nodes":[],"categories_segments":[],"categories_sizes":[],"default_left":[1,1,1,0,0,0,0],"id":49,"left_children":[1,3,5,-1,-1,-1,-1],"loss_changes":[1.8733917E2,6.0550705E1,9.215024E1,0E0,0E0,0E0,0E0],"parents":[2147483647,0,0,1,1,2,2],"right_children":[2,4,6,-1,-1,-1,-1],"split_conditions":[1.45E1,3.75E0,1.65E1,3.7979477E-3,5.3664466E-4,-2.1481325E-3,1.4711141E-3],"split_indices":[51,77,80,0,0,0,0],"split_type":[0,0,0,0,0,0,0],"sum_hessian":[5.760072E3,2.8098772E3,2.9501946E3,2.0162396E3,7.936375E2,1.7943047E3,1.1558898E3],"tree_param":{"num_deleted":"0","num_feature":"106","num_nodes":"7","size_leaf_vector":"0"}},{"base_weights":[-1.01993255E-1,-2.2293144E-1,1.6323338E-1,-7.329478E-2,-3.9346096E-1,2.540431E-1,-1.1674921E-1],"categories":[],"categories_nodes":[],"categories_segments":[],"categories_sizes":[],"default_left":[1,1,1,0,0,0,0],"id":50,"left_children":[1,3,5,-1,-1,-1,-1],"loss_changes":[1.8476575E2,1.0091589E2,4.590175E1,0E0,0E0,0E0,0E0],"parents":[2147483647,0,0,1,1,2,2],"right_children":[2,4,6,-1,-1,-1,-1],"split_conditions":[2.05E1,1.35E1,2.25E1,-7.329478E-4,-3.9346097E-3,2.540431E-3,-1.1674921E-3],"split_indices":[51,80,103,0,0,0,0],"split_type":[0,0,0,0,0,0,0],"sum_hessian":[5.758109E3,3.9549075E3,1.8032017E3,2.1072563E3,1.847651E3,1.3616544E3,4.415472E2],"tree_param":{"num_deleted":"0","num_feature":"106","num_nodes":"7","size_leaf_vector":"0"}},{"base_weights":[1.0199322E-1,2.2293141E-1,-1.6323341E-1,7.329474E-2,3.9346093E-1,-2.5404316E-1,1.16749205E-1],"categories":[],"categories_nodes":[],"categories_segments":[],"categories_sizes":[],"default_left":[1,1,1,0,0,0,0],"id":51,"left_children":[1,3,5,-1,-1,-1,-1],"loss_changes":[1.8476576E2,1.0091591E2,4.5901756E1,0E0,0E0,0E0,0E0],"parents":[2147483647,0,0,1,1,2,2],"right_children":[2,4,6,-1,-1,-1,-1],"split_conditions":[2.05E1,1.35E1,2.25E1,7.329474E-4,3.9346092E-3,-2.5404315E-3,1.167492E-3],"split_indices":[51,80,103,0,0,0,0],"split_type":[0,0,0,0,0,0,0],"sum_hessian":[5.758109E3,3.9549072E3,1.8032015E3,2.1072563E3,1.847651E3,1.3616543E3,4.415472E2],"tree_param":{"num_deleted":"0","num_feature":"106","num_nodes":"7","size_leaf_vector":"0"}},{"base_weights":[-1.0100353E-1,-2.829356E-1,7.219355E-2,-3.5547924E-1,6.748938E-3,-8.073447E-2,2.7099097E-1],"categories":[],"categories_nodes":[],"categories_segments":[],"categories_sizes":[],"default_left":[1,1,1,0,0,0,0],"id":52,"left_children":[1,3,5,-1,-1,-1,-1],"loss_changes":[1.8143793E2,5.901436E1,8.971671E1,0E0,0E0,0E0,0E0],"parents":[2147483647,0,0,1,1,2,2],"right_children":[2,4,6,-1,-1,-1,-1],"split_conditions":[1.45E1,5.05E0,5.445E-1,-3.5547924E-3,6.748938E-5,-8.073447E-4,2.7099096E-3],"split_indices":[51,77,55,0,0,0,0],"split_type":[0,0,0,0,0,0,0],"sum_hessian":[5.7564395E3,2.8071162E3,2.9493232E3,2.2447517E3,5.623645E2,1.6673116E3,1.2820116E3],"tree_param":{"num_deleted":"0","num_feature":"106","num_nodes":"7","size_leaf_vector":"0"}},{"base_weights":[1.01003535E-1,2.829356E-1,-7.219353E-2,3.5547927E-1,-6.7489683E-3,8.073445E-2,-2.709909E-1],"categories":[],"categories_nodes":[],"categories_segments":[],"categories_sizes":[],"default_left":[1,1,1,0,0,0,0],"id":53,"left_children":[1,3,5,-1,-1,-1,-1],"loss_changes":[1.8143793E2,5.901436E1,8.971667E1,0E0,0E0,0E0,0E0],"parents":[2147483647,0,0,1,1,2,2],"right_children":[2,4,6,-1,-1,-1,-1],"split_conditions":[1.45E1,5.05E0,5.445E-1,3.5547926E-3,-6.748968E-5,8.0734445E-4,-2.709909E-3],"split_indices":[51,77,55,0,0,0,0],"split_type":[0,0,0,0,0,0,0],"sum_hessian":[5.7564395E3,2.8071162E3,2.9493232E3,2.2447517E3,5.6236444E2,1.6673116E3,1.2820117E3],"tree_param":{"num_deleted":"0","num_feature":"106","num_nodes":"7","size_leaf_vector":"0"}},{"base_weights":[-1.0002917E-1,-2.1907678E-1,1.6093996E-1,-7.158387E-2,-3.8733056E-1,7.2854385E-3,3.217973E-1],"categories":[],"categories_nodes":[],"categories_segments":[],"categories_sizes":[],"default_left":[1,1,1,0,0,0,0],"id":54,"left_children":[1,3,5,-1,-1,-1,-1],"loss_changes":[1.788433E2,9.806711E1,4.4575638E1,0E0,0E0,0E0,0E0],"parents":[2147483647,0,0,1,1,2,2],"right_children":[2,4,6,-1,-1,-1,-1],"split_conditions":[2.05E1,1.35E1,3.5000002E-1,-7.158386E-4,-3.8733056E-3,7.285438E-5,3.217973E-3],"split_indices":[51,80,77,0,0,0,0],"split_type":[0,0,0,0,0,0,0],"sum_hessian":[5.7544233E3,3.9518489E3,1.8025743E3,2.1066045E3,1.8452446E3,9.2246277E2,8.801116E2],"tree_param":{"num_deleted":"0","num_feature":"106","num_nodes":"7","size_leaf_vector":"0"}},{"base_weights":[1.00029156E-1,2.1907674E-1,-1.6093995E-1,7.158383E-2,3.8733053E-1,-7.2853975E-3,-3.217973E-1],"categories":[],"categories_nodes":[],"categories_segments":[],"categories_sizes":[],"default_left":[1,1,1,0,0,0,0],"id":55,"left_children":[1,3,5,-1,-1,-1,-1],"loss_changes":[1.7884326E2,9.806711E1,4.4575638E1,0E0,0E0,0E0,0E0],"parents":[2147483647,0,0,1,1,2,2],"right_children":[2,4,6,-1,-1,-1,-1],"split_conditions":[2.05E1,1.35E1,3.5000002E-1,7.158383E-4,3.8733052E-3,-7.2853974E-5,-3.217973E-3],"split_indices":[51,80,77,0,0,0,0],"split_type":[0,0,0,0,0,0,0],"sum_hessian":[5.7544233E3,3.9518489E3,1.8025743E3,2.1066042E3,1.8452446E3,9.224627E2,8.801116E2],"tree_param":{"num_deleted":"0","num_feature":"106","num_nodes":"7","size_leaf_vector":"0"}},{"base_weights":[-9.9060364E-2,-2.782286E-1,7.138878E-2,-1.896719E-1,-5.108739E-1,-1.4821108E-1,2.0600212E-1],"categories":[],"categories_nodes":[],"categories_segments":[],"categories_sizes":[],"default_left":[1,1,1,0,0,0,0],"id":56,"left_children":[1,3,5,-1,-1,-1,-1],"loss_changes":[1.7573032E2,5.7698166E1,8.72166E1,0E0,0E0,0E0,0E0],"parents":[2147483647,0,0,1,1,2,2],"right_children":[2,4,6,-1,-1,-1,-1],"split_conditions":[1.45E1,1.95E1,-1.1500001E0,-1.896719E-3,-5.1087392E-3,-1.4821107E-3,2.060021E-3],"split_indices":[51,80,77,0,0,0,0],"split_type":[0,0,0,0,0,0,0],"sum_hessian":[5.752627E3,2.8042727E3,2.948354E3,2.032438E3,7.718347E2,1.1204387E3,1.8279153E3],"tree_param":{"num_deleted":"0","num_feature":"106","num_nodes":"7","size_leaf_vector":"0"}},{"base_weights":[9.9060364E-2,2.7822858E-1,-7.138875E-2,1.8967187E-1,5.108739E-1,1.4821115E-1,-2.0600212E-1],"categories":[],"categories_nodes":[],"categories_segments":[],"categories_sizes":[],"default_left":[1,1,1,0,0,0,0],"id":57,"left_children":[1,3,5,-1,-1,-1,-1],"loss_changes":[1.7573024E2,5.769818E1,8.721663E1,0E0,0E0,0E0,0E0],"parents":[2147483647,0,0,1,1,2,2],"right_children":[2,4,6,-1,-1,-1,-1],"split_conditions":[1.45E1,1.95E1,-1.1500001E0,1.8967187E-3,5.1087392E-3,1.4821115E-3,-2.060021E-3],"split_indices":[51,80,77,0,0,0,0],"split_type":[0,0,0,0,0,0,0],"sum_hessian":[5.7526265E3,2.8042727E3,2.948354E3,2.032438E3,7.718347E2,1.1204387E3,1.8279153E3],"tree_param":{"num_deleted":"0","num_feature":"106","num_nodes":"7","size_leaf_vector":"0"}},{"base_weights":[-9.81064E-2,-2.1528919E-1,1.586636E-1,-5.076271E-2,-3.619443E-1,2.4696429E-1,-1.1340155E-1],"categories":[],"categories_nodes":[],"categories_segments":[],"categories_sizes":[],"default_left":[1,1,1,0,0,0,0],"id":58,"left_children":[1,3,5,-1,-1,-1,-1],"loss_changes":[1.7309337E2,9.52818E1,4.3340126E1,0E0,0E0,0E0,0E0],"parents":[2147483647,0,0,1,1,2,2],"right_children":[2,4,6,-1,-1,-1,-1],"split_conditions":[2.05E1,1.15E1,2.25E1,-5.076271E-4,-3.6194427E-3,2.4696428E-3,-1.1340155E-3],"split_indices":[51,80,103,0,0,0,0],"split_type":[0,0,0,0,0,0,0],"sum_hessian":[5.7505723E3,3.9486694E3,1.801903E3,1.8615818E3,2.0870876E3,1.360451E3,4.4145184E2],"tree_param":{"num_deleted":"0","num_feature":"106","num_nodes":"7","size_leaf_vector":"0"}},{"base_weights":[9.81064E-2,2.1528922E-1,-1.5866368E-1,5.0762724E-2,3.6194435E-1,-2.4696435E-1,1.1340144E-1],"categories":[],"categories_nodes":[],"categories_segments":[],"categories_sizes":[],"default_left":[1,1,1,0,0,0,0],"id":59,"left_children":[1,3,5,-1,-1,-1,-1],"loss_changes":[1.7309344E2,9.5281815E1,4.3340103E1,0E0,0E0,0E0,0E0],"parents":[2147483647,0,0,1,1,2,2],"right_children":[2,4,6,-1,-1,-1,-1],"split_conditions":[2.05E1,1.15E1,2.25E1,5.076272E-4,3.6194434E-3,-2.4696435E-3,1.1340145E-3],"split_indices":[51,80,103,0,0,0,0],"split_type":[0,0,0,0,0,0,0],"sum_hessian":[5.7505723E3,3.9486694E3,1.8019028E3,1.8615818E3,2.0870876E3,1.360451E3,4.4145184E2],"tree_param":{"num_deleted":"0","num_feature":"106","num_nodes":"7","size_leaf_vector":"0"}},{"base_weights":[-9.7157426E-2,-2.7361783E-1,7.059231E-2,-3.447691E-1,9.844976E-3,-7.7919655E-2,2.6379496E-1],"categories":[],"categories_nodes":[],"categories_segments":[],"categories_sizes":[],"default_left":[1,1,1,0,0,0,0],"id":60,"left_children":[1,3,5,-1,-1,-1,-1],"loss_changes":[1.70218E2,5.6522552E1,8.461898E1,0E0,0E0,0E0,0E0],"parents":[2147483647,0,0,1,1,2,2],"right_children":[2,4,6,-1,-1,-1,-1],"split_conditions":[1.45E1,5.05E0,5.445E-1,-3.4476907E-3,9.844975E-5,-7.791965E-4,2.6379495E-3],"split_indices":[51,77,55,0,0,0,0],"split_type":[0,0,0,0,0,0,0],"sum_hessian":[5.7487246E3,2.8013152E3,2.9474094E3,2.2390747E3,5.622406E2,1.6667786E3,1.2806309E3],"tree_param":{"num_deleted":"0","num_feature":"106","num_nodes":"7","size_leaf_vector":"0"}},{"base_weights":[9.715744E-2,2.736179E-1,-7.059232E-2,3.4476918E-1,-9.8449765E-3,7.791963E-2,-2.6379496E-1],"categories":[],"categories_nodes":[],"categories_segments":[],"categories_sizes":[],"default_left":[1,1,1,0,0,0,0],"id":61,"left_children":[1,3,5,-1,-1,-1,-1],"loss_changes":[1.7021806E2,5.65226E1,8.461898E1,0E0,0E0,0E0,0E0],"parents":[2147483647,0,0,1,1,2,2],"right_children":[2,4,6,-1,-1,-1,-1],"split_conditions":[1.45E1,5.05E0,5.445E-1,3.4476917E-3,-9.844976E-5,7.791963E-4,-2.6379495E-3],"split_indices":[51,77,55,0,0,0,0],"split_type":[0,0,0,0,0,0,0],"sum_hessian":[5.7487246E3,2.8013152E3,2.9474094E3,2.2390747E3,5.622406E2,1.6667786E3,1.2806309E3],"tree_param":{"num_deleted":"0","num_feature":"106","num_nodes":"7","size_leaf_vector":"0"}},{"base_weights":[-9.6223034E-2,-2.1158269E-1,1.5643731E-1,-6.824963E-2,-3.7545782E-1,2.4343143E-1,-1.1151128E-1],"categories":[],"categories_nodes":[],"categories_segments":[],"categories_sizes":[],"default_left":[1,1,1,0,0,0,0],"id":62,"left_children":[1,3,5,-1,-1,-1,-1],"loss_changes":[1.675556E2,9.266885E1,4.2036366E1,0E0,0E0,0E0,0E0],"parents":[2147483647,0,0,1,1,2,2],"right_children":[2,4,6,-1,-1,-1,-1],"split_conditions":[2.05E1,1.35E1,2.25E1,-6.824963E-4,-3.754578E-3,2.4343142E-3,-1.1151128E-3],"split_indices":[51,80,103,0,0,0,0],"split_type":[0,0,0,0,0,0,0],"sum_hessian":[5.746541E3,3.94534E3,1.8012008E3,2.105332E3,1.840008E3,1.3598074E3,4.413934E2],"tree_param":{"num_deleted":"0","num_feature":"106","num_nodes":"7","size_leaf_vector":"0"}},{"base_weights":[9.6223034E-2,2.1158268E-1,-1.5643728E-1,6.8249635E-2,3.754578E-1,-2.4343142E-1,1.115114E-1],"categories":[],"categories_nodes":[],"categories_segments":[],"categories_sizes":[],"default_left":[1,1,1,0,0,0,0],"id":63,"left_children":[1,3,5,-1,-1,-1,-1],"loss_changes":[1.6755556E2,9.266882E1,4.2036392E1,0E0,0E0,0E0,0E0],"parents":[2147483647,0,0,1,1,2,2],"right_children":[2,4,6,-1,-1,-1,-1],"split_conditions":[2.05E1,1.35E1,2.25E1,6.8249635E-4,3.7545778E-3,-2.4343142E-3,1.115114E-3],"split_indices":[51,80,103,0,0,0,0],"split_type":[0,0,0,0,0,0,0],"sum_hessian":[5.746541E3,3.94534E3,1.8012008E3,2.105332E3,1.840008E3,1.3598074E3,4.413934E2],"tree_param":{"num_deleted":"0","num_feature":"106","num_nodes":"7","size_leaf_vector":"0"}},{"base_weights":[-9.529396E-2,-2.6909214E-1,6.98029E-2,-1.825478E-1,-4.9712664E-1,-1.580823E-1,1.9221951E-1],"categories":[],"categories_nodes":[],"categories_segments":[],"categories_sizes":[],"default_left":[1,1,1,0,0,0,0],"id":64,"left_children":[1,3,5,-1,-1,-1,-1],"loss_changes":[1.648803E2,5.5152634E1,8.225253E1,0E0,0E0,0E0,0E0],"parents":[2147483647,0,0,1,1,2,2],"right_children":[2,4,6,-1,-1,-1,-1],"split_conditions":[1.45E1,1.95E1,-1.55E0,-1.8254779E-3,-4.9712663E-3,-1.580823E-3,1.9221951E-3],"split_indices":[51,80,77,0,0,0,0],"split_type":[0,0,0,0,0,0,0],"sum_hessian":[5.744598E3,2.7982444E3,2.9463538E3,2.0297195E3,7.685248E2,1.0295321E3,1.9168217E3],"tree_param":{"num_deleted":"0","num_feature":"106","num_nodes":"7","size_leaf_vector":"0"}},{"base_weights":[9.529397E-2,2.6909217E-1,-6.9802895E-2,1.825478E-1,4.9712673E-1,1.580823E-1,-1.9221951E-1],"categories":[],"categories_nodes":[],"categories_segments":[],"categories_sizes":[],"default_left":[1,1,1,0,0,0,0],"id":65,"left_children":[1,3,5,-1,-1,-1,-1],"loss_changes":[1.6488034E2,5.515265E1,8.2252525E1,0E0,0E0,0E0,0E0],"parents":[2147483647,0,0,1,1,2,2],"right_children":[2,4,6,-1,-1,-1,-1],"split_conditions":[1.45E1,1.95E1,-1.55E0,1.8254779E-3,4.971267E-3,1.580823E-3,-1.9221951E-3],"split_indices":[51,80,77,0,0,0,0],"split_type":[0,0,0,0,0,0,0],"sum_hessian":[5.744598E3,2.7982441E3,2.9463538E3,2.0297194E3,7.685248E2,1.0295321E3,1.9168217E3],"tree_param":{"num_deleted":"0","num_feature":"106","num_nodes":"7","size_leaf_vector":"0"}},{"base_weights":[-9.4378896E-2,-2.0793253E-1,1.54207E-1,-4.8004143E-2,-3.5080796E-1,7.258897E-3,3.0830434E-1],"categories":[],"categories_nodes":[],"categories_segments":[],"categories_sizes":[],"default_left":[1,1,1,0,0,0,0],"id":66,"left_children":[1,3,5,-1,-1,-1,-1],"loss_changes":[1.621556E2,9.0077835E1,4.079128E1,0E0,0E0,0E0,0E0],"parents":[2147483647,0,0,1,1,2,2],"right_children":[2,4,6,-1,-1,-1,-1],"split_conditions":[2.05E1,1.15E1,3.5000002E-1,-4.8004143E-4,-3.5080796E-3,7.258897E-5,3.0830433E-3],"split_indices":[51,80,77,0,0,0,0],"split_type":[0,0,0,0,0,0,0],"sum_hessian":[5.742392E3,3.9419014E3,1.8004907E3,1.8605834E3,2.081318E3,9.221604E2,8.783304E2],"tree_param":{"num_deleted":"0","num_feature":"106","num_nodes":"7","size_leaf_vector":"0"}},{"base_weights":[9.4378926E-2,2.0793256E-1,-1.5420698E-1,4.800413E-2,3.5080802E-1,-7.2588804E-3,-3.083043E-1],"categories":[],"categories_nodes":[],"categories_segments":[],"categories_sizes":[],"default_left":[1,1,1,0,0,0,0],"id":67,"left_children":[1,3,5,-1,-1,-1,-1],"loss_changes":[1.6215556E2,9.0077896E1,4.0791283E1,0E0,0E0,0E0,0E0],"parents":[2147483647,0,0,1,1,2,2],"right_children":[2,4,6,-1,-1,-1,-1],"split_conditions":[2.05E1,1.15E1,3.5000002E-1,4.8004132E-4,3.5080803E-3,-7.25888E-5,-3.083043E-3],"split_indices":[51,80,77,0,0,0,0],"split_type":[0,0,0,0,0,0,0],"sum_hessian":[5.742392E3,3.9419016E3,1.8004907E3,1.8605834E3,2.081318E3,9.221604E2,8.783303E2],"tree_param":{"num_deleted":"0","num_feature":"106","num_nodes":"7","size_leaf_vector":"0"}},{"base_weights":[-9.3468904E-2,6.4814016E-2,-2.6949E-1,-1.7613576E-1,1.7479897E-1,-3.4157836E-1,1.4652732E-2],"categories":[],"categories_nodes":[],"categories_segments":[],"categories_sizes":[],"default_left":[1,1,1,0,0,0,0],"id":68,"left_children":[1,3,5,-1,-1,-1,-1],"loss_changes":[1.5997794E2,8.0164024E1,5.5690125E1,0E0,0E0,0E0,0E0],"parents":[2147483647,0,0,1,1,2,2],"right_children":[2,4,6,-1,-1,-1,-1],"split_conditions":[5.5E-1,-2.05E0,5.05E0,-1.7613576E-3,1.7479896E-3,-3.4157836E-3,1.4652731E-4],"split_indices":[25,77,77,0,0,0,0],"split_type":[0,0,0,0,0,0,0],"sum_hessian":[5.740349E3,3.0227986E3,2.7175503E3,9.471738E2,2.0756248E3,2.1674546E3,5.500958E2],"tree_param":{"num_deleted":"0","num_feature":"106","num_nodes":"7","size_leaf_vector":"0"}},{"base_weights":[9.3468875E-2,-6.481405E-2,2.6948997E-1,1.7613573E-1,-1.7479901E-1,3.4157833E-1,-1.4652705E-2],"categories":[],"categories_nodes":[],"categories_segments":[],"categories_sizes":[],"default_left":[1,1,1,0,0,0,0],"id":69,"left_children":[1,3,5,-1,-1,-1,-1],"loss_changes":[1.5997797E2,8.016403E1,5.5690094E1,0E0,0E0,0E0,0E0],"parents":[2147483647,0,0,1,1,2,2],"right_children":[2,4,6,-1,-1,-1,-1],"split_conditions":[5.5E-1,-2.05E0,5.05E0,1.7613573E-3,-1.74799E-3,3.4157832E-3,-1.4652705E-4],"split_indices":[25,77,77,0,0,0,0],"split_type":[0,0,0,0,0,0,0],"sum_hessian":[5.740349E3,3.0227986E3,2.7175503E3,9.471738E2,2.0756248E3,2.1674546E3,5.500958E2],"tree_param":{"num_deleted":"0","num_feature":"106","num_nodes":"7","size_leaf_vector":"0"}},{"base_weights":[-9.2570454E-2,-2.0437142E-1,1.5206611E-1,-6.500868E-2,-3.641058E-1,7.5515946E-3,3.0371252E-1],"categories":[],"categories_nodes":[],"categories_segments":[],"categories_sizes":[],"default_left":[1,1,1,0,0,0,0],"id":70,"left_children":[1,3,5,-1,-1,-1,-1],"loss_changes":[1.5700073E2,8.7672134E1,3.9460957E1,0E0,0E0,0E0,0E0],"parents":[2147483647,0,0,1,1,2,2],"right_children":[2,4,6,-1,-1,-1,-1],"split_conditions":[2.05E1,1.35E1,3.5000002E-1,-6.500868E-4,-3.6410578E-3,7.551594E-5,3.037125E-3],"split_indices":[51,80,77,0,0,0,0],"split_type":[0,0,0,0,0,0,0],"sum_hessian":[5.7381655E3,3.938433E3,1.7997324E3,2.104092E3,1.834341E3,9.2207355E2,8.776589E2],"tree_param":{"num_deleted":"0","num_feature":"106","num_nodes":"7","size_leaf_vector":"0"}},{"base_weights":[9.257044E-2,2.043714E-1,-1.520661E-1,6.500868E-2,3.6410576E-1,-7.551598E-3,-3.037125E-1],"categories":[],"categories_nodes":[],"categories_segments":[],"categories_sizes":[],"default_left":[1,1,1,0,0,0,0],"id":71,"left_children":[1,3,5,-1,-1,-1,-1],"loss_changes":[1.5700069E2,8.7672104E1,3.9460945E1,0E0,0E0,0E0,0E0],"parents":[2147483647,0,0,1,1,2,2],"right_children":[2,4,6,-1,-1,-1,-1],"split_conditions":[2.05E1,1.35E1,3.5000002E-1,6.500868E-4,3.6410575E-3,-7.551598E-5,-3.0371249E-3],"split_indices":[51,80,77,0,0,0,0],"split_type":[0,0,0,0,0,0,0],"sum_hessian":[5.7381655E3,3.938433E3,1.7997324E3,2.104092E3,1.834341E3,9.2207355E2,8.776589E2],"tree_param":{"num_deleted":"0","num_feature":"106","num_nodes":"7","size_leaf_vector":"0"}},{"base_weights":[-9.167933E-2,6.412703E-2,-2.6508188E-1,-1.5551272E-1,1.8104176E-1,-3.362835E-1,1.5169414E-2],"categories":[],"categories_nodes":[],"categories_segments":[],"categories_sizes":[],"default_left":[1,1,1,0,0,0,0],"id":72,"left_children":[1,3,5,-1,-1,-1,-1],"loss_changes":[1.5501578E2,7.764706E1,5.4188995E1,0E0,0E0,0E0,0E0],"parents":[2147483647,0,0,1,1,2,2],"right_children":[2,4,6,-1,-1,-1,-1],"split_conditions":[5.5E-1,-1.55E0,5.05E0,-1.5551272E-3,1.8104176E-3,-3.362835E-3,1.5169414E-4],"split_indices":[25,77,77,0,0,0,0],"split_type":[0,0,0,0,0,0,0],"sum_hessian":[5.736037E3,3.021646E3,2.7143914E3,1.0495667E3,1.9720793E3,2.1643171E3,5.500741E2],"tree_param":{"num_deleted":"0","num_feature":"106","num_nodes":"7","size_leaf_vector":"0"}},{"base_weights":[9.167934E-2,-6.4127006E-2,2.6508188E-1,1.5551272E-1,-1.8104175E-1,3.3628353E-1,-1.5169416E-2],"categories":[],"categories_nodes":[],"categories_segments":[],"categories_sizes":[],"default_left":[1,1,1,0,0,0,0],"id":73,"left_children":[1,3,5,-1,-1,-1,-1],"loss_changes":[1.5501578E2,7.764704E1,5.418901E1,0E0,0E0,0E0,0E0],"parents":[2147483647,0,0,1,1,2,2],"right_children":[2,4,6,-1,-1,-1,-1],"split_conditions":[5.5E-1,-1.55E0,5.05E0,1.5551272E-3,-1.8104174E-3,3.3628354E-3,-1.5169416E-4],"split_indices":[25,77,77,0,0,0,0],"split_type":[0,0,0,0,0,0,0],"sum_hessian":[5.736037E3,3.021646E3,2.7143914E3,1.0495667E3,1.9720793E3,2.1643171E3,5.500741E2],"tree_param":{"num_deleted":"0","num_feature":"106","num_nodes":"7","size_leaf_vector":"0"}},{"base_weights":[-9.079954E-2,-2.5810876E-1,6.781927E-2,-1.9134924E-1,-5.416501E-1,-7.38199E-2,2.523167E-1],"categories":[],"categories_nodes":[],"categories_segments":[],"categories_sizes":[],"default_left":[1,1,1,0,0,0,0],"id":74,"left_children":[1,3,5,-1,-1,-1,-1],"loss_changes":[1.5220883E2,5.2729996E1,7.696783E1,0E0,0E0,0E0,0E0],"parents":[2147483647,0,0,1,1,2,2],"right_children":[2,4,6,-1,-1,-1,-1],"split_conditions":[1.45E1,2.25E1,5.445E-1,-1.9134923E-3,-5.416501E-3,-7.38199E-4,2.523167E-3],"split_indices":[51,80,55,0,0,0,0],"split_type":[0,0,0,0,0,0,0],"sum_hessian":[5.733762E3,2.7901345E3,2.9436277E3,2.2597527E3,5.303817E2,1.6655673E3,1.2780604E3],"tree_param":{"num_deleted":"0","num_feature":"106","num_nodes":"7","size_leaf_vector":"0"}},{"base_weights":[9.079955E-2,2.581088E-1,-6.781927E-2,1.9134922E-1,5.4165024E-1,7.381988E-2,-2.5231668E-1],"categories":[],"categories_nodes":[],"categories_segments":[],"categories_sizes":[],"default_left":[1,1,1,0,0,0,0],"id":75,"left_children":[1,3,5,-1,-1,-1,-1],"loss_changes":[1.5220886E2,5.273001E1,7.696781E1,0E0,0E0,0E0,0E0],"parents":[2147483647,0,0,1,1,2,2],"right_children":[2,4,6,-1,-1,-1,-1],"split_conditions":[1.45E1,2.25E1,5.445E-1,1.9134922E-3,5.4165022E-3,7.381988E-4,-2.5231668E-3],"split_indices":[51,80,55,0,0,0,0],"split_type":[0,0,0,0,0,0,0],"sum_hessian":[5.733762E3,2.7901345E3,2.9436277E3,2.2597527E3,5.303817E2,1.6655673E3,1.2780604E3],"tree_param":{"num_deleted":"0","num_feature":"106","num_nodes":"7","size_leaf_vector":"0"}},{"base_weights":[-8.9930184E-2,-1.993484E-1,1.493117E-1,-8.805547E-2,-3.9255026E-1,6.0496926E-1,1.0219721E-1],"categories":[],"categories_nodes":[],"categories_segments":[],"categories_sizes":[],"default_left":[1,1,1,0,0,0,0],"id":76,"left_children":[1,3,5,-1,-1,-1,-1],"loss_changes":[1.500889E2,8.45511E1,3.857079E1,0E0,0E0,0E0,0E0],"parents":[2147483647,0,0,1,1,2,2],"right_children":[2,4,6,-1,-1,-1,-1],"split_conditions":[2.05E1,1.65E1,2.5E0,-8.8055467E-4,-3.9255023E-3,6.0496926E-3,1.021972E-3],"split_indices":[51,80,85,0,0,0,0],"split_type":[0,0,0,0,0,0,0],"sum_hessian":[5.731388E3,3.9328506E3,1.7985378E3,2.4963162E3,1.4365343E3,1.6743042E2,1.6311074E3],"tree_param":{"num_deleted":"0","num_feature":"106","num_nodes":"7","size_leaf_vector":"0"}},{"base_weights":[8.993021E-2,1.9934842E-1,-1.4931168E-1,8.8055484E-2,3.925503E-1,-6.049692E-1,-1.0219719E-1],"categories":[],"categories_nodes":[],"categories_segments":[],"categories_sizes":[],"default_left":[1,1,1,0,0,0,0],"id":77,"left_children":[1,3,5,-1,-1,-1,-1],"loss_changes":[1.5008888E2,8.455113E1,3.857079E1,0E0,0E0,0E0,0E0],"parents":[2147483647,0,0,1,1,2,2],"right_children":[2,4,6,-1,-1,-1,-1],"split_conditions":[2.05E1,1.65E1,2.5E0,8.8055484E-4,3.9255028E-3,-6.0496917E-3,-1.0219719E-3],"split_indices":[51,80,85,0,0,0,0],"split_type":[0,0,0,0,0,0,0],"sum_hessian":[5.731388E3,3.9328506E3,1.7985378E3,2.4963162E3,1.4365343E3,1.6743042E2,1.6311074E3],"tree_param":{"num_deleted":"0","num_feature":"106","num_nodes":"7","size_leaf_vector":"0"}},{"base_weights":[-8.9061946E-2,6.293747E-2,-2.5843665E-1,5.497137E-1,1.189631E-2,-3.4636316E-1,-3.746831E-2],"categories":[],"categories_nodes":[],"categories_segments":[],"categories_sizes":[],"default_left":[1,1,1,0,0,0,0],"id":78,"left_children":[1,3,5,-1,-1,-1,-1],"loss_changes":[1.4754437E2,7.504979E1,5.264894E1,0E0,0E0,0E0,0E0],"parents":[2147483647,0,0,1,1,2,2],"right_children":[2,4,6,-1,-1,-1,-1],"split_conditions":[5.5E-1,2.5E0,3.75E0,5.4971366E-3,1.189631E-4,-3.4636315E-3,-3.746831E-4],"split_indices":[25,85,77,0,0,0,0],"split_type":[0,0,0,0,0,0,0],"sum_hessian":[5.729391E3,3.0199082E3,2.7094827E3,2.8567496E2,2.7342332E3,1.9378262E3,7.7165656E2],"tree_param":{"num_deleted":"0","num_feature":"106","num_nodes":"7","size_leaf_vector":"0"}},{"base_weights":[8.906196E-2,-6.293748E-2,2.5843668E-1,-5.4971373E-1,-1.189632E-2,3.463632E-1,3.7468396E-2],"categories":[],"categories_nodes":[],"categories_segments":[],"categories_sizes":[],"default_left":[1,1,1,0,0,0,0],"id":79,"left_children":[1,3,5,-1,-1,-1,-1],"loss_changes":[1.475444E2,7.5049805E1,5.2648895E1,0E0,0E0,0E0,0E0],"parents":[2147483647,0,0,1,1,2,2],"right_children":[2,4,6,-1,-1,-1,-1],"split_conditions":[5.5E-1,2.5E0,3.75E0,-5.497137E-3,-1.18963195E-4,3.4636317E-3,3.7468396E-4],"split_indices":[25,85,77,0,0,0,0],"split_type":[0,0,0,0,0,0,0],"sum_hessian":[5.7293906E3,3.0199082E3,2.7094827E3,2.8567493E2,2.7342332E3,1.9378262E3,7.7165656E2],"tree_param":{"num_deleted":"0","num_feature":"106","num_nodes":"7","size_leaf_vector":"0"}},{"base_weights":[-8.820442E-2,-1.9595791E-1,1.4724572E-1,-4.2828105E-2,-3.333151E-1,2.2967218E-1,-1.0618167E-1],"categories":[],"categories_nodes":[],"categories_segments":[],"categories_sizes":[],"default_left":[1,1,1,0,0,0,0],"id":80,"left_children":[1,3,5,-1,-1,-1,-1],"loss_changes":[1.4535785E2,8.265184E1,3.7604618E1,0E0,0E0,0E0,0E0],"parents":[2147483647,0,0,1,1,2,2],"right_children":[2,4,6,-1,-1,-1,-1],"split_conditions":[2.05E1,1.15E1,2.25E1,-4.2828106E-4,-3.3331509E-3,2.2967218E-3,-1.0618167E-3],"split_indices":[51,80,103,0,0,0,0],"split_type":[0,0,0,0,0,0,0],"sum_hessian":[5.7272495E3,3.9292158E3,1.7980336E3,1.8585554E3,2.0706604E3,1.3568245E3,4.4120914E2],"tree_param":{"num_deleted":"0","num_feature":"106","num_nodes":"7","size_leaf_vector":"0"}},{"base_weights":[8.8204406E-2,1.959579E-1,-1.4724573E-1,4.2828087E-2,3.3331507E-1,-2.296722E-1,1.0618167E-1],"categories":[],"categories_nodes":[],"categories_segments":[],"categories_sizes":[],"default_left":[1,1,1,0,0,0,0],"id":81,"left_children":[1,3,5,-1,-1,-1,-1],"loss_changes":[1.4535783E2,8.2651825E1,3.760462E1,0E0,0E0,0E0,0E0],"parents":[2147483647,0,0,1,1,2,2],"right_children":[2,4,6,-1,-1,-1,-1],"split_conditions":[2.05E1,1.15E1,2.25E1,4.2828085E-4,3.3331506E-3,-2.2967218E-3,1.0618167E-3],"split_indices":[51,80,103,0,0,0,0],"split_type":[0,0,0,0,0,0,0],"sum_hessian":[5.7272495E3,3.9292158E3,1.7980336E3,1.8585554E3,2.0706604E3,1.3568245E3,4.4120914E2],"tree_param":{"num_deleted":"0","num_feature":"106","num_nodes":"7","size_leaf_vector":"0"}},{"base_weights":[-8.735741E-2,-2.4982467E-1,6.6403024E-2,-1.8443276E-1,-5.285813E-1,1.9454388E-1,-1.2896495E-1],"categories":[],"categories_nodes":[],"categories_segments":[],"categories_sizes":[],"default_left":[1,1,1,0,0,0,0],"id":82,"left_children":[1,3,5,-1,-1,-1,-1],"loss_changes":[1.4305824E2,5.06575E1,7.3692535E1,0E0,0E0,0E0,0E0],"parents":[2147483647,0,0,1,1,2,2],"right_children":[2,4,6,-1,-1,-1,-1],"split_conditions":[1.45E1,2.25E1,1.75E1,-1.8443275E-3,-5.285813E-3,1.9454388E-3,-1.2896494E-3],"split_indices":[51,80,81,0,0,0,0],"split_type":[0,0,0,0,0,0,0],"sum_hessian":[5.72501E3,2.7833865E3,2.941623E3,2.2558591E3,5.275273E2,1.7764578E3,1.1651654E3],"tree_param":{"num_deleted":"0","num_feature":"106","num_nodes":"7","size_leaf_vector":"0"}},{"base_weights":[8.7357394E-2,2.4982463E-1,-6.640302E-2,1.8443273E-1,5.2858126E-1,-1.9454388E-1,1.2896496E-1],"categories":[],"categories_nodes":[],"categories_segments":[],"categories_sizes":[],"default_left":[1,1,1,0,0,0,0],"id":83,"left_children":[1,3,5,-1,-1,-1,-1],"loss_changes":[1.430582E2,5.065747E1,7.369254E1,0E0,0E0,0E0,0E0],"parents":[2147483647,0,0,1,1,2,2],"right_children":[2,4,6,-1,-1,-1,-1],"split_conditions":[1.45E1,2.25E1,1.75E1,1.8443273E-3,5.2858125E-3,-1.9454388E-3,1.2896496E-3],"split_indices":[51,80,81,0,0,0,0],"split_type":[0,0,0,0,0,0,0],"sum_hessian":[5.72501E3,2.7833865E3,2.941623E3,2.2558594E3,5.275273E2,1.7764578E3,1.1651654E3],"tree_param":{"num_deleted":"0","num_feature":"106","num_nodes":"7","size_leaf_vector":"0"}},{"base_weights":[-8.65232E-2,-1.9261691E-1,1.4518395E-1,-9.686043E-2,-4.0684196E-1,5.9123784E-1,9.9188335E-2],"categories":[],"categories_nodes":[],"categories_segments":[],"categories_sizes":[],"default_left":[1,1,1,0,0,0,0],"id":84,"left_children":[1,3,5,-1,-1,-1,-1],"loss_changes":[1.407272E2,8.050351E1,3.683342E1,0E0,0E0,0E0,0E0],"parents":[2147483647,0,0,1,1,2,2],"right_children":[2,4,6,-1,-1,-1,-1],"split_conditions":[2.05E1,1.85E1,2.5E0,-9.686043E-4,-4.0684193E-3,5.9123784E-3,9.918833E-4],"split_indices":[51,80,85,0,0,0,0],"split_type":[0,0,0,0,0,0,0],"sum_hessian":[5.7225127E3,3.9253486E3,1.797164E3,2.7137715E3,1.211577E3,1.6688649E2,1.6302775E3],"tree_param":{"num_deleted":"0","num_feature":"106","num_nodes":"7","size_leaf_vector":"0"}},{"base_weights":[8.652323E-2,1.9261692E-1,-1.4518389E-1,9.686042E-2,4.0684202E-1,-5.9123784E-1,-9.918828E-2],"categories":[],"categories_nodes":[],"categories_segments":[],"categories_sizes":[],"default_left":[1,1,1,0,0,0,0],"id":85,"left_children":[1,3,5,-1,-1,-1,-1],"loss_changes":[1.4072717E2,8.0503525E1,3.6833427E1,0E0,0E0,0E0,0E0],"parents":[2147483647,0,0,1,1,2,2],"right_children":[2,4,6,-1,-1,-1,-1],"split_conditions":[2.05E1,1.85E1,2.5E0,9.6860423E-4,4.0684203E-3,-5.9123784E-3,-9.918828E-4],"split_indices":[51,80,85,0,0,0,0],"split_type":[0,0,0,0,0,0,0],"sum_hessian":[5.7225127E3,3.9253486E3,1.797164E3,2.7137715E3,1.211577E3,1.6688647E2,1.6302775E3],"tree_param":{"num_deleted":"0","num_feature":"106","num_nodes":"7","size_leaf_vector":"0"}},{"base_weights":[-8.5689224E-2,6.1708577E-2,-2.5022042E-1,5.3950465E-1,1.16959205E-2,-3.1951302E-1,2.122468E-2],"categories":[],"categories_nodes":[],"categories_segments":[],"categories_sizes":[],"default_left":[1,1,1,0,0,0,0],"id":86,"left_children":[1,3,5,-1,-1,-1,-1],"loss_changes":[1.3876898E2,7.212689E1,5.086258E1,0E0,0E0,0E0,0E0],"parents":[2147483647,0,0,1,1,2,2],"right_children":[2,4,6,-1,-1,-1,-1],"split_conditions":[5.5E-1,2.5E0,5.05E0,5.3950464E-3,1.169592E-4,-3.1951303E-3,2.1224678E-4],"split_indices":[25,85,77,0,0,0,0],"split_type":[0,0,0,0,0,0,0],"sum_hessian":[5.720432E3,3.0176497E3,2.7027827E3,2.850108E2,2.7326387E3,2.1530024E3,5.4978033E2],"tree_param":{"num_deleted":"0","num_feature":"106","num_nodes":"7","size_leaf_vector":"0"}},{"base_weights":[8.5689224E-2,-6.1708577E-2,2.5022042E-1,-5.395046E-1,-1.1695922E-2,3.1951302E-1,-2.122468E-2],"categories":[],"categories_nodes":[],"categories_segments":[],"categories_sizes":[],"default_left":[1,1,1,0,0,0,0],"id":87,"left_children":[1,3,5,-1,-1,-1,-1],"loss_changes":[1.3876898E2,7.212688E1,5.086258E1,0E0,0E0,0E0,0E0],"parents":[2147483647,0,0,1,1,2,2],"right_children":[2,4,6,-1,-1,-1,-1],"split_conditions":[5.5E-1,2.5E0,5.05E0,-5.395046E-3,-1.1695922E-4,3.1951303E-3,-2.1224678E-4],"split_indices":[25,85,77,0,0,0,0],"split_type":[0,0,0,0,0,0,0],"sum_hessian":[5.720432E3,3.0176497E3,2.7027827E3,2.850108E2,2.732639E3,2.1530024E3,5.4978033E2],"tree_param":{"num_deleted":"0","num_feature":"106","num_nodes":"7","size_leaf_vector":"0"}},{"base_weights":[-8.486499E-2,-1.893463E-1,1.4317517E-1,-3.977645E-2,-3.2385114E-1,2.2401135E-1,-1.0513345E-1],"categories":[],"categories_nodes":[],"categories_segments":[],"categories_sizes":[],"default_left":[1,1,1,0,0,0,0],"id":88,"left_children":[1,3,5,-1,-1,-1,-1],"loss_changes":[1.3629305E2,7.890195E1,3.6105614E1,0E0,0E0,0E0,0E0],"parents":[2147483647,0,0,1,1,2,2],"right_children":[2,4,6,-1,-1,-1,-1],"split_conditions":[2.05E1,1.15E1,2.25E1,-3.9776447E-4,-3.2385113E-3,2.2401134E-3,-1.0513345E-3],"split_indices":[51,80,103,0,0,0,0],"split_type":[0,0,0,0,0,0,0],"sum_hessian":[5.7182275E3,3.921624E3,1.7966033E3,1.85744E3,2.064184E3,1.3554412E3,4.4116217E2],"tree_param":{"num_deleted":"0","num_feature":"106","num_nodes":"7","size_leaf_vector":"0"}},{"base_weights":[8.486499E-2,1.893463E-1,-1.431752E-1,3.977644E-2,3.2385114E-1,-2.2401135E-1,1.0513337E-1],"categories":[],"categories_nodes":[],"categories_segments":[],"categories_sizes":[],"default_left":[1,1,1,0,0,0,0],"id":89,"left_children":[1,3,5,-1,-1,-1,-1],"loss_changes":[1.3629308E2,7.890196E1,3.6105602E1,0E0,0E0,0E0,0E0],"parents":[2147483647,0,0,1,1,2,2],"right_children":[2,4,6,-1,-1,-1,-1],"split_conditions":[2.05E1,1.15E1,2.25E1,3.977644E-4,3.2385113E-3,-2.2401134E-3,1.0513336E-3],"split_indices":[51,80,103,0,0,0,0],"split_type":[0,0,0,0,0,0,0],"sum_hessian":[5.7182275E3,3.921624E3,1.7966034E3,1.8574398E3,2.064184E3,1.3554412E3,4.411622E2],"tree_param":{"num_deleted":"0","num_feature":"106","num_nodes":"7","size_leaf_vector":"0"}},{"base_weights":[-8.4051676E-2,6.1047707E-2,-2.4617188E-1,-1.6517946E-1,1.6436364E-1,-3.1459486E-1,2.1435875E-2],"categories":[],"categories_nodes":[],"categories_segments":[],"categories_sizes":[],"default_left":[1,1,1,0,0,0,0],"id":90,"left_children":[1,3,5,-1,-1,-1,-1],"loss_changes":[1.344963E2,7.0557304E1,4.945018E1,0E0,0E0,0E0,0E0],"parents":[2147483647,0,0,1,1,2,2],"right_children":[2,4,6,-1,-1,-1,-1],"split_conditions":[5.5E-1,-2.05E0,5.05E0,-1.6517945E-3,1.6436364E-3,-3.1459485E-3,2.1435875E-4],"split_indices":[25,77,77,0,0,0,0],"split_type":[0,0,0,0,0,0,0],"sum_hessian":[5.7158813E3,3.0166074E3,2.699274E3,9.455569E2,2.0710505E3,2.1495046E3,5.497693E2],"tree_param":{"num_deleted":"0","num_feature":"106","num_nodes":"7","size_leaf_vector":"0"}},{"base_weights":[8.405169E-2,-6.1047714E-2,2.461719E-1,1.6517946E-1,-1.6436364E-1,3.145949E-1,-2.1435875E-2],"categories":[],"categories_nodes":[],"categories_segments":[],"categories_sizes":[],"default_left":[1,1,1,0,0,0,0],"id":91,"left_children":[1,3,5,-1,-1,-1,-1],"loss_changes":[1.3449637E2,7.05573E1,4.945018E1,0E0,0E0,0E0,0E0],"parents":[2147483647,0,0,1,1,2,2],"right_children":[2,4,6,-1,-1,-1,-1],"split_conditions":[5.5E-1,-2.05E0,5.05E0,1.6517945E-3,-1.6436364E-3,3.145949E-3,-2.1435875E-4],"split_indices":[25,77,77,0,0,0,0],"split_type":[0,0,0,0,0,0,0],"sum_hessian":[5.7158813E3,3.0166074E3,2.699274E3,9.455569E2,2.0710505E3,2.1495046E3,5.497693E2],"tree_param":{"num_deleted":"0","num_feature":"106","num_nodes":"7","size_leaf_vector":"0"}},{"base_weights":[-8.324855E-2,-2.3969784E-1,6.448212E-2,-1.7576312E-1,-5.1351297E-1,-7.042766E-2,2.4049164E-1],"categories":[],"categories_nodes":[],"categories_segments":[],"categories_sizes":[],"default_left":[1,1,1,0,0,0,0],"id":92,"left_children":[1,3,5,-1,-1,-1,-1],"loss_changes":[1.3208836E2,4.8498642E1,6.982546E1,0E0,0E0,0E0,0E0],"parents":[2147483647,0,0,1,1,2,2],"right_children":[2,4,6,-1,-1,-1,-1],"split_conditions":[1.45E1,2.25E1,5.445E-1,-1.7576311E-3,-5.1351297E-3,-7.042766E-4,2.4049163E-3],"split_indices":[51,80,55,0,0,0,0],"split_type":[0,0,0,0,0,0,0],"sum_hessian":[5.713385E3,2.7745095E3,2.9388752E3,2.2506367E3,5.2387274E2,1.6640189E3,1.2748564E3],"tree_param":{"num_deleted":"0","num_feature":"106","num_nodes":"7","size_leaf_vector":"0"}},{"base_weights":[8.324854E-2,2.3969784E-1,-6.448212E-2,1.757631E-1,5.1351297E-1,7.0427656E-2,-2.4049164E-1],"categories":[],"categories_nodes":[],"categories_segments":[],"categories_sizes":[],"default_left":[1,1,1,0,0,0,0],"id":93,"left_children":[1,3,5,-1,-1,-1,-1],"loss_changes":[1.3208838E2,4.8498642E1,6.982546E1,0E0,0E0,0E0,0E0],"parents":[2147483647,0,0,1,1,2,2],"right_children":[2,4,6,-1,-1,-1,-1],"split_conditions":[1.45E1,2.25E1,5.445E-1,1.757631E-3,5.1351297E-3,7.0427655E-4,-2.4049163E-3],"split_indices":[51,80,55,0,0,0,0],"split_type":[0,0,0,0,0,0,0],"sum_hessian":[5.713385E3,2.7745095E3,2.9388755E3,2.2506367E3,5.2387274E2,1.6640189E3,1.2748564E3],"tree_param":{"num_deleted":"0","num_feature":"106","num_nodes":"7","size_leaf_vector":"0"}},{"base_weights":[-8.2455E-2,-1.8473104E-1,1.4058253E-1,-9.149447E-2,-3.9404115E-1,5.763711E-1,9.580054E-2],"categories":[],"categories_nodes":[],"categories_segments":[],"categories_sizes":[],"default_left":[1,1,1,0,0,0,0],"id":94,"left_children":[1,3,5,-1,-1,-1,-1],"loss_changes":[1.303197E2,7.639537E1,3.500059E1,0E0,0E0,0E0,0E0],"parents":[2147483647,0,0,1,1,2,2],"right_children":[2,4,6,-1,-1,-1,-1],"split_conditions":[2.05E1,1.85E1,2.5E0,-9.149447E-4,-3.9404114E-3,5.7637105E-3,9.580054E-4],"split_indices":[51,80,85,0,0,0,0],"split_type":[0,0,0,0,0,0,0],"sum_hessian":[5.710783E3,3.9154756E3,1.7953079E3,2.709828E3,1.2056477E3,1.6618967E2,1.6291182E3],"tree_param":{"num_deleted":"0","num_feature":"106","num_nodes":"7","size_leaf_vector":"0"}},{"base_weights":[8.245498E-2,1.8473102E-1,-1.4058255E-1,9.149446E-2,3.9404112E-1,-5.763711E-1,-9.580057E-2],"categories":[],"categories_nodes":[],"categories_segments":[],"categories_sizes":[],"default_left":[1,1,1,0,0,0,0],"id":95,"left_children":[1,3,5,-1,-1,-1,-1],"loss_changes":[1.3031973E2,7.6395355E1,3.5000587E1,0E0,0E0,0E0,0E0],"parents":[2147483647,0,0,1,1,2,2],"right_children":[2,4,6,-1,-1,-1,-1],"split_conditions":[2.05E1,1.85E1,2.5E0,9.149446E-4,3.940411E-3,-5.7637105E-3,-9.5800566E-4],"split_indices":[51,80,85,0,0,0,0],"split_type":[0,0,0,0,0,0,0],"sum_hessian":[5.710783E3,3.9154756E3,1.7953079E3,2.709828E3,1.2056476E3,1.6618967E2,1.6291182E3],"tree_param":{"num_deleted":"0","num_feature":"106","num_nodes":"7","size_leaf_vector":"0"}},{"base_weights":[-8.166205E-2,5.9905592E-2,-2.4005078E-1,5.2789897E-1,1.1028994E-2,-3.076588E-1,2.3781076E-2],"categories":[],"categories_nodes":[],"categories_segments":[],"categories_sizes":[],"default_left":[1,1,1,0,0,0,0],"id":96,"left_children":[1,3,5,-1,-1,-1,-1],"loss_changes":[1.2803864E2,6.897465E1,4.807663E1,0E0,0E0,0E0,0E0],"parents":[2147483647,0,0,1,1,2,2],"right_children":[2,4,6,-1,-1,-1,-1],"split_conditions":[5.5E-1,2.5E0,5.05E0,5.2789897E-3,1.1028993E-4,-3.0765878E-3,2.3781076E-4],"split_indices":[25,85,77,0,0,0,0],"split_type":[0,0,0,0,0,0,0],"sum_hessian":[5.708579E3,3.014682E3,2.6938972E3,2.8414954E2,2.7305322E3,2.1442563E3,5.4964087E2],"tree_param":{"num_deleted":"0","num_feature":"106","num_nodes":"7","size_leaf_vector":"0"}},{"base_weights":[8.166207E-2,-5.990558E-2,2.400508E-1,-5.278989E-1,-1.102899E-2,3.0765882E-1,-2.3781076E-2],"categories":[],"categories_nodes":[],"categories_segments":[],"categories_sizes":[],"default_left":[1,1,1,0,0,0,0],"id":97,"left_children":[1,3,5,-1,-1,-1,-1],"loss_changes":[1.2803867E2,6.897464E1,4.80766E1,0E0,0E0,0E0,0E0],"parents":[2147483647,0,0,1,1,2,2],"right_children":[2,4,6,-1,-1,-1,-1],"split_conditions":[5.5E-1,2.5E0,5.05E0,-5.2789887E-3,-1.102899E-4,3.076588E-3,-2.3781076E-4],"split_indices":[25,85,77,0,0,0,0],"split_type":[0,0,0,0,0,0,0],"sum_hessian":[5.708579E3,3.0146816E3,2.6938972E3,2.8414954E2,2.7305322E3,2.1442563E3,5.4964087E2],"tree_param":{"num_deleted":"0","num_feature":"106","num_nodes":"7","size_leaf_vector":"0"}},{"base_weights":[-8.087829E-2,-1.8160708E-1,1.3864122E-1,-7.704309E-2,-3.6449844E-1,2.0132929E-1,-1.6796535E-1],"categories":[],"categories_nodes":[],"categories_segments":[],"categories_sizes":[],"default_left":[1,1,1,0,0,0,0],"id":98,"left_children":[1,3,5,-1,-1,-1,-1],"loss_changes":[1.2622366E2,7.479526E1,3.4548004E1,0E0,0E0,0E0,0E0],"parents":[2147483647,0,0,1,1,2,2],"right_children":[2,4,6,-1,-1,-1,-1],"split_conditions":[2.05E1,1.65E1,2.45E1,-7.7043084E-4,-3.6449842E-3,2.0132929E-3,-1.6796535E-3],"split_indices":[51,80,81,0,0,0,0],"split_type":[0,0,0,0,0,0,0],"sum_hessian":[5.7062563E3,3.9115662E3,1.79469E3,2.4896096E3,1.4219568E3,1.490325E3,3.04365E2],"tree_param":{"num_deleted":"0","num_feature":"106","num_nodes":"7","size_leaf_vector":"0"}},{"base_weights":[8.0878265E-2,1.8160707E-1,-1.3864125E-1,7.704308E-2,3.644984E-1,-2.0132932E-1,1.6796534E-1],"categories":[],"categories_nodes":[],"categories_segments":[],"categories_sizes":[],"default_left":[1,1,1,0,0,0,0],"id":99,"left_children":[1,3,5,-1,-1,-1,-1],"loss_changes":[1.2622368E2,7.479523E1,3.4548004E1,0E0,0E0,0E0,0E0],"parents":[2147483647,0,0,1,1,2,2],"right_children":[2,4,6,-1,-1,-1,-1],"split_conditions":[2.05E1,1.65E1,2.45E1,7.704308E-4,3.644984E-3,-2.013293E-3,1.6796533E-3],"split_indices":[51,80,81,0,0,0,0],"split_type":[0,0,0,0,0,0,0],"sum_hessian":[5.7062563E3,3.9115662E3,1.79469E3,2.4896094E3,1.4219568E3,1.490325E3,3.0436496E2],"tree_param":{"num_deleted":"0","num_feature":"106","num_nodes":"7","size_leaf_vector":"0"}},{"base_weights":[-8.010375E-2,-2.3205982E-1,6.312123E-2,-1.6952977E-1,-5.0109285E-1,-6.889174E-2,2.354907E-1],"categories":[],"categories_nodes":[],"categories_segments":[],"categories_sizes":[],"default_left":[1,1,1,0,0,0,0],"id":100,"left_children":[1,3,5,-1,-1,-1,-1],"loss_changes":[1.2417555E2,4.6485046E1,6.686153E1,0E0,0E0,0E0,0E0],"parents":[2147483647,0,0,1,1,2,2],"right_children":[2,4,6,-1,-1,-1,-1],"split_conditions":[1.45E1,2.25E1,5.445E-1,-1.6952977E-3,-5.0109285E-3,-6.889174E-4,2.3549069E-3],"split_indices":[51,80,55,0,0,0,0],"split_type":[0,0,0,0,0,0,0],"sum_hessian":[5.7039004E3,2.767292E3,2.9366084E3,2.2467263E3,5.205657E2,1.663319E3,1.2732893E3],"tree_param":{"num_deleted":"0","num_feature":"106","num_nodes":"7","size_leaf_vector":"0"}},{"base_weights":[8.0103755E-2,2.3205985E-1,-6.3121244E-2,1.695298E-1,5.0109285E-1,6.8891734E-2,-2.3549071E-1],"categories":[],"categories_nodes":[],"categories_segments":[],"categories_sizes":[],"default_left":[1,1,1,0,0,0,0],"id":101,"left_children":[1,3,5,-1,-1,-1,-1],"loss_changes":[1.241756E2,4.6485046E1,6.686152E1,0E0,0E0,0E0,0E0],"parents":[2147483647,0,0,1,1,2,2],"right_children":[2,4,6,-1,-1,-1,-1],"split_conditions":[1.45E1,2.25E1,5.445E-1,1.6952979E-3,5.0109285E-3,6.889173E-4,-2.354907E-3],"split_indices":[51,80,55,0,0,0,0],"split_type":[0,0,0,0,0,0,0],"sum_hessian":[5.7039004E3,2.767292E3,2.9366084E3,2.2467263E3,5.205657E2,1.663319E3,1.2732894E3],"tree_param":{"num_deleted":"0","num_feature":"106","num_nodes":"7","size_leaf_vector":"0"}},{"base_weights":[-7.9341404E-2,-1.7852941E-1,1.3669895E-1,-3.48555E-2,-3.0831683E-1,1.9853553E-1,-1.6564083E-1],"categories":[],"categories_nodes":[],"categories_segments":[],"categories_sizes":[],"default_left":[1,1,1,0,0,0,0],"id":102,"left_children":[1,3,5,-1,-1,-1,-1],"loss_changes":[1.2221503E2,7.286986E1,3.358775E1,0E0,0E0,0E0,0E0],"parents":[2147483647,0,0,1,1,2,2],"right_children":[2,4,6,-1,-1,-1,-1],"split_conditions":[2.05E1,1.15E1,2.45E1,-3.4855498E-4,-3.0831683E-3,1.9853553E-3,-1.6564083E-3],"split_indices":[51,80,81,0,0,0,0],"split_type":[0,0,0,0,0,0,0],"sum_hessian":[5.701218E3,3.907423E3,1.7937946E3,1.8551031E3,2.05232E3,1.4894961E3,3.042985E2],"tree_param":{"num_deleted":"0","num_feature":"106","num_nodes":"7","size_leaf_vector":"0"}},{"base_weights":[7.934143E-2,1.7852943E-1,-1.3669893E-1,3.4855522E-2,3.0831683E-1,-1.9853552E-1,1.6564095E-1],"categories":[],"categories_nodes":[],"categories_segments":[],"categories_sizes":[],"default_left":[1,1,1,0,0,0,0],"id":103,"left_children":[1,3,5,-1,-1,-1,-1],"loss_changes":[1.2221503E2,7.2869865E1,3.358777E1,0E0,0E0,0E0,0E0],"parents":[2147483647,0,0,1,1,2,2],"right_children":[2,4,6,-1,-1,-1,-1],"split_conditions":[2.05E1,1.15E1,2.45E1,3.4855522E-4,3.0831683E-3,-1.985355E-3,1.6564095E-3],"split_indices":[51,80,81,0,0,0,0],"split_type":[0,0,0,0,0,0,0],"sum_hessian":[5.701218E3,3.907423E3,1.7937946E3,1.855103E3,2.05232E3,1.4894961E3,3.0429846E2],"tree_param":{"num_deleted":"0","num_feature":"106","num_nodes":"7","size_leaf_vector":"0"}},{"base_weights":[-7.858273E-2,5.872441E-2,-2.3248656E-1,5.199119E-1,1.0635481E-2,-2.989987E-1,2.6273279E-2],"categories":[],"categories_nodes":[],"categories_segments":[],"categories_sizes":[],"default_left":[1,1,1,0,0,0,0],"id":104,"left_children":[1,3,5,-1,-1,-1,-1],"loss_changes":[1.2046173E2,6.681912E1,4.6264404E1,0E0,0E0,0E0,0E0],"parents":[2147483647,0,0,1,1,2,2],"right_children":[2,4,6,-1,-1,-1,-1],"split_conditions":[5.5E-1,2.5E0,5.05E0,5.1991185E-3,1.0635481E-4,-2.9899871E-3,2.627328E-4],"split_indices":[25,85,77,0,0,0,0],"split_type":[0,0,0,0,0,0,0],"sum_hessian":[5.69877E3,3.0121042E3,2.686666E3,2.8349448E2,2.7286096E3,2.1371685E3,5.4949756E2],"tree_param":{"num_deleted":"0","num_feature":"106","num_nodes":"7","size_leaf_vector":"0"}},{"base_weights":[7.858274E-2,-5.872441E-2,2.324866E-1,-5.199118E-1,-1.0635483E-2,2.9899877E-1,-2.627331E-2],"categories":[],"categories_nodes":[],"categories_segments":[],"categories_sizes":[],"default_left":[1,1,1,0,0,0,0],"id":105,"left_children":[1,3,5,-1,-1,-1,-1],"loss_changes":[1.2046176E2,6.6819115E1,4.6264404E1,0E0,0E0,0E0,0E0],"parents":[2147483647,0,0,1,1,2,2],"right_children":[2,4,6,-1,-1,-1,-1],"split_conditions":[5.5E-1,2.5E0,5.05E0,-5.199118E-3,-1.06354826E-4,2.9899876E-3,-2.6273308E-4],"split_indices":[25,85,77,0,0,0,0],"split_type":[0,0,0,0,0,0,0],"sum_hessian":[5.69877E3,3.012104E3,2.686666E3,2.8349448E2,2.7286096E3,2.1371685E3,5.4949756E2],"tree_param":{"num_deleted":"0","num_feature":"106","num_nodes":"7","size_leaf_vector":"0"}},{"base_weights":[-7.7829555E-2,1.9250017E-2,-2.920305E-1,1.3952456E-1,-1.6975094E-1,-3.5581088E-1,-4.2654224E-2],"categories":[],"categories_nodes":[],"categories_segments":[],"categories_sizes":[],"default_left":[1,1,1,0,0,0,0],"id":106,"left_children":[1,3,5,-1,-1,-1,-1],"loss_changes":[1.18479866E2,8.916639E1,2.8247162E1,0E0,0E0,0E0,0E0],"parents":[2147483647,0,0,1,1,2,2],"right_children":[2,4,6,-1,-1,-1,-1],"split_conditions":[2.85E0,1.65E1,5.05E0,1.3952457E-3,-1.6975094E-3,-3.5581088E-3,-4.2654222E-4],"split_indices":[25,80,77,0,0,0,0],"split_type":[0,0,0,0,0,0,0],"sum_hessian":[5.6963735E3,3.9204624E3,1.7759111E3,2.3959888E3,1.5244736E3,1.4138728E3,3.620383E2],"tree_param":{"num_deleted":"0","num_feature":"106","num_nodes":"7","size_leaf_vector":"0"}},{"base_weights":[7.7829525E-2,-1.925004E-2,2.9203048E-1,-1.3952458E-1,1.6975091E-1,3.5581088E-1,4.265411E-2],"categories":[],"categories_nodes":[],"categories_segments":[],"categories_sizes":[],"default_left":[1,1,1,0,0,0,0],"id":107,"left_children":[1,3,5,-1,-1,-1,-1],"loss_changes":[1.1847986E2,8.916638E1,2.8247177E1,0E0,0E0,0E0,0E0],"parents":[2147483647,0,0,1,1,2,2],"right_children":[2,4,6,-1,-1,-1,-1],"split_conditions":[2.85E0,1.65E1,5.05E0,-1.3952458E-3,1.6975091E-3,3.5581088E-3,4.2654108E-4],"split_indices":[25,80,77,0,0,0,0],"split_type":[0,0,0,0,0,0,0],"sum_hessian":[5.6963735E3,3.9204624E3,1.7759111E3,2.3959888E3,1.5244736E3,1.4138728E3,3.620383E2],"tree_param":{"num_deleted":"0","num_feature":"106","num_nodes":"7","size_leaf_vector":"0"}},{"base_weights":[-7.70849E-2,-1.7439392E-1,1.346611E-1,-8.97758E-2,-3.8975343E-1,5.564462E-1,9.156514E-2],"categories":[],"categories_nodes":[],"categories_segments":[],"categories_sizes":[],"default_left":[1,1,1,0,0,0,0],"id":108,"left_children":[1,3,5,-1,-1,-1,-1],"loss_changes":[1.1736746E2,7.107783E1,3.2553295E1,0E0,0E0,0E0,0E0],"parents":[2147483647,0,0,1,1,2,2],"right_children":[2,4,6,-1,-1,-1,-1],"split_conditions":[2.05E1,1.95E1,2.5E0,-8.97758E-4,-3.8975342E-3,5.564462E-3,9.156514E-4],"split_indices":[51,80,85,0,0,0,0],"split_type":[0,0,0,0,0,0,0],"sum_hessian":[5.693984E3,3.9012979E3,1.792686E3,2.8018313E3,1.0994664E3,1.6508347E2,1.6276027E3],"tree_param":{"num_deleted":"0","num_feature":"106","num_nodes":"7","size_leaf_vector":"0"}},{"base_weights":[7.708489E-2,1.7439392E-1,-1.3466112E-1,8.977582E-2,3.897534E-1,-5.564462E-1,-9.156517E-2],"categories":[],"categories_nodes":[],"categories_segments":[],"categories_sizes":[],"default_left":[1,1,1,0,0,0,0],"id":109,"left_children":[1,3,5,-1,-1,-1,-1],"loss_changes":[1.1736748E2,7.107779E1,3.2553288E1,0E0,0E0,0E0,0E0],"parents":[2147483647,0,0,1,1,2,2],"right_children":[2,4,6,-1,-1,-1,-1],"split_conditions":[2.05E1,1.95E1,2.5E0,8.9775823E-4,3.897534E-3,-5.564462E-3,-9.156517E-4],"split_indices":[51,80,85,0,0,0,0],"split_type":[0,0,0,0,0,0,0],"sum_hessian":[5.693984E3,3.9012979E3,1.7926862E3,2.8018313E3,1.0994664E3,1.6508347E2,1.6276027E3],"tree_param":{"num_deleted":"0","num_feature":"106","num_nodes":"7","size_leaf_vector":"0"}},{"base_weights":[-7.634526E-2,1.9430675E-2,-2.878892E-1,1.3792846E-1,-1.6687374E-1,-3.5105857E-1,-4.1339274E-2],"categories":[],"categories_nodes":[],"categories_segments":[],"categories_sizes":[],"default_left":[1,1,1,0,0,0,0],"id":110,"left_children":[1,3,5,-1,-1,-1,-1],"loss_changes":[1.1534361E2,8.655221E1,2.7617218E1,0E0,0E0,0E0,0E0],"parents":[2147483647,0,0,1,1,2,2],"right_children":[2,4,6,-1,-1,-1,-1],"split_conditions":[2.85E0,1.65E1,5.05E0,1.3792845E-3,-1.6687374E-3,-3.5105858E-3,-4.1339273E-4],"split_indices":[25,80,77,0,0,0,0],"split_type":[0,0,0,0,0,0,0],"sum_hessian":[5.691663E3,3.918487E3,1.773176E3,2.3952578E3,1.5232294E3,1.4111873E3,3.6198877E2],"tree_param":{"num_deleted":"0","num_feature":"106","num_nodes":"7","size_leaf_vector":"0"}},{"base_weights":[7.6345265E-2,-1.9430662E-2,2.8788918E-1,-1.3792846E-1,1.6687378E-1,3.5105854E-1,4.1339274E-2],"categories":[],"categories_nodes":[],"categories_segments":[],"categories_sizes":[],"default_left":[1,1,1,0,0,0,0],"id":111,"left_children":[1,3,5,-1,-1,-1,-1],"loss_changes":[1.1534358E2,8.6552216E1,2.7617218E1,0E0,0E0,0E0,0E0],"parents":[2147483647,0,0,1,1,2,2],"right_children":[2,4,6,-1,-1,-1,-1],"split_conditions":[2.85E0,1.65E1,5.05E0,-1.3792845E-3,1.6687377E-3,3.5105853E-3,4.1339273E-4],"split_indices":[25,80,77,0,0,0,0],"split_type":[0,0,0,0,0,0,0],"sum_hessian":[5.691663E3,3.918487E3,1.773176E3,2.3952578E3,1.5232294E3,1.4111873E3,3.6198877E2],"tree_param":{"num_deleted":"0","num_feature":"106","num_nodes":"7","size_leaf_vector":"0"}},{"base_weights":[-7.5615376E-2,-1.7163134E-1,1.331971E-1,-8.821058E-2,-3.843476E-1,1.9356775E-1,-1.6173747E-1],"categories":[],"categories_nodes":[],"categories_segments":[],"categories_sizes":[],"default_left":[1,1,1,0,0,0,0],"id":112,"left_children":[1,3,5,-1,-1,-1,-1],"loss_changes":[1.1410824E2,6.9141945E1,3.1954477E1,0E0,0E0,0E0,0E0],"parents":[2147483647,0,0,1,1,2,2],"right_children":[2,4,6,-1,-1,-1,-1],"split_conditions":[2.05E1,1.95E1,2.45E1,-8.821058E-4,-3.8434758E-3,1.9356775E-3,-1.6173747E-3],"split_indices":[51,80,81,0,0,0,0],"split_type":[0,0,0,0,0,0,0],"sum_hessian":[5.689234E3,3.8973406E3,1.7918934E3,2.8004895E3,1.096851E3,1.4877144E3,3.0417902E2],"tree_param":{"num_deleted":"0","num_feature":"106","num_nodes":"7","size_leaf_vector":"0"}},{"base_weights":[7.561538E-2,1.7163135E-1,-1.3319713E-1,8.82106E-2,3.8434762E-1,-1.9356778E-1,1.6173747E-1],"categories":[],"categories_nodes":[],"categories_segments":[],"categories_sizes":[],"default_left":[1,1,1,0,0,0,0],"id":113,"left_children":[1,3,5,-1,-1,-1,-1],"loss_changes":[1.1410828E2,6.914195E1,3.1954483E1,0E0,0E0,0E0,0E0],"parents":[2147483647,0,0,1,1,2,2],"right_children":[2,4,6,-1,-1,-1,-1],"split_conditions":[2.05E1,1.95E1,2.45E1,8.8210596E-4,3.843476E-3,-1.9356778E-3,1.6173747E-3],"split_indices":[51,80,81,0,0,0,0],"split_type":[0,0,0,0,0,0,0],"sum_hessian":[5.689234E3,3.8973406E3,1.7918934E3,2.8004895E3,1.096851E3,1.4877144E3,3.0417902E2],"tree_param":{"num_deleted":"0","num_feature":"106","num_nodes":"7","size_leaf_vector":"0"}},{"base_weights":[-7.489237E-2,-2.1988605E-1,6.13436E-2,-1.5941073E-1,-4.8206794E-1,-6.546695E-2,2.271176E-1],"categories":[],"categories_nodes":[],"categories_segments":[],"categories_sizes":[],"default_left":[1,1,1,0,0,0,0],"id":114,"left_children":[1,3,5,-1,-1,-1,-1],"loss_changes":[1.1236684E2,4.361409E1,6.1677322E1,0E0,0E0,0E0,0E0],"parents":[2147483647,0,0,1,1,2,2],"right_children":[2,4,6,-1,-1,-1,-1],"split_conditions":[1.45E1,2.25E1,5.445E-1,-1.5941072E-3,-4.8206793E-3,-6.546695E-4,2.2711759E-3],"split_indices":[51,80,55,0,0,0,0],"split_type":[0,0,0,0,0,0,0],"sum_hessian":[5.6868115E3,2.7545625E3,2.9322493E3,2.2395842E3,5.149783E2,1.661711E3,1.2705381E3],"tree_param":{"num_deleted":"0","num_feature":"106","num_nodes":"7","size_leaf_vector":"0"}},{"base_weights":[7.489237E-2,2.1988605E-1,-6.1343584E-2,1.5941072E-1,4.82068E-1,6.546697E-2,-2.271176E-1],"categories":[],"categories_nodes":[],"categories_segments":[],"categories_sizes":[],"default_left":[1,1,1,0,0,0,0],"id":115,"left_children":[1,3,5,-1,-1,-1,-1],"loss_changes":[1.1236683E2,4.361409E1,6.167732E1,0E0,0E0,0E0,0E0],"parents":[2147483647,0,0,1,1,2,2],"right_children":[2,4,6,-1,-1,-1,-1],"split_conditions":[1.45E1,2.25E1,5.445E-1,1.5941071E-3,4.82068E-3,6.546697E-4,-2.2711759E-3],"split_indices":[51,80,55,0,0,0,0],"split_type":[0,0,0,0,0,0,0],"sum_hessian":[5.6868115E3,2.7545625E3,2.9322493E3,2.2395842E3,5.149783E2,1.661711E3,1.2705381E3],"tree_param":{"num_deleted":"0","num_feature":"106","num_nodes":"7","size_leaf_vector":"0"}},{"base_weights":[-7.418117E-2,1.9708976E-2,-2.8185454E-1,-1.9370194E-1,1.1894774E-1,-3.4437072E-1,-3.8475256E-2],"categories":[],"categories_nodes":[],"categories_segments":[],"categories_sizes":[],"default_left":[1,1,1,0,0,0,0],"id":116,"left_children":[1,3,5,-1,-1,-1,-1],"loss_changes":[1.1085483E2,8.2957634E1,2.691858E1,0E0,0E0,0E0,0E0],"parents":[2147483647,0,0,1,1,2,2],"right_children":[2,4,6,-1,-1,-1,-1],"split_conditions":[2.85E0,-1.95E0,5.05E0,-1.9370193E-3,1.1894774E-3,-3.4437072E-3,-3.8475255E-4],"split_indices":[25,77,77,0,0,0,0],"split_type":[0,0,0,0,0,0,0],"sum_hessian":[5.684021E3,3.9149553E3,1.7690656E3,1.2423517E3,2.6726038E3,1.4071895E3,3.6187607E2],"tree_param":{"num_deleted":"0","num_feature":"106","num_nodes":"7","size_leaf_vector":"0"}},{"base_weights":[7.4181184E-2,-1.9708982E-2,2.8185457E-1,1.9370195E-1,-1.1894775E-1,3.4437075E-1,3.8475376E-2],"categories":[],"categories_nodes":[],"categories_segments":[],"categories_sizes":[],"default_left":[1,1,1,0,0,0,0],"id":117,"left_children":[1,3,5,-1,-1,-1,-1],"loss_changes":[1.10854866E2,8.295765E1,2.6918533E1,0E0,0E0,0E0,0E0],"parents":[2147483647,0,0,1,1,2,2],"right_children":[2,4,6,-1,-1,-1,-1],"split_conditions":[2.85E0,-1.95E0,5.05E0,1.9370195E-3,-1.1894775E-3,3.4437075E-3,3.8475374E-4],"split_indices":[25,77,77,0,0,0,0],"split_type":[0,0,0,0,0,0,0],"sum_hessian":[5.684021E3,3.9149553E3,1.7690656E3,1.2423517E3,2.6726038E3,1.4071895E3,3.6187607E2],"tree_param":{"num_deleted":"0","num_feature":"106","num_nodes":"7","size_leaf_vector":"0"}},{"base_weights":[-7.347159E-2,-1.676475E-1,1.311602E-1,-3.031679E-2,-2.923636E-1,5.464779E-1,8.8849254E-2],"categories":[],"categories_nodes":[],"categories_segments":[],"categories_sizes":[],"default_left":[1,1,1,0,0,0,0],"id":118,"left_children":[1,3,5,-1,-1,-1,-1],"loss_changes":[1.0953422E2,6.665189E1,3.1433775E1,0E0,0E0,0E0,0E0],"parents":[2147483647,0,0,1,1,2,2],"right_children":[2,4,6,-1,-1,-1,-1],"split_conditions":[2.05E1,1.15E1,2.5E0,-3.031679E-4,-2.923636E-3,5.464779E-3,8.884925E-4],"split_indices":[51,80,85,0,0,0,0],"split_type":[0,0,0,0,0,0,0],"sum_hessian":[5.6816343E3,3.8910642E3,1.79057E3,1.8524683E3,2.038596E3,1.644489E2,1.6261211E3],"tree_param":{"num_deleted":"0","num_feature":"106","num_nodes":"7","size_leaf_vector":"0"}},{"base_weights":[7.3471576E-2,1.6764748E-1,-1.311602E-1,3.0316763E-2,2.923636E-1,-5.46478E-1,-8.8849254E-2],"categories":[],"categories_nodes":[],"categories_segments":[],"categories_sizes":[],"default_left":[1,1,1,0,0,0,0],"id":119,"left_children":[1,3,5,-1,-1,-1,-1],"loss_changes":[1.0953421E2,6.665191E1,3.1433783E1,0E0,0E0,0E0,0E0],"parents":[2147483647,0,0,1,1,2,2],"right_children":[2,4,6,-1,-1,-1,-1],"split_conditions":[2.05E1,1.15E1,2.5E0,3.0316762E-4,2.923636E-3,-5.4647797E-3,-8.884925E-4],"split_indices":[51,80,85,0,0,0,0],"split_type":[0,0,0,0,0,0,0],"sum_hessian":[5.6816343E3,3.8910642E3,1.79057E3,1.8524684E3,2.038596E3,1.644489E2,1.6261211E3],"tree_param":{"num_deleted":"0","num_feature":"106","num_nodes":"7","size_leaf_vector":"0"}},{"base_weights":[-7.276871E-2,1.9851353E-2,-2.7786544E-1,1.3441718E-1,-1.6045462E-1,-3.3727217E-1,-2.7896758E-2],"categories":[],"categories_nodes":[],"categories_segments":[],"categories_sizes":[],"default_left":[1,1,1,0,0,0,0],"id":120,"left_children":[1,3,5,-1,-1,-1,-1],"loss_changes":[1.0790575E2,8.087207E1,2.6232635E1,0E0,0E0,0E0,0E0],"parents":[2147483647,0,0,1,1,2,2],"right_children":[2,4,6,-1,-1,-1,-1],"split_conditions":[2.85E0,1.65E1,5.3500004E0,1.3441717E-3,-1.6045461E-3,-3.3727216E-3,-2.7896758E-4],"split_indices":[25,80,77,0,0,0,0],"split_type":[0,0,0,0,0,0,0],"sum_hessian":[5.679134E3,3.9129705E3,1.7661632E3,2.392829E3,1.5201414E3,1.4267399E3,3.3942337E2],"tree_param":{"num_deleted":"0","num_feature":"106","num_nodes":"7","size_leaf_vector":"0"}},{"base_weights":[7.276872E-2,-1.9851347E-2,2.7786547E-1,-1.3441718E-1,1.6045462E-1,3.372722E-1,2.789667E-2],"categories":[],"categories_nodes":[],"categories_segments":[],"categories_sizes":[],"default_left":[1,1,1,0,0,0,0],"id":121,"left_children":[1,3,5,-1,-1,-1,-1],"loss_changes":[1.0790577E2,8.087207E1,2.623265E1,0E0,0E0,0E0,0E0],"parents":[2147483647,0,0,1,1,2,2],"right_children":[2,4,6,-1,-1,-1,-1],"split_conditions":[2.85E0,1.65E1,5.3500004E0,-1.3441717E-3,1.6045461E-3,3.3727218E-3,2.789667E-4],"split_indices":[25,80,77,0,0,0,0],"split_type":[0,0,0,0,0,0,0],"sum_hessian":[5.679134E3,3.9129705E3,1.7661632E3,2.392829E3,1.5201414E3,1.4267399E3,3.394234E2],"tree_param":{"num_deleted":"0","num_feature":"106","num_nodes":"7","size_leaf_vector":"0"}},{"base_weights":[-7.207404E-2,-1.6500527E-1,1.2972926E-1,-8.404385E-2,-3.7234685E-1,5.409517E-1,8.791795E-2],"categories":[],"categories_nodes":[],"categories_segments":[],"categories_sizes":[],"default_left":[1,1,1,0,0,0,0],"id":122,"left_children":[1,3,5,-1,-1,-1,-1],"loss_changes":[1.0649869E2,6.523336E1,3.0742044E1,0E0,0E0,0E0,0E0],"parents":[2147483647,0,0,1,1,2,2],"right_children":[2,4,6,-1,-1,-1,-1],"split_conditions":[2.05E1,1.95E1,2.5E0,-8.4043853E-4,-3.7234684E-3,5.4095173E-3,8.7917945E-4],"split_indices":[51,80,85,0,0,0,0],"split_type":[0,0,0,0,0,0,0],"sum_hessian":[5.6766294E3,3.8868855E3,1.789744E3,2.7963787E3,1.0905067E3,1.6407693E2,1.6256671E3],"tree_param":{"num_deleted":"0","num_feature":"106","num_nodes":"7","size_leaf_vector":"0"}},{"base_weights":[7.207402E-2,1.6500525E-1,-1.2972929E-1,8.404382E-2,3.7234688E-1,-5.409516E-1,-8.7918E-2],"categories":[],"categories_nodes":[],"categories_segments":[],"categories_sizes":[],"default_left":[1,1,1,0,0,0,0],"id":123,"left_children":[1,3,5,-1,-1,-1,-1],"loss_changes":[1.0649871E2,6.523338E1,3.0742023E1,0E0,0E0,0E0,0E0],"parents":[2147483647,0,0,1,1,2,2],"right_children":[2,4,6,-1,-1,-1,-1],"split_conditions":[2.05E1,1.95E1,2.5E0,8.4043824E-4,3.7234686E-3,-5.409516E-3,-8.7918E-4],"split_indices":[51,80,85,0,0,0,0],"split_type":[0,0,0,0,0,0,0],"sum_hessian":[5.6766294E3,3.8868855E3,1.789744E3,2.796379E3,1.0905067E3,1.6407695E2,1.6256671E3],"tree_param":{"num_deleted":"0","num_feature":"106","num_nodes":"7","size_leaf_vector":"0"}},{"base_weights":[-7.138393E-2,1.999705E-2,-2.7395633E-1,-1.8834877E-1,1.1678554E-1,-3.3280736E-1,-2.6784072E-2],"categories":[],"categories_nodes":[],"categories_segments":[],"categories_sizes":[],"default_left":[1,1,1,0,0,0,0],"id":124,"left_children":[1,3,5,-1,-1,-1,-1],"loss_changes":[1.0506065E2,7.890713E1,2.565538E1,0E0,0E0,0E0,0E0],"parents":[2147483647,0,0,1,1,2,2],"right_children":[2,4,6,-1,-1,-1,-1],"split_conditions":[2.85E0,-1.95E0,5.3500004E0,-1.8834877E-3,1.1678553E-3,-3.3280735E-3,-2.6784072E-4],"split_indices":[25,77,77,0,0,0,0],"split_type":[0,0,0,0,0,0,0],"sum_hessian":[5.674202E3,3.9108901E3,1.7633121E3,1.2402329E3,2.6706572E3,1.4239315E3,3.3938055E2],"tree_param":{"num_deleted":"0","num_feature":"106","num_nodes":"7","size_leaf_vector":"0"}},{"base_weights":[7.1383916E-2,-1.9997075E-2,2.7395636E-1,1.8834876E-1,-1.1678558E-1,3.3280736E-1,2.6784072E-2],"categories":[],"categories_nodes":[],"categories_segments":[],"categories_sizes":[],"default_left":[1,1,1,0,0,0,0],"id":125,"left_children":[1,3,5,-1,-1,-1,-1],"loss_changes":[1.0506068E2,7.890714E1,2.565538E1,0E0,0E0,0E0,0E0],"parents":[2147483647,0,0,1,1,2,2],"right_children":[2,4,6,-1,-1,-1,-1],"split_conditions":[2.85E0,-1.95E0,5.3500004E0,1.8834876E-3,-1.1678558E-3,3.3280735E-3,2.6784072E-4],"split_indices":[25,77,77,0,0,0,0],"split_type":[0,0,0,0,0,0,0],"sum_hessian":[5.674202E3,3.9108901E3,1.7633121E3,1.2402329E3,2.6706572E3,1.4239316E3,3.3938055E2],"tree_param":{"num_deleted":"0","num_feature":"106","num_nodes":"7","size_leaf_vector":"0"}},{"base_weights":[-7.070181E-2,-1.6239528E-1,1.2829638E-1,-8.253417E-2,-3.6732745E-1,5.35657E-1,8.695984E-2],"categories":[],"categories_nodes":[],"categories_segments":[],"categories_sizes":[],"default_left":[1,1,1,0,0,0,0],"id":126,"left_children":[1,3,5,-1,-1,-1,-1],"loss_changes":[1.0353078E2,6.3532906E1,3.0093822E1,0E0,0E0,0E0,0E0],"parents":[2147483647,0,0,1,1,2,2],"right_children":[2,4,6,-1,-1,-1,-1],"split_conditions":[2.05E1,1.95E1,2.5E0,-8.253417E-4,-3.6732745E-3,5.35657E-3,8.6959836E-4],"split_indices":[51,80,85,0,0,0,0],"split_type":[0,0,0,0,0,0,0],"sum_hessian":[5.671761E3,3.8828318E3,1.7889297E3,2.795026E3,1.0878059E3,1.6370468E2,1.625225E3],"tree_param":{"num_deleted":"0","num_feature":"106","num_nodes":"7","size_leaf_vector":"0"}},{"base_weights":[7.0701815E-2,1.623953E-1,-1.2829638E-1,8.253418E-2,3.6732745E-1,-5.35657E-1,-8.695985E-2],"categories":[],"categories_nodes":[],"categories_segments":[],"categories_sizes":[],"default_left":[1,1,1,0,0,0,0],"id":127,"left_children":[1,3,5,-1,-1,-1,-1],"loss_changes":[1.03530785E2,6.3532906E1,3.0093817E1,0E0,0E0,0E0,0E0],"parents":[2147483647,0,0,1,1,2,2],"right_children":[2,4,6,-1,-1,-1,-1],"split_conditions":[2.05E1,1.95E1,2.5E0,8.253418E-4,3.6732745E-3,-5.35657E-3,-8.695985E-4],"split_indices":[51,80,85,0,0,0,0],"split_type":[0,0,0,0,0,0,0],"sum_hessian":[5.671761E3,3.8828318E3,1.7889297E3,2.795026E3,1.0878059E3,1.6370468E2,1.625225E3],"tree_param":{"num_deleted":"0","num_feature":"106","num_nodes":"7","size_leaf_vector":"0"}},{"base_weights":[-7.002519E-2,-2.1779156E-1,5.2089952E-2,-2.7816018E-1,1.6949126E-2,4.8926923E-1,6.1605927E-3],"categories":[],"categories_nodes":[],"categories_segments":[],"categories_sizes":[],"default_left":[1,1,1,0,0,0,0],"id":128,"left_children":[1,3,5,-1,-1,-1,-1],"loss_changes":[1.02329254E2,3.636567E1,6.2352074E1,0E0,0E0,0E0,0E0],"parents":[2147483647,0,0,1,1,2,2],"right_children":[2,4,6,-1,-1,-1,-1],"split_conditions":[1.35E1,