{"learner":{"attributes":{"best_iteration":"499","best_ntree_limit":"500"},"feature_names":[],"feature_types":[],"gradient_booster":{"model":{"gbtree_model_param":{"num_parallel_tree":"1","num_trees":"1000","size_leaf_vector":"0"},"tree_info":[0,1,0,1,0,1,0,1,0,1,0,1,0,1,0,1,0,1,0,1,0,1,0,1,0,1,0,1,0,1,0,1,0,1,0,1,0,1,0,1,0,1,0,1,0,1,0,1,0,1,0,1,0,1,0,1,0,1,0,1,0,1,0,1,0,1,0,1,0,1,0,1,0,1,0,1,0,1,0,1,0,1,0,1,0,1,0,1,0,1,0,1,0,1,0,1,0,1,0,1,0,1,0,1,0,1,0,1,0,1,0,1,0,1,0,1,0,1,0,1,0,1,0,1,0,1,0,1,0,1,0,1,0,1,0,1,0,1,0,1,0,1,0,1,0,1,0,1,0,1,0,1,0,1,0,1,0,1,0,1,0,1,0,1,0,1,0,1,0,1,0,1,0,1,0,1,0,1,0,1,0,1,0,1,0,1,0,1,0,1,0,1,0,1,0,1,0,1,0,1,0,1,0,1,0,1,0,1,0,1,0,1,0,1,0,1,0,1,0,1,0,1,0,1,0,1,0,1,0,1,0,1,0,1,0,1,0,1,0,1,0,1,0,1,0,1,0,1,0,1,0,1,0,1,0,1,0,1,0,1,0,1,0,1,0,1,0,1,0,1,0,1,0,1,0,1,0,1,0,1,0,1,0,1,0,1,0,1,0,1,0,1,0,1,0,1,0,1,0,1,0,1,0,1,0,1,0,1,0,1,0,1,0,1,0,1,0,1,0,1,0,1,0,1,0,1,0,1,0,1,0,1,0,1,0,1,0,1,0,1,0,1,0,1,0,1,0,1,0,1,0,1,0,1,0,1,0,1,0,1,0,1,0,1,0,1,0,1,0,1,0,1,0,1,0,1,0,1,0,1,0,1,0,1,0,1,0,1,0,1,0,1,0,1,0,1,0,1,0,1,0,1,0,1,0,1,0,1,0,1,0,1,0,1,0,1,0,1,0,1,0,1,0,1,0,1,0,1,0,1,0,1,0,1,0,1,0,1,0,1,0,1,0,1,0,1,0,1,0,1,0,1,0,1,0,1,0,1,0,1,0,1,0,1,0,1,0,1,0,1,0,1,0,1,0,1,0,1,0,1,0,1,0,1,0,1,0,1,0,1,0,1,0,1,0,1,0,1,0,1,0,1,0,1,0,1,0,1,0,1,0,1,0,1,0,1,0,1,0,1,0,1,0,1,0,1,0,1,0,1,0,1,0,1,0,1,0,1,0,1,0,1,0,1,0,1,0,1,0,1,0,1,0,1,0,1,0,1,0,1,0,1,0,1,0,1,0,1,0,1,0,1,0,1,0,1,0,1,0,1,0,1,0,1,0,1,0,1,0,1,0,1,0,1,0,1,0,1,0,1,0,1,0,1,0,1,0,1,0,1,0,1,0,1,0,1,0,1,0,1,0,1,0,1,0,1,0,1,0,1,0,1,0,1,0,1,0,1,0,1,0,1,0,1,0,1,0,1,0,1,0,1,0,1,0,1,0,1,0,1,0,1,0,1,0,1,0,1,0,1,0,1,0,1,0,1,0,1,0,1,0,1,0,1,0,1,0,1,0,1,0,1,0,1,0,1,0,1,0,1,0,1,0,1,0,1,0,1,0,1,0,1,0,1,0,1,0,1,0,1,0,1,0,1,0,1,0,1,0,1,0,1,0,1,0,1,0,1,0,1,0,1,0,1,0,1,0,1,0,1,0,1,0,1,0,1,0,1,0,1,0,1,0,1,0,1,0,1,0,1,0,1,0,1,0,1,0,1,0,1,0,1,0,1,0,1,0,1,0,1,0,1,0,1,0,1,0,1,0,1,0,1,0,1,0,1,0,1,0,1,0,1,0,1,0,1,0,1,0,1,0,1,0,1,0,1,0,1,0,1,0,1,0,1,0,1,0,1,0,1,0,1,0,1,0,1,0,1,0,1,0,1,0,1,0,1,0,1,0,1,0,1,0,1,0,1,0,1,0,1,0,1,0,1,0,1,0,1,0,1,0,1,0,1,0,1,0,1,0,1,0,1,0,1,0,1,0,1,0,1,0,1,0,1,0,1,0,1,0,1,0,1,0,1,0,1,0,1,0,1,0,1,0,1,0,1,0,1,0,1,0,1,0,1,0,1,0,1,0,1,0,1,0,1,0,1,0,1,0,1,0,1,0,1,0,1,0,1,0,1,0,1,0,1,0,1,0,1,0,1,0,1,0,1,0,1,0,1,0,1,0,1,0,1,0,1,0,1,0,1,0,1,0,1,0,1,0,1,0,1],"trees":[{"base_weights":[-1.3098323E-1,-3.676915E-1,9.29568E-2,-2.0083974E-1,-5.3951645E-1,2.652041E-1,-1.7106383E-1],"categories":[],"categories_nodes":[],"categories_segments":[],"categories_sizes":[],"default_left":[1,1,1,0,0,0,0],"id":0,"left_children":[1,3,5,-1,-1,-1,-1],"loss_changes":[3.0679407E2,8.055267E1,1.3531624E2,0E0,0E0,0E0,0E0],"parents":[2147483647,0,0,1,1,2,2],"right_children":[2,4,6,-1,-1,-1,-1],"split_conditions":[1.45E1,1.25E1,1.75E1,-2.0083974E-3,-5.3951642E-3,2.652041E-3,-1.7106382E-3],"split_indices":[51,80,81,0,0,0,0],"split_type":[0,0,0,0,0,0,0],"sum_hessian":[5.786E3,2.8125E3,2.9735E3,1.428E3,1.3845E3,1.7995E3,1.174E3],"tree_param":{"num_deleted":"0","num_feature":"106","num_nodes":"7","size_leaf_vector":"0"}},{"base_weights":[1.3098323E-1,3.676915E-1,-9.29568E-2,2.0083974E-1,5.3951645E-1,-2.652041E-1,1.7106383E-1],"categories":[],"categories_nodes":[],"categories_segments":[],"categories_sizes":[],"default_left":[1,1,1,0,0,0,0],"id":1,"left_children":[1,3,5,-1,-1,-1,-1],"loss_changes":[3.0679407E2,8.055267E1,1.3531624E2,0E0,0E0,0E0,0E0],"parents":[2147483647,0,0,1,1,2,2],"right_children":[2,4,6,-1,-1,-1,-1],"split_conditions":[1.45E1,1.25E1,1.75E1,2.0083974E-3,5.3951642E-3,-2.652041E-3,1.7106382E-3],"split_indices":[51,80,81,0,0,0,0],"split_type":[0,0,0,0,0,0,0],"sum_hessian":[5.786E3,2.8125E3,2.9735E3,1.428E3,1.3845E3,1.7995E3,1.174E3],"tree_param":{"num_deleted":"0","num_feature":"106","num_nodes":"7","size_leaf_vector":"0"}},{"base_weights":[-1.2967592E-1,-3.6402315E-1,9.2028044E-2,-1.9883354E-1,-5.341407E-1,2.625554E-1,-1.6935512E-1],"categories":[],"categories_nodes":[],"categories_segments":[],"categories_sizes":[],"default_left":[1,1,1,0,0,0,0],"id":2,"left_children":[1,3,5,-1,-1,-1,-1],"loss_changes":[3.0069797E2,7.895648E1,1.3262605E2,0E0,0E0,0E0,0E0],"parents":[2147483647,0,0,1,1,2,2],"right_children":[2,4,6,-1,-1,-1,-1],"split_conditions":[1.45E1,1.25E1,1.75E1,-1.9883353E-3,-5.341407E-3,2.6255539E-3,-1.6935512E-3],"split_indices":[51,80,81,0,0,0,0],"split_type":[0,0,0,0,0,0,0],"sum_hessian":[5.785938E3,2.812454E3,2.973484E3,1.4279943E3,1.3844598E3,1.7994873E3,1.1739966E3],"tree_param":{"num_deleted":"0","num_feature":"106","num_nodes":"7","size_leaf_vector":"0"}},{"base_weights":[1.296759E-1,3.6402315E-1,-9.2028044E-2,1.9883353E-1,5.3414065E-1,-2.625554E-1,1.6935512E-1],"categories":[],"categories_nodes":[],"categories_segments":[],"categories_sizes":[],"default_left":[1,1,1,0,0,0,0],"id":3,"left_children":[1,3,5,-1,-1,-1,-1],"loss_changes":[3.0069797E2,7.895645E1,1.3262605E2,0E0,0E0,0E0,0E0],"parents":[2147483647,0,0,1,1,2,2],"right_children":[2,4,6,-1,-1,-1,-1],"split_conditions":[1.45E1,1.25E1,1.75E1,1.9883353E-3,5.3414064E-3,-2.6255539E-3,1.6935512E-3],"split_indices":[51,80,81,0,0,0,0],"split_type":[0,0,0,0,0,0,0],"sum_hessian":[5.785938E3,2.8124539E3,2.973484E3,1.4279943E3,1.3844597E3,1.7994873E3,1.1739966E3],"tree_param":{"num_deleted":"0","num_feature":"106","num_nodes":"7","size_leaf_vector":"0"}},{"base_weights":[-1.2838438E-1,-3.6040312E-1,9.1109574E-2,-1.9684896E-1,-5.288489E-1,2.5993675E-1,-1.676645E-1],"categories":[],"categories_nodes":[],"categories_segments":[],"categories_sizes":[],"default_left":[1,1,1,0,0,0,0],"id":4,"left_children":[1,3,5,-1,-1,-1,-1],"loss_changes":[2.947332E2,7.740277E1,1.2999104E2,0E0,0E0,0E0,0E0],"parents":[2147483647,0,0,1,1,2,2],"right_children":[2,4,6,-1,-1,-1,-1],"split_conditions":[1.45E1,1.25E1,1.75E1,-1.9684895E-3,-5.2884887E-3,2.5993674E-3,-1.6766449E-3],"split_indices":[51,80,81,0,0,0,0],"split_type":[0,0,0,0,0,0,0],"sum_hessian":[5.785754E3,2.8123176E3,2.9734363E3,1.4279772E3,1.3843405E3,1.79945E3,1.1739863E3],"tree_param":{"num_deleted":"0","num_feature":"106","num_nodes":"7","size_leaf_vector":"0"}},{"base_weights":[1.2838441E-1,3.6040315E-1,-9.110956E-2,1.9684908E-1,5.288489E-1,-2.5993675E-1,1.6766453E-1],"categories":[],"categories_nodes":[],"categories_segments":[],"categories_sizes":[],"default_left":[1,1,1,0,0,0,0],"id":5,"left_children":[1,3,5,-1,-1,-1,-1],"loss_changes":[2.947332E2,7.740277E1,1.2999106E2,0E0,0E0,0E0,0E0],"parents":[2147483647,0,0,1,1,2,2],"right_children":[2,4,6,-1,-1,-1,-1],"split_conditions":[1.45E1,1.25E1,1.75E1,1.9684907E-3,5.2884887E-3,-2.5993674E-3,1.6766452E-3],"split_indices":[51,80,81,0,0,0,0],"split_type":[0,0,0,0,0,0,0],"sum_hessian":[5.785754E3,2.8123176E3,2.9734363E3,1.4279772E3,1.3843405E3,1.79945E3,1.1739865E3],"tree_param":{"num_deleted":"0","num_feature":"106","num_nodes":"7","size_leaf_vector":"0"}},{"base_weights":[-1.2710837E-1,-3.568303E-1,9.02012E-2,-1.9488575E-1,-5.236387E-1,-1.12152316E-1,3.0232015E-1],"categories":[],"categories_nodes":[],"categories_segments":[],"categories_sizes":[],"default_left":[1,1,1,0,0,0,0],"id":6,"left_children":[1,3,5,-1,-1,-1,-1],"loss_changes":[2.8889633E2,7.5890045E1,1.2770231E2,0E0,0E0,0E0,0E0],"parents":[2147483647,0,0,1,1,2,2],"right_children":[2,4,6,-1,-1,-1,-1],"split_conditions":[1.45E1,1.25E1,5.1549995E-1,-1.9488574E-3,-5.2363873E-3,-1.1215231E-3,3.0232014E-3],"split_indices":[51,80,55,0,0,0,0],"split_type":[0,0,0,0,0,0,0],"sum_hessian":[5.7854517E3,2.8120935E3,2.9733582E3,1.4279492E3,1.3841444E3,1.521948E3,1.45141E3],"tree_param":{"num_deleted":"0","num_feature":"106","num_nodes":"7","size_leaf_vector":"0"}},{"base_weights":[1.2710837E-1,3.5683024E-1,-9.0201154E-2,1.9488563E-1,5.236387E-1,1.12152405E-1,-3.0232015E-1],"categories":[],"categories_nodes":[],"categories_segments":[],"categories_sizes":[],"default_left":[1,1,1,0,0,0,0],"id":7,"left_children":[1,3,5,-1,-1,-1,-1],"loss_changes":[2.8889618E2,7.589011E1,1.2770237E2,0E0,0E0,0E0,0E0],"parents":[2147483647,0,0,1,1,2,2],"right_children":[2,4,6,-1,-1,-1,-1],"split_conditions":[1.45E1,1.25E1,5.1549995E-1,1.9488562E-3,5.2363873E-3,1.121524E-3,-3.0232014E-3],"split_indices":[51,80,55,0,0,0,0],"split_type":[0,0,0,0,0,0,0],"sum_hessian":[5.7854517E3,2.8120938E3,2.9733582E3,1.4279492E3,1.3841445E3,1.521948E3,1.45141E3],"tree_param":{"num_deleted":"0","num_feature":"106","num_nodes":"7","size_leaf_vector":"0"}},{"base_weights":[-1.2584701E-1,-3.5330355E-1,8.930252E-2,-1.9294342E-1,-5.1850766E-1,2.551427E-1,-1.6488026E-1],"categories":[],"categories_nodes":[],"categories_segments":[],"categories_sizes":[],"default_left":[1,1,1,0,0,0,0],"id":8,"left_children":[1,3,5,-1,-1,-1,-1],"loss_changes":[2.831845E2,7.441672E1,1.25418465E2,0E0,0E0,0E0,0E0],"parents":[2147483647,0,0,1,1,2,2],"right_children":[2,4,6,-1,-1,-1,-1],"split_conditions":[1.45E1,1.25E1,1.75E1,-1.9294342E-3,-5.1850765E-3,2.5514269E-3,-1.6488025E-3],"split_indices":[51,80,81,0,0,0,0],"split_type":[0,0,0,0,0,0,0],"sum_hessian":[5.785052E3,2.811785E3,2.9732668E3,1.4279105E3,1.3838743E3,1.7993119E3,1.173955E3],"tree_param":{"num_deleted":"0","num_feature":"106","num_nodes":"7","size_leaf_vector":"0"}},{"base_weights":[1.2584698E-1,3.5330355E-1,-8.9302585E-2,1.9294342E-1,5.1850766E-1,-2.5514272E-1,1.6488014E-1],"categories":[],"categories_nodes":[],"categories_segments":[],"categories_sizes":[],"default_left":[1,1,1,0,0,0,0],"id":9,"left_children":[1,3,5,-1,-1,-1,-1],"loss_changes":[2.831846E2,7.441672E1,1.2541841E2,0E0,0E0,0E0,0E0],"parents":[2147483647,0,0,1,1,2,2],"right_children":[2,4,6,-1,-1,-1,-1],"split_conditions":[1.45E1,1.25E1,1.75E1,1.9294342E-3,5.1850765E-3,-2.551427E-3,1.6488014E-3],"split_indices":[51,80,81,0,0,0,0],"split_type":[0,0,0,0,0,0,0],"sum_hessian":[5.785052E3,2.811785E3,2.9732668E3,1.4279105E3,1.3838743E3,1.7993119E3,1.173955E3],"tree_param":{"num_deleted":"0","num_feature":"106","num_nodes":"7","size_leaf_vector":"0"}},{"base_weights":[-1.2460102E-1,-3.4982198E-1,8.841373E-2,-1.910219E-1,-5.1345384E-1,-1.10352814E-1,2.967905E-1],"categories":[],"categories_nodes":[],"categories_segments":[],"categories_sizes":[],"default_left":[1,1,1,0,0,0,0],"id":10,"left_children":[1,3,5,-1,-1,-1,-1],"loss_changes":[2.7759393E2,7.298126E1,1.2321646E2,0E0,0E0,0E0,0E0],"parents":[2147483647,0,0,1,1,2,2],"right_children":[2,4,6,-1,-1,-1,-1],"split_conditions":[1.45E1,1.25E1,5.1549995E-1,-1.910219E-3,-5.1345383E-3,-1.1035281E-3,2.967905E-3],"split_indices":[51,80,55,0,0,0,0],"split_type":[0,0,0,0,0,0,0],"sum_hessian":[5.784529E3,2.8113938E3,2.9731353E3,1.4278616E3,1.3835321E3,1.5218973E3,1.4512378E3],"tree_param":{"num_deleted":"0","num_feature":"106","num_nodes":"7","size_leaf_vector":"0"}},{"base_weights":[1.2460098E-1,3.4982198E-1,-8.8413805E-2,1.910219E-1,5.1345384E-1,1.1035276E-1,-2.9679063E-1],"categories":[],"categories_nodes":[],"categories_segments":[],"categories_sizes":[],"default_left":[1,1,1,0,0,0,0],"id":11,"left_children":[1,3,5,-1,-1,-1,-1],"loss_changes":[2.7759402E2,7.298126E1,1.23216515E2,0E0,0E0,0E0,0E0],"parents":[2147483647,0,0,1,1,2,2],"right_children":[2,4,6,-1,-1,-1,-1],"split_conditions":[1.45E1,1.25E1,5.1549995E-1,1.910219E-3,5.1345383E-3,1.1035276E-3,-2.9679062E-3],"split_indices":[51,80,55,0,0,0,0],"split_type":[0,0,0,0,0,0,0],"sum_hessian":[5.784529E3,2.8113938E3,2.9731353E3,1.4278616E3,1.3835321E3,1.5218975E3,1.4512378E3],"tree_param":{"num_deleted":"0","num_feature":"106","num_nodes":"7","size_leaf_vector":"0"}},{"base_weights":[-1.23369135E-1,-3.463847E-1,8.753456E-2,-1.8912089E-1,-5.0847507E-1,2.5044975E-1,-1.6214399E-1],"categories":[],"categories_nodes":[],"categories_segments":[],"categories_sizes":[],"default_left":[1,1,1,0,0,0,0],"id":12,"left_children":[1,3,5,-1,-1,-1,-1],"loss_changes":[2.7212265E2,7.158243E1,1.2101197E2,0E0,0E0,0E0,0E0],"parents":[2147483647,0,0,1,1,2,2],"right_children":[2,4,6,-1,-1,-1,-1],"split_conditions":[1.45E1,1.25E1,1.75E1,-1.8912088E-3,-5.0847507E-3,2.5044973E-3,-1.6214398E-3],"split_indices":[51,80,81,0,0,0,0],"split_type":[0,0,0,0,0,0,0],"sum_hessian":[5.7839146E3,2.8109229E3,2.9729917E3,1.4278027E3,1.3831201E3,1.7990858E3,1.173906E3],"tree_param":{"num_deleted":"0","num_feature":"106","num_nodes":"7","size_leaf_vector":"0"}},{"base_weights":[1.2336914E-1,3.463847E-1,-8.7534554E-2,1.8912089E-1,5.0847507E-1,-2.5044975E-1,1.6214399E-1],"categories":[],"categories_nodes":[],"categories_segments":[],"categories_sizes":[],"default_left":[1,1,1,0,0,0,0],"id":13,"left_children":[1,3,5,-1,-1,-1,-1],"loss_changes":[2.7212262E2,7.158243E1,1.2101196E2,0E0,0E0,0E0,0E0],"parents":[2147483647,0,0,1,1,2,2],"right_children":[2,4,6,-1,-1,-1,-1],"split_conditions":[1.45E1,1.25E1,1.75E1,1.8912088E-3,5.0847507E-3,-2.5044973E-3,1.6214398E-3],"split_indices":[51,80,81,0,0,0,0],"split_type":[0,0,0,0,0,0,0],"sum_hessian":[5.7839146E3,2.8109229E3,2.972992E3,1.4278027E3,1.3831201E3,1.7990858E3,1.173906E3],"tree_param":{"num_deleted":"0","num_feature":"106","num_nodes":"7","size_leaf_vector":"0"}},{"base_weights":[-1.22152105E-1,-3.429906E-1,8.6664855E-2,-1.0928208E-1,-4.5053503E-1,-1.0858269E-1,2.9137963E-1],"categories":[],"categories_nodes":[],"categories_segments":[],"categories_sizes":[],"default_left":[1,1,1,0,0,0,0],"id":14,"left_children":[1,3,5,-1,-1,-1,-1],"loss_changes":[2.6676642E2,7.061194E1,1.1889498E2,0E0,0E0,0E0,0E0],"parents":[2147483647,0,0,1,1,2,2],"right_children":[2,4,6,-1,-1,-1,-1],"split_conditions":[1.45E1,8.5E0,5.1549995E-1,-1.0928208E-3,-4.5053503E-3,-1.0858269E-3,2.9137963E-3],"split_indices":[51,103,55,0,0,0,0],"split_type":[0,0,0,0,0,0,0],"sum_hessian":[5.7831846E3,2.8103745E3,2.9728098E3,8.86313E2,1.9240616E3,1.5218289E3,1.450981E3],"tree_param":{"num_deleted":"0","num_feature":"106","num_nodes":"7","size_leaf_vector":"0"}},{"base_weights":[1.22152135E-1,3.4299067E-1,-8.666484E-2,1.0928208E-1,4.5053512E-1,1.08582735E-1,-2.9137963E-1],"categories":[],"categories_nodes":[],"categories_segments":[],"categories_sizes":[],"default_left":[1,1,1,0,0,0,0],"id":15,"left_children":[1,3,5,-1,-1,-1,-1],"loss_changes":[2.6676642E2,7.0612E1,1.18895004E2,0E0,0E0,0E0,0E0],"parents":[2147483647,0,0,1,1,2,2],"right_children":[2,4,6,-1,-1,-1,-1],"split_conditions":[1.45E1,8.5E0,5.1549995E-1,1.0928208E-3,4.505351E-3,1.0858274E-3,-2.9137963E-3],"split_indices":[51,103,55,0,0,0,0],"split_type":[0,0,0,0,0,0,0],"sum_hessian":[5.7831846E3,2.8103745E3,2.9728098E3,8.86313E2,1.9240615E3,1.5218289E3,1.450981E3],"tree_param":{"num_deleted":"0","num_feature":"106","num_nodes":"7","size_leaf_vector":"0"}},{"base_weights":[-1.2094772E-1,-3.3963403E-1,8.5804455E-2,-1.8482348E-1,-4.992878E-1,2.4585475E-1,-1.5945485E-1],"categories":[],"categories_nodes":[],"categories_segments":[],"categories_sizes":[],"default_left":[1,1,1,0,0,0,0],"id":16,"left_children":[1,3,5,-1,-1,-1,-1],"loss_changes":[2.615193E2,6.9379395E1,1.16765045E2,0E0,0E0,0E0,0E0],"parents":[2147483647,0,0,1,1,2,2],"right_children":[2,4,6,-1,-1,-1,-1],"split_conditions":[1.45E1,1.25E1,1.75E1,-1.8482348E-3,-4.992878E-3,2.4585475E-3,-1.5945485E-3],"split_indices":[51,80,81,0,0,0,0],"split_type":[0,0,0,0,0,0,0],"sum_hessian":[5.7824053E3,2.8097878E3,2.9726172E3,1.427627E3,1.382161E3,1.7987766E3,1.1738406E3],"tree_param":{"num_deleted":"0","num_feature":"106","num_nodes":"7","size_leaf_vector":"0"}},{"base_weights":[1.2094769E-1,3.3963403E-1,-8.58045E-2,1.8482348E-1,4.992878E-1,-2.4585478E-1,1.5945476E-1],"categories":[],"categories_nodes":[],"categories_segments":[],"categories_sizes":[],"default_left":[1,1,1,0,0,0,0],"id":17,"left_children":[1,3,5,-1,-1,-1,-1],"loss_changes":[2.6151935E2,6.9379395E1,1.1676501E2,0E0,0E0,0E0,0E0],"parents":[2147483647,0,0,1,1,2,2],"right_children":[2,4,6,-1,-1,-1,-1],"split_conditions":[1.45E1,1.25E1,1.75E1,1.8482348E-3,4.992878E-3,-2.4585477E-3,1.5945476E-3],"split_indices":[51,80,81,0,0,0,0],"split_type":[0,0,0,0,0,0,0],"sum_hessian":[5.7824053E3,2.809788E3,2.9726172E3,1.4276271E3,1.382161E3,1.7987766E3,1.1738406E3],"tree_param":{"num_deleted":"0","num_feature":"106","num_nodes":"7","size_leaf_vector":"0"}},{"base_weights":[-1.19758606E-1,-3.3632344E-1,8.495331E-2,-4.3331945E-1,-8.499799E-2,-1.0684169E-1,2.8608346E-1],"categories":[],"categories_nodes":[],"categories_segments":[],"categories_sizes":[],"default_left":[1,1,1,0,0,0,0],"id":18,"left_children":[1,3,5,-1,-1,-1,-1],"loss_changes":[2.5638577E2,6.846646E1,1.14731255E2,0E0,0E0,0E0,0E0],"parents":[2147483647,0,0,1,1,2,2],"right_children":[2,4,6,-1,-1,-1,-1],"split_conditions":[1.45E1,3.75E0,5.1549995E-1,-4.3331943E-3,-8.499799E-4,-1.0684169E-3,2.8608346E-3],"split_indices":[51,77,55,0,0,0,0],"split_type":[0,0,0,0,0,0,0],"sum_hessian":[5.7814844E3,2.8090967E3,2.9723877E3,2.0263337E3,7.8276306E2,1.5217429E3,1.4506447E3],"tree_param":{"num_deleted":"0","num_feature":"106","num_nodes":"7","size_leaf_vector":"0"}},{"base_weights":[1.1975856E-1,3.363234E-1,-8.495335E-2,4.3331942E-1,8.499788E-2,1.06841594E-1,-2.8608346E-1],"categories":[],"categories_nodes":[],"categories_segments":[],"categories_sizes":[],"default_left":[1,1,1,0,0,0,0],"id":19,"left_children":[1,3,5,-1,-1,-1,-1],"loss_changes":[2.563858E2,6.846649E1,1.14731186E2,0E0,0E0,0E0,0E0],"parents":[2147483647,0,0,1,1,2,2],"right_children":[2,4,6,-1,-1,-1,-1],"split_conditions":[1.45E1,3.75E0,5.1549995E-1,4.333194E-3,8.4997877E-4,1.0684159E-3,-2.8608346E-3],"split_indices":[51,77,55,0,0,0,0],"split_type":[0,0,0,0,0,0,0],"sum_hessian":[5.7814844E3,2.8090967E3,2.9723877E3,2.0263337E3,7.82763E2,1.521743E3,1.4506447E3],"tree_param":{"num_deleted":"0","num_feature":"106","num_nodes":"7","size_leaf_vector":"0"}},{"base_weights":[-1.18581444E-1,-3.3304775E-1,8.4111236E-2,-1.8055707E-1,-4.9041802E-1,2.4135482E-1,-1.5681167E-1],"categories":[],"categories_nodes":[],"categories_segments":[],"categories_sizes":[],"default_left":[1,1,1,0,0,0,0],"id":20,"left_children":[1,3,5,-1,-1,-1,-1],"loss_changes":[2.5135532E2,6.73295E1,1.1267137E2,0E0,0E0,0E0,0E0],"parents":[2147483647,0,0,1,1,2,2],"right_children":[2,4,6,-1,-1,-1,-1],"split_conditions":[1.45E1,1.25E1,1.75E1,-1.8055707E-3,-4.90418E-3,2.413548E-3,-1.5681167E-3],"split_indices":[51,80,81,0,0,0,0],"split_type":[0,0,0,0,0,0,0],"sum_hessian":[5.780527E3,2.808378E3,2.9721487E3,1.4273923E3,1.3809856E3,1.798389E3,1.1737596E3],"tree_param":{"num_deleted":"0","num_feature":"106","num_nodes":"7","size_leaf_vector":"0"}},{"base_weights":[1.1858143E-1,3.3304772E-1,-8.411126E-2,1.8055707E-1,4.9041802E-1,-2.4135491E-1,1.5681176E-1],"categories":[],"categories_nodes":[],"categories_segments":[],"categories_sizes":[],"default_left":[1,1,1,0,0,0,0],"id":21,"left_children":[1,3,5,-1,-1,-1,-1],"loss_changes":[2.513553E2,6.73295E1,1.1267146E2,0E0,0E0,0E0,0E0],"parents":[2147483647,0,0,1,1,2,2],"right_children":[2,4,6,-1,-1,-1,-1],"split_conditions":[1.45E1,1.25E1,1.75E1,1.8055707E-3,4.90418E-3,-2.413549E-3,1.5681175E-3],"split_indices":[51,80,81,0,0,0,0],"split_type":[0,0,0,0,0,0,0],"sum_hessian":[5.7805264E3,2.808378E3,2.9721484E3,1.4273925E3,1.3809855E3,1.798389E3,1.1737595E3],"tree_param":{"num_deleted":"0","num_feature":"106","num_nodes":"7","size_leaf_vector":"0"}},{"base_weights":[-1.1741925E-1,-3.2981715E-1,8.327818E-2,-1.03066176E-1,-4.3428022E-1,-1.05128966E-1,2.8089848E-1],"categories":[],"categories_nodes":[],"categories_segments":[],"categories_sizes":[],"default_left":[1,1,1,0,0,0,0],"id":22,"left_children":[1,3,5,-1,-1,-1,-1],"loss_changes":[2.4643385E2,6.648172E1,1.1071879E2,0E0,0E0,0E0,0E0],"parents":[2147483647,0,0,1,1,2,2],"right_children":[2,4,6,-1,-1,-1,-1],"split_conditions":[1.45E1,8.5E0,5.1549995E-1,-1.0306617E-3,-4.342802E-3,-1.0512896E-3,2.8089848E-3],"split_indices":[51,103,55,0,0,0,0],"split_type":[0,0,0,0,0,0,0],"sum_hessian":[5.7794272E3,2.8075532E3,2.9718743E3,8.861133E2,1.9214398E3,1.521641E3,1.4502333E3],"tree_param":{"num_deleted":"0","num_feature":"106","num_nodes":"7","size_leaf_vector":"0"}},{"base_weights":[1.1741925E-1,3.2981715E-1,-8.327817E-2,1.0306626E-1,4.342802E-1,1.0512897E-1,-2.8089848E-1],"categories":[],"categories_nodes":[],"categories_segments":[],"categories_sizes":[],"default_left":[1,1,1,0,0,0,0],"id":23,"left_children":[1,3,5,-1,-1,-1,-1],"loss_changes":[2.4643387E2,6.648166E1,1.1071879E2,0E0,0E0,0E0,0E0],"parents":[2147483647,0,0,1,1,2,2],"right_children":[2,4,6,-1,-1,-1,-1],"split_conditions":[1.45E1,8.5E0,5.1549995E-1,1.0306626E-3,4.342802E-3,1.0512897E-3,-2.8089848E-3],"split_indices":[51,103,55,0,0,0,0],"split_type":[0,0,0,0,0,0,0],"sum_hessian":[5.7794272E3,2.807553E3,2.9718743E3,8.861132E2,1.9214398E3,1.5216409E3,1.4502333E3],"tree_param":{"num_deleted":"0","num_feature":"106","num_nodes":"7","size_leaf_vector":"0"}},{"base_weights":[-1.16268806E-1,-3.266209E-1,8.2453944E-2,-4.214449E-1,-8.1165284E-2,2.3528261E-1,-1.5683469E-1],"categories":[],"categories_nodes":[],"categories_segments":[],"categories_sizes":[],"default_left":[1,1,1,0,0,0,0],"id":24,"left_children":[1,3,5,-1,-1,-1,-1],"loss_changes":[2.4161136E2,6.5315186E1,1.0874505E2,0E0,0E0,0E0,0E0],"parents":[2147483647,0,0,1,1,2,2],"right_children":[2,4,6,-1,-1,-1,-1],"split_conditions":[1.45E1,3.75E0,1.65E1,-4.214449E-3,-8.116528E-4,2.352826E-3,-1.5683469E-3],"split_indices":[51,77,80,0,0,0,0],"split_type":[0,0,0,0,0,0,0],"sum_hessian":[5.7782896E3,2.8066982E3,2.9715913E3,2.0240529E3,7.826454E2,1.8134166E3,1.1581747E3],"tree_param":{"num_deleted":"0","num_feature":"106","num_nodes":"7","size_leaf_vector":"0"}},{"base_weights":[1.16268836E-1,3.2662097E-1,-8.245391E-2,4.2144495E-1,8.1165284E-2,-2.3528261E-1,1.5683478E-1],"categories":[],"categories_nodes":[],"categories_segments":[],"categories_sizes":[],"default_left":[1,1,1,0,0,0,0],"id":25,"left_children":[1,3,5,-1,-1,-1,-1],"loss_changes":[2.4161134E2,6.5315216E1,1.087451E2,0E0,0E0,0E0,0E0],"parents":[2147483647,0,0,1,1,2,2],"right_children":[2,4,6,-1,-1,-1,-1],"split_conditions":[1.45E1,3.75E0,1.65E1,4.2144493E-3,8.116528E-4,-2.352826E-3,1.5683478E-3],"split_indices":[51,77,80,0,0,0,0],"split_type":[0,0,0,0,0,0,0],"sum_hessian":[5.7782896E3,2.8066982E3,2.9715913E3,2.0240527E3,7.826454E2,1.8134166E3,1.1581747E3],"tree_param":{"num_deleted":"0","num_feature":"106","num_nodes":"7","size_leaf_vector":"0"}},{"base_weights":[-1.1513124E-1,-3.2346222E-1,8.163799E-2,-2.2879818E-1,-5.675005E-1,-1.03464276E-1,2.7584314E-1],"categories":[],"categories_nodes":[],"categories_segments":[],"categories_sizes":[],"default_left":[1,1,1,0,0,0,0],"id":26,"left_children":[1,3,5,-1,-1,-1,-1],"loss_changes":[2.3688791E2,6.471155E1,1.0687595E2,0E0,0E0,0E0,0E0],"parents":[2147483647,0,0,1,1,2,2],"right_children":[2,4,6,-1,-1,-1,-1],"split_conditions":[1.45E1,1.95E1,5.1549995E-1,-2.2879818E-3,-5.675005E-3,-1.0346427E-3,2.7584315E-3],"split_indices":[51,80,55,0,0,0,0],"split_type":[0,0,0,0,0,0,0],"sum_hessian":[5.7770786E3,2.8057864E3,2.9712922E3,2.0229921E3,7.8279425E2,1.5215388E3,1.4497533E3],"tree_param":{"num_deleted":"0","num_feature":"106","num_nodes":"7","size_leaf_vector":"0"}},{"base_weights":[1.1513127E-1,3.2346225E-1,-8.163799E-2,2.287982E-1,5.675006E-1,1.0346426E-1,-2.7584314E-1],"categories":[],"categories_nodes":[],"categories_segments":[],"categories_sizes":[],"default_left":[1,1,1,0,0,0,0],"id":27,"left_children":[1,3,5,-1,-1,-1,-1],"loss_changes":[2.3688797E2,6.471158E1,1.0687593E2,0E0,0E0,0E0,0E0],"parents":[2147483647,0,0,1,1,2,2],"right_children":[2,4,6,-1,-1,-1,-1],"split_conditions":[1.45E1,1.95E1,5.1549995E-1,2.2879818E-3,5.6750057E-3,1.0346426E-3,-2.7584315E-3],"split_indices":[51,80,55,0,0,0,0],"split_type":[0,0,0,0,0,0,0],"sum_hessian":[5.777078E3,2.8057861E3,2.971292E3,2.022992E3,7.8279425E2,1.5215388E3,1.4497532E3],"tree_param":{"num_deleted":"0","num_feature":"106","num_nodes":"7","size_leaf_vector":"0"}},{"base_weights":[-1.140065E-1,-3.2033977E-1,8.083108E-2,-1.7184563E-1,-4.7383678E-1,2.3278244E-1,-1.5189452E-1],"categories":[],"categories_nodes":[],"categories_segments":[],"categories_sizes":[],"default_left":[1,1,1,0,0,0,0],"id":28,"left_children":[1,3,5,-1,-1,-1,-1],"loss_changes":[2.3226187E2,6.387314E1,1.0513299E2,0E0,0E0,0E0,0E0],"parents":[2147483647,0,0,1,1,2,2],"right_children":[2,4,6,-1,-1,-1,-1],"split_conditions":[1.45E1,1.25E1,1.75E1,-1.7184563E-3,-4.7383676E-3,2.3278242E-3,-1.5189452E-3],"split_indices":[51,80,81,0,0,0,0],"split_type":[0,0,0,0,0,0,0],"sum_hessian":[5.7758027E3,2.8048347E3,2.9709683E3,1.4267275E3,1.3781072E3,1.797405E3,1.1735631E3],"tree_param":{"num_deleted":"0","num_feature":"106","num_nodes":"7","size_leaf_vector":"0"}},{"base_weights":[1.1400649E-1,3.203398E-1,-8.0831096E-2,1.7184567E-1,4.7383675E-1,-2.3278244E-1,1.5189451E-1],"categories":[],"categories_nodes":[],"categories_segments":[],"categories_sizes":[],"default_left":[1,1,1,0,0,0,0],"id":29,"left_children":[1,3,5,-1,-1,-1,-1],"loss_changes":[2.322619E2,6.3873077E1,1.0513297E2,0E0,0E0,0E0,0E0],"parents":[2147483647,0,0,1,1,2,2],"right_children":[2,4,6,-1,-1,-1,-1],"split_conditions":[1.45E1,1.25E1,1.75E1,1.7184567E-3,4.738367E-3,-2.3278242E-3,1.5189451E-3],"split_indices":[51,80,81,0,0,0,0],"split_type":[0,0,0,0,0,0,0],"sum_hessian":[5.7758027E3,2.8048347E3,2.970968E3,1.4267274E3,1.3781072E3,1.797405E3,1.1735631E3],"tree_param":{"num_deleted":"0","num_feature":"106","num_nodes":"7","size_leaf_vector":"0"}},{"base_weights":[-1.128955E-1,-3.172599E-1,8.003269E-2,-3.9175743E-1,-1.4322437E-2,-1.0180529E-1,2.70869E-1],"categories":[],"categories_nodes":[],"categories_segments":[],"categories_sizes":[],"default_left":[1,1,1,0,0,0,0],"id":30,"left_children":[1,3,5,-1,-1,-1,-1],"loss_changes":[2.2773521E2,6.3292694E1,1.0314638E2,0E0,0E0,0E0,0E0],"parents":[2147483647,0,0,1,1,2,2],"right_children":[2,4,6,-1,-1,-1,-1],"split_conditions":[1.45E1,5.05E0,5.1549995E-1,-3.9175744E-3,-1.4322437E-4,-1.0180529E-3,2.7086898E-3],"split_indices":[51,77,55,0,0,0,0],"split_type":[0,0,0,0,0,0,0],"sum_hessian":[5.7743833E3,2.80377E3,2.9706135E3,2.2501309E3,5.5363904E2,1.5214087E3,1.4492047E3],"tree_param":{"num_deleted":"0","num_feature":"106","num_nodes":"7","size_leaf_vector":"0"}},{"base_weights":[1.1289551E-1,3.172599E-1,-8.0032684E-2,3.9175743E-1,1.4322437E-2,1.018053E-1,-2.70869E-1],"categories":[],"categories_nodes":[],"categories_segments":[],"categories_sizes":[],"default_left":[1,1,1,0,0,0,0],"id":31,"left_children":[1,3,5,-1,-1,-1,-1],"loss_changes":[2.277352E2,6.3292725E1,1.0314639E2,0E0,0E0,0E0,0E0],"parents":[2147483647,0,0,1,1,2,2],"right_children":[2,4,6,-1,-1,-1,-1],"split_conditions":[1.45E1,5.05E0,5.1549995E-1,3.9175744E-3,1.4322437E-4,1.0180529E-3,-2.7086898E-3],"split_indices":[51,77,55,0,0,0,0],"split_type":[0,0,0,0,0,0,0],"sum_hessian":[5.7743833E3,2.80377E3,2.9706135E3,2.2501309E3,5.5363904E2,1.5214087E3,1.4492047E3],"tree_param":{"num_deleted":"0","num_feature":"106","num_nodes":"7","size_leaf_vector":"0"}},{"base_weights":[-1.11794695E-1,-3.1420785E-1,7.9242766E-2,-2.2118664E-1,-5.543273E-1,2.2697303E-1,-1.5196326E-1],"categories":[],"categories_nodes":[],"categories_segments":[],"categories_sizes":[],"default_left":[1,1,1,0,0,0,0],"id":32,"left_children":[1,3,5,-1,-1,-1,-1],"loss_changes":[2.232954E2,6.250168E1,1.0152092E2,0E0,0E0,0E0,0E0],"parents":[2147483647,0,0,1,1,2,2],"right_children":[2,4,6,-1,-1,-1,-1],"split_conditions":[1.45E1,1.95E1,1.65E1,-2.2118664E-3,-5.543273E-3,2.2697302E-3,-1.5196326E-3],"split_indices":[51,80,80,0,0,0,0],"split_type":[0,0,0,0,0,0,0],"sum_hessian":[5.7729634E3,2.802713E3,2.9702507E3,2.02151E3,7.81203E2,1.8122943E3,1.1579563E3],"tree_param":{"num_deleted":"0","num_feature":"106","num_nodes":"7","size_leaf_vector":"0"}},{"base_weights":[1.1179474E-1,3.1420788E-1,-7.924273E-2,2.2118668E-1,5.543273E-1,-2.2697297E-1,1.5196326E-1],"categories":[],"categories_nodes":[],"categories_segments":[],"categories_sizes":[],"default_left":[1,1,1,0,0,0,0],"id":33,"left_children":[1,3,5,-1,-1,-1,-1],"loss_changes":[2.2329541E2,6.250168E1,1.01520874E2,0E0,0E0,0E0,0E0],"parents":[2147483647,0,0,1,1,2,2],"right_children":[2,4,6,-1,-1,-1,-1],"split_conditions":[1.45E1,1.95E1,1.65E1,2.2118667E-3,5.543273E-3,-2.2697297E-3,1.5196326E-3],"split_indices":[51,80,80,0,0,0,0],"split_type":[0,0,0,0,0,0,0],"sum_hessian":[5.772964E3,2.802713E3,2.9702507E3,2.02151E3,7.81203E2,1.8122943E3,1.1579563E3],"tree_param":{"num_deleted":"0","num_feature":"106","num_nodes":"7","size_leaf_vector":"0"}},{"base_weights":[-1.10706955E-1,-3.1119332E-1,7.846054E-2,-3.8483724E-1,-1.1973237E-2,2.264533E-1,-1.4812554E-1],"categories":[],"categories_nodes":[],"categories_segments":[],"categories_sizes":[],"default_left":[1,1,1,0,0,0,0],"id":34,"left_children":[1,3,5,-1,-1,-1,-1],"loss_changes":[2.1894832E2,6.1752716E1,9.965621E1,0E0,0E0,0E0,0E0],"parents":[2147483647,0,0,1,1,2,2],"right_children":[2,4,6,-1,-1,-1,-1],"split_conditions":[1.45E1,5.05E0,1.75E1,-3.8483723E-3,-1.19732365E-4,2.264533E-3,-1.4812554E-3],"split_indices":[51,77,81,0,0,0,0],"split_type":[0,0,0,0,0,0,0],"sum_hessian":[5.771472E3,2.8015967E3,2.9698757E3,2.2480269E3,5.5356976E2,1.7965045E3,1.1733711E3],"tree_param":{"num_deleted":"0","num_feature":"106","num_nodes":"7","size_leaf_vector":"0"}},{"base_weights":[1.1070691E-1,3.1119326E-1,-7.8460574E-2,3.848372E-1,1.1973148E-2,-2.2645332E-1,1.4812547E-1],"categories":[],"categories_nodes":[],"categories_segments":[],"categories_sizes":[],"default_left":[1,1,1,0,0,0,0],"id":35,"left_children":[1,3,5,-1,-1,-1,-1],"loss_changes":[2.1894833E2,6.1752716E1,9.96562E1,0E0,0E0,0E0,0E0],"parents":[2147483647,0,0,1,1,2,2],"right_children":[2,4,6,-1,-1,-1,-1],"split_conditions":[1.45E1,5.05E0,1.75E1,3.848372E-3,1.1973148E-4,-2.2645332E-3,1.4812547E-3],"split_indices":[51,77,81,0,0,0,0],"split_type":[0,0,0,0,0,0,0],"sum_hessian":[5.7714727E3,2.8015967E3,2.9698757E3,2.2480269E3,5.535698E2,1.7965045E3,1.1733711E3],"tree_param":{"num_deleted":"0","num_feature":"106","num_nodes":"7","size_leaf_vector":"0"}},{"base_weights":[-1.09630615E-1,-3.0821133E-1,7.768703E-2,-2.162654E-1,-5.458017E-1,-9.958027E-2,2.6381415E-1],"categories":[],"categories_nodes":[],"categories_segments":[],"categories_sizes":[],"default_left":[1,1,1,0,0,0,0],"id":36,"left_children":[1,3,5,-1,-1,-1,-1],"loss_changes":[2.1468799E2,6.1080658E1,9.803456E1,0E0,0E0,0E0,0E0],"parents":[2147483647,0,0,1,1,2,2],"right_children":[2,4,6,-1,-1,-1,-1],"split_conditions":[1.45E1,1.95E1,5.1549995E-1,-2.162654E-3,-5.458017E-3,-9.958027E-4,2.6381414E-3],"split_indices":[51,80,55,0,0,0,0],"split_type":[0,0,0,0,0,0,0],"sum_hessian":[5.7699004E3,2.800435E3,2.9694653E3,2.0204458E3,7.799892E2,1.5211698E3,1.4482957E3],"tree_param":{"num_deleted":"0","num_feature":"106","num_nodes":"7","size_leaf_vector":"0"}},{"base_weights":[1.09630615E-1,3.0821133E-1,-7.7687025E-2,2.1626534E-1,5.458018E-1,9.9580325E-2,-2.6381418E-1],"categories":[],"categories_nodes":[],"categories_segments":[],"categories_sizes":[],"default_left":[1,1,1,0,0,0,0],"id":37,"left_children":[1,3,5,-1,-1,-1,-1],"loss_changes":[2.1468799E2,6.108072E1,9.80346E1,0E0,0E0,0E0,0E0],"parents":[2147483647,0,0,1,1,2,2],"right_children":[2,4,6,-1,-1,-1,-1],"split_conditions":[1.45E1,1.95E1,5.1549995E-1,2.1626533E-3,5.4580183E-3,9.958033E-4,-2.6381419E-3],"split_indices":[51,80,55,0,0,0,0],"split_type":[0,0,0,0,0,0,0],"sum_hessian":[5.7699004E3,2.800435E3,2.9694653E3,2.0204458E3,7.799892E2,1.5211697E3,1.4482958E3],"tree_param":{"num_deleted":"0","num_feature":"106","num_nodes":"7","size_leaf_vector":"0"}},{"base_weights":[-1.085664E-1,-3.052655E-1,7.692163E-2,-8.924021E-2,-4.051086E-1,2.2082534E-1,-1.4821343E-1],"categories":[],"categories_nodes":[],"categories_segments":[],"categories_sizes":[],"default_left":[1,1,1,0,0,0,0],"id":38,"left_children":[1,3,5,-1,-1,-1,-1],"loss_changes":[2.1051712E2,6.0360718E1,9.6255745E1,0E0,0E0,0E0,0E0],"parents":[2147483647,0,0,1,1,2,2],"right_children":[2,4,6,-1,-1,-1,-1],"split_conditions":[1.45E1,8.5E0,1.65E1,-8.924021E-4,-4.051086E-3,2.2082534E-3,-1.4821343E-3],"split_indices":[51,103,80,0,0,0,0],"split_type":[0,0,0,0,0,0,0],"sum_hessian":[5.768268E3,2.7992175E3,2.9690503E3,8.8540564E2,1.913812E3,1.8113046E3,1.1577458E3],"tree_param":{"num_deleted":"0","num_feature":"106","num_nodes":"7","size_leaf_vector":"0"}},{"base_weights":[1.0856641E-1,3.0526552E-1,-7.692166E-2,8.92402E-2,4.0510863E-1,-2.2082533E-1,1.4821333E-1],"categories":[],"categories_nodes":[],"categories_segments":[],"categories_sizes":[],"default_left":[1,1,1,0,0,0,0],"id":39,"left_children":[1,3,5,-1,-1,-1,-1],"loss_changes":[2.1051718E2,6.0360718E1,9.625567E1,0E0,0E0,0E0,0E0],"parents":[2147483647,0,0,1,1,2,2],"right_children":[2,4,6,-1,-1,-1,-1],"split_conditions":[1.45E1,8.5E0,1.65E1,8.9240196E-4,4.051086E-3,-2.2082531E-3,1.4821333E-3],"split_indices":[51,103,80,0,0,0,0],"split_type":[0,0,0,0,0,0,0],"sum_hessian":[5.768268E3,2.7992175E3,2.9690503E3,8.8540564E2,1.9138119E3,1.8113046E3,1.1577458E3],"tree_param":{"num_deleted":"0","num_feature":"106","num_nodes":"7","size_leaf_vector":"0"}},{"base_weights":[-1.0751381E-1,-3.0235445E-1,7.616372E-2,-1.5892267E-1,-4.5106313E-1,-9.8004386E-2,2.591062E-1],"categories":[],"categories_nodes":[],"categories_segments":[],"categories_sizes":[],"default_left":[1,1,1,0,0,0,0],"id":40,"left_children":[1,3,5,-1,-1,-1,-1],"loss_changes":[2.0643138E2,5.9628235E1,9.464572E1,0E0,0E0,0E0,0E0],"parents":[2147483647,0,0,1,1,2,2],"right_children":[2,4,6,-1,-1,-1,-1],"split_conditions":[1.45E1,1.25E1,5.1549995E-1,-1.5892267E-3,-4.5106313E-3,-9.800438E-4,2.5910619E-3],"split_indices":[51,80,55,0,0,0,0],"split_type":[0,0,0,0,0,0,0],"sum_hessian":[5.7665537E3,2.7979307E3,2.9686228E3,1.4252876E3,1.3726431E3,1.5210195E3,1.4476034E3],"tree_param":{"num_deleted":"0","num_feature":"106","num_nodes":"7","size_leaf_vector":"0"}},{"base_weights":[1.0751381E-1,3.0235448E-1,-7.616373E-2,1.5892273E-1,4.510631E-1,9.800445E-2,-2.5910628E-1],"categories":[],"categories_nodes":[],"categories_segments":[],"categories_sizes":[],"default_left":[1,1,1,0,0,0,0],"id":41,"left_children":[1,3,5,-1,-1,-1,-1],"loss_changes":[2.0643137E2,5.962822E1,9.4645805E1,0E0,0E0,0E0,0E0],"parents":[2147483647,0,0,1,1,2,2],"right_children":[2,4,6,-1,-1,-1,-1],"split_conditions":[1.45E1,1.25E1,5.1549995E-1,1.5892272E-3,4.510631E-3,9.800445E-4,-2.5910628E-3],"split_indices":[51,80,55,0,0,0,0],"split_type":[0,0,0,0,0,0,0],"sum_hessian":[5.766553E3,2.7979307E3,2.9686228E3,1.4252876E3,1.3726431E3,1.5210194E3,1.4476034E3],"tree_param":{"num_deleted":"0","num_feature":"106","num_nodes":"7","size_leaf_vector":"0"}},{"base_weights":[-1.0647331E-1,-2.9948026E-1,7.54142E-2,-2.2838241E-1,-5.966955E-1,2.184644E-1,-1.4348468E-1],"categories":[],"categories_nodes":[],"categories_segments":[],"categories_sizes":[],"default_left":[1,1,1,0,0,0,0],"id":42,"left_children":[1,3,5,-1,-1,-1,-1],"loss_changes":[2.0243205E2,5.8980072E1,9.300668E1,0E0,0E0,0E0,0E0],"parents":[2147483647,0,0,1,1,2,2],"right_children":[2,4,6,-1,-1,-1,-1],"split_conditions":[1.45E1,2.25E1,1.75E1,-2.2838241E-3,-5.966955E-3,2.184644E-3,-1.4348468E-3],"split_indices":[51,80,81,0,0,0,0],"split_type":[0,0,0,0,0,0,0],"sum_hessian":[5.7647393E3,2.7965647E3,2.9681748E3,2.2581526E3,5.3841187E2,1.7950884E3,1.1730864E3],"tree_param":{"num_deleted":"0","num_feature":"106","num_nodes":"7","size_leaf_vector":"0"}},{"base_weights":[1.0647334E-1,2.9948023E-1,-7.541414E-2,2.2838241E-1,5.9669536E-1,-2.1846431E-1,1.4348468E-1],"categories":[],"categories_nodes":[],"categories_segments":[],"categories_sizes":[],"default_left":[1,1,1,0,0,0,0],"id":43,"left_children":[1,3,5,-1,-1,-1,-1],"loss_changes":[2.0243195E2,5.898004E1,9.3006645E1,0E0,0E0,0E0,0E0],"parents":[2147483647,0,0,1,1,2,2],"right_children":[2,4,6,-1,-1,-1,-1],"split_conditions":[1.45E1,2.25E1,1.75E1,2.2838241E-3,5.9669535E-3,-2.1846432E-3,1.4348468E-3],"split_indices":[51,80,81,0,0,0,0],"split_type":[0,0,0,0,0,0,0],"sum_hessian":[5.7647393E3,2.7965647E3,2.9681748E3,2.2581526E3,5.384119E2,1.7950883E3,1.1730864E3],"tree_param":{"num_deleted":"0","num_feature":"106","num_nodes":"7","size_leaf_vector":"0"}},{"base_weights":[-1.054432E-1,-2.9662976E-1,7.467237E-2,-3.6859792E-1,-4.895116E-3,-6.719894E-2,2.9214993E-1],"categories":[],"categories_nodes":[],"categories_segments":[],"categories_sizes":[],"default_left":[1,1,1,0,0,0,0],"id":44,"left_children":[1,3,5,-1,-1,-1,-1],"loss_changes":[1.9850734E2,5.8706955E1,9.161538E1,0E0,0E0,0E0,0E0],"parents":[2147483647,0,0,1,1,2,2],"right_children":[2,4,6,-1,-1,-1,-1],"split_conditions":[1.45E1,5.05E0,5.645E-1,-3.6859792E-3,-4.8951162E-5,-6.719894E-4,2.9214993E-3],"split_indices":[51,77,55,0,0,0,0],"split_type":[0,0,0,0,0,0,0],"sum_hessian":[5.76294E3,2.7952405E3,2.9676997E3,2.2419172E3,5.533233E2,1.7964669E3,1.1712327E3],"tree_param":{"num_deleted":"0","num_feature":"106","num_nodes":"7","size_leaf_vector":"0"}},{"base_weights":[1.0544322E-1,2.966298E-1,-7.467236E-2,3.6859795E-1,4.8952047E-3,6.719897E-2,-2.9214996E-1],"categories":[],"categories_nodes":[],"categories_segments":[],"categories_sizes":[],"default_left":[1,1,1,0,0,0,0],"id":45,"left_children":[1,3,5,-1,-1,-1,-1],"loss_changes":[1.9850739E2,5.8706924E1,9.161541E1,0E0,0E0,0E0,0E0],"parents":[2147483647,0,0,1,1,2,2],"right_children":[2,4,6,-1,-1,-1,-1],"split_conditions":[1.45E1,5.05E0,5.645E-1,3.6859794E-3,4.8952046E-5,6.719897E-4,-2.9214995E-3],"split_indices":[51,77,55,0,0,0,0],"split_type":[0,0,0,0,0,0,0],"sum_hessian":[5.7629404E3,2.7952405E3,2.9676997E3,2.2419172E3,5.533233E2,1.796467E3,1.1712328E3],"tree_param":{"num_deleted":"0","num_feature":"106","num_nodes":"7","size_leaf_vector":"0"}},{"base_weights":[-1.0442207E-1,-2.9381174E-1,7.393687E-2,-2.0434475E-1,-5.256741E-1,2.132515E-1,-1.4389302E-1],"categories":[],"categories_nodes":[],"categories_segments":[],"categories_sizes":[],"default_left":[1,1,1,0,0,0,0],"id":46,"left_children":[1,3,5,-1,-1,-1,-1],"loss_changes":[1.9466289E2,5.7869034E1,9.010892E1,0E0,0E0,0E0,0E0],"parents":[2147483647,0,0,1,1,2,2],"right_children":[2,4,6,-1,-1,-1,-1],"split_conditions":[1.45E1,1.95E1,1.65E1,-2.0434475E-3,-5.256741E-3,2.132515E-3,-1.4389302E-3],"split_indices":[51,80,80,0,0,0,0],"split_type":[0,0,0,0,0,0,0],"sum_hessian":[5.7611367E3,2.793851E3,2.9672856E3,2.0173231E3,7.7652795E2,1.8098223E3,1.1574634E3],"tree_param":{"num_deleted":"0","num_feature":"106","num_nodes":"7","size_leaf_vector":"0"}},{"base_weights":[1.0442205E-1,2.938117E-1,-7.393692E-2,2.0434473E-1,5.2567405E-1,-2.1325158E-1,1.4389302E-1],"categories":[],"categories_nodes":[],"categories_segments":[],"categories_sizes":[],"default_left":[1,1,1,0,0,0,0],"id":47,"left_children":[1,3,5,-1,-1,-1,-1],"loss_changes":[1.9466292E2,5.786905E1,9.010897E1,0E0,0E0,0E0,0E0],"parents":[2147483647,0,0,1,1,2,2],"right_children":[2,4,6,-1,-1,-1,-1],"split_conditions":[1.45E1,1.95E1,1.65E1,2.0434472E-3,5.2567404E-3,-2.1325157E-3,1.4389302E-3],"split_indices":[51,80,80,0,0,0,0],"split_type":[0,0,0,0,0,0,0],"sum_hessian":[5.7611367E3,2.793851E3,2.9672856E3,2.017323E3,7.7652795E2,1.8098221E3,1.1574634E3],"tree_param":{"num_deleted":"0","num_feature":"106","num_nodes":"7","size_leaf_vector":"0"}},{"base_weights":[-1.0341405E-1,-2.9102734E-1,7.3209845E-2,-3.6220598E-1,-2.807087E-3,-6.636631E-2,2.8727323E-1],"categories":[],"categories_nodes":[],"categories_segments":[],"categories_sizes":[],"default_left":[1,1,1,0,0,0,0],"id":48,"left_children":[1,3,5,-1,-1,-1,-1],"loss_changes":[1.908973E2,5.7306137E1,8.8691376E1,0E0,0E0,0E0,0E0],"parents":[2147483647,0,0,1,1,2,2],"right_children":[2,4,6,-1,-1,-1,-1],"split_conditions":[1.45E1,5.05E0,5.645E-1,-3.6220597E-3,-2.807087E-5,-6.636631E-4,2.8727322E-3],"split_indices":[51,77,55,0,0,0,0],"split_type":[0,0,0,0,0,0,0],"sum_hessian":[5.7592085E3,2.7924097E3,2.9667988E3,2.2391694E3,5.532403E2,1.7962661E3,1.1705328E3],"tree_param":{"num_deleted":"0","num_feature":"106","num_nodes":"7","size_leaf_vector":"0"}},{"base_weights":[1.03414066E-1,2.9102737E-1,-7.320984E-2,3.62206E-1,2.8071743E-3,6.63663E-2,-2.8727323E-1],"categories":[],"categories_nodes":[],"categories_segments":[],"categories_sizes":[],"default_left":[1,1,1,0,0,0,0],"id":49,"left_children":[1,3,5,-1,-1,-1,-1],"loss_changes":[1.9089731E2,5.730612E1,8.8691376E1,0E0,0E0,0E0,0E0],"parents":[2147483647,0,0,1,1,2,2],"right_children":[2,4,6,-1,-1,-1,-1],"split_conditions":[1.45E1,5.05E0,5.645E-1,3.62206E-3,2.8071743E-5,6.6366297E-4,-2.8727322E-3],"split_indices":[51,77,55,0,0,0,0],"split_type":[0,0,0,0,0,0,0],"sum_hessian":[5.7592085E3,2.7924097E3,2.966799E3,2.2391694E3,5.5324023E2,1.7962662E3,1.1705328E3],"tree_param":{"num_deleted":"0","num_feature":"106","num_nodes":"7","size_leaf_vector":"0"}},{"base_weights":[-1.0241458E-1,6.7721955E-2,-2.9369614E-1,-1.8892297E-1,1.8497533E-1,-3.8260105E-1,-6.60456E-2],"categories":[],"categories_nodes":[],"categories_segments":[],"categories_sizes":[],"default_left":[1,1,1,0,0,0,0],"id":50,"left_children":[1,3,5,-1,-1,-1,-1],"loss_changes":[1.8741768E2,9.176906E1,5.4841095E1,0E0,0E0,0E0,0E0],"parents":[2147483647,0,0,1,1,2,2],"right_children":[2,4,6,-1,-1,-1,-1],"split_conditions":[5.5E-1,-2.05E0,3.75E0,-1.8892296E-3,1.8497532E-3,-3.8260105E-3,-6.6045596E-4],"split_indices":[25,77,77,0,0,0,0],"split_type":[0,0,0,0,0,0,0],"sum_hessian":[5.7572935E3,3.0474062E3,2.7098875E3,9.5546564E2,2.0919404E3,1.9483235E3,7.61564E2],"tree_param":{"num_deleted":"0","num_feature":"106","num_nodes":"7","size_leaf_vector":"0"}},{"base_weights":[1.02414556E-1,-6.772197E-2,2.9369614E-1,1.8892294E-1,-1.8497533E-1,3.8260105E-1,6.604551E-2],"categories":[],"categories_nodes":[],"categories_segments":[],"categories_sizes":[],"default_left":[1,1,1,0,0,0,0],"id":51,"left_children":[1,3,5,-1,-1,-1,-1],"loss_changes":[1.8741771E2,9.176904E1,5.484111E1,0E0,0E0,0E0,0E0],"parents":[2147483647,0,0,1,1,2,2],"right_children":[2,4,6,-1,-1,-1,-1],"split_conditions":[5.5E-1,-2.05E0,3.75E0,1.8892294E-3,-1.8497532E-3,3.8260105E-3,6.604551E-4],"split_indices":[25,77,77,0,0,0,0],"split_type":[0,0,0,0,0,0,0],"sum_hessian":[5.7572935E3,3.047406E3,2.7098875E3,9.554656E2,2.0919404E3,1.9483235E3,7.61564E2],"tree_param":{"num_deleted":"0","num_feature":"106","num_nodes":"7","size_leaf_vector":"0"}},{"base_weights":[-1.01424865E-1,-2.856767E-1,7.190131E-2,-2.1610531E-1,-5.7740754E-1,-6.556741E-2,2.8283784E-1],"categories":[],"categories_nodes":[],"categories_segments":[],"categories_sizes":[],"default_left":[1,1,1,0,0,0,0],"id":52,"left_children":[1,3,5,-1,-1,-1,-1],"loss_changes":[1.8385522E2,5.6510803E1,8.605156E1,0E0,0E0,0E0,0E0],"parents":[2147483647,0,0,1,1,2,2],"right_children":[2,4,6,-1,-1,-1,-1],"split_conditions":[1.45E1,2.25E1,5.645E-1,-2.161053E-3,-5.774075E-3,-6.556741E-4,2.8283782E-3],"split_indices":[51,80,55,0,0,0,0],"split_type":[0,0,0,0,0,0,0],"sum_hessian":[5.7554077E3,2.7894626E3,2.965945E3,2.2537368E3,5.357257E2,1.7961024E3,1.1698427E3],"tree_param":{"num_deleted":"0","num_feature":"106","num_nodes":"7","size_leaf_vector":"0"}},{"base_weights":[1.0142486E-1,2.8567666E-1,-7.1901314E-2,2.161053E-1,5.7740754E-1,6.556738E-2,-2.828378E-1],"categories":[],"categories_nodes":[],"categories_segments":[],"categories_sizes":[],"default_left":[1,1,1,0,0,0,0],"id":53,"left_children":[1,3,5,-1,-1,-1,-1],"loss_changes":[1.8385522E2,5.6510788E1,8.605154E1,0E0,0E0,0E0,0E0],"parents":[2147483647,0,0,1,1,2,2],"right_children":[2,4,6,-1,-1,-1,-1],"split_conditions":[1.45E1,2.25E1,5.645E-1,2.161053E-3,5.774075E-3,6.556738E-4,-2.828378E-3],"split_indices":[51,80,55,0,0,0,0],"split_type":[0,0,0,0,0,0,0],"sum_hessian":[5.7554077E3,2.7894626E3,2.965945E3,2.2537368E3,5.357257E2,1.7961024E3,1.1698425E3],"tree_param":{"num_deleted":"0","num_feature":"106","num_nodes":"7","size_leaf_vector":"0"}},{"base_weights":[-1.0044673E-1,6.651982E-2,-2.883101E-1,-1.8628934E-1,1.820378E-1,-1.8269901E-1,-4.7646478E-1],"categories":[],"categories_nodes":[],"categories_segments":[],"categories_sizes":[],"default_left":[1,1,1,0,0,0,0],"id":54,"left_children":[1,3,5,-1,-1,-1,-1],"loss_changes":[1.8051749E2,8.90322E1,5.372325E1,0E0,0E0,0E0,0E0],"parents":[2147483647,0,0,1,1,2,2],"right_children":[2,4,6,-1,-1,-1,-1],"split_conditions":[5.5E-1,-2.05E0,1.65E1,-1.8628933E-3,1.820378E-3,-1.82699E-3,-4.7646477E-3],"split_indices":[25,77,80,0,0,0,0],"split_type":[0,0,0,0,0,0,0],"sum_hessian":[5.75342E3,3.0464685E3,2.7069514E3,9.5526807E2,2.0912007E3,1.7350436E3,9.719079E2],"tree_param":{"num_deleted":"0","num_feature":"106","num_nodes":"7","size_leaf_vector":"0"}},{"base_weights":[1.0044672E-1,-6.651982E-2,2.8831008E-1,1.8628941E-1,-1.8203783E-1,1.8269898E-1,4.7646475E-1],"categories":[],"categories_nodes":[],"categories_segments":[],"categories_sizes":[],"default_left":[1,1,1,0,0,0,0],"id":55,"left_children":[1,3,5,-1,-1,-1,-1],"loss_changes":[1.8051749E2,8.903225E1,5.3723236E1,0E0,0E0,0E0,0E0],"parents":[2147483647,0,0,1,1,2,2],"right_children":[2,4,6,-1,-1,-1,-1],"split_conditions":[5.5E-1,-2.05E0,1.65E1,1.8628942E-3,-1.8203782E-3,1.8269898E-3,4.764647E-3],"split_indices":[25,77,80,0,0,0,0],"split_type":[0,0,0,0,0,0,0],"sum_hessian":[5.75342E3,3.0464688E3,2.7069514E3,9.55268E2,2.0912007E3,1.7350436E3,9.719079E2],"tree_param":{"num_deleted":"0","num_feature":"106","num_nodes":"7","size_leaf_vector":"0"}},{"base_weights":[-9.9478215E-2,-2.804453E-1,7.062299E-2,-2.1186918E-1,-5.6856275E-1,2.0649202E-1,-1.3706909E-1],"categories":[],"categories_nodes":[],"categories_segments":[],"categories_sizes":[],"default_left":[1,1,1,0,0,0,0],"id":56,"left_children":[1,3,5,-1,-1,-1,-1],"loss_changes":[1.770954E2,5.495288E1,8.372671E1,0E0,0E0,0E0,0E0],"parents":[2147483647,0,0,1,1,2,2],"right_children":[2,4,6,-1,-1,-1,-1],"split_conditions":[1.45E1,2.25E1,1.75E1,-2.1186918E-3,-5.6856275E-3,2.0649203E-3,-1.3706909E-3],"split_indices":[51,80,81,0,0,0,0],"split_type":[0,0,0,0,0,0,0],"sum_hessian":[5.751436E3,2.7863977E3,2.9650383E3,2.2521006E3,5.342971E2,1.7924502E3,1.1725881E3],"tree_param":{"num_deleted":"0","num_feature":"106","num_nodes":"7","size_leaf_vector":"0"}},{"base_weights":[9.94782E-2,2.8044528E-1,-7.0622995E-2,2.1186917E-1,5.685627E-1,-2.0649204E-1,1.3706909E-1],"categories":[],"categories_nodes":[],"categories_segments":[],"categories_sizes":[],"default_left":[1,1,1,0,0,0,0],"id":57,"left_children":[1,3,5,-1,-1,-1,-1],"loss_changes":[1.770954E2,5.4952866E1,8.3726715E1,0E0,0E0,0E0,0E0],"parents":[2147483647,0,0,1,1,2,2],"right_children":[2,4,6,-1,-1,-1,-1],"split_conditions":[1.45E1,2.25E1,1.75E1,2.1186916E-3,5.6856265E-3,-2.0649203E-3,1.3706909E-3],"split_indices":[51,80,81,0,0,0,0],"split_type":[0,0,0,0,0,0,0],"sum_hessian":[5.751436E3,2.7863977E3,2.965038E3,2.2521006E3,5.342971E2,1.7924502E3,1.172588E3],"tree_param":{"num_deleted":"0","num_feature":"106","num_nodes":"7","size_leaf_vector":"0"}},{"base_weights":[-9.8522045E-2,6.533656E-2,-2.8303462E-1,-7.0365965E-2,2.748466E-1,-3.530271E-1,-3.347488E-3],"categories":[],"categories_nodes":[],"categories_segments":[],"categories_sizes":[],"default_left":[1,1,1,0,0,0,0],"id":58,"left_children":[1,3,5,-1,-1,-1,-1],"loss_changes":[1.7387236E2,8.663201E1,5.2949326E1,0E0,0E0,0E0,0E0],"parents":[2147483647,0,0,1,1,2,2],"right_children":[2,4,6,-1,-1,-1,-1],"split_conditions":[5.5E-1,5.645E-1,5.05E0,-7.0365967E-4,2.748466E-3,-3.530271E-3,-3.3474877E-5],"split_indices":[25,55,77,0,0,0,0],"split_type":[0,0,0,0,0,0,0],"sum_hessian":[5.7492817E3,3.0454124E3,2.7038694E3,1.8486686E3,1.1967439E3,2.1624482E3,5.4142114E2],"tree_param":{"num_deleted":"0","num_feature":"106","num_nodes":"7","size_leaf_vector":"0"}},{"base_weights":[9.852206E-2,-6.533652E-2,2.830346E-1,7.036599E-2,-2.7484652E-1,3.530271E-1,3.3474844E-3],"categories":[],"categories_nodes":[],"categories_segments":[],"categories_sizes":[],"default_left":[1,1,1,0,0,0,0],"id":59,"left_children":[1,3,5,-1,-1,-1,-1],"loss_changes":[1.7387228E2,8.6631996E1,5.2949326E1,0E0,0E0,0E0,0E0],"parents":[2147483647,0,0,1,1,2,2],"right_children":[2,4,6,-1,-1,-1,-1],"split_conditions":[5.5E-1,5.645E-1,5.05E0,7.0365984E-4,-2.7484652E-3,3.530271E-3,3.3474844E-5],"split_indices":[25,55,77,0,0,0,0],"split_type":[0,0,0,0,0,0,0],"sum_hessian":[5.7492817E3,3.0454124E3,2.7038694E3,1.8486685E3,1.1967439E3,2.1624482E3,5.414211E2],"tree_param":{"num_deleted":"0","num_feature":"106","num_nodes":"7","size_leaf_vector":"0"}},{"base_weights":[-9.757285E-2,-2.753076E-1,6.9358096E-2,-1.390366E-1,-4.1746348E-1,2.0174128E-1,-1.3741253E-1],"categories":[],"categories_nodes":[],"categories_segments":[],"categories_sizes":[],"default_left":[1,1,1,0,0,0,0],"id":60,"left_children":[1,3,5,-1,-1,-1,-1],"loss_changes":[1.7056483E2,5.3876907E1,8.118822E1,0E0,0E0,0E0,0E0],"parents":[2147483647,0,0,1,1,2,2],"right_children":[2,4,6,-1,-1,-1,-1],"split_conditions":[1.45E1,1.25E1,1.65E1,-1.3903659E-3,-4.174635E-3,2.0174128E-3,-1.3741252E-3],"split_indices":[51,80,80,0,0,0,0],"split_type":[0,0,0,0,0,0,0],"sum_hessian":[5.747198E3,2.7832097E3,2.9639885E3,1.422028E3,1.3611816E3,1.8070586E3,1.1569299E3],"tree_param":{"num_deleted":"0","num_feature":"106","num_nodes":"7","size_leaf_vector":"0"}},{"base_weights":[9.7572826E-2,2.753076E-1,-6.935813E-2,1.3903657E-1,4.1746348E-1,-2.0174135E-1,1.3741256E-1],"categories":[],"categories_nodes":[],"categories_segments":[],"categories_sizes":[],"default_left":[1,1,1,0,0,0,0],"id":61,"left_children":[1,3,5,-1,-1,-1,-1],"loss_changes":[1.7056487E2,5.3876907E1,8.118827E1,0E0,0E0,0E0,0E0],"parents":[2147483647,0,0,1,1,2,2],"right_children":[2,4,6,-1,-1,-1,-1],"split_conditions":[1.45E1,1.25E1,1.65E1,1.3903657E-3,4.174635E-3,-2.0174135E-3,1.3741256E-3],"split_indices":[51,80,80,0,0,0,0],"split_type":[0,0,0,0,0,0,0],"sum_hessian":[5.747198E3,2.7832097E3,2.9639885E3,1.422028E3,1.3611816E3,1.8070586E3,1.15693E3],"tree_param":{"num_deleted":"0","num_feature":"106","num_nodes":"7","size_leaf_vector":"0"}},{"base_weights":[-9.6637234E-2,6.4178266E-2,-2.7787504E-1,5.757351E-1,1.0160798E-2,-3.6436036E-1,-5.721404E-2],"categories":[],"categories_nodes":[],"categories_segments":[],"categories_sizes":[],"default_left":[1,1,1,0,0,0,0],"id":62,"left_children":[1,3,5,-1,-1,-1,-1],"loss_changes":[1.6748674E2,8.414459E1,5.1536407E1,0E0,0E0,0E0,0E0],"parents":[2147483647,0,0,1,1,2,2],"right_children":[2,4,6,-1,-1,-1,-1],"split_conditions":[5.5E-1,2.5E0,3.75E0,5.757351E-3,1.0160798E-4,-3.6436035E-3,-5.721404E-4],"split_indices":[25,85,77,0,0,0,0],"split_type":[0,0,0,0,0,0,0],"sum_hessian":[5.744892E3,3.0442878E3,2.7006042E3,2.8983463E2,2.7544534E3,1.9397085E3,7.608957E2],"tree_param":{"num_deleted":"0","num_feature":"106","num_nodes":"7","size_leaf_vector":"0"}},{"base_weights":[9.6637234E-2,-6.417828E-2,2.7787507E-1,-5.757351E-1,-1.0160811E-2,3.6436042E-1,5.7214025E-2],"categories":[],"categories_nodes":[],"categories_segments":[],"categories_sizes":[],"default_left":[1,1,1,0,0,0,0],"id":63,"left_children":[1,3,5,-1,-1,-1,-1],"loss_changes":[1.6748679E2,8.4144585E1,5.1536392E1,0E0,0E0,0E0,0E0],"parents":[2147483647,0,0,1,1,2,2],"right_children":[2,4,6,-1,-1,-1,-1],"split_conditions":[5.5E-1,2.5E0,3.75E0,-5.757351E-3,-1.0160811E-4,3.6436042E-3,5.7214027E-4],"split_indices":[25,85,77,0,0,0,0],"split_type":[0,0,0,0,0,0,0],"sum_hessian":[5.744892E3,3.0442878E3,2.700604E3,2.8983463E2,2.7544534E3,1.9397084E3,7.608957E2],"tree_param":{"num_deleted":"0","num_feature":"106","num_nodes":"7","size_leaf_vector":"0"}},{"base_weights":[-9.5703304E-2,7.28522E-2,-2.6547506E-1,5.764615E-1,1.9919649E-2,-7.115664E-2,-3.702517E-1],"categories":[],"categories_nodes":[],"categories_segments":[],"categories_sizes":[],"default_left":[1,1,1,0,0,0,0],"id":64,"left_children":[1,3,5,-1,-1,-1,-1],"loss_changes":[1.6438803E2,7.684384E1,5.824135E1,0E0,0E0,0E0,0E0],"parents":[2147483647,0,0,1,1,2,2],"right_children":[2,4,6,-1,-1,-1,-1],"split_conditions":[2.5E-1,2.5E0,9.5E0,5.764615E-3,1.9919648E-4,-7.115664E-4,-3.7025167E-3],"split_indices":[25,85,103,0,0,0,0],"split_type":[0,0,0,0,0,0,0],"sum_hessian":[5.7429507E3,2.8820847E3,2.8608662E3,2.7317365E2,2.6089111E3,1.00278424E3,1.8580819E3],"tree_param":{"num_deleted":"0","num_feature":"106","num_nodes":"7","size_leaf_vector":"0"}},{"base_weights":[9.57033E-2,-7.2852224E-2,2.654751E-1,-5.7646155E-1,-1.9919671E-2,7.1156636E-2,3.7025172E-1],"categories":[],"categories_nodes":[],"categories_segments":[],"categories_sizes":[],"default_left":[1,1,1,0,0,0,0],"id":65,"left_children":[1,3,5,-1,-1,-1,-1],"loss_changes":[1.6438806E2,7.684385E1,5.824135E1,0E0,0E0,0E0,0E0],"parents":[2147483647,0,0,1,1,2,2],"right_children":[2,4,6,-1,-1,-1,-1],"split_conditions":[2.5E-1,2.5E0,9.5E0,-5.7646153E-3,-1.991967E-4,7.1156636E-4,3.7025171E-3],"split_indices":[25,85,103,0,0,0,0],"split_type":[0,0,0,0,0,0,0],"sum_hessian":[5.7429507E3,2.8820847E3,2.8608662E3,2.7317365E2,2.608911E3,1.0027842E3,1.8580819E3],"tree_param":{"num_deleted":"0","num_feature":"106","num_nodes":"7","size_leaf_vector":"0"}},{"base_weights":[-9.4779335E-2,-2.6785854E-1,6.7540206E-2,-2.0058112E-1,-5.5152875E-1,-1.7374626E-1,1.7770016E-1],"categories":[],"categories_nodes":[],"categories_segments":[],"categories_sizes":[],"default_left":[1,1,1,0,0,0,0],"id":66,"left_children":[1,3,5,-1,-1,-1,-1],"loss_changes":[1.6133336E2,5.2926987E1,7.881106E1,0E0,0E0,0E0,0E0],"parents":[2147483647,0,0,1,1,2,2],"right_children":[2,4,6,-1,-1,-1,-1],"split_conditions":[1.45E1,2.25E1,-2.05E0,-2.005811E-3,-5.515287E-3,-1.7374626E-3,1.7770015E-3],"split_indices":[51,80,77,0,0,0,0],"split_type":[0,0,0,0,0,0,0],"sum_hessian":[5.7409556E3,2.7780776E3,2.9628777E3,2.246894E3,5.3118353E2,9.285253E2,2.0343524E3],"tree_param":{"num_deleted":"0","num_feature":"106","num_nodes":"7","size_leaf_vector":"0"}},{"base_weights":[9.477932E-2,2.678585E-1,-6.7540206E-2,2.0058109E-1,5.515287E-1,1.7374629E-1,-1.7770019E-1],"categories":[],"categories_nodes":[],"categories_segments":[],"categories_sizes":[],"default_left":[1,1,1,0,0,0,0],"id":67,"left_children":[1,3,5,-1,-1,-1,-1],"loss_changes":[1.6133333E2,5.2926956E1,7.881109E1,0E0,0E0,0E0,0E0],"parents":[2147483647,0,0,1,1,2,2],"right_children":[2,4,6,-1,-1,-1,-1],"split_conditions":[1.45E1,2.25E1,-2.05E0,2.0058108E-3,5.5152867E-3,1.7374628E-3,-1.7770019E-3],"split_indices":[51,80,77,0,0,0,0],"split_type":[0,0,0,0,0,0,0],"sum_hessian":[5.7409556E3,2.7780776E3,2.9628777E3,2.246894E3,5.3118353E2,9.285254E2,2.0343524E3],"tree_param":{"num_deleted":"0","num_feature":"106","num_nodes":"7","size_leaf_vector":"0"}},{"base_weights":[-9.3870014E-2,6.25011E-2,-2.703617E-1,-6.938916E-2,2.663476E-1,-3.385339E-1,1.1456389E-3],"categories":[],"categories_nodes":[],"categories_segments":[],"categories_sizes":[],"default_left":[1,1,1,0,0,0,0],"id":68,"left_children":[1,3,5,-1,-1,-1,-1],"loss_changes":[1.5842267E2,8.1861404E1,4.991191E1,0E0,0E0,0E0,0E0],"parents":[2147483647,0,0,1,1,2,2],"right_children":[2,4,6,-1,-1,-1,-1],"split_conditions":[5.5E-1,5.645E-1,5.05E0,-6.9389155E-4,2.663476E-3,-3.385339E-3,1.1456388E-5],"split_indices":[25,55,77,0,0,0,0],"split_type":[0,0,0,0,0,0,0],"sum_hessian":[5.7387144E3,3.0431436E3,2.6955708E3,1.8480807E3,1.1950629E3,2.154384E3,5.4118677E2],"tree_param":{"num_deleted":"0","num_feature":"106","num_nodes":"7","size_leaf_vector":"0"}},{"base_weights":[9.387001E-2,-6.250115E-2,2.7036172E-1,6.938913E-2,-2.6634768E-1,3.3853394E-1,-1.1456424E-3],"categories":[],"categories_nodes":[],"categories_segments":[],"categories_sizes":[],"default_left":[1,1,1,0,0,0,0],"id":69,"left_children":[1,3,5,-1,-1,-1,-1],"loss_changes":[1.5842274E2,8.186142E1,4.9911926E1,0E0,0E0,0E0,0E0],"parents":[2147483647,0,0,1,1,2,2],"right_children":[2,4,6,-1,-1,-1,-1],"split_conditions":[5.5E-1,5.645E-1,5.05E0,6.9389126E-4,-2.6634766E-3,3.3853394E-3,-1.1456424E-5],"split_indices":[25,55,77,0,0,0,0],"split_type":[0,0,0,0,0,0,0],"sum_hessian":[5.7387144E3,3.0431436E3,2.6955708E3,1.8480807E3,1.1950629E3,2.154384E3,5.4118677E2],"tree_param":{"num_deleted":"0","num_feature":"106","num_nodes":"7","size_leaf_vector":"0"}},{"base_weights":[-9.296886E-2,-2.0021439E-1,1.6107088E-1,6.1435804E-2,-3.0206594E-1,-1.16236195E-1,2.3550168E-1],"categories":[],"categories_nodes":[],"categories_segments":[],"categories_sizes":[],"default_left":[1,1,1,0,0,0,0],"id":70,"left_children":[1,3,5,-1,-1,-1,-1],"loss_changes":[1.5634656E2,1.07542694E2,3.5191647E1,0E0,0E0,0E0,0E0],"parents":[2147483647,0,0,1,1,2,2],"right_children":[2,4,6,-1,-1,-1,-1],"split_conditions":[1.95E1,7.5E0,3.585E-1,6.14358E-4,-3.0206593E-3,-1.1623619E-3,2.3550168E-3],"split_indices":[28,103,55,0,0,0,0],"split_type":[0,0,0,0,0,0,0],"sum_hessian":[5.736436E3,4.0337559E3,1.7026803E3,1.1303514E3,2.9034043E3,3.601831E2,1.3424972E3],"tree_param":{"num_deleted":"0","num_feature":"106","num_nodes":"7","size_leaf_vector":"0"}},{"base_weights":[9.296882E-2,2.0021436E-1,-1.6107091E-1,-6.1435845E-2,3.020659E-1,1.1623609E-1,-2.3550169E-1],"categories":[],"categories_nodes":[],"categories_segments":[],"categories_sizes":[],"default_left":[1,1,1,0,0,0,0],"id":71,"left_children":[1,3,5,-1,-1,-1,-1],"loss_changes":[1.5634656E2,1.07542725E2,3.5191635E1,0E0,0E0,0E0,0E0],"parents":[2147483647,0,0,1,1,2,2],"right_children":[2,4,6,-1,-1,-1,-1],"split_conditions":[1.95E1,7.5E0,3.585E-1,-6.1435846E-4,3.020659E-3,1.1623609E-3,-2.3550168E-3],"split_indices":[28,103,55,0,0,0,0],"split_type":[0,0,0,0,0,0,0],"sum_hessian":[5.736436E3,4.0337559E3,1.7026803E3,1.1303514E3,2.9034043E3,3.601831E2,1.3424972E3],"tree_param":{"num_deleted":"0","num_feature":"106","num_nodes":"7","size_leaf_vector":"0"}},{"base_weights":[-9.206836E-2,7.08751E-2,-2.564788E-1,5.666172E-1,1.884664E-2,-6.7386344E-2,-3.5871658E-1],"categories":[],"categories_nodes":[],"categories_segments":[],"categories_sizes":[],"default_left":[1,1,1,0,0,0,0],"id":72,"left_children":[1,3,5,-1,-1,-1,-1],"loss_changes":[1.5367404E2,7.430998E1,5.5173508E1,0E0,0E0,0E0,0E0],"parents":[2147483647,0,0,1,1,2,2],"right_children":[2,4,6,-1,-1,-1,-1],"split_conditions":[2.5E-1,2.5E0,9.5E0,5.6661717E-3,1.884664E-4,-6.7386345E-4,-3.5871656E-3],"split_indices":[25,85,103,0,0,0,0],"split_type":[0,0,0,0,0,0,0],"sum_hessian":[5.7346523E3,2.8804614E3,2.854191E3,2.7265317E2,2.607808E3,1.0022159E3,1.8519751E3],"tree_param":{"num_deleted":"0","num_feature":"106","num_nodes":"7","size_leaf_vector":"0"}},{"base_weights":[9.206834E-2,-7.087512E-2,2.564788E-1,-5.6661725E-1,-1.8846663E-2,6.738628E-2,3.5871658E-1],"categories":[],"categories_nodes":[],"categories_segments":[],"categories_sizes":[],"default_left":[1,1,1,0,0,0,0],"id":73,"left_children":[1,3,5,-1,-1,-1,-1],"loss_changes":[1.5367404E2,7.430999E1,5.517354E1,0E0,0E0,0E0,0E0],"parents":[2147483647,0,0,1,1,2,2],"right_children":[2,4,6,-1,-1,-1,-1],"split_conditions":[2.5E-1,2.5E0,9.5E0,-5.6661726E-3,-1.8846663E-4,6.7386276E-4,3.5871656E-3],"split_indices":[25,85,103,0,0,0,0],"split_type":[0,0,0,0,0,0,0],"sum_hessian":[5.7346523E3,2.8804614E3,2.854191E3,2.7265317E2,2.607808E3,1.0022159E3,1.8519751E3],"tree_param":{"num_deleted":"0","num_feature":"106","num_nodes":"7","size_leaf_vector":"0"}},{"base_weights":[-9.1181695E-2,-1.9685878E-1,1.5899454E-1,-4.828288E-2,-3.72782E-1,-1.15201525E-1,2.32605E-1],"categories":[],"categories_nodes":[],"categories_segments":[],"categories_sizes":[],"default_left":[1,1,1,0,0,0,0],"id":74,"left_children":[1,3,5,-1,-1,-1,-1],"loss_changes":[1.5161346E2,1.0535176E2,3.4404186E1,0E0,0E0,0E0,0E0],"parents":[2147483647,0,0,1,1,2,2],"right_children":[2,4,6,-1,-1,-1,-1],"split_conditions":[1.95E1,1.35E1,3.585E-1,-4.828288E-4,-3.7278198E-3,-1.1520152E-3,2.3260498E-3],"split_indices":[28,80,55,0,0,0,0],"split_type":[0,0,0,0,0,0,0],"sum_hessian":[5.732519E3,4.0302937E3,1.7022255E3,2.1856653E3,1.8446284E3,3.601428E2,1.3420828E3],"tree_param":{"num_deleted":"0","num_feature":"106","num_nodes":"7","size_leaf_vector":"0"}},{"base_weights":[9.118169E-2,1.9685878E-1,-1.5899456E-1,4.828289E-2,3.72782E-1,1.15201496E-1,-2.3260501E-1],"categories":[],"categories_nodes":[],"categories_segments":[],"categories_sizes":[],"default_left":[1,1,1,0,0,0,0],"id":75,"left_children":[1,3,5,-1,-1,-1,-1],"loss_changes":[1.5161348E2,1.0535173E2,3.440418E1,0E0,0E0,0E0,0E0],"parents":[2147483647,0,0,1,1,2,2],"right_children":[2,4,6,-1,-1,-1,-1],"split_conditions":[1.95E1,1.35E1,3.585E-1,4.828289E-4,3.7278198E-3,1.152015E-3,-2.32605E-3],"split_indices":[28,80,55,0,0,0,0],"split_type":[0,0,0,0,0,0,0],"sum_hessian":[5.732519E3,4.0302937E3,1.7022255E3,2.1856653E3,1.8446284E3,3.6014276E2,1.3420826E3],"tree_param":{"num_deleted":"0","num_feature":"106","num_nodes":"7","size_leaf_vector":"0"}},{"base_weights":[-9.030179E-2,-1.9977237E-1,1.477215E-1,-8.571681E-2,-3.992079E-1,6.052644E-1,1.0109546E-1],"categories":[],"categories_nodes":[],"categories_segments":[],"categories_sizes":[],"default_left":[1,1,1,0,0,0,0],"id":76,"left_children":[1,3,5,-1,-1,-1,-1],"loss_changes":[1.4937408E2,8.9278015E1,3.847081E1,0E0,0E0,0E0,0E0],"parents":[2147483647,0,0,1,1,2,2],"right_children":[2,4,6,-1,-1,-1,-1],"split_conditions":[2.05E1,1.65E1,2.5E0,-8.5716805E-4,-3.992079E-3,6.052644E-3,1.0109546E-3],"split_indices":[51,80,85,0,0,0,0],"split_type":[0,0,0,0,0,0,0],"sum_hessian":[5.730557E3,3.9253767E3,1.8051805E3,2.4981401E3,1.4272365E3,1.6583682E2,1.6393438E3],"tree_param":{"num_deleted":"0","num_feature":"106","num_nodes":"7","size_leaf_vector":"0"}},{"base_weights":[9.030178E-2,1.9977236E-1,-1.4772148E-1,8.5716784E-2,3.992079E-1,-6.052644E-1,-1.01095445E-1],"categories":[],"categories_nodes":[],"categories_segments":[],"categories_sizes":[],"default_left":[1,1,1,0,0,0,0],"id":77,"left_children":[1,3,5,-1,-1,-1,-1],"loss_changes":[1.4937407E2,8.9278046E1,3.847081E1,0E0,0E0,0E0,0E0],"parents":[2147483647,0,0,1,1,2,2],"right_children":[2,4,6,-1,-1,-1,-1],"split_conditions":[2.05E1,1.65E1,2.5E0,8.571678E-4,3.992079E-3,-6.052644E-3,-1.0109544E-3],"split_indices":[51,80,85,0,0,0,0],"split_type":[0,0,0,0,0,0,0],"sum_hessian":[5.730557E3,3.9253767E3,1.8051805E3,2.4981401E3,1.4272365E3,1.6583682E2,1.6393438E3],"tree_param":{"num_deleted":"0","num_feature":"106","num_nodes":"7","size_leaf_vector":"0"}},{"base_weights":[-8.942874E-2,6.1346337E-2,-2.5999126E-1,-1.7582153E-1,1.6981639E-1,-1.6134991E-1,-4.3732783E-1],"categories":[],"categories_nodes":[],"categories_segments":[],"categories_sizes":[],"default_left":[1,1,1,0,0,0,0],"id":78,"left_children":[1,3,5,-1,-1,-1,-1],"loss_changes":[1.4736263E2,7.8288155E1,4.696031E1,0E0,0E0,0E0,0E0],"parents":[2147483647,0,0,1,1,2,2],"right_children":[2,4,6,-1,-1,-1,-1],"split_conditions":[5.5E-1,-2.05E0,1.65E1,-1.7582153E-3,1.6981638E-3,-1.613499E-3,-4.373278E-3],"split_indices":[25,77,80,0,0,0,0],"split_type":[0,0,0,0,0,0,0],"sum_hessian":[5.728637E3,3.0410386E3,2.6875986E3,9.5416113E2,2.0868774E3,1.7282115E3,9.593872E2],"tree_param":{"num_deleted":"0","num_feature":"106","num_nodes":"7","size_leaf_vector":"0"}},{"base_weights":[8.942874E-2,-6.1346356E-2,2.599913E-1,1.758215E-1,-1.698164E-1,1.6134992E-1,4.3732786E-1],"categories":[],"categories_nodes":[],"categories_segments":[],"categories_sizes":[],"default_left":[1,1,1,0,0,0,0],"id":79,"left_children":[1,3,5,-1,-1,-1,-1],"loss_changes":[1.4736266E2,7.828815E1,4.6960327E1,0E0,0E0,0E0,0E0],"parents":[2147483647,0,0,1,1,2,2],"right_children":[2,4,6,-1,-1,-1,-1],"split_conditions":[5.5E-1,-2.05E0,1.65E1,1.7582149E-3,-1.698164E-3,1.6134991E-3,4.3732785E-3],"split_indices":[25,77,80,0,0,0,0],"split_type":[0,0,0,0,0,0,0],"sum_hessian":[5.728637E3,3.0410386E3,2.6875986E3,9.5416113E2,2.0868774E3,1.7282114E3,9.593872E2],"tree_param":{"num_deleted":"0","num_feature":"106","num_nodes":"7","size_leaf_vector":"0"}},{"base_weights":[-8.857333E-2,-1.920548E-1,1.561944E-1,6.2051177E-2,-2.9120645E-1,-1.1259347E-1,2.2837183E-1],"categories":[],"categories_nodes":[],"categories_segments":[],"categories_sizes":[],"default_left":[1,1,1,0,0,0,0],"id":80,"left_children":[1,3,5,-1,-1,-1,-1],"loss_changes":[1.4509451E2,1.0144928E2,3.305267E1,0E0,0E0,0E0,0E0],"parents":[2147483647,0,0,1,1,2,2],"right_children":[2,4,6,-1,-1,-1,-1],"split_conditions":[1.95E1,7.5E0,3.585E-1,6.2051177E-4,-2.9120643E-3,-1.1259347E-3,2.2837182E-3],"split_indices":[28,103,55,0,0,0,0],"split_type":[0,0,0,0,0,0,0],"sum_hessian":[5.7262266E3,4.0248425E3,1.701384E3,1.1297898E3,2.8950527E3,3.6003986E2,1.3413441E3],"tree_param":{"num_deleted":"0","num_feature":"106","num_nodes":"7","size_leaf_vector":"0"}},{"base_weights":[8.857334E-2,1.920548E-1,-1.5619437E-1,-6.205117E-2,2.9120645E-1,1.12593465E-1,-2.283718E-1],"categories":[],"categories_nodes":[],"categories_segments":[],"categories_sizes":[],"default_left":[1,1,1,0,0,0,0],"id":81,"left_children":[1,3,5,-1,-1,-1,-1],"loss_changes":[1.4509447E2,1.0144925E2,3.3052666E1,0E0,0E0,0E0,0E0],"parents":[2147483647,0,0,1,1,2,2],"right_children":[2,4,6,-1,-1,-1,-1],"split_conditions":[1.95E1,7.5E0,3.585E-1,-6.205117E-4,2.9120643E-3,1.1259347E-3,-2.283718E-3],"split_indices":[28,103,55,0,0,0,0],"split_type":[0,0,0,0,0,0,0],"sum_hessian":[5.7262266E3,4.0248425E3,1.701384E3,1.1297898E3,2.8950527E3,3.6003986E2,1.3413441E3],"tree_param":{"num_deleted":"0","num_feature":"106","num_nodes":"7","size_leaf_vector":"0"}},{"base_weights":[-8.771807E-2,-2.512518E-1,6.508314E-2,-1.8629391E-1,-5.2695066E-1,-6.0938142E-2,2.5905794E-1],"categories":[],"categories_nodes":[],"categories_segments":[],"categories_sizes":[],"default_left":[1,1,1,0,0,0,0],"id":82,"left_children":[1,3,5,-1,-1,-1,-1],"loss_changes":[1.4308034E2,4.9432587E1,7.238638E1,0E0,0E0,0E0,0E0],"parents":[2147483647,0,0,1,1,2,2],"right_children":[2,4,6,-1,-1,-1,-1],"split_conditions":[1.45E1,2.25E1,5.645E-1,-1.8629391E-3,-5.2695065E-3,-6.093814E-4,2.5905794E-3],"split_indices":[51,80,55,0,0,0,0],"split_type":[0,0,0,0,0,0,0],"sum_hessian":[5.724274E3,2.7647202E3,2.9595537E3,2.238888E3,5.258323E2,1.7944342E3,1.1651196E3],"tree_param":{"num_deleted":"0","num_feature":"106","num_nodes":"7","size_leaf_vector":"0"}},{"base_weights":[8.771805E-2,2.5125173E-1,-6.508313E-2,1.8629389E-1,5.2695054E-1,6.0938146E-2,-2.5905794E-1],"categories":[],"categories_nodes":[],"categories_segments":[],"categories_sizes":[],"default_left":[1,1,1,0,0,0,0],"id":83,"left_children":[1,3,5,-1,-1,-1,-1],"loss_changes":[1.430803E2,4.943254E1,7.238638E1,0E0,0E0,0E0,0E0],"parents":[2147483647,0,0,1,1,2,2],"right_children":[2,4,6,-1,-1,-1,-1],"split_conditions":[1.45E1,2.25E1,5.645E-1,1.8629389E-3,5.269505E-3,6.093815E-4,-2.5905794E-3],"split_indices":[51,80,55,0,0,0,0],"split_type":[0,0,0,0,0,0,0],"sum_hessian":[5.724274E3,2.7647202E3,2.959554E3,2.238888E3,5.258323E2,1.7944342E3,1.1651196E3],"tree_param":{"num_deleted":"0","num_feature":"106","num_nodes":"7","size_leaf_vector":"0"}},{"base_weights":[-8.6880185E-2,-1.9330738E-1,1.4424454E-1,-8.223172E-2,-3.8808608E-1,5.952822E-1,9.8369226E-2],"categories":[],"categories_nodes":[],"categories_segments":[],"categories_sizes":[],"default_left":[1,1,1,0,0,0,0],"id":84,"left_children":[1,3,5,-1,-1,-1,-1],"loss_changes":[1.4079645E2,8.475333E1,3.728781E1,0E0,0E0,0E0,0E0],"parents":[2147483647,0,0,1,1,2,2],"right_children":[2,4,6,-1,-1,-1,-1],"split_conditions":[2.05E1,1.65E1,2.5E0,-8.223172E-4,-3.8808607E-3,5.952822E-3,9.836922E-4],"split_indices":[51,80,85,0,0,0,0],"split_type":[0,0,0,0,0,0,0],"sum_hessian":[5.7217754E3,3.9178613E3,1.8039142E3,2.495936E3,1.4219252E3,1.6543285E2,1.6384813E3],"tree_param":{"num_deleted":"0","num_feature":"106","num_nodes":"7","size_leaf_vector":"0"}},{"base_weights":[8.688018E-2,1.9330736E-1,-1.4424452E-1,8.2231686E-2,3.8808608E-1,-5.952822E-1,-9.83692E-2],"categories":[],"categories_nodes":[],"categories_segments":[],"categories_sizes":[],"default_left":[1,1,1,0,0,0,0],"id":85,"left_children":[1,3,5,-1,-1,-1,-1],"loss_changes":[1.4079642E2,8.475336E1,3.728782E1,0E0,0E0,0E0,0E0],"parents":[2147483647,0,0,1,1,2,2],"right_children":[2,4,6,-1,-1,-1,-1],"split_conditions":[2.05E1,1.65E1,2.5E0,8.2231686E-4,3.8808607E-3,-5.952822E-3,-9.83692E-4],"split_indices":[51,80,85,0,0,0,0],"split_type":[0,0,0,0,0,0,0],"sum_hessian":[5.7217754E3,3.9178613E3,1.8039142E3,2.495936E3,1.4219252E3,1.6543283E2,1.6384813E3],"tree_param":{"num_deleted":"0","num_feature":"106","num_nodes":"7","size_leaf_vector":"0"}},{"base_weights":[-8.6042084E-2,-1.8738326E-1,1.534579E-1,6.2281493E-2,-2.8493565E-1,-1.1095033E-1,2.2448787E-1],"categories":[],"categories_nodes":[],"categories_segments":[],"categories_sizes":[],"default_left":[1,1,1,0,0,0,0],"id":86,"left_children":[1,3,5,-1,-1,-1,-1],"loss_changes":[1.3887796E2,9.793274E1,3.1980194E1,0E0,0E0,0E0,0E0],"parents":[2147483647,0,0,1,1,2,2],"right_children":[2,4,6,-1,-1,-1,-1],"split_conditions":[1.95E1,7.5E0,3.585E-1,6.228149E-4,-2.8493565E-3,-1.1095032E-3,2.2448786E-3],"split_indices":[28,103,55,0,0,0,0],"split_type":[0,0,0,0,0,0,0],"sum_hessian":[5.7197363E3,4.0192585E3,1.7004775E3,1.1293323E3,2.8899263E3,3.5996188E2,1.3405157E3],"tree_param":{"num_deleted":"0","num_feature":"106","num_nodes":"7","size_leaf_vector":"0"}},{"base_weights":[8.604206E-2,1.8738325E-1,-1.5345791E-1,-6.2281515E-2,2.8493562E-1,1.1095031E-1,-2.244879E-1],"categories":[],"categories_nodes":[],"categories_segments":[],"categories_sizes":[],"default_left":[1,1,1,0,0,0,0],"id":87,"left_children":[1,3,5,-1,-1,-1,-1],"loss_changes":[1.3887796E2,9.793271E1,3.198021E1,0E0,0E0,0E0,0E0],"parents":[2147483647,0,0,1,1,2,2],"right_children":[2,4,6,-1,-1,-1,-1],"split_conditions":[1.95E1,7.5E0,3.585E-1,-6.2281516E-4,2.8493563E-3,1.1095031E-3,-2.244879E-3],"split_indices":[28,103,55,0,0,0,0],"split_type":[0,0,0,0,0,0,0],"sum_hessian":[5.7197363E3,4.0192585E3,1.7004775E3,1.1293323E3,2.8899263E3,3.5996188E2,1.3405156E3],"tree_param":{"num_deleted":"0","num_feature":"106","num_nodes":"7","size_leaf_vector":"0"}},{"base_weights":[-8.52126E-2,6.0237315E-2,-2.5012758E-1,5.452517E-1,9.279001E-3,-3.1480694E-1,5.65236E-3],"categories":[],"categories_nodes":[],"categories_segments":[],"categories_sizes":[],"default_left":[1,1,1,0,0,0,0],"id":88,"left_children":[1,3,5,-1,-1,-1,-1],"loss_changes":[1.3718869E2,7.511732E1,4.434236E1,0E0,0E0,0E0,0E0],"parents":[2147483647,0,0,1,1,2,2],"right_children":[2,4,6,-1,-1,-1,-1],"split_conditions":[5.5E-1,2.5E0,5.05E0,5.452517E-3,9.2790004E-5,-3.1480694E-3,5.65236E-5],"split_indices":[25,85,77,0,0,0,0],"split_type":[0,0,0,0,0,0,0],"sum_hessian":[5.717696E3,3.0384827E3,2.6792131E3,2.8796555E2,2.7505173E3,2.1382747E3,5.409384E2],"tree_param":{"num_deleted":"0","num_feature":"106","num_nodes":"7","size_leaf_vector":"0"}},{"base_weights":[8.52126E-2,-6.02373E-2,2.5012758E-1,-5.452517E-1,-9.278985E-3,3.148069E-1,-5.6523914E-3],"categories":[],"categories_nodes":[],"categories_segments":[],"categories_sizes":[],"default_left":[1,1,1,0,0,0,0],"id":89,"left_children":[1,3,5,-1,-1,-1,-1],"loss_changes":[1.3718866E2,7.511733E1,4.4342346E1,0E0,0E0,0E0,0E0],"parents":[2147483647,0,0,1,1,2,2],"right_children":[2,4,6,-1,-1,-1,-1],"split_conditions":[5.5E-1,2.5E0,5.05E0,-5.452517E-3,-9.278984E-5,3.148069E-3,-5.6523913E-5],"split_indices":[25,85,77,0,0,0,0],"split_type":[0,0,0,0,0,0,0],"sum_hessian":[5.717696E3,3.0384827E3,2.679213E3,2.879655E2,2.7505173E3,2.1382747E3,5.409384E2],"tree_param":{"num_deleted":"0","num_feature":"106","num_nodes":"7","size_leaf_vector":"0"}},{"base_weights":[-8.439437E-2,-1.8429326E-1,1.5154693E-1,-4.272058E-2,-3.5275215E-1,-1.0989365E-1,2.2179675E-1],"categories":[],"categories_nodes":[],"categories_segments":[],"categories_sizes":[],"default_left":[1,1,1,0,0,0,0],"id":90,"left_children":[1,3,5,-1,-1,-1,-1],"loss_changes":[1.3476492E2,9.577397E1,3.1264198E1,0E0,0E0,0E0,0E0],"parents":[2147483647,0,0,1,1,2,2],"right_children":[2,4,6,-1,-1,-1,-1],"split_conditions":[1.95E1,1.35E1,3.585E-1,-4.2720578E-4,-3.5275214E-3,-1.0989364E-3,2.2179675E-3],"split_indices":[28,80,55,0,0,0,0],"split_type":[0,0,0,0,0,0,0],"sum_hessian":[5.7153955E3,4.0154502E3,1.6999453E3,2.1825178E3,1.8329323E3,3.5991763E2,1.3400277E3],"tree_param":{"num_deleted":"0","num_feature":"106","num_nodes":"7","size_leaf_vector":"0"}},{"base_weights":[8.4394366E-2,1.8429324E-1,-1.5154696E-1,4.2720564E-2,3.5275215E-1,1.0989363E-1,-2.2179678E-1],"categories":[],"categories_nodes":[],"categories_segments":[],"categories_sizes":[],"default_left":[1,1,1,0,0,0,0],"id":91,"left_children":[1,3,5,-1,-1,-1,-1],"loss_changes":[1.3476492E2,9.577396E1,3.1264202E1,0E0,0E0,0E0,0E0],"parents":[2147483647,0,0,1,1,2,2],"right_children":[2,4,6,-1,-1,-1,-1],"split_conditions":[1.95E1,1.35E1,3.585E-1,4.2720564E-4,3.5275214E-3,1.0989363E-3,-2.2179678E-3],"split_indices":[28,80,55,0,0,0,0],"split_type":[0,0,0,0,0,0,0],"sum_hessian":[5.7153955E3,4.0154502E3,1.6999453E3,2.1825178E3,1.8329323E3,3.599176E2,1.3400277E3],"tree_param":{"num_deleted":"0","num_feature":"106","num_nodes":"7","size_leaf_vector":"0"}},{"base_weights":[-8.3583616E-2,-2.4163336E-1,6.373803E-2,-1.7818965E-1,-5.122058E-1,1.527544E-1,-1.9844514E-1],"categories":[],"categories_nodes":[],"categories_segments":[],"categories_sizes":[],"default_left":[1,1,1,0,0,0,0],"id":92,"left_children":[1,3,5,-1,-1,-1,-1],"loss_changes":[1.3306554E2,4.723456E1,6.9071976E1,0E0,0E0,0E0,0E0],"parents":[2147483647,0,0,1,1,2,2],"right_children":[2,4,6,-1,-1,-1,-1],"split_conditions":[1.45E1,2.25E1,2.25E1,-1.7818965E-3,-5.1220576E-3,1.5275439E-3,-1.9844514E-3],"split_indices":[51,80,103,0,0,0,0],"split_type":[0,0,0,0,0,0,0],"sum_hessian":[5.7131934E3,2.755932E3,2.9572615E3,2.233808E3,5.2212384E2,2.2080144E3,7.4924713E2],"tree_param":{"num_deleted":"0","num_feature":"106","num_nodes":"7","size_leaf_vector":"0"}},{"base_weights":[8.358361E-2,2.4163336E-1,-6.373804E-2,1.7818962E-1,5.1220584E-1,-1.527544E-1,1.984451E-1],"categories":[],"categories_nodes":[],"categories_segments":[],"categories_sizes":[],"default_left":[1,1,1,0,0,0,0],"id":93,"left_children":[1,3,5,-1,-1,-1,-1],"loss_changes":[1.3306555E2,4.723456E1,6.907196E1,0E0,0E0,0E0,0E0],"parents":[2147483647,0,0,1,1,2,2],"right_children":[2,4,6,-1,-1,-1,-1],"split_conditions":[1.45E1,2.25E1,2.25E1,1.7818961E-3,5.122058E-3,-1.5275439E-3,1.984451E-3],"split_indices":[51,80,103,0,0,0,0],"split_type":[0,0,0,0,0,0,0],"sum_hessian":[5.713194E3,2.755932E3,2.9572617E3,2.233808E3,5.221239E2,2.2080144E3,7.4924713E2],"tree_param":{"num_deleted":"0","num_feature":"106","num_nodes":"7","size_leaf_vector":"0"}},{"base_weights":[-8.278637E-2,-1.8554881E-1,1.4002118E-1,-7.763028E-2,-3.7544534E-1,5.821802E-1,9.518659E-2],"categories":[],"categories_nodes":[],"categories_segments":[],"categories_sizes":[],"default_left":[1,1,1,0,0,0,0],"id":94,"left_children":[1,3,5,-1,-1,-1,-1],"loss_changes":[1.3080157E2,8.0084915E1,3.5695023E1,0E0,0E0,0E0,0E0],"parents":[2147483647,0,0,1,1,2,2],"right_children":[2,4,6,-1,-1,-1,-1],"split_conditions":[2.05E1,1.65E1,2.5E0,-7.763028E-4,-3.7544533E-3,5.8218017E-3,9.5186586E-4],"split_indices":[51,80,85,0,0,0,0],"split_type":[0,0,0,0,0,0,0],"sum_hessian":[5.7106606E3,3.9082703E3,1.8023903E3,2.492938E3,1.4153322E3,1.6483188E2,1.6375583E3],"tree_param":{"num_deleted":"0","num_feature":"106","num_nodes":"7","size_leaf_vector":"0"}},{"base_weights":[8.2786374E-2,1.8554881E-1,-1.4002116E-1,7.76303E-2,3.7544534E-1,-5.821802E-1,-9.5186576E-2],"categories":[],"categories_nodes":[],"categories_segments":[],"categories_sizes":[],"default_left":[1,1,1,0,0,0,0],"id":95,"left_children":[1,3,5,-1,-1,-1,-1],"loss_changes":[1.3080156E2,8.0084885E1,3.5695023E1,0E0,0E0,0E0,0E0],"parents":[2147483647,0,0,1,1,2,2],"right_children":[2,4,6,-1,-1,-1,-1],"split_conditions":[2.05E1,1.65E1,2.5E0,7.7630294E-4,3.7544533E-3,-5.8218017E-3,-9.5186575E-4],"split_indices":[51,80,85,0,0,0,0],"split_type":[0,0,0,0,0,0,0],"sum_hessian":[5.71066E3,3.9082703E3,1.8023901E3,2.492938E3,1.4153322E3,1.6483186E2,1.6375583E3],"tree_param":{"num_deleted":"0","num_feature":"106","num_nodes":"7","size_leaf_vector":"0"}},{"base_weights":[-8.1989616E-2,5.911067E-2,-2.4229221E-1,5.361423E-1,9.091315E-3,-3.0589122E-1,8.467789E-3],"categories":[],"categories_nodes":[],"categories_segments":[],"categories_sizes":[],"default_left":[1,1,1,0,0,0,0],"id":96,"left_children":[1,3,5,-1,-1,-1,-1],"loss_changes":[1.2915591E2,7.2470604E1,4.263292E1,0E0,0E0,0E0,0E0],"parents":[2147483647,0,0,1,1,2,2],"right_children":[2,4,6,-1,-1,-1,-1],"split_conditions":[5.5E-1,2.5E0,5.05E0,5.361423E-3,9.091315E-5,-3.058912E-3,8.4677886E-5],"split_indices":[25,85,77,0,0,0,0],"split_type":[0,0,0,0,0,0,0],"sum_hessian":[5.708495E3,3.0364268E3,2.6720684E3,2.8724734E2,2.7491794E3,2.131298E3,5.407702E2],"tree_param":{"num_deleted":"0","num_feature":"106","num_nodes":"7","size_leaf_vector":"0"}},{"base_weights":[8.198963E-2,-5.9110675E-2,2.4229226E-1,-5.3614223E-1,-9.091322E-3,3.0589125E-1,-8.46771E-3],"categories":[],"categories_nodes":[],"categories_segments":[],"categories_sizes":[],"default_left":[1,1,1,0,0,0,0],"id":97,"left_children":[1,3,5,-1,-1,-1,-1],"loss_changes":[1.2915596E2,7.247059E1,4.2632904E1,0E0,0E0,0E0,0E0],"parents":[2147483647,0,0,1,1,2,2],"right_children":[2,4,6,-1,-1,-1,-1],"split_conditions":[5.5E-1,2.5E0,5.05E0,-5.361422E-3,-9.091322E-5,3.0589125E-3,-8.467709E-5],"split_indices":[25,85,77,0,0,0,0],"split_type":[0,0,0,0,0,0,0],"sum_hessian":[5.708495E3,3.0364268E3,2.6720684E3,2.8724734E2,2.7491794E3,2.131298E3,5.407702E2],"tree_param":{"num_deleted":"0","num_feature":"106","num_nodes":"7","size_leaf_vector":"0"}},{"base_weights":[-8.1203595E-2,-1.7857052E-1,1.484478E-1,-2.2223967E-1,3.464381E-1,-1.0743336E-1,2.1723354E-1],"categories":[],"categories_nodes":[],"categories_segments":[],"categories_sizes":[],"default_left":[1,1,1,0,0,0,0],"id":98,"left_children":[1,3,5,-1,-1,-1,-1],"loss_changes":[1.27640045E2,9.197448E1,2.9941288E1,0E0,0E0,0E0,0E0],"parents":[2147483647,0,0,1,1,2,2],"right_children":[2,4,6,-1,-1,-1,-1],"split_conditions":[1.95E1,4.855E-1,3.585E-1,-2.2223967E-3,3.464381E-3,-1.0743336E-3,2.1723353E-3],"split_indices":[28,59,55,0,0,0,0],"split_type":[0,0,0,0,0,0,0],"sum_hessian":[5.7061094E3,4.0073198E3,1.6987893E3,3.7001274E3,3.0719244E2,3.5979593E2,1.3389933E3],"tree_param":{"num_deleted":"0","num_feature":"106","num_nodes":"7","size_leaf_vector":"0"}},{"base_weights":[8.120357E-2,1.7857048E-1,-1.484478E-1,2.2223964E-1,-3.4643817E-1,1.07433334E-1,-2.1723352E-1],"categories":[],"categories_nodes":[],"categories_segments":[],"categories_sizes":[],"default_left":[1,1,1,0,0,0,0],"id":99,"left_children":[1,3,5,-1,-1,-1,-1],"loss_changes":[1.2764001E2,9.1974495E1,2.994128E1,0E0,0E0,0E0,0E0],"parents":[2147483647,0,0,1,1,2,2],"right_children":[2,4,6,-1,-1,-1,-1],"split_conditions":[1.95E1,4.855E-1,3.585E-1,2.2223964E-3,-3.4643817E-3,1.0743333E-3,-2.1723353E-3],"split_indices":[28,59,55,0,0,0,0],"split_type":[0,0,0,0,0,0,0],"sum_hessian":[5.706109E3,4.0073198E3,1.6987892E3,3.7001274E3,3.0719244E2,3.597959E2,1.3389933E3],"tree_param":{"num_deleted":"0","num_feature":"106","num_nodes":"7","size_leaf_vector":"0"}},{"base_weights":[-8.041971E-2,-1.7685668E-1,1.469974E-1,6.390326E-2,-2.7124277E-1,-1.0637435E-1,2.1511814E-1],"categories":[],"categories_nodes":[],"categories_segments":[],"categories_sizes":[],"default_left":[1,1,1,0,0,0,0],"id":100,"left_children":[1,3,5,-1,-1,-1,-1],"loss_changes":[1.2514689E2,9.106698E1,2.9354393E1,0E0,0E0,0E0,0E0],"parents":[2147483647,0,0,1,1,2,2],"right_children":[2,4,6,-1,-1,-1,-1],"split_conditions":[1.95E1,7.5E0,3.585E-1,6.390326E-4,-2.7124276E-3,-1.0637435E-3,2.1511815E-3],"split_indices":[28,103,55,0,0,0,0],"split_type":[0,0,0,0,0,0,0],"sum_hessian":[5.704098E3,4.0056934E3,1.6984048E3,1.1282013E3,2.877492E3,3.5975436E2,1.3386504E3],"tree_param":{"num_deleted":"0","num_feature":"106","num_nodes":"7","size_leaf_vector":"0"}},{"base_weights":[8.0419704E-2,1.7685667E-1,-1.4699742E-1,-6.390329E-2,2.7124277E-1,1.0637426E-1,-2.1511814E-1],"categories":[],"categories_nodes":[],"categories_segments":[],"categories_sizes":[],"default_left":[1,1,1,0,0,0,0],"id":101,"left_children":[1,3,5,-1,-1,-1,-1],"loss_changes":[1.2514688E2,9.1066986E1,2.9354374E1,0E0,0E0,0E0,0E0],"parents":[2147483647,0,0,1,1,2,2],"right_children":[2,4,6,-1,-1,-1,-1],"split_conditions":[1.95E1,7.5E0,3.585E-1,-6.3903286E-4,2.7124276E-3,1.0637426E-3,-2.1511815E-3],"split_indices":[28,103,55,0,0,0,0],"split_type":[0,0,0,0,0,0,0],"sum_hessian":[5.704098E3,4.0056934E3,1.6984049E3,1.1282014E3,2.877492E3,3.5975436E2,1.3386505E3],"tree_param":{"num_deleted":"0","num_feature":"106","num_nodes":"7","size_leaf_vector":"0"}},{"base_weights":[-7.964696E-2,5.8416985E-2,-2.3672791E-1,5.2871597E-1,9.192273E-3,-1.6022286E-1,-4.3869597E-1],"categories":[],"categories_nodes":[],"categories_segments":[],"categories_sizes":[],"default_left":[1,1,1,0,0,0,0],"id":102,"left_children":[1,3,5,-1,-1,-1,-1],"loss_changes":[1.2369353E2,7.027888E1,4.11532E1,0E0,0E0,0E0,0E0],"parents":[2147483647,0,0,1,1,2,2],"right_children":[2,4,6,-1,-1,-1,-1],"split_conditions":[5.5E-1,2.5E0,1.95E1,5.2871597E-3,9.192273E-5,-1.6022285E-3,-4.3869596E-3],"split_indices":[25,85,80,0,0,0,0],"split_type":[0,0,0,0,0,0,0],"sum_hessian":[5.701885E3,3.034971E3,2.6669138E3,2.8663965E2,2.7483313E3,1.9355319E3,7.31382E2],"tree_param":{"num_deleted":"0","num_feature":"106","num_nodes":"7","size_leaf_vector":"0"}},{"base_weights":[7.964694E-2,-5.841699E-2,2.367279E-1,-5.2871597E-1,-9.192279E-3,1.6022283E-1,4.386959E-1],"categories":[],"categories_nodes":[],"categories_segments":[],"categories_sizes":[],"default_left":[1,1,1,0,0,0,0],"id":103,"left_children":[1,3,5,-1,-1,-1,-1],"loss_changes":[1.2369351E2,7.027887E1,4.1153168E1,0E0,0E0,0E0,0E0],"parents":[2147483647,0,0,1,1,2,2],"right_children":[2,4,6,-1,-1,-1,-1],"split_conditions":[5.5E-1,2.5E0,1.95E1,-5.2871597E-3,-9.192278E-5,1.6022283E-3,4.386959E-3],"split_indices":[25,85,80,0,0,0,0],"split_type":[0,0,0,0,0,0,0],"sum_hessian":[5.701885E3,3.034971E3,2.6669138E3,2.8663965E2,2.7483313E3,1.9355319E3,7.31382E2],"tree_param":{"num_deleted":"0","num_feature":"106","num_nodes":"7","size_leaf_vector":"0"}},{"base_weights":[-7.8884825E-2,-1.7809856E-1,1.358845E-1,-7.2553314E-2,-3.6441576E-1,3.644027E-3,2.7684355E-1],"categories":[],"categories_nodes":[],"categories_segments":[],"categories_sizes":[],"default_left":[1,1,1,0,0,0,0],"id":104,"left_children":[1,3,5,-1,-1,-1,-1],"loss_changes":[1.2148958E2,7.665925E1,3.358576E1,0E0,0E0,0E0,0E0],"parents":[2147483647,0,0,1,1,2,2],"right_children":[2,4,6,-1,-1,-1,-1],"split_conditions":[2.05E1,1.65E1,3.5000002E-1,-7.255331E-4,-3.6441577E-3,3.644027E-5,2.7684355E-3],"split_indices":[51,80,77,0,0,0,0],"split_type":[0,0,0,0,0,0,0],"sum_hessian":[5.699441E3,3.8986235E3,1.8008175E3,2.4896643E3,1.4089592E3,9.2967267E2,8.711448E2],"tree_param":{"num_deleted":"0","num_feature":"106","num_nodes":"7","size_leaf_vector":"0"}},{"base_weights":[7.8884825E-2,1.7809857E-1,-1.3588451E-1,7.255332E-2,3.644158E-1,-3.6440627E-3,-2.7684355E-1],"categories":[],"categories_nodes":[],"categories_segments":[],"categories_sizes":[],"default_left":[1,1,1,0,0,0,0],"id":105,"left_children":[1,3,5,-1,-1,-1,-1],"loss_changes":[1.2148961E2,7.665925E1,3.3585747E1,0E0,0E0,0E0,0E0],"parents":[2147483647,0,0,1,1,2,2],"right_children":[2,4,6,-1,-1,-1,-1],"split_conditions":[2.05E1,1.65E1,3.5000002E-1,7.255332E-4,3.644158E-3,-3.6440626E-5,-2.7684355E-3],"split_indices":[51,80,77,0,0,0,0],"split_type":[0,0,0,0,0,0,0],"sum_hessian":[5.699441E3,3.8986235E3,1.8008175E3,2.4896643E3,1.4089592E3,9.2967267E2,8.711448E2],"tree_param":{"num_deleted":"0","num_feature":"106","num_nodes":"7","size_leaf_vector":"0"}},{"base_weights":[-7.812942E-2,-2.2864237E-1,6.1681125E-2,-1.6709681E-1,-4.9300072E-1,1.4796261E-1,-1.9236255E-1],"categories":[],"categories_nodes":[],"categories_segments":[],"categories_sizes":[],"default_left":[1,1,1,0,0,0,0],"id":106,"left_children":[1,3,5,-1,-1,-1,-1],"loss_changes":[1.1991992E2,4.4566193E1,6.479639E1,0E0,0E0,0E0,0E0],"parents":[2147483647,0,0,1,1,2,2],"right_children":[2,4,6,-1,-1,-1,-1],"split_conditions":[1.45E1,2.25E1,2.25E1,-1.670968E-3,-4.9300073E-3,1.4796262E-3,-1.9236255E-3],"split_indices":[51,80,103,0,0,0,0],"split_type":[0,0,0,0,0,0,0],"sum_hessian":[5.6970527E3,2.7432131E3,2.9538396E3,2.226493E3,5.167202E2,2.2052744E3,7.485653E2],"tree_param":{"num_deleted":"0","num_feature":"106","num_nodes":"7","size_leaf_vector":"0"}},{"base_weights":[7.8129426E-2,2.2864237E-1,-6.168112E-2,1.6709681E-1,4.9300072E-1,-1.4796261E-1,1.9236255E-1],"categories":[],"categories_nodes":[],"categories_segments":[],"categories_sizes":[],"default_left":[1,1,1,0,0,0,0],"id":107,"left_children":[1,3,5,-1,-1,-1,-1],"loss_changes":[1.1991992E2,4.4566193E1,6.479637E1,0E0,0E0,0E0,0E0],"parents":[2147483647,0,0,1,1,2,2],"right_children":[2,4,6,-1,-1,-1,-1],"split_conditions":[1.45E1,2.25E1,2.25E1,1.670968E-3,4.9300073E-3,-1.4796262E-3,1.9236255E-3],"split_indices":[51,80,103,0,0,0,0],"split_type":[0,0,0,0,0,0,0],"sum_hessian":[5.6970527E3,2.7432131E3,2.9538396E3,2.226493E3,5.167202E2,2.2052744E3,7.485653E2],"tree_param":{"num_deleted":"0","num_feature":"106","num_nodes":"7","size_leaf_vector":"0"}},{"base_weights":[-7.738606E-2,-1.7136258E-1,1.4394708E-1,-2.019179E-1,5.544001E-1,-1.0326167E-1,2.1044172E-1],"categories":[],"categories_nodes":[],"categories_segments":[],"categories_sizes":[],"default_left":[1,1,1,0,0,0,0],"id":108,"left_children":[1,3,5,-1,-1,-1,-1],"loss_changes":[1.1848962E2,8.877937E1,2.7934032E1,0E0,0E0,0E0,0E0],"parents":[2147483647,0,0,1,1,2,2],"right_children":[2,4,6,-1,-1,-1,-1],"split_conditions":[1.95E1,2.8349998E1,3.585E-1,-2.019179E-3,5.544001E-3,-1.0326167E-3,2.1044172E-3],"split_indices":[28,69,55,0,0,0,0],"split_type":[0,0,0,0,0,0,0],"sum_hessian":[5.694397E3,3.9973677E3,1.697029E3,3.8365664E3,1.608014E2,3.5959625E2,1.3374327E3],"tree_param":{"num_deleted":"0","num_feature":"106","num_nodes":"7","size_leaf_vector":"0"}},{"base_weights":[7.738605E-2,1.7136256E-1,-1.4394708E-1,2.0191789E-1,-5.544001E-1,1.0326168E-1,-2.1044172E-1],"categories":[],"categories_nodes":[],"categories_segments":[],"categories_sizes":[],"default_left":[1,1,1,0,0,0,0],"id":109,"left_children":[1,3,5,-1,-1,-1,-1],"loss_changes":[1.1848959E2,8.877938E1,2.7934032E1,0E0,0E0,0E0,0E0],"parents":[2147483647,0,0,1,1,2,2],"right_children":[2,4,6,-1,-1,-1,-1],"split_conditions":[1.95E1,2.8349998E1,3.585E-1,2.0191788E-3,-5.544001E-3,1.0326168E-3,-2.1044172E-3],"split_indices":[28,69,55,0,0,0,0],"split_type":[0,0,0,0,0,0,0],"sum_hessian":[5.694397E3,3.9973677E3,1.697029E3,3.8365664E3,1.608014E2,3.5959625E2,1.3374327E3],"tree_param":{"num_deleted":"0","num_feature":"106","num_nodes":"7","size_leaf_vector":"0"}},{"base_weights":[-7.663921E-2,5.7197295E-2,-2.2920826E-1,5.201965E-1,8.841978E-3,-2.9118875E-1,1.3933386E-2],"categories":[],"categories_nodes":[],"categories_segments":[],"categories_sizes":[],"default_left":[1,1,1,0,0,0,0],"id":110,"left_children":[1,3,5,-1,-1,-1,-1],"loss_changes":[1.1626723E2,6.7914406E1,4.0100616E1,0E0,0E0,0E0,0E0],"parents":[2147483647,0,0,1,1,2,2],"right_children":[2,4,6,-1,-1,-1,-1],"split_conditions":[5.5E-1,2.5E0,5.05E0,5.2019646E-3,8.841978E-5,-2.9118874E-3,1.3933386E-4],"split_indices":[25,85,77,0,0,0,0],"split_type":[0,0,0,0,0,0,0],"sum_hessian":[5.6923413E3,3.0326594E3,2.659682E3,2.8585522E2,2.7468042E3,2.1192544E3,5.404275E2],"tree_param":{"num_deleted":"0","num_feature":"106","num_nodes":"7","size_leaf_vector":"0"}},{"base_weights":[7.6639205E-2,-5.719728E-2,2.2920825E-1,-5.201965E-1,-8.841966E-3,2.9118872E-1,-1.3933372E-2],"categories":[],"categories_nodes":[],"categories_segments":[],"categories_sizes":[],"default_left":[1,1,1,0,0,0,0],"id":111,"left_children":[1,3,5,-1,-1,-1,-1],"loss_changes":[1.16267166E2,6.79144E1,4.010063E1,0E0,0E0,0E0,0E0],"parents":[2147483647,0,0,1,1,2,2],"right_children":[2,4,6,-1,-1,-1,-1],"split_conditions":[5.5E-1,2.5E0,5.05E0,-5.2019646E-3,-8.841966E-5,2.9118871E-3,-1.3933372E-4],"split_indices":[25,85,77,0,0,0,0],"split_type":[0,0,0,0,0,0,0],"sum_hessian":[5.6923413E3,3.0326594E3,2.6596821E3,2.8585522E2,2.7468042E3,2.1192544E3,5.4042755E2],"tree_param":{"num_deleted":"0","num_feature":"106","num_nodes":"7","size_leaf_vector":"0"}},{"base_weights":[-7.5906165E-2,-1.6855136E-1,1.4215732E-1,-3.171931E-1,-2.2764927E-2,-1.0228199E-1,2.0792711E-1],"categories":[],"categories_nodes":[],"categories_segments":[],"categories_sizes":[],"default_left":[1,1,1,0,0,0,0],"id":112,"left_children":[1,3,5,-1,-1,-1,-1],"loss_changes":[1.149932E2,8.655194E1,2.7309898E1,0E0,0E0,0E0,0E0],"parents":[2147483647,0,0,1,1,2,2],"right_children":[2,4,6,-1,-1,-1,-1],"split_conditions":[1.95E1,6.5E-1,3.585E-1,-3.1719308E-3,-2.2764926E-4,-1.0228199E-3,2.079271E-3],"split_indices":[28,77,55,0,0,0,0],"split_type":[0,0,0,0,0,0,0],"sum_hessian":[5.6898335E3,3.9934333E3,1.6964E3,1.9767708E3,2.0166626E3,3.5954898E2,1.3368511E3],"tree_param":{"num_deleted":"0","num_feature":"106","num_nodes":"7","size_leaf_vector":"0"}},{"base_weights":[7.590618E-2,1.6855137E-1,-1.421573E-1,3.171931E-1,2.2764944E-2,1.0228205E-1,-2.079271E-1],"categories":[],"categories_nodes":[],"categories_segments":[],"categories_sizes":[],"default_left":[1,1,1,0,0,0,0],"id":113,"left_children":[1,3,5,-1,-1,-1,-1],"loss_changes":[1.149932E2,8.655193E1,2.7309906E1,0E0,0E0,0E0,0E0],"parents":[2147483647,0,0,1,1,2,2],"right_children":[2,4,6,-1,-1,-1,-1],"split_conditions":[1.95E1,6.5E-1,3.585E-1,3.1719308E-3,2.2764943E-4,1.0228205E-3,-2.0792708E-3],"split_indices":[28,77,55,0,0,0,0],"split_type":[0,0,0,0,0,0,0],"sum_hessian":[5.6898335E3,3.9934333E3,1.6964E3,1.9767708E3,2.0166625E3,3.5954898E2,1.3368511E3],"tree_param":{"num_deleted":"0","num_feature":"106","num_nodes":"7","size_leaf_vector":"0"}},{"base_weights":[-7.517938E-2,5.661924E-2,-2.2558773E-1,5.152104E-1,8.792451E-3,-2.867745E-1,1.4011015E-2],"categories":[],"categories_nodes":[],"categories_segments":[],"categories_sizes":[],"default_left":[1,1,1,0,0,0,0],"id":114,"left_children":[1,3,5,-1,-1,-1,-1],"loss_changes":[1.12778534E2,6.6508995E1,3.8954453E1,0E0,0E0,0E0,0E0],"parents":[2147483647,0,0,1,1,2,2],"right_children":[2,4,6,-1,-1,-1,-1],"split_conditions":[5.5E-1,2.5E0,5.05E0,5.152104E-3,8.7924505E-5,-2.8677448E-3,1.4011015E-4],"split_indices":[25,85,77,0,0,0,0],"split_type":[0,0,0,0,0,0,0],"sum_hessian":[5.687456E3,3.0315857E3,2.65587E3,2.853841E2,2.7462017E3,2.1154478E3,5.4042255E2],"tree_param":{"num_deleted":"0","num_feature":"106","num_nodes":"7","size_leaf_vector":"0"}},{"base_weights":[7.51794E-2,-5.661924E-2,2.2558776E-1,-5.1521045E-1,-8.792448E-3,2.8677452E-1,-1.4011009E-2],"categories":[],"categories_nodes":[],"categories_segments":[],"categories_sizes":[],"default_left":[1,1,1,0,0,0,0],"id":115,"left_children":[1,3,5,-1,-1,-1,-1],"loss_changes":[1.1277855E2,6.6509E1,3.8954468E1,0E0,0E0,0E0,0E0],"parents":[2147483647,0,0,1,1,2,2],"right_children":[2,4,6,-1,-1,-1,-1],"split_conditions":[5.5E-1,2.5E0,5.05E0,-5.1521044E-3,-8.7924476E-5,2.867745E-3,-1.4011009E-4],"split_indices":[25,85,77,0,0,0,0],"split_type":[0,0,0,0,0,0,0],"sum_hessian":[5.687456E3,3.0315857E3,2.6558704E3,2.853841E2,2.7462017E3,2.1154478E3,5.4042255E2],"tree_param":{"num_deleted":"0","num_feature":"106","num_nodes":"7","size_leaf_vector":"0"}},{"base_weights":[-7.446076E-2,-1.6580418E-1,1.4039017E-1,-1.9571525E-1,5.448895E-1,-1.0131238E-1,2.054442E-1],"categories":[],"categories_nodes":[],"categories_segments":[],"categories_sizes":[],"default_left":[1,1,1,0,0,0,0],"id":116,"left_children":[1,3,5,-1,-1,-1,-1],"loss_changes":[1.11610596E2,8.49279E1,2.6700115E1,0E0,0E0,0E0,0E0],"parents":[2147483647,0,0,1,1,2,2],"right_children":[2,4,6,-1,-1,-1,-1],"split_conditions":[1.95E1,2.8349998E1,3.585E-1,-1.9571525E-3,5.448895E-3,-1.0131238E-3,2.054442E-3],"split_indices":[28,69,55,0,0,0,0],"split_type":[0,0,0,0,0,0,0],"sum_hessian":[5.684914E3,3.9891597E3,1.6957545E3,3.8287434E3,1.6041628E2,3.595014E2,1.3362532E3],"tree_param":{"num_deleted":"0","num_feature":"106","num_nodes":"7","size_leaf_vector":"0"}},{"base_weights":[7.446077E-2,1.6580418E-1,-1.4039014E-1,1.9571525E-1,-5.448895E-1,1.0131245E-1,-2.0544419E-1],"categories":[],"categories_nodes":[],"categories_segments":[],"categories_sizes":[],"default_left":[1,1,1,0,0,0,0],"id":117,"left_children":[1,3,5,-1,-1,-1,-1],"loss_changes":[1.1161056E2,8.492791E1,2.6700134E1,0E0,0E0,0E0,0E0],"parents":[2147483647,0,0,1,1,2,2],"right_children":[2,4,6,-1,-1,-1,-1],"split_conditions":[1.95E1,2.8349998E1,3.585E-1,1.9571525E-3,-5.448895E-3,1.0131245E-3,-2.0544417E-3],"split_indices":[28,69,55,0,0,0,0],"split_type":[0,0,0,0,0,0,0],"sum_hessian":[5.684914E3,3.9891597E3,1.6957545E3,3.8287434E3,1.6041629E2,3.595014E2,1.336253E3],"tree_param":{"num_deleted":"0","num_feature":"106","num_nodes":"7","size_leaf_vector":"0"}},{"base_weights":[-7.374317E-2,-1.6824229E-1,1.3038738E-1,-6.5515935E-2,-3.503623E-1,5.481264E-1,8.847283E-2],"categories":[],"categories_nodes":[],"categories_segments":[],"categories_sizes":[],"default_left":[1,1,1,0,0,0,0],"id":118,"left_children":[1,3,5,-1,-1,-1,-1],"loss_changes":[1.0966295E2,7.26714E1,3.1453493E1,0E0,0E0,0E0,0E0],"parents":[2147483647,0,0,1,1,2,2],"right_children":[2,4,6,-1,-1,-1,-1],"split_conditions":[2.05E1,1.65E1,2.5E0,-6.5515935E-4,-3.503623E-3,5.481264E-3,8.847283E-4],"split_indices":[51,80,85,0,0,0,0],"split_type":[0,0,0,0,0,0,0],"sum_hessian":[5.682781E3,3.8846277E3,1.7981532E3,2.4845537E3,1.4000741E3,1.6286736E2,1.6352858E3],"tree_param":{"num_deleted":"0","num_feature":"106","num_nodes":"7","size_leaf_vector":"0"}},{"base_weights":[7.374318E-2,1.6824229E-1,-1.3038735E-1,6.551595E-2,3.503623E-1,-5.481264E-1,-8.8472806E-2],"categories":[],"categories_nodes":[],"categories_segments":[],"categories_sizes":[],"default_left":[1,1,1,0,0,0,0],"id":119,"left_children":[1,3,5,-1,-1,-1,-1],"loss_changes":[1.0966293E2,7.2671394E1,3.1453499E1,0E0,0E0,0E0,0E0],"parents":[2147483647,0,0,1,1,2,2],"right_children":[2,4,6,-1,-1,-1,-1],"split_conditions":[2.05E1,1.65E1,2.5E0,6.5515947E-4,3.503623E-3,-5.481264E-3,-8.8472804E-4],"split_indices":[51,80,85,0,0,0,0],"split_type":[0,0,0,0,0,0,0],"sum_hessian":[5.682781E3,3.8846277E3,1.7981532E3,2.4845537E3,1.400074E3,1.6286736E2,1.6352858E3],"tree_param":{"num_deleted":"0","num_feature":"106","num_nodes":"7","size_leaf_vector":"0"}},{"base_weights":[-7.303639E-2,-1.6295813E-1,1.3836285E-1,-3.0905565E-2,-3.2152665E-1,-1.0045468E-1,2.0266399E-1],"categories":[],"categories_nodes":[],"categories_segments":[],"categories_sizes":[],"default_left":[1,1,1,0,0,0,0],"id":120,"left_children":[1,3,5,-1,-1,-1,-1],"loss_changes":[1.0802247E2,8.346251E1,2.606474E1,0E0,0E0,0E0,0E0],"parents":[2147483647,0,0,1,1,2,2],"right_children":[2,4,6,-1,-1,-1,-1],"split_conditions":[1.95E1,1.35E1,3.585E-1,-3.0905564E-4,-3.2152664E-3,-1.0045468E-3,2.0266399E-3],"split_indices":[28,80,55,0,0,0,0],"split_type":[0,0,0,0,0,0,0],"sum_hessian":[5.6803984E3,3.9853857E3,1.6950127E3,2.175156E3,1.8102299E3,3.5944696E2,1.3355657E3],"tree_param":{"num_deleted":"0","num_feature":"106","num_nodes":"7","size_leaf_vector":"0"}},{"base_weights":[7.303638E-2,1.6295813E-1,-1.3836287E-1,3.0905545E-2,3.2152668E-1,1.004547E-1,-2.0266402E-1],"categories":[],"categories_nodes":[],"categories_segments":[],"categories_sizes":[],"default_left":[1,1,1,0,0,0,0],"id":121,"left_children":[1,3,5,-1,-1,-1,-1],"loss_changes":[1.0802247E2,8.346253E1,2.606475E1,0E0,0E0,0E0,0E0],"parents":[2147483647,0,0,1,1,2,2],"right_children":[2,4,6,-1,-1,-1,-1],"split_conditions":[1.95E1,1.35E1,3.585E-1,3.0905544E-4,3.2152666E-3,1.004547E-3,-2.02664E-3],"split_indices":[28,80,55,0,0,0,0],"split_type":[0,0,0,0,0,0,0],"sum_hessian":[5.6803984E3,3.9853857E3,1.6950127E3,2.175156E3,1.8102299E3,3.59447E2,1.3355657E3],"tree_param":{"num_deleted":"0","num_feature":"106","num_nodes":"7","size_leaf_vector":"0"}},{"base_weights":[-7.233867E-2,5.5850055E-2,-2.1890613E-1,-6.07952E-2,2.369333E-1,-1.6121139E-1,-4.670431E-1],"categories":[],"categories_nodes":[],"categories_segments":[],"categories_sizes":[],"default_left":[1,1,1,0,0,0,0],"id":122,"left_children":[1,3,5,-1,-1,-1,-1],"loss_changes":[1.0670921E2,6.401948E1,3.785865E1,0E0,0E0,0E0,0E0],"parents":[2147483647,0,0,1,1,2,2],"right_children":[2,4,6,-1,-1,-1,-1],"split_conditions":[5.5E-1,5.645E-1,2.25E1,-6.0795195E-4,2.369333E-3,-1.6121138E-3,-4.670431E-3],"split_indices":[25,55,80,0,0,0,0],"split_type":[0,0,0,0,0,0,0],"sum_hessian":[5.6779067E3,3.029184E3,2.6487224E3,1.8428024E3,1.1863817E3,2.150383E3,4.983395E2],"tree_param":{"num_deleted":"0","num_feature":"106","num_nodes":"7","size_leaf_vector":"0"}},{"base_weights":[7.233867E-2,-5.585005E-2,2.1890613E-1,6.0795188E-2,-2.3693328E-1,1.6121139E-1,4.670431E-1],"categories":[],"categories_nodes":[],"categories_segments":[],"categories_sizes":[],"default_left":[1,1,1,0,0,0,0],"id":123,"left_children":[1,3,5,-1,-1,-1,-1],"loss_changes":[1.067092E2,6.4019455E1,3.7858665E1,0E0,0E0,0E0,0E0],"parents":[2147483647,0,0,1,1,2,2],"right_children":[2,4,6,-1,-1,-1,-1],"split_conditions":[5.5E-1,5.645E-1,2.25E1,6.079519E-4,-2.3693326E-3,1.6121138E-3,4.670431E-3],"split_indices":[25,55,80,0,0,0,0],"split_type":[0,0,0,0,0,0,0],"sum_hessian":[5.6779067E3,3.029184E3,2.6487224E3,1.8428024E3,1.1863817E3,2.150383E3,4.983395E2],"tree_param":{"num_deleted":"0","num_feature":"106","num_nodes":"7","size_leaf_vector":"0"}},{"base_weights":[-7.165141E-2,-2.1294725E-1,5.9015743E-2,-1.5341738E-1,-4.710116E-1,1.4189066E-1,-1.8487781E-1],"categories":[],"categories_nodes":[],"categories_segments":[],"categories_sizes":[],"default_left":[1,1,1,0,0,0,0],"id":124,"left_children":[1,3,5,-1,-1,-1,-1],"loss_changes":[1.0480969E2,4.1827133E1,5.964897E1,0E0,0E0,0E0,0E0],"parents":[2147483647,0,0,1,1,2,2],"right_children":[2,4,6,-1,-1,-1,-1],"split_conditions":[1.45E1,2.25E1,2.25E1,-1.5341737E-3,-4.710116E-3,1.4189066E-3,-1.8487781E-3],"split_indices":[51,80,103,0,0,0,0],"split_type":[0,0,0,0,0,0,0],"sum_hessian":[5.6751455E3,2.7263738E3,2.9487717E3,2.216638E3,5.0973602E2,2.2012173E3,7.4755444E2],"tree_param":{"num_deleted":"0","num_feature":"106","num_nodes":"7","size_leaf_vector":"0"}},{"base_weights":[7.165141E-2,2.1294723E-1,-5.9015725E-2,1.5341735E-1,4.710116E-1,-1.4189066E-1,1.8487784E-1],"categories":[],"categories_nodes":[],"categories_segments":[],"categories_sizes":[],"default_left":[1,1,1,0,0,0,0],"id":125,"left_children":[1,3,5,-1,-1,-1,-1],"loss_changes":[1.04809654E2,4.182714E1,5.964897E1,0E0,0E0,0E0,0E0],"parents":[2147483647,0,0,1,1,2,2],"right_children":[2,4,6,-1,-1,-1,-1],"split_conditions":[1.45E1,2.25E1,2.25E1,1.5341735E-3,4.710116E-3,-1.4189066E-3,1.8487783E-3],"split_indices":[51,80,103,0,0,0,0],"split_type":[0,0,0,0,0,0,0],"sum_hessian":[5.6751455E3,2.726374E3,2.9487717E3,2.216638E3,5.0973608E2,2.2012173E3,7.4755444E2],"tree_param":{"num_deleted":"0","num_feature":"106","num_nodes":"7","size_leaf_vector":"0"}},{"base_weights":[-7.0971265E-2,-1.5915048E-1,1.3612802E-1,-1.8854547E-1,5.3890324E-1,-9.735018E-2,1.9901328E-1],"categories":[],"categories_nodes":[],"categories_segments":[],"categories_sizes":[],"default_left":[1,1,1,0,0,0,0],"id":126,"left_children":[1,3,5,-1,-1,-1,-1],"loss_changes":[1.03628075E2,8.1759995E1,2.490276E1,0E0,0E0,0E0,0E0],"parents":[2147483647,0,0,1,1,2,2],"right_children":[2,4,6,-1,-1,-1,-1],"split_conditions":[1.95E1,2.8349998E1,3.585E-1,-1.8854546E-3,5.3890324E-3,-9.7350177E-4,1.9901327E-3],"split_indices":[28,69,55,0,0,0,0],"split_type":[0,0,0,0,0,0,0],"sum_hessian":[5.672379E3,3.978595E3,1.6937839E3,3.818527E3,1.6006789E2,3.592871E2,1.3344968E3],"tree_param":{"num_deleted":"0","num_feature":"106","num_nodes":"7","size_leaf_vector":"0"}},{"base_weights":[7.097127E-2,1.591505E-1,-1.3612802E-1,1.8854547E-1,-5.389033E-1,9.735018E-2,-1.9901328E-1],"categories":[],"categories_nodes":[],"categories_segments":[],"categories_sizes":[],"default_left":[1,1,1,0,0,0,0],"id":127,"left_children":[1,3,5,-1,-1,-1,-1],"loss_changes":[1.0362809E2,8.176E1,2.490276E1,0E0,0E0,0E0,0E0],"parents":[2147483647,0,0,1,1,2,2],"right_children":[2,4,6,-1,-1,-1,-1],"split_conditions":[1.95E1,2.8349998E1,3.585E-1,1.8854546E-3,-5.389033E-3,9.7350177E-4,-1.9901327E-3],"split_indices":[28,69,55,0,0,0,0],"split_type":[0,0,0,0,0,0,0],"sum_hessian":[5.672379E3,3.978595E3,1.6937839E3,3.818527E3,1.6006789E2,3.592871E2,1.3344968E3],"tree_param":{"num_deleted":"0","num_feature":"106","num_nodes":"7","size_leaf_vector":"0"}},{"base_weights":[-7.0288256E-2,-1.6149607E-1,1.2643218E-1,-6.160073E-2,-3.3932075E-1,5.3796095E-1,8.528612E-2],"categories":[],"categories_nodes":[],"categories_segments":[],"categories_sizes":[],"default_left":[1,1,1,0,0,0,0],"id":128,"left_children":[1,3,5,-1,-1,-1,-1],"loss_changes":[1.0177509E2,6.88165E1,3.0382906E1,