{"learner":{"attributes":{"best_iteration":"499","best_ntree_limit":"500"},"feature_names":[],"feature_types":[],"gradient_booster":{"model":{"gbtree_model_param":{"num_parallel_tree":"1","num_trees":"1000","size_leaf_vector":"0"},"tree_info":[0,1,0,1,0,1,0,1,0,1,0,1,0,1,0,1,0,1,0,1,0,1,0,1,0,1,0,1,0,1,0,1,0,1,0,1,0,1,0,1,0,1,0,1,0,1,0,1,0,1,0,1,0,1,0,1,0,1,0,1,0,1,0,1,0,1,0,1,0,1,0,1,0,1,0,1,0,1,0,1,0,1,0,1,0,1,0,1,0,1,0,1,0,1,0,1,0,1,0,1,0,1,0,1,0,1,0,1,0,1,0,1,0,1,0,1,0,1,0,1,0,1,0,1,0,1,0,1,0,1,0,1,0,1,0,1,0,1,0,1,0,1,0,1,0,1,0,1,0,1,0,1,0,1,0,1,0,1,0,1,0,1,0,1,0,1,0,1,0,1,0,1,0,1,0,1,0,1,0,1,0,1,0,1,0,1,0,1,0,1,0,1,0,1,0,1,0,1,0,1,0,1,0,1,0,1,0,1,0,1,0,1,0,1,0,1,0,1,0,1,0,1,0,1,0,1,0,1,0,1,0,1,0,1,0,1,0,1,0,1,0,1,0,1,0,1,0,1,0,1,0,1,0,1,0,1,0,1,0,1,0,1,0,1,0,1,0,1,0,1,0,1,0,1,0,1,0,1,0,1,0,1,0,1,0,1,0,1,0,1,0,1,0,1,0,1,0,1,0,1,0,1,0,1,0,1,0,1,0,1,0,1,0,1,0,1,0,1,0,1,0,1,0,1,0,1,0,1,0,1,0,1,0,1,0,1,0,1,0,1,0,1,0,1,0,1,0,1,0,1,0,1,0,1,0,1,0,1,0,1,0,1,0,1,0,1,0,1,0,1,0,1,0,1,0,1,0,1,0,1,0,1,0,1,0,1,0,1,0,1,0,1,0,1,0,1,0,1,0,1,0,1,0,1,0,1,0,1,0,1,0,1,0,1,0,1,0,1,0,1,0,1,0,1,0,1,0,1,0,1,0,1,0,1,0,1,0,1,0,1,0,1,0,1,0,1,0,1,0,1,0,1,0,1,0,1,0,1,0,1,0,1,0,1,0,1,0,1,0,1,0,1,0,1,0,1,0,1,0,1,0,1,0,1,0,1,0,1,0,1,0,1,0,1,0,1,0,1,0,1,0,1,0,1,0,1,0,1,0,1,0,1,0,1,0,1,0,1,0,1,0,1,0,1,0,1,0,1,0,1,0,1,0,1,0,1,0,1,0,1,0,1,0,1,0,1,0,1,0,1,0,1,0,1,0,1,0,1,0,1,0,1,0,1,0,1,0,1,0,1,0,1,0,1,0,1,0,1,0,1,0,1,0,1,0,1,0,1,0,1,0,1,0,1,0,1,0,1,0,1,0,1,0,1,0,1,0,1,0,1,0,1,0,1,0,1,0,1,0,1,0,1,0,1,0,1,0,1,0,1,0,1,0,1,0,1,0,1,0,1,0,1,0,1,0,1,0,1,0,1,0,1,0,1,0,1,0,1,0,1,0,1,0,1,0,1,0,1,0,1,0,1,0,1,0,1,0,1,0,1,0,1,0,1,0,1,0,1,0,1,0,1,0,1,0,1,0,1,0,1,0,1,0,1,0,1,0,1,0,1,0,1,0,1,0,1,0,1,0,1,0,1,0,1,0,1,0,1,0,1,0,1,0,1,0,1,0,1,0,1,0,1,0,1,0,1,0,1,0,1,0,1,0,1,0,1,0,1,0,1,0,1,0,1,0,1,0,1,0,1,0,1,0,1,0,1,0,1,0,1,0,1,0,1,0,1,0,1,0,1,0,1,0,1,0,1,0,1,0,1,0,1,0,1,0,1,0,1,0,1,0,1,0,1,0,1,0,1,0,1,0,1,0,1,0,1,0,1,0,1,0,1,0,1,0,1,0,1,0,1,0,1,0,1,0,1,0,1,0,1,0,1,0,1,0,1,0,1,0,1,0,1,0,1,0,1,0,1,0,1,0,1,0,1,0,1,0,1,0,1,0,1,0,1,0,1,0,1,0,1,0,1,0,1,0,1,0,1,0,1,0,1,0,1,0,1,0,1,0,1,0,1,0,1,0,1,0,1,0,1,0,1,0,1,0,1,0,1,0,1,0,1,0,1,0,1,0,1,0,1,0,1,0,1,0,1,0,1,0,1,0,1,0,1,0,1,0,1,0,1,0,1,0,1,0,1,0,1,0,1,0,1,0,1,0,1,0,1,0,1,0,1,0,1,0,1,0,1,0,1,0,1,0,1,0,1,0,1,0,1],"trees":[{"base_weights":[-1.3461207E-1,-3.6357194E-1,8.327714E-2,-1.903039E-1,-5.294934E-1,-1.02320045E-1,3.2581648E-1],"categories":[],"categories_nodes":[],"categories_segments":[],"categories_sizes":[],"default_left":[1,1,1,0,0,0,0],"id":0,"left_children":[1,3,5,-1,-1,-1,-1],"loss_changes":[2.8873148E2,8.1028595E1,1.3354669E2,0E0,0E0,0E0,0E0],"parents":[2147483647,0,0,1,1,2,2],"right_children":[2,4,6,-1,-1,-1,-1],"split_conditions":[1.45E1,1.25E1,5.445E-1,-1.903039E-3,-5.294934E-3,-1.0232005E-3,3.2581647E-3],"split_indices":[51,79,55,0,0,0,0],"split_type":[0,0,0,0,0,0,0],"sum_hessian":[5.786E3,2.821E3,2.965E3,1.381E3,1.44E3,1.68E3,1.285E3],"tree_param":{"num_deleted":"0","num_feature":"106","num_nodes":"7","size_leaf_vector":"0"}},{"base_weights":[1.3461207E-1,3.6357194E-1,-8.327714E-2,1.903039E-1,5.294934E-1,1.02320045E-1,-3.2581648E-1],"categories":[],"categories_nodes":[],"categories_segments":[],"categories_sizes":[],"default_left":[1,1,1,0,0,0,0],"id":1,"left_children":[1,3,5,-1,-1,-1,-1],"loss_changes":[2.8873148E2,8.1028595E1,1.3354669E2,0E0,0E0,0E0,0E0],"parents":[2147483647,0,0,1,1,2,2],"right_children":[2,4,6,-1,-1,-1,-1],"split_conditions":[1.45E1,1.25E1,5.445E-1,1.903039E-3,5.294934E-3,1.0232005E-3,-3.2581647E-3],"split_indices":[51,79,55,0,0,0,0],"split_type":[0,0,0,0,0,0,0],"sum_hessian":[5.786E3,2.821E3,2.965E3,1.381E3,1.44E3,1.68E3,1.285E3],"tree_param":{"num_deleted":"0","num_feature":"106","num_nodes":"7","size_leaf_vector":"0"}},{"base_weights":[-1.332682E-1,-3.599446E-1,8.2445554E-2,-4.4347107E-1,-2.214673E-2,-1.012975E-1,3.225642E-1],"categories":[],"categories_nodes":[],"categories_segments":[],"categories_sizes":[],"default_left":[1,1,1,0,0,0,0],"id":2,"left_children":[1,3,5,-1,-1,-1,-1],"loss_changes":[2.8299487E2,7.961182E1,1.3089233E2,0E0,0E0,0E0,0E0],"parents":[2147483647,0,0,1,1,2,2],"right_children":[2,4,6,-1,-1,-1,-1],"split_conditions":[1.45E1,5.05E0,5.445E-1,-4.434711E-3,-2.2146729E-4,-1.012975E-3,3.225642E-3],"split_indices":[51,77,55,0,0,0,0],"split_type":[0,0,0,0,0,0,0],"sum_hessian":[5.7859395E3,2.8209546E3,2.9649846E3,2.2614568E3,5.594978E2,1.6799983E3,1.2849863E3],"tree_param":{"num_deleted":"0","num_feature":"106","num_nodes":"7","size_leaf_vector":"0"}},{"base_weights":[1.332682E-1,3.5994455E-1,-8.2445525E-2,4.43471E-1,2.2146728E-2,1.01297595E-1,-3.2256424E-1],"categories":[],"categories_nodes":[],"categories_segments":[],"categories_sizes":[],"default_left":[1,1,1,0,0,0,0],"id":3,"left_children":[1,3,5,-1,-1,-1,-1],"loss_changes":[2.829948E2,7.9611786E1,1.308924E2,0E0,0E0,0E0,0E0],"parents":[2147483647,0,0,1,1,2,2],"right_children":[2,4,6,-1,-1,-1,-1],"split_conditions":[1.45E1,5.05E0,5.445E-1,4.43471E-3,2.2146727E-4,1.0129759E-3,-3.2256423E-3],"split_indices":[51,77,55,0,0,0,0],"split_type":[0,0,0,0,0,0,0],"sum_hessian":[5.7859395E3,2.8209546E3,2.9649846E3,2.2614568E3,5.594978E2,1.6799982E3,1.2849865E3],"tree_param":{"num_deleted":"0","num_feature":"106","num_nodes":"7","size_leaf_vector":"0"}},{"base_weights":[-1.319399E-1,-3.563628E-1,8.1623115E-2,-1.9196469E-1,-5.2656347E-1,-1.0028555E-1,3.1935126E-1],"categories":[],"categories_nodes":[],"categories_segments":[],"categories_sizes":[],"default_left":[1,1,1,0,0,0,0],"id":4,"left_children":[1,3,5,-1,-1,-1,-1],"loss_changes":[2.7737976E2,7.885559E1,1.2829349E2,0E0,0E0,0E0,0E0],"parents":[2147483647,0,0,1,1,2,2],"right_children":[2,4,6,-1,-1,-1,-1],"split_conditions":[1.45E1,1.25E1,5.445E-1,-1.9196469E-3,-5.2656345E-3,-1.0028555E-3,3.1935126E-3],"split_indices":[51,80,55,0,0,0,0],"split_type":[0,0,0,0,0,0,0],"sum_hessian":[5.785767E3,2.8208284E3,2.964939E3,1.4359558E3,1.3848726E3,1.6799929E3,1.284946E3],"tree_param":{"num_deleted":"0","num_feature":"106","num_nodes":"7","size_leaf_vector":"0"}},{"base_weights":[1.3193992E-1,3.5636285E-1,-8.162312E-2,1.919647E-1,5.265636E-1,1.0028546E-1,-3.1935117E-1],"categories":[],"categories_nodes":[],"categories_segments":[],"categories_sizes":[],"default_left":[1,1,1,0,0,0,0],"id":5,"left_children":[1,3,5,-1,-1,-1,-1],"loss_changes":[2.7737985E2,7.885565E1,1.282934E2,0E0,0E0,0E0,0E0],"parents":[2147483647,0,0,1,1,2,2],"right_children":[2,4,6,-1,-1,-1,-1],"split_conditions":[1.45E1,1.25E1,5.445E-1,1.919647E-3,5.265636E-3,1.0028546E-3,-3.1935116E-3],"split_indices":[51,80,55,0,0,0,0],"split_type":[0,0,0,0,0,0,0],"sum_hessian":[5.7857676E3,2.8208284E3,2.964939E3,1.4359558E3,1.3848724E3,1.679993E3,1.284946E3],"tree_param":{"num_deleted":"0","num_feature":"106","num_nodes":"7","size_leaf_vector":"0"}},{"base_weights":[-1.3062793E-1,-3.5282826E-1,8.080962E-2,-1.887382E-1,-5.200994E-1,-9.928386E-2,3.1617653E-1],"categories":[],"categories_nodes":[],"categories_segments":[],"categories_sizes":[],"default_left":[1,1,1,0,0,0,0],"id":6,"left_children":[1,3,5,-1,-1,-1,-1],"loss_changes":[2.7188608E2,7.734827E1,1.257486E2,0E0,0E0,0E0,0E0],"parents":[2147483647,0,0,1,1,2,2],"right_children":[2,4,6,-1,-1,-1,-1],"split_conditions":[1.45E1,1.35E1,5.445E-1,-1.8873819E-3,-5.2009937E-3,-9.928385E-4,3.1617652E-3],"split_indices":[51,81,55,0,0,0,0],"split_type":[0,0,0,0,0,0,0],"sum_hessian":[5.785482E3,2.8206177E3,2.964864E3,1.4249222E3,1.3956954E3,1.6799844E3,1.2848796E3],"tree_param":{"num_deleted":"0","num_feature":"106","num_nodes":"7","size_leaf_vector":"0"}},{"base_weights":[1.3062787E-1,3.5282826E-1,-8.080971E-2,1.8873821E-1,5.200994E-1,9.928377E-2,-3.1617665E-1],"categories":[],"categories_nodes":[],"categories_segments":[],"categories_sizes":[],"default_left":[1,1,1,0,0,0,0],"id":7,"left_children":[1,3,5,-1,-1,-1,-1],"loss_changes":[2.7188617E2,7.734827E1,1.2574859E2,0E0,0E0,0E0,0E0],"parents":[2147483647,0,0,1,1,2,2],"right_children":[2,4,6,-1,-1,-1,-1],"split_conditions":[1.45E1,1.35E1,5.445E-1,1.8873821E-3,5.2009937E-3,9.928377E-4,-3.1617666E-3],"split_indices":[51,81,55,0,0,0,0],"split_type":[0,0,0,0,0,0,0],"sum_hessian":[5.785482E3,2.8206177E3,2.964864E3,1.4249222E3,1.3956954E3,1.6799845E3,1.2848796E3],"tree_param":{"num_deleted":"0","num_feature":"106","num_nodes":"7","size_leaf_vector":"0"}},{"base_weights":[-1.293314E-1,-3.493391E-1,8.000518E-2,-4.312709E-1,-1.8075613E-2,-9.829217E-2,3.1303966E-1],"categories":[],"categories_nodes":[],"categories_segments":[],"categories_sizes":[],"default_left":[1,1,1,0,0,0,0],"id":8,"left_children":[1,3,5,-1,-1,-1,-1],"loss_changes":[2.665099E2,7.6565796E1,1.2325645E2,0E0,0E0,0E0,0E0],"parents":[2147483647,0,0,1,1,2,2],"right_children":[2,4,6,-1,-1,-1,-1],"split_conditions":[1.45E1,5.05E0,5.445E-1,-4.312709E-3,-1.8075613E-4,-9.829217E-4,3.1303966E-3],"split_indices":[51,77,55,0,0,0,0],"split_type":[0,0,0,0,0,0,0],"sum_hessian":[5.785085E3,2.8203237E3,2.964761E3,2.2608445E3,5.594793E2,1.6799728E3,1.2847882E3],"tree_param":{"num_deleted":"0","num_feature":"106","num_nodes":"7","size_leaf_vector":"0"}},{"base_weights":[1.2933141E-1,3.4933913E-1,-8.00052E-2,4.3127096E-1,1.8075613E-2,9.829215E-2,-3.1303966E-1],"categories":[],"categories_nodes":[],"categories_segments":[],"categories_sizes":[],"default_left":[1,1,1,0,0,0,0],"id":9,"left_children":[1,3,5,-1,-1,-1,-1],"loss_changes":[2.6650995E2,7.656586E1,1.23256424E2,0E0,0E0,0E0,0E0],"parents":[2147483647,0,0,1,1,2,2],"right_children":[2,4,6,-1,-1,-1,-1],"split_conditions":[1.45E1,5.05E0,5.445E-1,4.3127094E-3,1.8075613E-4,9.829215E-4,-3.1303966E-3],"split_indices":[51,77,55,0,0,0,0],"split_type":[0,0,0,0,0,0,0],"sum_hessian":[5.7850845E3,2.8203237E3,2.964761E3,2.2608442E3,5.594793E2,1.6799727E3,1.2847882E3],"tree_param":{"num_deleted":"0","num_feature":"106","num_nodes":"7","size_leaf_vector":"0"}},{"base_weights":[-1.2804954E-1,-3.4589204E-1,7.920937E-2,-1.8532906E-1,-5.1218516E-1,-9.731079E-2,3.099398E-1],"categories":[],"categories_nodes":[],"categories_segments":[],"categories_sizes":[],"default_left":[1,1,1,0,0,0,0],"id":10,"left_children":[1,3,5,-1,-1,-1,-1],"loss_changes":[2.6124564E2,7.52262E1,1.20816025E2,0E0,0E0,0E0,0E0],"parents":[2147483647,0,0,1,1,2,2],"right_children":[2,4,6,-1,-1,-1,-1],"split_conditions":[1.45E1,1.25E1,5.445E-1,-1.8532906E-3,-5.1218513E-3,-9.731079E-4,3.099398E-3],"split_indices":[51,80,55,0,0,0,0],"split_type":[0,0,0,0,0,0,0],"sum_hessian":[5.7845913E3,2.8199612E3,2.96463E3,1.4357748E3,1.3841863E3,1.6799576E3,1.2846724E3],"tree_param":{"num_deleted":"0","num_feature":"106","num_nodes":"7","size_leaf_vector":"0"}},{"base_weights":[1.2804952E-1,3.4589204E-1,-7.92094E-2,1.8532905E-1,5.1218516E-1,9.73107E-2,-3.0993977E-1],"categories":[],"categories_nodes":[],"categories_segments":[],"categories_sizes":[],"default_left":[1,1,1,0,0,0,0],"id":11,"left_children":[1,3,5,-1,-1,-1,-1],"loss_changes":[2.6124573E2,7.5226166E1,1.2081596E2,0E0,0E0,0E0,0E0],"parents":[2147483647,0,0,1,1,2,2],"right_children":[2,4,6,-1,-1,-1,-1],"split_conditions":[1.45E1,1.25E1,5.445E-1,1.8532905E-3,5.1218513E-3,9.73107E-4,-3.0993978E-3],"split_indices":[51,80,55,0,0,0,0],"split_type":[0,0,0,0,0,0,0],"sum_hessian":[5.784591E3,2.819961E3,2.9646301E3,1.4357748E3,1.3841863E3,1.6799578E3,1.2846722E3],"tree_param":{"num_deleted":"0","num_feature":"106","num_nodes":"7","size_leaf_vector":"0"}},{"base_weights":[-1.2678327E-1,-3.424902E-1,7.842225E-2,-4.2326185E-1,-1.6025377E-2,-9.633921E-2,3.068762E-1],"categories":[],"categories_nodes":[],"categories_segments":[],"categories_sizes":[],"default_left":[1,1,1,0,0,0,0],"id":12,"left_children":[1,3,5,-1,-1,-1,-1],"loss_changes":[2.5609497E2,7.4367645E1,1.18425896E2,0E0,0E0,0E0,0E0],"parents":[2147483647,0,0,1,1,2,2],"right_children":[2,4,6,-1,-1,-1,-1],"split_conditions":[1.45E1,5.05E0,5.445E-1,-4.2326185E-3,-1.6025377E-4,-9.633921E-4,3.0687621E-3],"split_indices":[51,77,55,0,0,0,0],"split_type":[0,0,0,0,0,0,0],"sum_hessian":[5.7839873E3,2.8195146E3,2.9644727E3,2.2600518E3,5.594628E2,1.6799398E3,1.2845328E3],"tree_param":{"num_deleted":"0","num_feature":"106","num_nodes":"7","size_leaf_vector":"0"}},{"base_weights":[1.2678327E-1,3.4249017E-1,-7.84222E-2,4.2326182E-1,1.6025288E-2,9.63393E-2,-3.068762E-1],"categories":[],"categories_nodes":[],"categories_segments":[],"categories_sizes":[],"default_left":[1,1,1,0,0,0,0],"id":13,"left_children":[1,3,5,-1,-1,-1,-1],"loss_changes":[2.5609488E2,7.4367676E1,1.1842595E2,0E0,0E0,0E0,0E0],"parents":[2147483647,0,0,1,1,2,2],"right_children":[2,4,6,-1,-1,-1,-1],"split_conditions":[1.45E1,5.05E0,5.445E-1,4.232618E-3,1.6025288E-4,9.6339296E-4,-3.0687621E-3],"split_indices":[51,77,55,0,0,0,0],"split_type":[0,0,0,0,0,0,0],"sum_hessian":[5.7839873E3,2.8195146E3,2.9644727E3,2.2600518E3,5.594629E2,1.6799397E3,1.2845328E3],"tree_param":{"num_deleted":"0","num_feature":"106","num_nodes":"7","size_leaf_vector":"0"}},{"base_weights":[-1.2553106E-1,-3.3912867E-1,7.7643566E-2,-2.3849252E-1,-5.994341E-1,2.3780882E-1,-1.6747655E-1],"categories":[],"categories_nodes":[],"categories_segments":[],"categories_sizes":[],"default_left":[1,1,1,0,0,0,0],"id":14,"left_children":[1,3,5,-1,-1,-1,-1],"loss_changes":[2.5105081E2,7.3730225E1,1.1645627E2,0E0,0E0,0E0,0E0],"parents":[2147483647,0,0,1,1,2,2],"right_children":[2,4,6,-1,-1,-1,-1],"split_conditions":[1.45E1,1.95E1,1.75E1,-2.384925E-3,-5.994341E-3,2.3780882E-3,-1.6747655E-3],"split_indices":[51,80,81,0,0,0,0],"split_type":[0,0,0,0,0,0,0],"sum_hessian":[5.7832925E3,2.8190034E3,2.964289E3,2.0344032E3,7.846002E2,1.7928458E3,1.1714434E3],"tree_param":{"num_deleted":"0","num_feature":"106","num_nodes":"7","size_leaf_vector":"0"}},{"base_weights":[1.2553102E-1,3.3912867E-1,-7.764366E-2,2.3849253E-1,5.994341E-1,-2.3780893E-1,1.6747645E-1],"categories":[],"categories_nodes":[],"categories_segments":[],"categories_sizes":[],"default_left":[1,1,1,0,0,0,0],"id":15,"left_children":[1,3,5,-1,-1,-1,-1],"loss_changes":[2.51051E2,7.3730194E1,1.1645628E2,0E0,0E0,0E0,0E0],"parents":[2147483647,0,0,1,1,2,2],"right_children":[2,4,6,-1,-1,-1,-1],"split_conditions":[1.45E1,1.95E1,1.75E1,2.3849253E-3,5.994341E-3,-2.3780891E-3,1.6747644E-3],"split_indices":[51,80,81,0,0,0,0],"split_type":[0,0,0,0,0,0,0],"sum_hessian":[5.783293E3,2.8190034E3,2.9642893E3,2.0344032E3,7.846003E2,1.792846E3,1.1714434E3],"tree_param":{"num_deleted":"0","num_feature":"106","num_nodes":"7","size_leaf_vector":"0"}},{"base_weights":[-1.2429277E-1,-3.3580786E-1,7.687155E-2,-1.018127E-1,-4.4578394E-1,-9.493079E-2,3.0150568E-1],"categories":[],"categories_nodes":[],"categories_segments":[],"categories_sizes":[],"default_left":[1,1,1,0,0,0,0],"id":16,"left_children":[1,3,5,-1,-1,-1,-1],"loss_changes":[2.4611261E2,7.2509735E1,1.1446091E2,0E0,0E0,0E0,0E0],"parents":[2147483647,0,0,1,1,2,2],"right_children":[2,4,6,-1,-1,-1,-1],"split_conditions":[1.45E1,8.5E0,5.445E-1,-1.018127E-3,-4.4578393E-3,-9.4930787E-4,3.0150567E-3],"split_indices":[51,103,55,0,0,0,0],"split_type":[0,0,0,0,0,0,0],"sum_hessian":[5.7825703E3,2.8184402E3,2.9641301E3,9.0174066E2,1.9166996E3,1.6799022E3,1.284228E3],"tree_param":{"num_deleted":"0","num_feature":"106","num_nodes":"7","size_leaf_vector":"0"}},{"base_weights":[1.24292746E-1,3.3580786E-1,-7.687159E-2,1.0181269E-1,4.4578394E-1,9.493075E-2,-3.0150568E-1],"categories":[],"categories_nodes":[],"categories_segments":[],"categories_sizes":[],"default_left":[1,1,1,0,0,0,0],"id":17,"left_children":[1,3,5,-1,-1,-1,-1],"loss_changes":[2.4611264E2,7.2509705E1,1.1446091E2,0E0,0E0,0E0,0E0],"parents":[2147483647,0,0,1,1,2,2],"right_children":[2,4,6,-1,-1,-1,-1],"split_conditions":[1.45E1,8.5E0,5.445E-1,1.0181268E-3,4.4578393E-3,9.493075E-4,-3.0150567E-3],"split_indices":[51,103,55,0,0,0,0],"split_type":[0,0,0,0,0,0,0],"sum_hessian":[5.7825703E3,2.8184402E3,2.9641304E3,9.0174066E2,1.9166996E3,1.6799022E3,1.2842281E3],"tree_param":{"num_deleted":"0","num_feature":"106","num_nodes":"7","size_leaf_vector":"0"}},{"base_weights":[-1.2306922E-1,-3.3252856E-1,7.610946E-2,-2.3324168E-1,-5.894839E-1,2.3358652E-1,-1.6486181E-1],"categories":[],"categories_nodes":[],"categories_segments":[],"categories_sizes":[],"default_left":[1,1,1,0,0,0,0],"id":18,"left_children":[1,3,5,-1,-1,-1,-1],"loss_changes":[2.4127847E2,7.17764E1,1.1254903E2,0E0,0E0,0E0,0E0],"parents":[2147483647,0,0,1,1,2,2],"right_children":[2,4,6,-1,-1,-1,-1],"split_conditions":[1.45E1,1.95E1,1.75E1,-2.3324168E-3,-5.894839E-3,2.335865E-3,-1.6486181E-3],"split_indices":[51,80,81,0,0,0,0],"split_type":[0,0,0,0,0,0,0],"sum_hessian":[5.7816963E3,2.8177927E3,2.9639038E3,2.0338326E3,7.8396014E2,1.792511E3,1.1713927E3],"tree_param":{"num_deleted":"0","num_feature":"106","num_nodes":"7","size_leaf_vector":"0"}},{"base_weights":[1.230692E-1,3.3252856E-1,-7.61095E-2,2.3324165E-1,5.894839E-1,-2.3358656E-1,1.6486178E-1],"categories":[],"categories_nodes":[],"categories_segments":[],"categories_sizes":[],"default_left":[1,1,1,0,0,0,0],"id":19,"left_children":[1,3,5,-1,-1,-1,-1],"loss_changes":[2.412785E2,7.177637E1,1.1254904E2,0E0,0E0,0E0,0E0],"parents":[2147483647,0,0,1,1,2,2],"right_children":[2,4,6,-1,-1,-1,-1],"split_conditions":[1.45E1,1.95E1,1.75E1,2.3324164E-3,5.894839E-3,-2.3358655E-3,1.6486178E-3],"split_indices":[51,80,81,0,0,0,0],"split_type":[0,0,0,0,0,0,0],"sum_hessian":[5.7816963E3,2.8177927E3,2.9639036E3,2.0338326E3,7.8396014E2,1.7925109E3,1.1713926E3],"tree_param":{"num_deleted":"0","num_feature":"106","num_nodes":"7","size_leaf_vector":"0"}},{"base_weights":[-1.2185904E-1,-3.2928836E-1,7.535381E-2,-4.083304E-1,-1.01141585E-2,-9.354283E-2,2.9624584E-1],"categories":[],"categories_nodes":[],"categories_segments":[],"categories_sizes":[],"default_left":[1,1,1,0,0,0,0],"id":20,"left_children":[1,3,5,-1,-1,-1,-1],"loss_changes":[2.36545E2,7.109125E1,1.10634575E2,0E0,0E0,0E0,0E0],"parents":[2147483647,0,0,1,1,2,2],"right_children":[2,4,6,-1,-1,-1,-1],"split_conditions":[1.45E1,5.05E0,5.445E-1,-4.083304E-3,-1.0114158E-4,-9.3542825E-4,2.9624584E-3],"split_indices":[51,77,55,0,0,0,0],"split_type":[0,0,0,0,0,0,0],"sum_hessian":[5.7807964E3,2.8170942E3,2.963702E3,2.2577046E3,5.593897E2,1.6798474E3,1.2838544E3],"tree_param":{"num_deleted":"0","num_feature":"106","num_nodes":"7","size_leaf_vector":"0"}},{"base_weights":[1.2185905E-1,3.2928833E-1,-7.535376E-2,4.0833038E-1,1.011413E-2,9.354292E-2,-2.9624584E-1],"categories":[],"categories_nodes":[],"categories_segments":[],"categories_sizes":[],"default_left":[1,1,1,0,0,0,0],"id":21,"left_children":[1,3,5,-1,-1,-1,-1],"loss_changes":[2.3654488E2,7.109125E1,1.1063463E2,0E0,0E0,0E0,0E0],"parents":[2147483647,0,0,1,1,2,2],"right_children":[2,4,6,-1,-1,-1,-1],"split_conditions":[1.45E1,5.05E0,5.445E-1,4.0833037E-3,1.011413E-4,9.354292E-4,-2.9624584E-3],"split_indices":[51,77,55,0,0,0,0],"split_type":[0,0,0,0,0,0,0],"sum_hessian":[5.780796E3,2.8170942E3,2.9637017E3,2.2577046E3,5.5938965E2,1.6798473E3,1.2838544E3],"tree_param":{"num_deleted":"0","num_feature":"106","num_nodes":"7","size_leaf_vector":"0"}},{"base_weights":[-1.20662786E-1,-3.2608712E-1,7.460779E-2,-2.2800368E-1,-5.8009243E-1,2.2944856E-1,-1.6228923E-1],"categories":[],"categories_nodes":[],"categories_segments":[],"categories_sizes":[],"default_left":[1,1,1,0,0,0,0],"id":22,"left_children":[1,3,5,-1,-1,-1,-1],"loss_changes":[2.3190964E2,7.005762E1,1.08776596E2,0E0,0E0,0E0,0E0],"parents":[2147483647,0,0,1,1,2,2],"right_children":[2,4,6,-1,-1,-1,-1],"split_conditions":[1.45E1,1.95E1,1.75E1,-2.2800367E-3,-5.8009243E-3,2.2944855E-3,-1.6228923E-3],"split_indices":[51,80,81,0,0,0,0],"split_type":[0,0,0,0,0,0,0],"sum_hessian":[5.7797544E3,2.81632E3,2.9634343E3,2.0331301E3,7.8319E2,1.7921074E3,1.1713268E3],"tree_param":{"num_deleted":"0","num_feature":"106","num_nodes":"7","size_leaf_vector":"0"}},{"base_weights":[1.206628E-1,3.260871E-1,-7.460773E-2,2.2800365E-1,5.800924E-1,-2.2944845E-1,1.6228923E-1],"categories":[],"categories_nodes":[],"categories_segments":[],"categories_sizes":[],"default_left":[1,1,1,0,0,0,0],"id":23,"left_children":[1,3,5,-1,-1,-1,-1],"loss_changes":[2.3190952E2,7.005768E1,1.0877654E2,0E0,0E0,0E0,0E0],"parents":[2147483647,0,0,1,1,2,2],"right_children":[2,4,6,-1,-1,-1,-1],"split_conditions":[1.45E1,1.95E1,1.75E1,2.2800365E-3,5.800924E-3,-2.2944845E-3,1.6228923E-3],"split_indices":[51,80,81,0,0,0,0],"split_type":[0,0,0,0,0,0,0],"sum_hessian":[5.7797544E3,2.81632E3,2.9634343E3,2.0331301E3,7.8318994E2,1.7921074E3,1.1713268E3],"tree_param":{"num_deleted":"0","num_feature":"106","num_nodes":"7","size_leaf_vector":"0"}},{"base_weights":[-1.1947976E-1,-3.229242E-1,7.386803E-2,-4.010279E-1,-7.737871E-3,-9.2175126E-2,2.9109314E-1],"categories":[],"categories_nodes":[],"categories_segments":[],"categories_sizes":[],"default_left":[1,1,1,0,0,0,0],"id":24,"left_children":[1,3,5,-1,-1,-1,-1],"loss_changes":[2.2737096E2,6.933118E1,1.069415E2,0E0,0E0,0E0,0E0],"parents":[2147483647,0,0,1,1,2,2],"right_children":[2,4,6,-1,-1,-1,-1],"split_conditions":[1.45E1,5.05E0,5.445E-1,-4.0102787E-3,-7.73787E-5,-9.2175126E-4,2.9109314E-3],"split_indices":[51,77,55,0,0,0,0],"split_type":[0,0,0,0,0,0,0],"sum_hessian":[5.778688E3,2.8154958E3,2.963192E3,2.2561467E3,5.593492E2,1.6797759E3,1.2834161E3],"tree_param":{"num_deleted":"0","num_feature":"106","num_nodes":"7","size_leaf_vector":"0"}},{"base_weights":[1.1947977E-1,3.2292423E-1,-7.386803E-2,4.0102792E-1,7.73787E-3,9.2175126E-2,-2.9109314E-1],"categories":[],"categories_nodes":[],"categories_segments":[],"categories_sizes":[],"default_left":[1,1,1,0,0,0,0],"id":25,"left_children":[1,3,5,-1,-1,-1,-1],"loss_changes":[2.2737094E2,6.933121E1,1.069415E2,0E0,0E0,0E0,0E0],"parents":[2147483647,0,0,1,1,2,2],"right_children":[2,4,6,-1,-1,-1,-1],"split_conditions":[1.45E1,5.05E0,5.445E-1,4.010279E-3,7.7378696E-5,9.2175126E-4,-2.9109314E-3],"split_indices":[51,77,55,0,0,0,0],"split_type":[0,0,0,0,0,0,0],"sum_hessian":[5.778688E3,2.815496E3,2.963192E3,2.2561467E3,5.593492E2,1.6797759E3,1.2834161E3],"tree_param":{"num_deleted":"0","num_feature":"106","num_nodes":"7","size_leaf_vector":"0"}},{"base_weights":[-1.1831019E-1,-3.197988E-1,7.313768E-2,-1.6034855E-1,-4.7286648E-1,2.2539239E-1,-1.5975769E-1],"categories":[],"categories_nodes":[],"categories_segments":[],"categories_sizes":[],"default_left":[1,1,1,0,0,0,0],"id":26,"left_children":[1,3,5,-1,-1,-1,-1],"loss_changes":[2.2292596E2,6.864365E1,1.0513366E2,0E0,0E0,0E0,0E0],"parents":[2147483647,0,0,1,1,2,2],"right_children":[2,4,6,-1,-1,-1,-1],"split_conditions":[1.45E1,1.25E1,1.75E1,-1.6034854E-3,-4.7286646E-3,2.2539238E-3,-1.5975769E-3],"split_indices":[51,79,81,0,0,0,0],"split_type":[0,0,0,0,0,0,0],"sum_hessian":[5.777486E3,2.8146E3,2.9628857E3,1.3795615E3,1.4350385E3,1.791639E3,1.1712468E3],"tree_param":{"num_deleted":"0","num_feature":"106","num_nodes":"7","size_leaf_vector":"0"}},{"base_weights":[1.1831019E-1,3.1979877E-1,-7.313766E-2,1.6034853E-1,4.7286648E-1,-2.253924E-1,1.5975778E-1],"categories":[],"categories_nodes":[],"categories_segments":[],"categories_sizes":[],"default_left":[1,1,1,0,0,0,0],"id":27,"left_children":[1,3,5,-1,-1,-1,-1],"loss_changes":[2.2292593E2,6.8643616E1,1.0513373E2,0E0,0E0,0E0,0E0],"parents":[2147483647,0,0,1,1,2,2],"right_children":[2,4,6,-1,-1,-1,-1],"split_conditions":[1.45E1,1.25E1,1.75E1,1.6034853E-3,4.7286646E-3,-2.253924E-3,1.5975777E-3],"split_indices":[51,79,81,0,0,0,0],"split_type":[0,0,0,0,0,0,0],"sum_hessian":[5.777486E3,2.8146E3,2.9628857E3,1.3795615E3,1.4350385E3,1.791639E3,1.1712467E3],"tree_param":{"num_deleted":"0","num_feature":"106","num_nodes":"7","size_leaf_vector":"0"}},{"base_weights":[-1.1715351E-1,-3.167117E-1,7.2413474E-2,-2.2033116E-1,-5.665998E-1,-9.0827316E-2,2.860446E-1],"categories":[],"categories_nodes":[],"categories_segments":[],"categories_sizes":[],"default_left":[1,1,1,0,0,0,0],"id":28,"left_children":[1,3,5,-1,-1,-1,-1],"loss_changes":[2.1857408E2,6.766394E1,1.0337671E2,0E0,0E0,0E0,0E0],"parents":[2147483647,0,0,1,1,2,2],"right_children":[2,4,6,-1,-1,-1,-1],"split_conditions":[1.45E1,1.95E1,5.445E-1,-2.2033115E-3,-5.6659975E-3,-9.0827316E-4,2.860446E-3],"split_indices":[51,80,55,0,0,0,0],"split_type":[0,0,0,0,0,0,0],"sum_hessian":[5.7762456E3,2.8136404E3,2.9626052E3,2.0318486E3,7.8179175E2,1.6796887E3,1.2829165E3],"tree_param":{"num_deleted":"0","num_feature":"106","num_nodes":"7","size_leaf_vector":"0"}},{"base_weights":[1.1715352E-1,3.167117E-1,-7.241345E-2,2.2033118E-1,5.665997E-1,9.0827286E-2,-2.860445E-1],"categories":[],"categories_nodes":[],"categories_segments":[],"categories_sizes":[],"default_left":[1,1,1,0,0,0,0],"id":29,"left_children":[1,3,5,-1,-1,-1,-1],"loss_changes":[2.1857404E2,6.766394E1,1.0337665E2,0E0,0E0,0E0,0E0],"parents":[2147483647,0,0,1,1,2,2],"right_children":[2,4,6,-1,-1,-1,-1],"split_conditions":[1.45E1,1.95E1,5.445E-1,2.2033118E-3,5.665997E-3,9.0827286E-4,-2.860445E-3],"split_indices":[51,80,55,0,0,0,0],"split_type":[0,0,0,0,0,0,0],"sum_hessian":[5.7762456E3,2.8136404E3,2.9626052E3,2.0318486E3,7.817917E2,1.6796886E3,1.2829165E3],"tree_param":{"num_deleted":"0","num_feature":"106","num_nodes":"7","size_leaf_vector":"0"}},{"base_weights":[-1.16010256E-1,-3.1365934E-1,7.1698375E-2,-3.9052173E-1,-3.825259E-3,2.2004542E-1,-1.598635E-1],"categories":[],"categories_nodes":[],"categories_segments":[],"categories_sizes":[],"default_left":[1,1,1,0,0,0,0],"id":30,"left_children":[1,3,5,-1,-1,-1,-1],"loss_changes":[2.1431113E2,6.700427E1,1.0182775E2,0E0,0E0,0E0,0E0],"parents":[2147483647,0,0,1,1,2,2],"right_children":[2,4,6,-1,-1,-1,-1],"split_conditions":[1.45E1,5.05E0,1.65E1,-3.9052172E-3,-3.8252587E-5,2.2004542E-3,-1.598635E-3],"split_indices":[51,77,80,0,0,0,0],"split_type":[0,0,0,0,0,0,0],"sum_hessian":[5.7749053E3,2.8126428E3,2.9622625E3,2.2533743E3,5.592684E2,1.8055869E3,1.1566755E3],"tree_param":{"num_deleted":"0","num_feature":"106","num_nodes":"7","size_leaf_vector":"0"}},{"base_weights":[1.16010204E-1,3.1365934E-1,-7.169844E-2,3.905217E-1,3.8252294E-3,-2.2004548E-1,1.5986341E-1],"categories":[],"categories_nodes":[],"categories_segments":[],"categories_sizes":[],"default_left":[1,1,1,0,0,0,0],"id":31,"left_children":[1,3,5,-1,-1,-1,-1],"loss_changes":[2.1431119E2,6.700427E1,1.0182773E2,0E0,0E0,0E0,0E0],"parents":[2147483647,0,0,1,1,2,2],"right_children":[2,4,6,-1,-1,-1,-1],"split_conditions":[1.45E1,5.05E0,1.65E1,3.905217E-3,3.8252292E-5,-2.2004547E-3,1.5986341E-3],"split_indices":[51,77,80,0,0,0,0],"split_type":[0,0,0,0,0,0,0],"sum_hessian":[5.7749053E3,2.8126428E3,2.9622627E3,2.2533743E3,5.592684E2,1.8055869E3,1.1566757E3],"tree_param":{"num_deleted":"0","num_feature":"106","num_nodes":"7","size_leaf_vector":"0"}},{"base_weights":[-1.1487828E-1,-3.1064224E-1,7.098905E-2,-2.153929E-1,-5.578304E-1,-8.950918E-2,2.8111035E-1],"categories":[],"categories_nodes":[],"categories_segments":[],"categories_sizes":[],"default_left":[1,1,1,0,0,0,0],"id":32,"left_children":[1,3,5,-1,-1,-1,-1],"loss_changes":[2.1013503E2,6.610062E1,9.9948166E1,0E0,0E0,0E0,0E0],"parents":[2147483647,0,0,1,1,2,2],"right_children":[2,4,6,-1,-1,-1,-1],"split_conditions":[1.45E1,1.95E1,5.445E-1,-2.153929E-3,-5.5783037E-3,-8.950918E-4,2.8111034E-3],"split_indices":[51,80,55,0,0,0,0],"split_type":[0,0,0,0,0,0,0],"sum_hessian":[5.7735356E3,2.8115798E3,2.9619556E3,2.030887E3,7.80693E2,1.6795946E3,1.282361E3],"tree_param":{"num_deleted":"0","num_feature":"106","num_nodes":"7","size_leaf_vector":"0"}},{"base_weights":[1.14878245E-1,3.1064218E-1,-7.098909E-2,2.1539287E-1,5.5783033E-1,8.950912E-2,-2.8111035E-1],"categories":[],"categories_nodes":[],"categories_segments":[],"categories_sizes":[],"default_left":[1,1,1,0,0,0,0],"id":33,"left_children":[1,3,5,-1,-1,-1,-1],"loss_changes":[2.1013504E2,6.6100586E1,9.9948135E1,0E0,0E0,0E0,0E0],"parents":[2147483647,0,0,1,1,2,2],"right_children":[2,4,6,-1,-1,-1,-1],"split_conditions":[1.45E1,1.95E1,5.445E-1,2.1539286E-3,5.5783032E-3,8.950912E-4,-2.8111034E-3],"split_indices":[51,80,55,0,0,0,0],"split_type":[0,0,0,0,0,0,0],"sum_hessian":[5.7735356E3,2.81158E3,2.9619556E3,2.0308871E3,7.80693E2,1.6795946E3,1.282361E3],"tree_param":{"num_deleted":"0","num_feature":"106","num_nodes":"7","size_leaf_vector":"0"}},{"base_weights":[-1.1376002E-1,-3.0766022E-1,7.028889E-2,-4.0328804E-1,-6.403826E-2,2.1618E-1,-1.5738581E-1],"categories":[],"categories_nodes":[],"categories_segments":[],"categories_sizes":[],"default_left":[1,1,1,0,0,0,0],"id":34,"left_children":[1,3,5,-1,-1,-1,-1],"loss_changes":[2.0604532E2,6.5473206E1,9.8438194E1,0E0,0E0,0E0,0E0],"parents":[2147483647,0,0,1,1,2,2],"right_children":[2,4,6,-1,-1,-1,-1],"split_conditions":[1.45E1,3.75E0,1.65E1,-4.03288E-3,-6.403826E-4,2.1618E-3,-1.5738581E-3],"split_indices":[51,77,80,0,0,0,0],"split_type":[0,0,0,0,0,0,0],"sum_hessian":[5.7720537E3,2.810475E3,2.9615789E3,2.0177871E3,7.9268805E2,1.8050048E3,1.156574E3],"tree_param":{"num_deleted":"0","num_feature":"106","num_nodes":"7","size_leaf_vector":"0"}},{"base_weights":[1.1376003E-1,3.0766025E-1,-7.028889E-2,4.032881E-1,6.4038195E-2,-2.1618001E-1,1.5738584E-1],"categories":[],"categories_nodes":[],"categories_segments":[],"categories_sizes":[],"default_left":[1,1,1,0,0,0,0],"id":35,"left_children":[1,3,5,-1,-1,-1,-1],"loss_changes":[2.0604532E2,6.5473236E1,9.84382E1,0E0,0E0,0E0,0E0],"parents":[2147483647,0,0,1,1,2,2],"right_children":[2,4,6,-1,-1,-1,-1],"split_conditions":[1.45E1,3.75E0,1.65E1,4.032881E-3,6.4038194E-4,-2.1618002E-3,1.5738583E-3],"split_indices":[51,77,80,0,0,0,0],"split_type":[0,0,0,0,0,0,0],"sum_hessian":[5.772054E3,2.8104753E3,2.9615789E3,2.0177871E3,7.926881E2,1.8050049E3,1.1565741E3],"tree_param":{"num_deleted":"0","num_feature":"106","num_nodes":"7","size_leaf_vector":"0"}},{"base_weights":[-1.1265287E-1,-3.0471236E-1,6.9594294E-2,-1.5004204E-1,-4.535038E-1,2.1566434E-1,-1.537158E-1],"categories":[],"categories_nodes":[],"categories_segments":[],"categories_sizes":[],"default_left":[1,1,1,0,0,0,0],"id":36,"left_children":[1,3,5,-1,-1,-1,-1],"loss_changes":[2.0203864E2,6.460736E1,9.665814E1,0E0,0E0,0E0,0E0],"parents":[2147483647,0,0,1,1,2,2],"right_children":[2,4,6,-1,-1,-1,-1],"split_conditions":[1.45E1,1.25E1,1.75E1,-1.5004204E-3,-4.5350376E-3,2.1566434E-3,-1.537158E-3],"split_indices":[51,79,81,0,0,0,0],"split_type":[0,0,0,0,0,0,0],"sum_hessian":[5.770548E3,2.8093103E3,2.9612378E3,1.3784277E3,1.4308824E3,1.7902477E3,1.17099E3],"tree_param":{"num_deleted":"0","num_feature":"106","num_nodes":"7","size_leaf_vector":"0"}},{"base_weights":[1.12652816E-1,3.0471233E-1,-6.959437E-2,1.5004204E-1,4.535037E-1,-2.1566443E-1,1.5371579E-1],"categories":[],"categories_nodes":[],"categories_segments":[],"categories_sizes":[],"default_left":[1,1,1,0,0,0,0],"id":37,"left_children":[1,3,5,-1,-1,-1,-1],"loss_changes":[2.0203868E2,6.460733E1,9.6658165E1,0E0,0E0,0E0,0E0],"parents":[2147483647,0,0,1,1,2,2],"right_children":[2,4,6,-1,-1,-1,-1],"split_conditions":[1.45E1,1.25E1,1.75E1,1.5004204E-3,4.535037E-3,-2.1566444E-3,1.5371578E-3],"split_indices":[51,79,81,0,0,0,0],"split_type":[0,0,0,0,0,0,0],"sum_hessian":[5.770548E3,2.8093103E3,2.9612378E3,1.3784277E3,1.4308824E3,1.7902477E3,1.17099E3],"tree_param":{"num_deleted":"0","num_feature":"106","num_nodes":"7","size_leaf_vector":"0"}},{"base_weights":[-1.1155837E-1,-3.0179965E-1,6.8907194E-2,-2.0822597E-1,-5.4503536E-1,-8.779572E-2,2.7417964E-1],"categories":[],"categories_nodes":[],"categories_segments":[],"categories_sizes":[],"default_left":[1,1,1,0,0,0,0],"id":38,"left_children":[1,3,5,-1,-1,-1,-1],"loss_changes":[1.9811499E2,6.3822617E1,9.5297966E1,0E0,0E0,0E0,0E0],"parents":[2147483647,0,0,1,1,2,2],"right_children":[2,4,6,-1,-1,-1,-1],"split_conditions":[1.45E1,1.95E1,5.445E-1,-2.0822596E-3,-5.4503535E-3,-8.7795715E-4,2.7417962E-3],"split_indices":[51,80,55,0,0,0,0],"split_type":[0,0,0,0,0,0,0],"sum_hessian":[5.768958E3,2.8080867E3,2.9608713E3,2.0292737E3,7.78813E2,1.6794037E3,1.2814675E3],"tree_param":{"num_deleted":"0","num_feature":"106","num_nodes":"7","size_leaf_vector":"0"}},{"base_weights":[1.1155839E-1,3.0179965E-1,-6.890715E-2,2.0822597E-1,5.4503536E-1,8.7795794E-2,-2.7417964E-1],"categories":[],"categories_nodes":[],"categories_segments":[],"categories_sizes":[],"default_left":[1,1,1,0,0,0,0],"id":39,"left_children":[1,3,5,-1,-1,-1,-1],"loss_changes":[1.9811496E2,6.3822617E1,9.5298004E1,0E0,0E0,0E0,0E0],"parents":[2147483647,0,0,1,1,2,2],"right_children":[2,4,6,-1,-1,-1,-1],"split_conditions":[1.45E1,1.95E1,5.445E-1,2.0822596E-3,5.4503535E-3,8.779579E-4,-2.7417962E-3],"split_indices":[51,80,55,0,0,0,0],"split_type":[0,0,0,0,0,0,0],"sum_hessian":[5.768958E3,2.8080867E3,2.9608713E3,2.0292737E3,7.78813E2,1.6794037E3,1.2814675E3],"tree_param":{"num_deleted":"0","num_feature":"106","num_nodes":"7","size_leaf_vector":"0"}},{"base_weights":[-1.1047622E-1,-2.989186E-1,6.822864E-2,-3.7388906E-1,2.6136166E-3,1.801365E-1,-2.1600822E-1],"categories":[],"categories_nodes":[],"categories_segments":[],"categories_sizes":[],"default_left":[1,1,1,0,0,0,0],"id":40,"left_children":[1,3,5,-1,-1,-1,-1],"loss_changes":[1.942706E2,6.3474854E1,9.42377E1,0E0,0E0,0E0,0E0],"parents":[2147483647,0,0,1,1,2,2],"right_children":[2,4,6,-1,-1,-1,-1],"split_conditions":[1.45E1,5.05E0,2.15E1,-3.7388904E-3,2.6136166E-5,1.8013649E-3,-2.160082E-3],"split_indices":[51,77,103,0,0,0,0],"split_type":[0,0,0,0,0,0,0],"sum_hessian":[5.7672827E3,2.8068335E3,2.960449E3,2.2477354E3,5.5909814E2,2.1244075E3,8.3604156E2],"tree_param":{"num_deleted":"0","num_feature":"106","num_nodes":"7","size_leaf_vector":"0"}},{"base_weights":[1.104762E-1,2.989186E-1,-6.822867E-2,3.738891E-1,-2.613646E-3,-1.8013652E-1,2.1600813E-1],"categories":[],"categories_nodes":[],"categories_segments":[],"categories_sizes":[],"default_left":[1,1,1,0,0,0,0],"id":41,"left_children":[1,3,5,-1,-1,-1,-1],"loss_changes":[1.9427066E2,6.347487E1,9.4237656E1,0E0,0E0,0E0,0E0],"parents":[2147483647,0,0,1,1,2,2],"right_children":[2,4,6,-1,-1,-1,-1],"split_conditions":[1.45E1,5.05E0,2.15E1,3.7388909E-3,-2.6136458E-5,-1.8013652E-3,2.1600812E-3],"split_indices":[51,77,103,0,0,0,0],"split_type":[0,0,0,0,0,0,0],"sum_hessian":[5.7672827E3,2.8068333E3,2.9604492E3,2.2477354E3,5.5909814E2,2.1244075E3,8.3604156E2],"tree_param":{"num_deleted":"0","num_feature":"106","num_nodes":"7","size_leaf_vector":"0"}},{"base_weights":[-1.0940326E-1,-2.960693E-1,6.7553364E-2,-2.0356394E-1,-5.368191E-1,-1.7419249E-1,1.9674972E-1],"categories":[],"categories_nodes":[],"categories_segments":[],"categories_sizes":[],"default_left":[1,1,1,0,0,0,0],"id":42,"left_children":[1,3,5,-1,-1,-1,-1],"loss_changes":[1.905033E2,6.239389E1,9.251852E1,0E0,0E0,0E0,0E0],"parents":[2147483647,0,0,1,1,2,2],"right_children":[2,4,6,-1,-1,-1,-1],"split_conditions":[1.45E1,1.95E1,-1.55E0,-2.0356395E-3,-5.368191E-3,-1.7419248E-3,1.9674972E-3],"split_indices":[51,80,77,0,0,0,0],"split_type":[0,0,0,0,0,0,0],"sum_hessian":[5.765665E3,2.8055278E3,2.9601372E3,2.0280995E3,7.774284E2,1.030872E3,1.9292651E3],"tree_param":{"num_deleted":"0","num_feature":"106","num_nodes":"7","size_leaf_vector":"0"}},{"base_weights":[1.0940324E-1,2.9606926E-1,-6.7553386E-2,2.0356393E-1,5.3681904E-1,1.7419253E-1,-1.9674976E-1],"categories":[],"categories_nodes":[],"categories_segments":[],"categories_sizes":[],"default_left":[1,1,1,0,0,0,0],"id":43,"left_children":[1,3,5,-1,-1,-1,-1],"loss_changes":[1.9050327E2,6.239389E1,9.251857E1,0E0,0E0,0E0,0E0],"parents":[2147483647,0,0,1,1,2,2],"right_children":[2,4,6,-1,-1,-1,-1],"split_conditions":[1.45E1,1.95E1,-1.55E0,2.0356392E-3,5.3681904E-3,1.7419253E-3,-1.9674976E-3],"split_indices":[51,80,77,0,0,0,0],"split_type":[0,0,0,0,0,0,0],"sum_hessian":[5.765665E3,2.8055278E3,2.9601372E3,2.0280995E3,7.774284E2,1.030872E3,1.9292653E3],"tree_param":{"num_deleted":"0","num_feature":"106","num_nodes":"7","size_leaf_vector":"0"}},{"base_weights":[-1.08342834E-1,-2.9325265E-1,6.6886045E-2,-3.6739114E-1,4.619949E-3,-8.650576E-2,2.6794484E-1],"categories":[],"categories_nodes":[],"categories_segments":[],"categories_sizes":[],"default_left":[1,1,1,0,0,0,0],"id":44,"left_children":[1,3,5,-1,-1,-1,-1],"loss_changes":[1.8681335E2,6.1950912E1,9.133595E1,0E0,0E0,0E0,0E0],"parents":[2147483647,0,0,1,1,2,2],"right_children":[2,4,6,-1,-1,-1,-1],"split_conditions":[1.45E1,5.05E0,5.445E-1,-3.6739113E-3,4.619949E-5,-8.6505763E-4,2.6794483E-3],"split_indices":[51,77,55,0,0,0,0],"split_type":[0,0,0,0,0,0,0],"sum_hessian":[5.763965E3,2.8041838E3,2.9597812E3,2.245148E3,5.5903577E2,1.6792314E3,1.2805498E3],"tree_param":{"num_deleted":"0","num_feature":"106","num_nodes":"7","size_leaf_vector":"0"}},{"base_weights":[1.08342856E-1,2.9325268E-1,-6.688602E-2,3.673912E-1,-4.619948E-3,8.65058E-2,-2.6794484E-1],"categories":[],"categories_nodes":[],"categories_segments":[],"categories_sizes":[],"default_left":[1,1,1,0,0,0,0],"id":45,"left_children":[1,3,5,-1,-1,-1,-1],"loss_changes":[1.8681332E2,6.1950943E1,9.1335976E1,0E0,0E0,0E0,0E0],"parents":[2147483647,0,0,1,1,2,2],"right_children":[2,4,6,-1,-1,-1,-1],"split_conditions":[1.45E1,5.05E0,5.445E-1,3.6739118E-3,-4.619948E-5,8.65058E-4,-2.6794483E-3],"split_indices":[51,77,55,0,0,0,0],"split_type":[0,0,0,0,0,0,0],"sum_hessian":[5.763965E3,2.8041838E3,2.9597812E3,2.245148E3,5.5903577E2,1.6792314E3,1.2805498E3],"tree_param":{"num_deleted":"0","num_feature":"106","num_nodes":"7","size_leaf_vector":"0"}},{"base_weights":[-1.0729459E-1,-2.9046664E-1,6.622827E-2,-1.4575428E-1,-4.4135106E-1,1.7554554E-1,-2.1136884E-1],"categories":[],"categories_nodes":[],"categories_segments":[],"categories_sizes":[],"default_left":[1,1,1,0,0,0,0],"id":46,"left_children":[1,3,5,-1,-1,-1,-1],"loss_changes":[1.8319708E2,6.115602E1,8.987149E1,0E0,0E0,0E0,0E0],"parents":[2147483647,0,0,1,1,2,2],"right_children":[2,4,6,-1,-1,-1,-1],"split_conditions":[1.45E1,1.25E1,2.15E1,-1.4575428E-3,-4.4135107E-3,1.7554554E-3,-2.1136885E-3],"split_indices":[51,80,103,0,0,0,0],"split_type":[0,0,0,0,0,0,0],"sum_hessian":[5.7621113E3,2.8027905E3,2.959321E3,1.4316598E3,1.3711306E3,2.1234697E3,8.358512E2],"tree_param":{"num_deleted":"0","num_feature":"106","num_nodes":"7","size_leaf_vector":"0"}},{"base_weights":[1.0729457E-1,2.9046658E-1,-6.6228256E-2,1.4575425E-1,4.4135097E-1,-1.7554554E-1,2.1136887E-1],"categories":[],"categories_nodes":[],"categories_segments":[],"categories_sizes":[],"default_left":[1,1,1,0,0,0,0],"id":47,"left_children":[1,3,5,-1,-1,-1,-1],"loss_changes":[1.83197E2,6.115599E1,8.98715E1,0E0,0E0,0E0,0E0],"parents":[2147483647,0,0,1,1,2,2],"right_children":[2,4,6,-1,-1,-1,-1],"split_conditions":[1.45E1,1.25E1,2.15E1,1.4575424E-3,4.4135097E-3,-1.7554554E-3,2.1136887E-3],"split_indices":[51,80,103,0,0,0,0],"split_type":[0,0,0,0,0,0,0],"sum_hessian":[5.762112E3,2.8027905E3,2.959321E3,1.4316598E3,1.3711306E3,2.1234697E3,8.3585126E2],"tree_param":{"num_deleted":"0","num_feature":"106","num_nodes":"7","size_leaf_vector":"0"}},{"base_weights":[-1.0625639E-1,-2.8771332E-1,6.557375E-2,-1.9674821E-1,-5.2492166E-1,-8.549799E-2,2.636835E-1],"categories":[],"categories_nodes":[],"categories_segments":[],"categories_sizes":[],"default_left":[1,1,1,0,0,0,0],"id":48,"left_children":[1,3,5,-1,-1,-1,-1],"loss_changes":[1.7965524E2,6.0364822E1,8.8610725E1,0E0,0E0,0E0,0E0],"parents":[2147483647,0,0,1,1,2,2],"right_children":[2,4,6,-1,-1,-1,-1],"split_conditions":[1.45E1,1.95E1,5.445E-1,-1.967482E-3,-5.249216E-3,-8.549799E-4,2.636835E-3],"split_indices":[51,80,55,0,0,0,0],"split_type":[0,0,0,0,0,0,0],"sum_hessian":[5.7603115E3,2.8013457E3,2.9589658E3,2.0261741E3,7.7517175E2,1.6791055E3,1.2798602E3],"tree_param":{"num_deleted":"0","num_feature":"106","num_nodes":"7","size_leaf_vector":"0"}},{"base_weights":[1.06256366E-1,2.8771332E-1,-6.557378E-2,1.9674821E-1,5.2492166E-1,8.549802E-2,-2.636836E-1],"categories":[],"categories_nodes":[],"categories_segments":[],"categories_sizes":[],"default_left":[1,1,1,0,0,0,0],"id":49,"left_children":[1,3,5,-1,-1,-1,-1],"loss_changes":[1.7965524E2,6.0364883E1,8.861079E1,0E0,0E0,0E0,0E0],"parents":[2147483647,0,0,1,1,2,2],"right_children":[2,4,6,-1,-1,-1,-1],"split_conditions":[1.45E1,1.95E1,5.445E-1,1.967482E-3,5.249216E-3,8.549802E-4,-2.636836E-3],"split_indices":[51,80,55,0,0,0,0],"split_type":[0,0,0,0,0,0,0],"sum_hessian":[5.7603115E3,2.801346E3,2.9589658E3,2.0261741E3,7.7517175E2,1.6791056E3,1.2798604E3],"tree_param":{"num_deleted":"0","num_feature":"106","num_nodes":"7","size_leaf_vector":"0"}},{"base_weights":[-1.0523087E-1,-2.2398078E-1,1.5316153E-1,-5.731515E-2,-3.8137296E-1,2.522322E-1,-1.048291E-1],"categories":[],"categories_nodes":[],"categories_segments":[],"categories_sizes":[],"default_left":[1,1,1,0,0,0,0],"id":50,"left_children":[1,3,5,-1,-1,-1,-1],"loss_changes":[1.7675485E2,1.0349768E2,4.6391773E1,0E0,0E0,0E0,0E0],"parents":[2147483647,0,0,1,1,2,2],"right_children":[2,4,6,-1,-1,-1,-1],"split_conditions":[2.05E1,1.25E1,2.15E1,-5.7315145E-4,-3.8137294E-3,2.522322E-3,-1.048291E-3],"split_indices":[51,79,103,0,0,0,0],"split_type":[0,0,0,0,0,0,0],"sum_hessian":[5.7583574E3,3.9453284E3,1.8130293E3,1.9168757E3,2.0284526E3,1.31E3,5.0302927E2],"tree_param":{"num_deleted":"0","num_feature":"106","num_nodes":"7","size_leaf_vector":"0"}},{"base_weights":[1.0523085E-1,2.2398077E-1,-1.5316156E-1,5.7315122E-2,3.8137296E-1,-2.5223225E-1,1.04829095E-1],"categories":[],"categories_nodes":[],"categories_segments":[],"categories_sizes":[],"default_left":[1,1,1,0,0,0,0],"id":51,"left_children":[1,3,5,-1,-1,-1,-1],"loss_changes":[1.7675488E2,1.0349773E2,4.6391785E1,0E0,0E0,0E0,0E0],"parents":[2147483647,0,0,1,1,2,2],"right_children":[2,4,6,-1,-1,-1,-1],"split_conditions":[2.05E1,1.25E1,2.15E1,5.731512E-4,3.8137294E-3,-2.5223226E-3,1.048291E-3],"split_indices":[51,79,103,0,0,0,0],"split_type":[0,0,0,0,0,0,0],"sum_hessian":[5.7583574E3,3.9453281E3,1.8130293E3,1.9168757E3,2.0284525E3,1.31E3,5.0302927E2],"tree_param":{"num_deleted":"0","num_feature":"106","num_nodes":"7","size_leaf_vector":"0"}},{"base_weights":[-1.0420819E-1,-2.8289732E-1,6.488286E-2,-3.5561416E-1,8.622517E-3,2.015037E-1,-1.4809541E-1],"categories":[],"categories_nodes":[],"categories_segments":[],"categories_sizes":[],"default_left":[1,1,1,0,0,0,0],"id":52,"left_children":[1,3,5,-1,-1,-1,-1],"loss_changes":[1.7398775E2,5.935051E1,8.6132996E1,0E0,0E0,0E0,0E0],"parents":[2147483647,0,0,1,1,2,2],"right_children":[2,4,6,-1,-1,-1,-1],"split_conditions":[1.45E1,5.05E0,1.65E1,-3.5561414E-3,8.622517E-5,2.015037E-3,-1.4809541E-3],"split_indices":[51,77,80,0,0,0,0],"split_type":[0,0,0,0,0,0,0],"sum_hessian":[5.7567666E3,2.7986182E3,2.9581487E3,2.2397212E3,5.5889685E2,1.8021581E3,1.1559906E3],"tree_param":{"num_deleted":"0","num_feature":"106","num_nodes":"7","size_leaf_vector":"0"}},{"base_weights":[1.0420822E-1,2.8289732E-1,-6.48828E-2,3.5561413E-1,-8.6223995E-3,-2.0150365E-1,1.4809549E-1],"categories":[],"categories_nodes":[],"categories_segments":[],"categories_sizes":[],"default_left":[1,1,1,0,0,0,0],"id":53,"left_children":[1,3,5,-1,-1,-1,-1],"loss_changes":[1.7398767E2,5.9350464E1,8.6132996E1,0E0,0E0,0E0,0E0],"parents":[2147483647,0,0,1,1,2,2],"right_children":[2,4,6,-1,-1,-1,-1],"split_conditions":[1.45E1,5.05E0,1.65E1,3.5561412E-3,-8.622399E-5,-2.0150365E-3,1.4809548E-3],"split_indices":[51,77,80,0,0,0,0],"split_type":[0,0,0,0,0,0,0],"sum_hessian":[5.7567666E3,2.7986182E3,2.9581487E3,2.2397212E3,5.5889685E2,1.8021581E3,1.1559905E3],"tree_param":{"num_deleted":"0","num_feature":"106","num_nodes":"7","size_leaf_vector":"0"}},{"base_weights":[-1.03202924E-1,-2.2010168E-1,1.5104485E-1,-5.581653E-2,-3.7538436E-1,2.4846299E-1,-1.02587424E-1],"categories":[],"categories_nodes":[],"categories_segments":[],"categories_sizes":[],"default_left":[1,1,1,0,0,0,0],"id":54,"left_children":[1,3,5,-1,-1,-1,-1],"loss_changes":[1.711018E2,1.0057515E2,4.4833336E1,0E0,0E0,0E0,0E0],"parents":[2147483647,0,0,1,1,2,2],"right_children":[2,4,6,-1,-1,-1,-1],"split_conditions":[2.05E1,1.25E1,2.15E1,-5.581653E-4,-3.7538435E-3,2.4846299E-3,-1.0258742E-3],"split_indices":[51,79,103,0,0,0,0],"split_type":[0,0,0,0,0,0,0],"sum_hessian":[5.7547666E3,3.9422996E3,1.8124673E3,1.9162816E3,2.026018E3,1.3095138E3,5.029535E2],"tree_param":{"num_deleted":"0","num_feature":"106","num_nodes":"7","size_leaf_vector":"0"}},{"base_weights":[1.0320292E-1,2.2010168E-1,-1.5104489E-1,5.581653E-2,3.753844E-1,-2.4846306E-1,1.02587424E-1],"categories":[],"categories_nodes":[],"categories_segments":[],"categories_sizes":[],"default_left":[1,1,1,0,0,0,0],"id":55,"left_children":[1,3,5,-1,-1,-1,-1],"loss_changes":[1.7110187E2,1.0057515E2,4.483335E1,0E0,0E0,0E0,0E0],"parents":[2147483647,0,0,1,1,2,2],"right_children":[2,4,6,-1,-1,-1,-1],"split_conditions":[2.05E1,1.25E1,2.15E1,5.581653E-4,3.7538437E-3,-2.4846306E-3,1.0258742E-3],"split_indices":[51,79,103,0,0,0,0],"split_type":[0,0,0,0,0,0,0],"sum_hessian":[5.7547666E3,3.9422996E3,1.8124673E3,1.9162815E3,2.026018E3,1.3095138E3,5.029535E2],"tree_param":{"num_deleted":"0","num_feature":"106","num_nodes":"7","size_leaf_vector":"0"}},{"base_weights":[-1.0220178E-1,-2.7817574E-1,6.4196475E-2,-1.8927228E-1,-5.106583E-1,-7.370694E-2,2.6959416E-1],"categories":[],"categories_nodes":[],"categories_segments":[],"categories_sizes":[],"default_left":[1,1,1,0,0,0,0],"id":56,"left_children":[1,3,5,-1,-1,-1,-1],"loss_changes":[1.6850735E2,5.770816E1,8.381435E1,0E0,0E0,0E0,0E0],"parents":[2147483647,0,0,1,1,2,2],"right_children":[2,4,6,-1,-1,-1,-1],"split_conditions":[1.45E1,1.95E1,5.5850005E-1,-1.8927228E-3,-5.1065832E-3,-7.370694E-4,2.6959416E-3],"split_indices":[51,80,55,0,0,0,0],"split_type":[0,0,0,0,0,0,0],"sum_hessian":[5.7530767E3,2.7957588E3,2.9573176E3,2.0236941E3,7.7206476E2,1.7697523E3,1.1875654E3],"tree_param":{"num_deleted":"0","num_feature":"106","num_nodes":"7","size_leaf_vector":"0"}},{"base_weights":[1.0220177E-1,2.7817568E-1,-6.419645E-2,1.8927227E-1,5.106582E-1,7.3706985E-2,-2.6959416E-1],"categories":[],"categories_nodes":[],"categories_segments":[],"categories_sizes":[],"default_left":[1,1,1,0,0,0,0],"id":57,"left_children":[1,3,5,-1,-1,-1,-1],"loss_changes":[1.6850728E2,5.770816E1,8.381438E1,0E0,0E0,0E0,0E0],"parents":[2147483647,0,0,1,1,2,2],"right_children":[2,4,6,-1,-1,-1,-1],"split_conditions":[1.45E1,1.95E1,5.5850005E-1,1.8927227E-3,5.106582E-3,7.370698E-4,-2.6959416E-3],"split_indices":[51,80,55,0,0,0,0],"split_type":[0,0,0,0,0,0,0],"sum_hessian":[5.7530767E3,2.7957588E3,2.9573179E3,2.023694E3,7.7206476E2,1.7697523E3,1.1875654E3],"tree_param":{"num_deleted":"0","num_feature":"106","num_nodes":"7","size_leaf_vector":"0"}},{"base_weights":[-1.0121808E-1,-2.1629636E-1,1.4895254E-1,-5.452321E-2,-3.6936438E-1,2.4493036E-1,-1.0085326E-1],"categories":[],"categories_nodes":[],"categories_segments":[],"categories_sizes":[],"default_left":[1,1,1,0,0,0,0],"id":58,"left_children":[1,3,5,-1,-1,-1,-1],"loss_changes":[1.6562695E2,9.754622E1,4.348938E1,0E0,0E0,0E0,0E0],"parents":[2147483647,0,0,1,1,2,2],"right_children":[2,4,6,-1,-1,-1,-1],"split_conditions":[2.05E1,1.25E1,2.15E1,-5.452321E-4,-3.6936437E-3,2.4493034E-3,-1.0085326E-3],"split_indices":[51,79,103,0,0,0,0],"split_type":[0,0,0,0,0,0,0],"sum_hessian":[5.750973E3,3.9391177E3,1.8118553E3,1.9157612E3,2.0233563E3,1.3089598E3,5.0289554E2],"tree_param":{"num_deleted":"0","num_feature":"106","num_nodes":"7","size_leaf_vector":"0"}},{"base_weights":[1.0121809E-1,2.1629637E-1,-1.4895256E-1,5.4523233E-2,3.6936438E-1,-2.4493036E-1,1.0085323E-1],"categories":[],"categories_nodes":[],"categories_segments":[],"categories_sizes":[],"default_left":[1,1,1,0,0,0,0],"id":59,"left_children":[1,3,5,-1,-1,-1,-1],"loss_changes":[1.6562695E2,9.7546234E1,4.3489376E1,0E0,0E0,0E0,0E0],"parents":[2147483647,0,0,1,1,2,2],"right_children":[2,4,6,-1,-1,-1,-1],"split_conditions":[2.05E1,1.25E1,2.15E1,5.452323E-4,3.6936437E-3,-2.4493034E-3,1.0085322E-3],"split_indices":[51,79,103,0,0,0,0],"split_type":[0,0,0,0,0,0,0],"sum_hessian":[5.750973E3,3.9391177E3,1.8118553E3,1.9157612E3,2.0233563E3,1.3089598E3,5.028955E2],"tree_param":{"num_deleted":"0","num_feature":"106","num_nodes":"7","size_leaf_vector":"0"}},{"base_weights":[-1.0023788E-1,-2.7354792E-1,6.351735E-2,-3.4484464E-1,1.1602666E-2,1.9628996E-1,-1.433857E-1],"categories":[],"categories_nodes":[],"categories_segments":[],"categories_sizes":[],"default_left":[1,1,1,0,0,0,0],"id":60,"left_children":[1,3,5,-1,-1,-1,-1],"loss_changes":[1.6321019E2,5.6802414E1,8.1271225E1,0E0,0E0,0E0,0E0],"parents":[2147483647,0,0,1,1,2,2],"right_children":[2,4,6,-1,-1,-1,-1],"split_conditions":[1.45E1,5.05E0,1.65E1,-3.4484463E-3,1.1602666E-4,1.9628995E-3,-1.4338569E-3],"split_indices":[51,77,80,0,0,0,0],"split_type":[0,0,0,0,0,0,0],"sum_hessian":[5.749189E3,2.7927825E3,2.9564065E3,2.2340017E3,5.5878076E2,1.8008359E3,1.1555706E3],"tree_param":{"num_deleted":"0","num_feature":"106","num_nodes":"7","size_leaf_vector":"0"}},{"base_weights":[1.0023787E-1,2.7354792E-1,-6.351736E-2,3.448446E-1,-1.1602636E-2,-1.9628997E-1,1.4338568E-1],"categories":[],"categories_nodes":[],"categories_segments":[],"categories_sizes":[],"default_left":[1,1,1,0,0,0,0],"id":61,"left_children":[1,3,5,-1,-1,-1,-1],"loss_changes":[1.6321019E2,5.68024E1,8.127122E1,0E0,0E0,0E0,0E0],"parents":[2147483647,0,0,1,1,2,2],"right_children":[2,4,6,-1,-1,-1,-1],"split_conditions":[1.45E1,5.05E0,1.65E1,3.448446E-3,-1.16026364E-4,-1.9628997E-3,1.4338568E-3],"split_indices":[51,77,80,0,0,0,0],"split_type":[0,0,0,0,0,0,0],"sum_hessian":[5.749189E3,2.7927825E3,2.9564065E3,2.2340017E3,5.5878076E2,1.800836E3,1.1555706E3],"tree_param":{"num_deleted":"0","num_feature":"106","num_nodes":"7","size_leaf_vector":"0"}},{"base_weights":[-9.927379E-2,-2.1256745E-1,1.4689636E-1,-6.710759E-2,-3.783422E-1,2.412776E-1,-9.869153E-2],"categories":[],"categories_nodes":[],"categories_segments":[],"categories_sizes":[],"default_left":[1,1,1,0,0,0,0],"id":62,"left_children":[1,3,5,-1,-1,-1,-1],"loss_changes":[1.6034088E2,9.490506E1,4.202904E1,0E0,0E0,0E0,0E0],"parents":[2147483647,0,0,1,1,2,2],"right_children":[2,4,6,-1,-1,-1,-1],"split_conditions":[2.05E1,1.35E1,2.15E1,-6.710759E-4,-3.783422E-3,2.412776E-3,-9.869153E-4],"split_indices":[51,80,103,0,0,0,0],"split_type":[0,0,0,0,0,0,0],"sum_hessian":[5.747025E3,3.9358052E3,1.8112195E3,2.0970999E3,1.8387054E3,1.3084067E3,5.0281274E2],"tree_param":{"num_deleted":"0","num_feature":"106","num_nodes":"7","size_leaf_vector":"0"}},{"base_weights":[9.92738E-2,2.1256746E-1,-1.4689636E-1,6.7107625E-2,3.783422E-1,-2.4127759E-1,9.869153E-2],"categories":[],"categories_nodes":[],"categories_segments":[],"categories_sizes":[],"default_left":[1,1,1,0,0,0,0],"id":63,"left_children":[1,3,5,-1,-1,-1,-1],"loss_changes":[1.6034088E2,9.4905014E1,4.2029037E1,0E0,0E0,0E0,0E0],"parents":[2147483647,0,0,1,1,2,2],"right_children":[2,4,6,-1,-1,-1,-1],"split_conditions":[2.05E1,1.35E1,2.15E1,6.7107624E-4,3.783422E-3,-2.4127758E-3,9.869153E-4],"split_indices":[51,80,103,0,0,0,0],"split_type":[0,0,0,0,0,0,0],"sum_hessian":[5.747025E3,3.9358052E3,1.8112195E3,2.0970999E3,1.8387054E3,1.3084067E3,5.0281274E2],"tree_param":{"num_deleted":"0","num_feature":"106","num_nodes":"7","size_leaf_vector":"0"}},{"base_weights":[-9.831383E-2,-2.6900798E-1,6.284324E-2,-3.394067E-1,1.2176584E-2,-7.128801E-2,2.627732E-1],"categories":[],"categories_nodes":[],"categories_segments":[],"categories_sizes":[],"default_left":[1,1,1,0,0,0,0],"id":64,"left_children":[1,3,5,-1,-1,-1,-1],"loss_changes":[1.5808563E2,5.5246155E1,7.930173E1,0E0,0E0,0E0,0E0],"parents":[2147483647,0,0,1,1,2,2],"right_children":[2,4,6,-1,-1,-1,-1],"split_conditions":[1.45E1,5.05E0,5.5850005E-1,-3.3940668E-3,1.2176584E-4,-7.128801E-4,2.6277318E-3],"split_indices":[51,77,55,0,0,0,0],"split_type":[0,0,0,0,0,0,0],"sum_hessian":[5.745163E3,2.7897012E3,2.9554617E3,2.2309443E3,5.58757E2,1.7691786E3,1.1862831E3],"tree_param":{"num_deleted":"0","num_feature":"106","num_nodes":"7","size_leaf_vector":"0"}},{"base_weights":[9.8313846E-2,2.6900798E-1,-6.28432E-2,3.394067E-1,-1.217667E-2,7.1288034E-2,-2.6277316E-1],"categories":[],"categories_nodes":[],"categories_segments":[],"categories_sizes":[],"default_left":[1,1,1,0,0,0,0],"id":65,"left_children":[1,3,5,-1,-1,-1,-1],"loss_changes":[1.5808559E2,5.52462E1,7.930173E1,0E0,0E0,0E0,0E0],"parents":[2147483647,0,0,1,1,2,2],"right_children":[2,4,6,-1,-1,-1,-1],"split_conditions":[1.45E1,5.05E0,5.5850005E-1,3.3940668E-3,-1.217667E-4,7.1288034E-4,-2.6277315E-3],"split_indices":[51,77,55,0,0,0,0],"split_type":[0,0,0,0,0,0,0],"sum_hessian":[5.745163E3,2.7897014E3,2.9554617E3,2.2309443E3,5.58757E2,1.7691787E3,1.186283E3],"tree_param":{"num_deleted":"0","num_feature":"106","num_nodes":"7","size_leaf_vector":"0"}},{"base_weights":[-9.736967E-2,-2.0890719E-1,1.4486323E-1,-5.1515482E-2,-3.58126E-1,-6.2227175E-2,2.535181E-1],"categories":[],"categories_nodes":[],"categories_segments":[],"categories_sizes":[],"default_left":[1,1,1,0,0,0,0],"id":66,"left_children":[1,3,5,-1,-1,-1,-1],"loss_changes":[1.5521933E2,9.2359726E1,4.0777943E1,0E0,0E0,0E0,0E0],"parents":[2147483647,0,0,1,1,2,2],"right_children":[2,4,6,-1,-1,-1,-1],"split_conditions":[2.05E1,1.25E1,-1.55E0,-5.151548E-4,-3.58126E-3,-6.2227173E-4,2.535181E-3],"split_indices":[51,79,77,0,0,0,0],"split_type":[0,0,0,0,0,0,0],"sum_hessian":[5.742902E3,3.9323613E3,1.8105406E3,1.9144255E3,2.0179358E3,6.231938E2,1.1873468E3],"tree_param":{"num_deleted":"0","num_feature":"106","num_nodes":"7","size_leaf_vector":"0"}},{"base_weights":[9.7369656E-2,2.0890717E-1,-1.4486326E-1,5.1515464E-2,3.5812598E-1,6.2227175E-2,-2.5351816E-1],"categories":[],"categories_nodes":[],"categories_segments":[],"categories_sizes":[],"default_left":[1,1,1,0,0,0,0],"id":67,"left_children":[1,3,5,-1,-1,-1,-1],"loss_changes":[1.5521933E2,9.2359726E1,4.0777954E1,0E0,0E0,0E0,0E0],"parents":[2147483647,0,0,1,1,2,2],"right_children":[2,4,6,-1,-1,-1,-1],"split_conditions":[2.05E1,1.25E1,-1.55E0,5.151546E-4,3.5812599E-3,6.2227173E-4,-2.5351816E-3],"split_indices":[51,79,77,0,0,0,0],"split_type":[0,0,0,0,0,0,0],"sum_hessian":[5.742902E3,3.9323613E3,1.8105405E3,1.9144257E3,2.0179358E3,6.231938E2,1.1873468E3],"tree_param":{"num_deleted":"0","num_feature":"106","num_nodes":"7","size_leaf_vector":"0"}},{"base_weights":[-9.642968E-2,-2.6455614E-1,6.2176626E-2,-1.7836335E-1,-4.9095863E-1,1.6350539E-1,-1.9499183E-1],"categories":[],"categories_nodes":[],"categories_segments":[],"categories_sizes":[],"default_left":[1,1,1,0,0,0,0],"id":68,"left_children":[1,3,5,-1,-1,-1,-1],"loss_changes":[1.5313055E2,5.4308563E1,7.7046196E1,0E0,0E0,0E0,0E0],"parents":[2147483647,0,0,1,1,2,2],"right_children":[2,4,6,-1,-1,-1,-1],"split_conditions":[1.45E1,1.95E1,2.15E1,-1.7836335E-3,-4.909586E-3,1.6350539E-3,-1.9499182E-3],"split_indices":[51,80,103,0,0,0,0],"split_type":[0,0,0,0,0,0,0],"sum_hessian":[5.7409395E3,2.7865073E3,2.9544321E3,2.0194707E3,7.6703674E2,2.119627E3,8.34805E2],"tree_param":{"num_deleted":"0","num_feature":"106","num_nodes":"7","size_leaf_vector":"0"}},{"base_weights":[9.64297E-2,2.6455617E-1,-6.217662E-2,1.7836335E-1,4.9095872E-1,-1.6350538E-1,1.949918E-1],"categories":[],"categories_nodes":[],"categories_segments":[],"categories_sizes":[],"default_left":[1,1,1,0,0,0,0],"id":69,"left_children":[1,3,5,-1,-1,-1,-1],"loss_changes":[1.5313055E2,5.430861E1,7.7046165E1,0E0,0E0,0E0,0E0],"parents":[2147483647,0,0,1,1,2,2],"right_children":[2,4,6,-1,-1,-1,-1],"split_conditions":[1.45E1,1.95E1,2.15E1,1.7836335E-3,4.909587E-3,-1.6350537E-3,1.9499179E-3],"split_indices":[51,80,103,0,0,0,0],"split_type":[0,0,0,0,0,0,0],"sum_hessian":[5.7409395E3,2.7865076E3,2.9544321E3,2.0194707E3,7.6703674E2,2.119627E3,8.3480505E2],"tree_param":{"num_deleted":"0","num_feature":"106","num_nodes":"7","size_leaf_vector":"0"}},{"base_weights":[-9.550443E-2,-2.053044E-1,1.4283058E-1,-6.380398E-2,-3.6693668E-1,-6.0386304E-2,2.494881E-1],"categories":[],"categories_nodes":[],"categories_segments":[],"categories_sizes":[],"default_left":[1,1,1,0,0,0,0],"id":70,"left_children":[1,3,5,-1,-1,-1,-1],"loss_changes":[1.5023254E2,8.9856064E1,3.9264774E1,0E0,0E0,0E0,0E0],"parents":[2147483647,0,0,1,1,2,2],"right_children":[2,4,6,-1,-1,-1,-1],"split_conditions":[2.05E1,1.35E1,-1.55E0,-6.380398E-4,-3.6693667E-3,-6.0386304E-4,2.494881E-3],"split_indices":[51,80,77,0,0,0,0],"split_type":[0,0,0,0,0,0,0],"sum_hessian":[5.7386997E3,3.9288386E3,1.8098613E3,2.0956252E3,1.8332133E3,6.230963E2,1.186765E3],"tree_param":{"num_deleted":"0","num_feature":"106","num_nodes":"7","size_leaf_vector":"0"}},{"base_weights":[9.550444E-2,2.0530441E-1,-1.4283058E-1,6.380399E-2,3.6693668E-1,6.0386285E-2,-2.4948809E-1],"categories":[],"categories_nodes":[],"categories_segments":[],"categories_sizes":[],"default_left":[1,1,1,0,0,0,0],"id":71,"left_children":[1,3,5,-1,-1,-1,-1],"loss_changes":[1.5023254E2,8.985605E1,3.926477E1,0E0,0E0,0E0,0E0],"parents":[2147483647,0,0,1,1,2,2],"right_children":[2,4,6,-1,-1,-1,-1],"split_conditions":[2.05E1,1.35E1,-1.55E0,6.380399E-4,3.6693667E-3,6.0386286E-4,-2.4948807E-3],"split_indices":[51,80,77,0,0,0,0],"split_type":[0,0,0,0,0,0,0],"sum_hessian":[5.7386997E3,3.9288386E3,1.8098613E3,2.0956252E3,1.8332133E3,6.230963E2,1.186765E3],"tree_param":{"num_deleted":"0","num_feature":"106","num_nodes":"7","size_leaf_vector":"0"}},{"base_weights":[-9.4583705E-2,-2.6018965E-1,6.1513424E-2,-3.2928127E-1,1.5043941E-2,5.464568E-1,8.825536E-3],"categories":[],"categories_nodes":[],"categories_segments":[],"categories_sizes":[],"default_left":[1,1,1,0,0,0,0],"id":72,"left_children":[1,3,5,-1,-1,-1,-1],"loss_changes":[1.4833827E2,5.2950775E1,7.5483E1,0E0,0E0,0E0,0E0],"parents":[2147483647,0,0,1,1,2,2],"right_children":[2,4,6,-1,-1,-1,-1],"split_conditions":[1.45E1,5.05E0,2.5E0,-3.2928127E-3,1.5043942E-4,5.464568E-3,8.825536E-5],"split_indices":[51,77,85,0,0,0,0],"split_type":[0,0,0,0,0,0,0],"sum_hessian":[5.7366685E3,2.783229E3,2.9534392E3,2.224595E3,5.5863416E2,2.8851877E2,2.6649204E3],"tree_param":{"num_deleted":"0","num_feature":"106","num_nodes":"7","size_leaf_vector":"0"}},{"base_weights":[9.45837E-2,2.6018965E-1,-6.151344E-2,3.2928124E-1,-1.5043941E-2,-5.464569E-1,-8.825546E-3],"categories":[],"categories_nodes":[],"categories_segments":[],"categories_sizes":[],"default_left":[1,1,1,0,0,0,0],"id":73,"left_children":[1,3,5,-1,-1,-1,-1],"loss_changes":[1.4833826E2,5.2950775E1,7.548301E1,0E0,0E0,0E0,0E0],"parents":[2147483647,0,0,1,1,2,2],"right_children":[2,4,6,-1,-1,-1,-1],"split_conditions":[1.45E1,5.05E0,2.5E0,3.2928123E-3,-1.5043942E-4,-5.4645687E-3,-8.825546E-5],"split_indices":[51,77,85,0,0,0,0],"split_type":[0,0,0,0,0,0,0],"sum_hessian":[5.7366685E3,2.783229E3,2.9534392E3,2.224595E3,5.5863416E2,2.8851877E2,2.6649204E3],"tree_param":{"num_deleted":"0","num_feature":"106","num_nodes":"7","size_leaf_vector":"0"}},{"base_weights":[-9.367201E-2,-2.5775883E-1,6.090595E-2,-1.7302243E-1,-4.8093542E-1,-6.9179825E-2,2.5500134E-1],"categories":[],"categories_nodes":[],"categories_segments":[],"categories_sizes":[],"default_left":[1,1,1,0,0,0,0],"id":74,"left_children":[1,3,5,-1,-1,-1,-1],"loss_changes":[1.4549402E2,5.253537E1,7.460765E1,0E0,0E0,0E0,0E0],"parents":[2147483647,0,0,1,1,2,2],"right_children":[2,4,6,-1,-1,-1,-1],"split_conditions":[1.45E1,1.95E1,5.5850005E-1,-1.7302244E-3,-4.809354E-3,-6.917982E-4,2.5500134E-3],"split_indices":[51,80,55,0,0,0,0],"split_type":[0,0,0,0,0,0,0],"sum_hessian":[5.7345757E3,2.781405E3,2.953171E3,2.0172603E3,7.6414465E2,1.7685227E3,1.1846481E3],"tree_param":{"num_deleted":"0","num_feature":"106","num_nodes":"7","size_leaf_vector":"0"}},{"base_weights":[9.3672015E-2,2.5775886E-1,-6.090593E-2,1.7302245E-1,4.8093542E-1,6.917984E-2,-2.550013E-1],"categories":[],"categories_nodes":[],"categories_segments":[],"categories_sizes":[],"default_left":[1,1,1,0,0,0,0],"id":75,"left_children":[1,3,5,-1,-1,-1,-1],"loss_changes":[1.4549402E2,5.253534E1,7.4607635E1,0E0,0E0,0E0,0E0],"parents":[2147483647,0,0,1,1,2,2],"right_children":[2,4,6,-1,-1,-1,-1],"split_conditions":[1.45E1,1.95E1,5.5850005E-1,1.7302245E-3,4.809354E-3,6.917984E-4,-2.550013E-3],"split_indices":[51,80,55,0,0,0,0],"split_type":[0,0,0,0,0,0,0],"sum_hessian":[5.7345757E3,2.7814048E3,2.953171E3,2.0172603E3,7.641446E2,1.7685227E3,1.1846482E3],"tree_param":{"num_deleted":"0","num_feature":"106","num_nodes":"7","size_leaf_vector":"0"}},{"base_weights":[-9.277578E-2,-2.0024285E-1,1.4028129E-1,-4.777191E-2,-3.4520784E-1,2.3017858E-1,-9.33663E-2],"categories":[],"categories_nodes":[],"categories_segments":[],"categories_sizes":[],"default_left":[1,1,1,0,0,0,0],"id":76,"left_children":[1,3,5,-1,-1,-1,-1],"loss_changes":[1.4362045E2,8.672041E1,3.8037815E1,0E0,0E0,0E0,0E0],"parents":[2147483647,0,0,1,1,2,2],"right_children":[2,4,6,-1,-1,-1,-1],"split_conditions":[2.05E1,1.25E1,2.15E1,-4.7771906E-4,-3.4520784E-3,2.3017856E-3,-9.33663E-4],"split_indices":[51,79,103,0,0,0,0],"split_type":[0,0,0,0,0,0,0],"sum_hessian":[5.7321543E3,3.9232224E3,1.8089321E3,1.912757E3,2.0104653E3,1.3063292E3,5.0260297E2],"tree_param":{"num_deleted":"0","num_feature":"106","num_nodes":"7","size_leaf_vector":"0"}},{"base_weights":[9.277577E-2,2.0024286E-1,-1.4028133E-1,4.7771946E-2,3.4520784E-1,-2.3017862E-1,9.33663E-2],"categories":[],"categories_nodes":[],"categories_segments":[],"categories_sizes":[],"default_left":[1,1,1,0,0,0,0],"id":77,"left_children":[1,3,5,-1,-1,-1,-1],"loss_changes":[1.436205E2,8.672035E1,3.8037827E1,0E0,0E0,0E0,0E0],"parents":[2147483647,0,0,1,1,2,2],"right_children":[2,4,6,-1,-1,-1,-1],"split_conditions":[2.05E1,1.25E1,2.15E1,4.7771944E-4,3.4520784E-3,-2.301786E-3,9.33663E-4],"split_indices":[51,79,103,0,0,0,0],"split_type":[0,0,0,0,0,0,0],"sum_hessian":[5.7321543E3,3.9232222E3,1.8089321E3,1.9127568E3,2.0104653E3,1.3063292E3,5.0260297E2],"tree_param":{"num_deleted":"0","num_feature":"106","num_nodes":"7","size_leaf_vector":"0"}},{"base_weights":[-9.1882914E-2,-2.53517E-1,6.0254678E-2,-3.2160556E-1,1.7134871E-2,5.3839695E-1,8.369162E-3],"categories":[],"categories_nodes":[],"categories_segments":[],"categories_sizes":[],"default_left":[1,1,1,0,0,0,0],"id":78,"left_children":[1,3,5,-1,-1,-1,-1],"loss_changes":[1.4094492E2,5.1217392E1,7.3256714E1,0E0,0E0,0E0,0E0],"parents":[2147483647,0,0,1,1,2,2],"right_children":[2,4,6,-1,-1,-1,-1],"split_conditions":[1.45E1,5.05E0,2.5E0,-3.2160555E-3,1.7134871E-4,5.3839693E-3,8.3691615E-5],"split_indices":[51,77,85,0,0,0,0],"split_type":[0,0,0,0,0,0,0],"sum_hessian":[5.730032E3,2.7779814E3,2.9520505E3,2.2194426E3,5.585388E2,2.8806445E2,2.663986E3],"tree_param":{"num_deleted":"0","num_feature":"106","num_nodes":"7","size_leaf_vector":"0"}},{"base_weights":[9.18829E-2,2.5351697E-1,-6.0254686E-2,3.216055E-1,-1.7134842E-2,-5.3839695E-1,-8.369171E-3],"categories":[],"categories_nodes":[],"categories_segments":[],"categories_sizes":[],"default_left":[1,1,1,0,0,0,0],"id":79,"left_children":[1,3,5,-1,-1,-1,-1],"loss_changes":[1.4094487E2,5.1217377E1,7.325671E1,0E0,0E0,0E0,0E0],"parents":[2147483647,0,0,1,1,2,2],"right_children":[2,4,6,-1,-1,-1,-1],"split_conditions":[1.45E1,5.05E0,2.5E0,3.216055E-3,-1.7134841E-4,-5.3839693E-3,-8.369171E-5],"split_indices":[51,77,85,0,0,0,0],"split_type":[0,0,0,0,0,0,0],"sum_hessian":[5.730032E3,2.7779814E3,2.9520505E3,2.2194426E3,5.585389E2,2.8806442E2,2.663986E3],"tree_param":{"num_deleted":"0","num_feature":"106","num_nodes":"7","size_leaf_vector":"0"}},{"base_weights":[-9.0998724E-2,-1.9681816E-1,1.3834251E-1,-5.946962E-2,-3.541548E-1,2.2047E-1,-1.11588396E-1],"categories":[],"categories_nodes":[],"categories_segments":[],"categories_sizes":[],"default_left":[1,1,1,0,0,0,0],"id":80,"left_children":[1,3,5,-1,-1,-1,-1],"loss_changes":[1.3905928E2,8.47009E1,3.7163506E1,0E0,0E0,0E0,0E0],"parents":[2147483647,0,0,1,1,2,2],"right_children":[2,4,6,-1,-1,-1,-1],"split_conditions":[2.05E1,1.35E1,2.25E1,-5.946962E-4,-3.5415478E-3,2.2047E-3,-1.1158839E-3],"split_indices":[51,80,103,0,0,0,0],"split_type":[0,0,0,0,0,0,0],"sum_hessian":[5.727848E3,3.919506E3,1.808342E3,2.0934163E3,1.8260898E3,1.3611764E3,4.4716562E2],"tree_param":{"num_deleted":"0","num_feature":"106","num_nodes":"7","size_leaf_vector":"0"}},{"base_weights":[9.0998724E-2,1.9681816E-1,-1.383425E-1,5.946963E-2,3.541548E-1,-2.2047E-1,1.11588486E-1],"categories":[],"categories_nodes":[],"categories_segments":[],"categories_sizes":[],"default_left":[1,1,1,0,0,0,0],"id":81,"left_children":[1,3,5,-1,-1,-1,-1],"loss_changes":[1.3905927E2,8.470088E1,3.716353E1,0E0,0E0,0E0,0E0],"parents":[2147483647,0,0,1,1,2,2],"right_children":[2,4,6,-1,-1,-1,-1],"split_conditions":[2.05E1,1.35E1,2.25E1,5.9469626E-4,3.5415478E-3,-2.2047E-3,1.1158849E-3],"split_indices":[51,80,103,0,0,0,0],"split_type":[0,0,0,0,0,0,0],"sum_hessian":[5.727848E3,3.9195059E3,1.808342E3,2.0934163E3,1.8260898E3,1.3611764E3,4.471656E2],"tree_param":{"num_deleted":"0","num_feature":"106","num_nodes":"7","size_leaf_vector":"0"}},{"base_weights":[-9.01237E-2,-2.4935246E-1,5.9604056E-2,-1.6649388E-1,-4.6839204E-1,5.326743E-1,8.321716E-3],"categories":[],"categories_nodes":[],"categories_segments":[],"categories_sizes":[],"default_left":[1,1,1,0,0,0,0],"id":82,"left_children":[1,3,5,-1,-1,-1,-1],"loss_changes":[1.3654465E2,5.0295135E1,7.16165E1,0E0,0E0,0E0,0E0],"parents":[2147483647,0,0,1,1,2,2],"right_children":[2,4,6,-1,-1,-1,-1],"split_conditions":[1.45E1,1.95E1,2.5E0,-1.6649388E-3,-4.68392E-3,5.3267432E-3,8.3217165E-5],"split_indices":[51,80,85,0,0,0,0],"split_type":[0,0,0,0,0,0,0],"sum_hessian":[5.725689E3,2.7744841E3,2.9512048E3,2.0142799E3,7.602042E2,2.8771347E2,2.6634915E3],"tree_param":{"num_deleted":"0","num_feature":"106","num_nodes":"7","size_leaf_vector":"0"}},{"base_weights":[9.012371E-2,2.493525E-1,-5.960407E-2,1.6649392E-1,4.6839213E-1,-5.326743E-1,-8.321734E-3],"categories":[],"categories_nodes":[],"categories_segments":[],"categories_sizes":[],"default_left":[1,1,1,0,0,0,0],"id":83,"left_children":[1,3,5,-1,-1,-1,-1],"loss_changes":[1.3654471E2,5.029515E1,7.1616486E1,0E0,0E0,0E0,0E0],"parents":[2147483647,0,0,1,1,2,2],"right_children":[2,4,6,-1,-1,-1,-1],"split_conditions":[1.45E1,1.95E1,2.5E0,1.6649392E-3,4.683921E-3,-5.3267432E-3,-8.321734E-5],"split_indices":[51,80,85,0,0,0,0],"split_type":[0,0,0,0,0,0,0],"sum_hessian":[5.725689E3,2.7744841E3,2.951205E3,2.0142799E3,7.6020416E2,2.8771347E2,2.6634915E3],"tree_param":{"num_deleted":"0","num_feature":"106","num_nodes":"7","size_leaf_vector":"0"}},{"base_weights":[-8.925801E-2,-1.9345808E-1,1.3642944E-1,-4.4781417E-2,-3.351716E-1,2.2434773E-1,-9.190678E-2],"categories":[],"categories_nodes":[],"categories_segments":[],"categories_sizes":[],"default_left":[1,1,1,0,0,0,0],"id":84,"left_children":[1,3,5,-1,-1,-1,-1],"loss_changes":[1.3464626E2,8.250801E1,3.633099E1,0E0,0E0,0E0,0E0],"parents":[2147483647,0,0,1,1,2,2],"right_children":[2,4,6,-1,-1,-1,-1],"split_conditions":[2.05E1,1.25E1,2.15E1,-4.4781415E-4,-3.351716E-3,2.2434772E-3,-9.1906777E-4],"split_indices":[51,79,103,0,0,0,0],"split_type":[0,0,0,0,0,0,0],"sum_hessian":[5.723449E3,3.915707E3,1.8077423E3,1.9115492E3,2.0041578E3,1.3052052E3,5.0253702E2],"tree_param":{"num_deleted":"0","num_feature":"106","num_nodes":"7","size_leaf_vector":"0"}},{"base_weights":[8.925803E-2,1.9345812E-1,-1.3642944E-1,4.478145E-2,3.3517164E-1,-2.243477E-1,9.1906704E-2],"categories":[],"categories_nodes":[],"categories_segments":[],"categories_sizes":[],"default_left":[1,1,1,0,0,0,0],"id":85,"left_children":[1,3,5,-1,-1,-1,-1],"loss_changes":[1.346463E2,8.2508026E1,3.633096E1,0E0,0E0,0E0,0E0],"parents":[2147483647,0,0,1,1,2,2],"right_children":[2,4,6,-1,-1,-1,-1],"split_conditions":[2.05E1,1.25E1,2.15E1,4.478145E-4,3.3517163E-3,-2.243477E-3,9.19067E-4],"split_indices":[51,79,103,0,0,0,0],"split_type":[0,0,0,0,0,0,0],"sum_hessian":[5.723449E3,3.915707E3,1.8077423E3,1.9115492E3,2.0041578E3,1.3052053E3,5.0253705E2],"tree_param":{"num_deleted":"0","num_feature":"106","num_nodes":"7","size_leaf_vector":"0"}},{"base_weights":[-8.840091E-2,-2.4526702E-1,5.895992E-2,-3.121267E-1,1.9722313E-2,5.269798E-1,8.281084E-3],"categories":[],"categories_nodes":[],"categories_segments":[],"categories_sizes":[],"default_left":[1,1,1,0,0,0,0],"id":86,"left_children":[1,3,5,-1,-1,-1,-1],"loss_changes":[1.3228859E2,4.9116287E1,6.999672E1,0E0,0E0,0E0,0E0],"parents":[2147483647,0,0,1,1,2,2],"right_children":[2,4,6,-1,-1,-1,-1],"split_conditions":[1.45E1,5.05E0,2.5E0,-3.1212668E-3,1.9722313E-4,5.269798E-3,8.281084E-5],"split_indices":[51,77,85,0,0,0,0],"split_type":[0,0,0,0,0,0,0],"sum_hessian":[5.7212095E3,2.770906E3,2.9503035E3,2.2124924E3,5.584136E2,2.8733762E2,2.662966E3],"tree_param":{"num_deleted":"0","num_feature":"106","num_nodes":"7","size_leaf_vector":"0"}},{"base_weights":[8.84009E-2,2.4526699E-1,-5.8959898E-2,3.121267E-1,-1.97224E-2,-5.269797E-1,-8.281069E-3],"categories":[],"categories_nodes":[],"categories_segments":[],"categories_sizes":[],"default_left":[1,1,1,0,0,0,0],"id":87,"left_children":[1,3,5,-1,-1,-1,-1],"loss_changes":[1.3228857E2,4.9116302E1,6.99967E1,0E0,0E0,0E0,0E0],"parents":[2147483647,0,0,1,1,2,2],"right_children":[2,4,6,-1,-1,-1,-1],"split_conditions":[1.45E1,5.05E0,2.5E0,3.1212668E-3,-1.97224E-4,-5.2697966E-3,-8.2810686E-5],"split_indices":[51,77,85,0,0,0,0],"split_type":[0,0,0,0,0,0,0],"sum_hessian":[5.7212095E3,2.7709058E3,2.9503035E3,2.2124922E3,5.5841364E2,2.8733765E2,2.6629658E3],"tree_param":{"num_deleted":"0","num_feature":"106","num_nodes":"7","size_leaf_vector":"0"}},{"base_weights":[-8.755192E-2,-1.9015978E-1,1.3454436E-1,-8.169419E-2,-3.8093415E-1,-5.884085E-2,2.3624113E-1],"categories":[],"categories_nodes":[],"categories_segments":[],"categories_sizes":[],"default_left":[1,1,1,0,0,0,0],"id":88,"left_children":[1,3,5,-1,-1,-1,-1],"loss_changes":[1.303758E2,8.0934586E1,3.5573242E1,0E0,0E0,0E0,0E0],"parents":[2147483647,0,0,1,1,2,2],"right_children":[2,4,6,-1,-1,-1,-1],"split_conditions":[2.05E1,1.65E1,-1.55E0,-8.169419E-4,-3.8093415E-3,-5.884085E-4,2.3624112E-3],"split_indices":[51,80,77,0,0,0,0],"split_type":[0,0,0,0,0,0,0],"sum_hessian":[5.718918E3,3.9118145E3,1.8071034E3,2.4948086E3,1.4170059E3,6.229436E2,1.1841598E3],"tree_param":{"num_deleted":"0","num_feature":"106","num_nodes":"7","size_leaf_vector":"0"}},{"base_weights":[8.755194E-2,1.901598E-1,-1.3454436E-1,8.1694216E-2,3.8093415E-1,5.8840796E-2,-2.362411E-1],"categories":[],"categories_nodes":[],"categories_segments":[],"categories_sizes":[],"default_left":[1,1,1,0,0,0,0],"id":89,"left_children":[1,3,5,-1,-1,-1,-1],"loss_changes":[1.3037581E2,8.09346E1,3.557322E1,0E0,0E0,0E0,0E0],"parents":[2147483647,0,0,1,1,2,2],"right_children":[2,4,6,-1,-1,-1,-1],"split_conditions":[2.05E1,1.65E1,-1.55E0,8.1694213E-4,3.8093415E-3,5.88408E-4,-2.362411E-3],"split_indices":[51,80,77,0,0,0,0],"split_type":[0,0,0,0,0,0,0],"sum_hessian":[5.718918E3,3.9118145E3,1.8071034E3,2.4948086E3,1.417006E3,6.229436E2,1.1841598E3],"tree_param":{"num_deleted":"0","num_feature":"106","num_nodes":"7","size_leaf_vector":"0"}},{"base_weights":[-8.671152E-2,-2.4125864E-1,5.8327824E-2,-1.603494E-1,-4.5602906E-1,-6.630621E-2,2.4457337E-1],"categories":[],"categories_nodes":[],"categories_segments":[],"categories_sizes":[],"default_left":[1,1,1,0,0,0,0],"id":90,"left_children":[1,3,5,-1,-1,-1,-1],"loss_changes":[1.2817789E2,4.803134E1,6.85017E1,0E0,0E0,0E0,0E0],"parents":[2147483647,0,0,1,1,2,2],"right_children":[2,4,6,-1,-1,-1,-1],"split_conditions":[1.45E1,1.95E1,5.5850005E-1,-1.6034939E-3,-4.5602904E-3,-6.630621E-4,2.4457336E-3],"split_indices":[51,80,55,0,0,0,0],"split_type":[0,0,0,0,0,0,0],"sum_hessian":[5.7166646E3,2.7672983E3,2.9493665E3,2.0113286E3,7.5596967E2,1.7673285E3,1.1820381E3],"tree_param":{"num_deleted":"0","num_feature":"106","num_nodes":"7","size_leaf_vector":"0"}},{"base_weights":[8.6711526E-2,2.4125864E-1,-5.8327813E-2,1.6034937E-1,4.5602918E-1,6.630622E-2,-2.4457337E-1],"categories":[],"categories_nodes":[],"categories_segments":[],"categories_sizes":[],"default_left":[1,1,1,0,0,0,0],"id":91,"left_children":[1,3,5,-1,-1,-1,-1],"loss_changes":[1.2817787E2,4.8031387E1,6.850169E1,0E0,0E0,0E0,0E0],"parents":[2147483647,0,0,1,1,2,2],"right_children":[2,4,6,-1,-1,-1,-1],"split_conditions":[1.45E1,1.95E1,5.5850005E-1,1.6034937E-3,4.5602918E-3,6.6306215E-4,-2.4457336E-3],"split_indices":[51,80,55,0,0,0,0],"split_type":[0,0,0,0,0,0,0],"sum_hessian":[5.7166646E3,2.767298E3,2.9493665E3,2.0113286E3,7.559696E2,1.7673285E3,1.1820381E3],"tree_param":{"num_deleted":"0","num_feature":"106","num_nodes":"7","size_leaf_vector":"0"}},{"base_weights":[-8.5885115E-2,-1.8692273E-1,1.3268872E-1,-9.252324E-2,-3.998345E-1,2.1205899E-1,-1.0856801E-1],"categories":[],"categories_nodes":[],"categories_segments":[],"categories_sizes":[],"default_left":[1,1,1,0,0,0,0],"id":92,"left_children":[1,3,5,-1,-1,-1,-1],"loss_changes":[1.26236786E2,7.852466E1,3.4629547E1,0E0,0E0,0E0,0E0],"parents":[2147483647,0,0,1,1,2,2],"right_children":[2,4,6,-1,-1,-1,-1],"split_conditions":[2.05E1,1.85E1,2.25E1,-9.2523237E-4,-3.998345E-3,2.1205898E-3,-1.0856801E-3],"split_indices":[51,80,103,0,0,0,0],"split_type":[0,0,0,0,0,0,0],"sum_hessian":[5.7140405E3,3.9077805E3,1.80626E3,2.7083872E3,1.1993932E3,1.3592167E3,4.4704333E2],"tree_param":{"num_deleted":"0","num_feature":"106","num_nodes":"7","size_leaf_vector":"0"}},{"base_weights":[8.588509E-2,1.869227E-1,-1.3268872E-1,9.25232E-2,3.9983448E-1,-2.12059E-1,1.0856801E-1],"categories":[],"categories_nodes":[],"categories_segments":[],"categories_sizes":[],"default_left":[1,1,1,0,0,0,0],"id":93,"left_children":[1,3,5,-1,-1,-1,-1],"loss_changes":[1.26236755E2,7.852466E1,3.4629547E1,0E0,0E0,0E0,0E0],"parents":[2147483647,0,0,1,1,2,2],"right_children":[2,4,6,-1,-1,-1,-1],"split_conditions":[2.05E1,1.85E1,2.25E1,9.25232E-4,3.9983448E-3,-2.12059E-3,1.0856801E-3],"split_indices":[51,80,103,0,0,0,0],"split_type":[0,0,0,0,0,0,0],"sum_hessian":[5.7140405E3,3.9077803E3,1.80626E3,2.7083872E3,1.1993932E3,1.3592167E3,4.4704333E2],"tree_param":{"num_deleted":"0","num_feature":"106","num_nodes":"7","size_leaf_vector":"0"}},{"base_weights":[-8.506098E-2,2.0847652E-2,-2.909151E-1,1.4460781E-1,-1.7360583E-1,-3.5616824E-1,-1.030524E-2],"categories":[],"categories_nodes":[],"categories_segments":[],"categories_sizes":[],"default_left":[1,1,1,0,0,0,0],"id":94,"left_children":[1,3,5,-1,-1,-1,-1],"loss_changes":[1.2455466E2,9.082542E1,3.5532806E1,0E0,0E0,0E0,0E0],"parents":[2147483647,0,0,1,1,2,2],"right_children":[2,4,6,-1,-1,-1,-1],"split_conditions":[2.45E0,1.65E1,5.3500004E0,1.4460781E-3,-1.7360583E-3,-3.5616823E-3,-1.0305239E-4],"split_indices":[25,80,77,0,0,0,0],"split_type":[0,0,0,0,0,0,0],"sum_hessian":[5.711786E3,3.772034E3,1.939752E3,2.305165E3,1.4668689E3,1.5735652E3,3.6618674E2],"tree_param":{"num_deleted":"0","num_feature":"106","num_nodes":"7","size_leaf_vector":"0"}},{"base_weights":[8.506099E-2,-2.0847641E-2,2.9091513E-1,-1.446078E-1,1.7360583E-1,3.5616827E-1,1.0305271E-2],"categories":[],"categories_nodes":[],"categories_segments":[],"categories_sizes":[],"default_left":[1,1,1,0,0,0,0],"id":95,"left_children":[1,3,5,-1,-1,-1,-1],"loss_changes":[1.2455468E2,9.08254E1,3.553279E1,0E0,0E0,0E0,0E0],"parents":[2147483647,0,0,1,1,2,2],"right_children":[2,4,6,-1,-1,-1,-1],"split_conditions":[2.45E0,1.65E1,5.3500004E0,-1.446078E-3,1.7360583E-3,3.5616825E-3,1.03052706E-4],"split_indices":[25,80,77,0,0,0,0],"split_type":[0,0,0,0,0,0,0],"sum_hessian":[5.7117856E3,3.772034E3,1.9397518E3,2.305165E3,1.4668689E3,1.5735651E3,3.6618677E2],"tree_param":{"num_deleted":"0","num_feature":"106","num_nodes":"7","size_leaf_vector":"0"}},{"base_weights":[-8.424596E-2,-1.8390751E-1,1.3123547E-1,-4.0602747E-2,-3.2103273E-1,2.0929742E-1,-1.0598943E-1],"categories":[],"categories_nodes":[],"categories_segments":[],"categories_sizes":[],"default_left":[1,1,1,0,0,0,0],"id":96,"left_children":[1,3,5,-1,-1,-1,-1],"loss_changes":[1.22657455E2,7.672266E1,3.347487E1,0E0,0E0,0E0,0E0],"parents":[2147483647,0,0,1,1,2,2],"right_children":[2,4,6,-1,-1,-1,-1],"split_conditions":[2.05E1,1.25E1,2.25E1,-4.0602745E-4,-3.2103274E-3,2.092974E-3,-1.0598942E-3],"split_indices":[51,79,103,0,0,0,0],"split_type":[0,0,0,0,0,0,0],"sum_hessian":[5.7094585E3,3.9039858E3,1.8054724E3,1.9096127E3,1.9943733E3,1.3585436E3,4.4692883E2],"tree_param":{"num_deleted":"0","num_feature":"106","num_nodes":"7","size_leaf_vector":"0"}},{"base_weights":[8.424595E-2,1.8390751E-1,-1.3123547E-1,4.060276E-2,3.210327E-1,-2.0929743E-1,1.059895E-1],"categories":[],"categories_nodes":[],"categories_segments":[],"categories_sizes":[],"default_left":[1,1,1,0,0,0,0],"id":97,"left_children":[1,3,5,-1,-1,-1,-1],"loss_changes":[1.2265745E2,7.672264E1,3.3474884E1,0E0,0E0,0E0,0E0],"parents":[2147483647,0,0,1,1,2,2],"right_children":[2,4,6,-1,-1,-1,-1],"split_conditions":[2.05E1,1.25E1,2.25E1,4.0602757E-4,3.210327E-3,-2.0929743E-3,1.059895E-3],"split_indices":[51,79,103,0,0,0,0],"split_type":[0,0,0,0,0,0,0],"sum_hessian":[5.7094585E3,3.9039858E3,1.8054724E3,1.9096125E3,1.9943733E3,1.3585437E3,4.469288E2],"tree_param":{"num_deleted":"0","num_feature":"106","num_nodes":"7","size_leaf_vector":"0"}},{"base_weights":[-8.343905E-2,2.0998342E-2,-2.8663847E-1,1.428238E-1,-1.7048763E-1,-3.5368317E-1,-2.0154687E-2],"categories":[],"categories_nodes":[],"categories_segments":[],"categories_sizes":[],"default_left":[1,1,1,0,0,0,0],"id":98,"left_children":[1,3,5,-1,-1,-1,-1],"loss_changes":[1.2114082E2,8.799888E1,3.4615417E1,0E0,0E0,0E0,0E0],"parents":[2147483647,0,0,1,1,2,2],"right_children":[2,4,6,-1,-1,-1,-1],"split_conditions":[2.45E0,1.65E1,5.05E0,1.428238E-3,-1.7048762E-3,-3.5368316E-3,-2.0154686E-4],"split_indices":[25,80,77,0,0,0,0],"split_type":[0,0,0,0,0,0,0],"sum_hessian":[5.707086E3,3.7702207E3,1.9368652E3,2.3043943E3,1.4658265E3,1.5472618E3,3.896033E2],"tree_param":{"num_deleted":"0","num_feature":"106","num_nodes":"7","size_leaf_vector":"0"}},{"base_weights":[8.343905E-2,-2.0998335E-2,2.8663844E-1,-1.4282382E-1,1.7048769E-1,3.5368317E-1,2.0154687E-2],"categories":[],"categories_nodes":[],"categories_segments":[],"categories_sizes":[],"default_left":[1,1,1,0,0,0,0],"id":99,"left_children":[1,3,5,-1,-1,-1,-1],"loss_changes":[1.2114081E2,8.7998924E1,3.4615417E1,0E0,0E0,0E0,0E0],"parents":[2147483647,0,0,1,1,2,2],"right_children":[2,4,6,-1,-1,-1,-1],"split_conditions":[2.45E0,1.65E1,5.05E0,-1.4282381E-3,1.7048768E-3,3.5368316E-3,2.0154686E-4],"split_indices":[25,80,77,0,0,0,0],"split_type":[0,0,0,0,0,0,0],"sum_hessian":[5.707086E3,3.7702207E3,1.9368651E3,2.3043943E3,1.4658264E3,1.5472618E3,3.896033E2],"tree_param":{"num_deleted":"0","num_feature":"106","num_nodes":"7","size_leaf_vector":"0"}},{"base_weights":[-8.264047E-2,-2.3204844E-1,5.7265107E-2,-2.966968E-1,2.2807581E-2,5.1534164E-1,7.7570183E-3],"categories":[],"categories_nodes":[],"categories_segments":[],"categories_sizes":[],"default_left":[1,1,1,0,0,0,0],"id":100,"left_children":[1,3,5,-1,-1,-1,-1],"loss_changes":[1.1927959E2,4.5469833E1,6.683753E1,0E0,0E0,0E0,0E0],"parents":[2147483647,0,0,1,1,2,2],"right_children":[2,4,6,-1,-1,-1,-1],"split_conditions":[1.45E1,5.05E0,2.5E0,-2.966968E-3,2.280758E-4,5.153416E-3,7.7570185E-5],"split_indices":[51,77,85,0,0,0,0],"split_type":[0,0,0,0,0,0,0],"sum_hessian":[5.7047E3,2.7583474E3,2.946353E3,2.2000938E3,5.582537E2,2.8645956E2,2.6598933E3],"tree_param":{"num_deleted":"0","num_feature":"106","num_nodes":"7","size_leaf_vector":"0"}},{"base_weights":[8.2640484E-2,2.3204844E-1,-5.7265084E-2,2.966968E-1,-2.2807645E-2,-5.153416E-1,-7.756999E-3],"categories":[],"categories_nodes":[],"categories_segments":[],"categories_sizes":[],"default_left":[1,1,1,0,0,0,0],"id":101,"left_children":[1,3,5,-1,-1,-1,-1],"loss_changes":[1.1927958E2,4.5469864E1,6.6837524E1,0E0,0E0,0E0,0E0],"parents":[2147483647,0,0,1,1,2,2],"right_children":[2,4,6,-1,-1,-1,-1],"split_conditions":[1.45E1,5.05E0,2.5E0,2.966968E-3,-2.2807645E-4,-5.1534157E-3,-7.756999E-5],"split_indices":[51,77,85,0,0,0,0],"split_type":[0,0,0,0,0,0,0],"sum_hessian":[5.7047007E3,2.7583474E3,2.946353E3,2.2000938E3,5.582537E2,2.8645956E2,2.6598933E3],"tree_param":{"num_deleted":"0","num_feature":"106","num_nodes":"7","size_leaf_vector":"0"}},{"base_weights":[-8.1848815E-2,-1.7958573E-1,1.2926102E-1,-8.7749906E-2,-3.8744754E-1,7.052653E-2,4.3657568E-1],"categories":[],"categories_nodes":[],"categories_segments":[],"categories_sizes":[],"default_left":[1,1,1,0,0,0,0],"id":102,"left_children":[1,3,5,-1,-1,-1,-1],"loss_changes":[1.17700165E2,7.439175E1,3.25571E1,0E0,0E0,0E0,0E0],"parents":[2147483647,0,0,1,1,2,2],"right_children":[2,4,6,-1,-1,-1,-1],"split_conditions":[2.05E1,1.85E1,3.65E1,-8.7749906E-4,-3.8744754E-3,7.052653E-4,4.3657566E-3],"split_indices":[51,80,53,0,0,0,0],"split_type":[0,0,0,0,0,0,0],"sum_hessian":[5.702275E3,3.8978484E3,1.8044264E3,2.7044238E3,1.1934246E3,1.515929E3,2.884974E2],"tree_param":{"num_deleted":"0","num_feature":"106","num_nodes":"7","size_leaf_vector":"0"}},{"base_weights":[8.1848815E-2,1.7958573E-1,-1.2926102E-1,8.77499E-2,3.8744754E-1,-7.052653E-2,-4.3657568E-1],"categories":[],"categories_nodes":[],"categories_segments":[],"categories_sizes":[],"default_left":[1,1,1,0,0,0,0],"id":103,"left_children":[1,3,5,-1,-1,-1,-1],"loss_changes":[1.17700165E2,7.439175E1,3.25571E1,0E0,0E0,0E0,0E0],"parents":[2147483647,0,0,1,1,2,2],"right_children":[2,4,6,-1,-1,-1,-1],"split_conditions":[2.05E1,1.85E1,3.65E1,8.7749894E-4,3.8744754E-3,-7.052653E-4,-4.3657566E-3],"split_indices":[51,80,53,0,0,0,0],"split_type":[0,0,0,0,0,0,0],"sum_hessian":[5.702275E3,3.8978484E3,1.8044263E3,2.7044238E3,1.1934246E3,1.515929E3,2.8849738E2],"tree_param":{"num_deleted":"0","num_feature":"106","num_nodes":"7","size_leaf_vector":"0"}},{"base_weights":[-8.106272E-2,1.5623092E-2,-2.9224214E-1,1.3655877E-1,-1.7524934E-1,-3.5331556E-1,-2.7506825E-2],"categories":[],"categories_nodes":[],"categories_segments":[],"categories_sizes":[],"default_left":[1,1,1,0,0,0,0],"id":104,"left_children":[1,3,5,-1,-1,-1,-1],"loss_changes":[1.1640839E2,9.031542E1,2.8939133E1,0E0,0E0,0E0,0E0],"parents":[2147483647,0,0,1,1,2,2],"right_children":[2,4,6,-1,-1,-1,-1],"split_conditions":[2.85E0,1.65E1,5.3500004E0,1.3655877E-3,-1.7524933E-3,-3.5331557E-3,-2.7506825E-4],"split_indices":[25,80,77,0,0,0,0],"split_type":[0,0,0,0,0,0,0],"sum_hessian":[5.700024E3,3.910553E3,1.7894708E3,2.3940078E3,1.516545E3,1.4537595E3,3.3571136E2],"tree_param":{"num_deleted":"0","num_feature":"106","num_nodes":"7","size_leaf_vector":"0"}},{"base_weights":[8.106271E-2,-1.5623102E-2,2.9224214E-1,-1.3655879E-1,1.7524934E-1,3.5331556E-1,2.7506854E-2],"categories":[],"categories_nodes":[],"categories_segments":[],"categories_sizes":[],"default_left":[1,1,1,0,0,0,0],"id":105,"left_children":[1,3,5,-1,-1,-1,-1],"loss_changes":[1.1640839E2,9.031544E1,2.8939133E1,0E0,0E0,0E0,0E0],"parents":[2147483647,0,0,1,1,2,2],"right_children":[2,4,6,-1,-1,-1,-1],"split_conditions":[2.85E0,1.65E1,5.3500004E0,-1.3655878E-3,1.7524933E-3,3.5331557E-3,2.7506854E-4],"split_indices":[25,80,77,0,0,0,0],"split_type":[0,0,0,0,0,0,0],"sum_hessian":[5.700024E3,3.910553E3,1.789471E3,2.3940078E3,1.5165452E3,1.4537595E3,3.357114E2],"tree_param":{"num_deleted":"0","num_feature":"106","num_nodes":"7","size_leaf_vector":"0"}},{"base_weights":[-8.028703E-2,-1.7672682E-1,1.278941E-1,-4.9883775E-2,-3.2329953E-1,6.993051E-2,4.3150812E-1],"categories":[],"categories_nodes":[],"categories_segments":[],"categories_sizes":[],"default_left":[1,1,1,0,0,0,0],"id":106,"left_children":[1,3,5,-1,-1,-1,-1],"loss_changes":[1.1443378E2,7.239731E1,3.173009E1,0E0,0E0,0E0,0E0],"parents":[2147483647,0,0,1,1,2,2],"right_children":[2,4,6,-1,-1,-1,-1],"split_conditions":[2.05E1,1.35E1,3.65E1,-4.9883773E-4,-3.2329953E-3,6.993051E-4,4.315081E-3],"split_indices":[51,80,53,0,0,0,0],"split_type":[0,0,0,0,0,0,0],"sum_hessian":[5.6976353E3,3.893927E3,1.8037083E3,2.0881748E3,1.8057521E3,1.5155935E3,2.881148E2],"tree_param":{"num_deleted":"0","num_feature":"106","num_nodes":"7","size_leaf_vector":"0"}},{"base_weights":[8.028702E-2,1.7672679E-1,-1.278941E-1,4.9883757E-2,3.232995E-1,-6.993051E-2,-4.3150812E-1],"categories":[],"categories_nodes":[],"categories_segments":[],"categories_sizes":[],"default_left":[1,1,1,0,0,0,0],"id":107,"left_children":[1,3,5,-1,-1,-1,-1],"loss_changes":[1.1443376E2,7.2397285E1,3.1730091E1,0E0,0E0,0E0,0E0],"parents":[2147483647,0,0,1,1,2,2],"right_children":[2,4,6,-1,-1,-1,-1],"split_conditions":[2.05E1,1.35E1,3.65E1,4.9883756E-4,3.2329948E-3,-6.993051E-4,-4.315081E-3],"split_indices":[51,80,53,0,0,0,0],"split_type":[0,0,0,0,0,0,0],"sum_hessian":[5.6976353E3,3.893927E3,1.8037083E3,2.0881748E3,1.8057521E3,1.5155934E3,2.8811478E2],"tree_param":{"num_deleted":"0","num_feature":"106","num_nodes":"7","size_leaf_vector":"0"}},{"base_weights":[-7.9517186E-2,1.5857292E-2,-2.8806078E-1,1.3499933E-1,-1.7227243E-1,-3.48462E-1,-2.6725337E-2],"categories":[],"categories_nodes":[],"categories_segments":[],"categories_sizes":[],"default_left":[1,1,1,0,0,0,0],"id":108,"left_children":[1,3,5,-1,-1,-1,-1],"loss_changes":[1.1330212E2,8.765462E1,2.8208542E1,0E0,0E0,0E0,0E0],"parents":[2147483647,0,0,1,1,2,2],"right_children":[2,4,6,-1,-1,-1,-1],"split_conditions":[2.85E0,1.65E1,5.3500004E0,1.3499933E-3,-1.7227243E-3,-3.4846198E-3,-2.6725337E-4],"split_indices":[25,80,77,0,0,0,0],"split_type":[0,0,0,0,0,0,0],"sum_hessian":[5.695282E3,3.908643E3,1.786639E3,2.3932725E3,1.5153706E3,1.4509536E3,3.3568536E2],"tree_param":{"num_deleted":"0","num_feature":"106","num_nodes":"7","size_leaf_vector":"0"}},{"base_weights":[7.951719E-2,-1.5857266E-2,2.8806072E-1,-1.3499932E-1,1.7227247E-1,3.4846196E-1,2.6725251E-2],"categories":[],"categories_nodes":[],"categories_segments":[],"categories_sizes":[],"default_left":[1,1,1,0,0,0,0],"id":109,"left_children":[1,3,5,-1,-1,-1,-1],"loss_changes":[1.1330206E2,8.765463E1,2.8208542E1,0E0,0E0,0E0,0E0],"parents":[2147483647,0,0,1,1,2,2],"right_children":[2,4,6,-1,-1,-1,-1],"split_conditions":[2.85E0,1.65E1,5.3500004E0,-1.3499932E-3,1.7227246E-3,3.4846195E-3,2.672525E-4],"split_indices":[25,80,77,0,0,0,0],"split_type":[0,0,0,0,0,0,0],"sum_hessian":[5.695282E3,3.908643E3,1.786639E3,2.3932725E3,1.5153706E3,1.4509536E3,3.356854E2],"tree_param":{"num_deleted":"0","num_feature":"106","num_nodes":"7","size_leaf_vector":"0"}},{"base_weights":[-7.87569E-2,-1.739206E-1,1.2653951E-1,-8.448766E-2,-3.7702692E-1,5.345309E-1,8.419228E-2],"categories":[],"categories_nodes":[],"categories_segments":[],"categories_sizes":[],"default_left":[1,1,1,0,0,0,0],"id":110,"left_children":[1,3,5,-1,-1,-1,-1],"loss_changes":[1.1126147E2,7.06436E1,3.1122787E1,0E0,0E0,0E0,0E0],"parents":[2147483647,0,0,1,1,2,2],"right_children":[2,4,6,-1,-1,-1,-1],"split_conditions":[2.05E1,1.85E1,2.5E0,-8.448766E-4,-3.770269E-3,5.3453087E-3,8.419228E-4],"split_indices":[51,80,85,0,0,0,0],"split_type":[0,0,0,0,0,0,0],"sum_hessian":[5.692852E3,3.889879E3,1.8029731E3,2.701677E3,1.1882019E3,1.6844823E2,1.6345249E3],"tree_param":{"num_deleted":"0","num_feature":"106","num_nodes":"7","size_leaf_vector":"0"}},{"base_weights":[7.875691E-2,1.7392063E-1,-1.2653951E-1,8.44877E-2,3.7702695E-1,-5.345309E-1,-8.4192276E-2],"categories":[],"categories_nodes":[],"categories_segments":[],"categories_sizes":[],"default_left":[1,1,1,0,0,0,0],"id":111,"left_children":[1,3,5,-1,-1,-1,-1],"loss_changes":[1.11261475E2,7.064359E1,3.1122787E1,0E0,0E0,0E0,0E0],"parents":[2147483647,0,0,1,1,2,2],"right_children":[2,4,6,-1,-1,-1,-1],"split_conditions":[2.05E1,1.85E1,2.5E0,8.44877E-4,3.7702695E-3,-5.3453087E-3,-8.4192277E-4],"split_indices":[51,80,85,0,0,0,0],"split_type":[0,0,0,0,0,0,0],"sum_hessian":[5.692852E3,3.889879E3,1.8029731E3,2.701677E3,1.1882019E3,1.6844821E2,1.6345249E3],"tree_param":{"num_deleted":"0","num_feature":"106","num_nodes":"7","size_leaf_vector":"0"}},{"base_weights":[-7.800117E-2,1.6086023E-2,-2.8395742E-1,1.3345078E-1,-1.6933742E-1,-3.4377533E-1,-2.5619293E-2],"categories":[],"categories_nodes":[],"categories_segments":[],"categories_sizes":[],"default_left":[1,1,1,0,0,0,0],"id":112,"left_children":[1,3,5,-1,-1,-1,-1],"loss_changes":[1.1029434E2,8.506354E1,2.7572128E1,0E0,0E0,0E0,0E0],"parents":[2147483647,0,0,1,1,2,2],"right_children":[2,4,6,-1,-1,-1,-1],"split_conditions":[2.85E0,1.65E1,5.3500004E0,1.3345077E-3,-1.6933741E-3,-3.4377533E-3,-2.5619293E-4],"split_indices":[25,80,77,0,0,0,0],"split_type":[0,0,0,0,0,0,0],"sum_hessian":[5.6905396E3,3.906741E3,1.7837985E3,2.3926077E3,1.5141334E3,1.4481501E3,3.3564838E2],"tree_param":{"num_deleted":"0","num_feature":"106","num_nodes":"7","size_leaf_vector":"0"}},{"base_weights":[7.800116E-2,-1.608603E-2,2.8395736E-1,-1.3345078E-1,1.6933742E-1,3.437753E-1,2.5619263E-2],"categories":[],"categories_nodes":[],"categories_segments":[],"categories_sizes":[],"default_left":[1,1,1,0,0,0,0],"id":113,"left_children":[1,3,5,-1,-1,-1,-1],"loss_changes":[1.1029432E2,8.506355E1,2.7572128E1,0E0,0E0,0E0,0E0],"parents":[2147483647,0,0,1,1,2,2],"right_children":[2,4,6,-1,-1,-1,-1],"split_conditions":[2.85E0,1.65E1,5.3500004E0,-1.3345077E-3,1.6933741E-3,3.4377528E-3,2.561926E-4],"split_indices":[25,80,77,0,0,0,0],"split_type":[0,0,0,0,0,0,0],"sum_hessian":[5.6905396E3,3.906741E3,1.7837985E3,2.3926077E3,1.5141334E3,1.44815E3,3.3564835E2],"tree_param":{"num_deleted":"0","num_feature":"106","num_nodes":"7","size_leaf_vector":"0"}},{"base_weights":[-7.725593E-2,-2.201489E-1,5.610416E-2,-1.6023408E-1,-4.7874647E-1,5.02791E-1,7.961859E-3],"categories":[],"categories_nodes":[],"categories_segments":[],"categories_sizes":[],"default_left":[1,1,1,0,0,0,0],"id":114,"left_children":[1,3,5,-1,-1,-1,-1],"loss_changes":[1.0842457E2,4.2478317E1,6.3294395E1,0E0,0E0,0E0,0E0],"parents":[2147483647,0,0,1,1,2,2],"right_children":[2,4,6,-1,-1,-1,-1],"split_conditions":[1.45E1,2.25E1,2.5E0,-1.6023407E-3,-4.7874646E-3,5.0279098E-3,7.9618585E-5],"split_indices":[51,80,85,0,0,0,0],"split_type":[0,0,0,0,0,0,0],"sum_hessian":[5.688072E3,2.74558E3,2.9424915E3,2.2304287E3,5.1515155E2,2.8535846E2,2.657133E3],"tree_param":{"num_deleted":"0","num_feature":"106","num_nodes":"7","size_leaf_vector":"0"}},{"base_weights":[7.725593E-2,2.201489E-1,-5.6104157E-2,1.6023406E-1,4.7874647E-1,-5.027909E-1,-7.961862E-3],"categories":[],"categories_nodes":[],"categories_segments":[],"categories_sizes":[],"default_left":[1,1,1,0,0,0,0],"id":115,"left_children":[1,3,5,-1,-1,-1,-1],"loss_changes":[1.0842457E2,4.2478317E1,6.3294388E1,0E0,0E0,0E0,0E0],"parents":[2147483647,0,0,1,1,2,2],"right_children":[2,4,6,-1,-1,-1,-1],"split_conditions":[1.45E1,2.25E1,2.5E0,1.6023406E-3,4.7874646E-3,-5.0279093E-3,-7.9618614E-5],"split_indices":[51,80,85,0,0,0,0],"split_type":[0,0,0,0,0,0,0],"sum_hessian":[5.688072E3,2.74558E3,2.9424915E3,2.2304287E3,5.1515155E2,2.8535846E2,2.657133E3],"tree_param":{"num_deleted":"0","num_feature":"106","num_nodes":"7","size_leaf_vector":"0"}},{"base_weights":[-7.651718E-2,1.6063375E-2,-2.7943352E-1,1.3191882E-1,-1.6703543E-1,-3.3874616E-1,-2.377098E-2],"categories":[],"categories_nodes":[],"categories_segments":[],"categories_sizes":[],"default_left":[1,1,1,0,0,0,0],"id":116,"left_children":[1,3,5,-1,-1,-1,-1],"loss_changes":[1.0683371E2,8.2878136E1,2.7009598E1,0E0,0E0,0E0,0E0],"parents":[2147483647,0,0,1,1,2,2],"right_children":[2,4,6,-1,-1,-1,-1],"split_conditions":[2.85E0,1.65E1,5.3500004E0,1.3191882E-3,-1.6703543E-3,-3.3874614E-3,-2.377098E-4],"split_indices":[25,80,77,0,0,0,0],"split_type":[0,0,0,0,0,0,0],"sum_hessian":[5.6856084E3,3.904913E3,1.7806952E3,2.391791E3,1.513122E3,1.4451106E3,3.3558463E2],"tree_param":{"num_deleted":"0","num_feature":"106","num_nodes":"7","size_leaf_vector":"0"}},{"base_weights":[7.6517165E-2,-1.6063375E-2,2.794335E-1,-1.3191882E-1,1.6703543E-1,3.3874616E-1,2.3770865E-2],"categories":[],"categories_nodes":[],"categories_segments":[],"categories_sizes":[],"default_left":[1,1,1,0,0,0,0],"id":117,"left_children":[1,3,5,-1,-1,-1,-1],"loss_changes":[1.06833694E2,8.287814E1,2.7009628E1,0E0,0E0,0E0,0E0],"parents":[2147483647,0,0,1,1,2,2],"right_children":[2,4,6,-1,-1,-1,-1],"split_conditions":[2.85E0,1.65E1,5.3500004E0,-1.3191882E-3,1.6703543E-3,3.3874614E-3,2.3770865E-4],"split_indices":[25,80,77,0,0,0,0],"split_type":[0,0,0,0,0,0,0],"sum_hessian":[5.6856084E3,3.904913E3,1.7806952E3,2.391791E3,1.513122E3,1.4451106E3,3.3558463E2],"tree_param":{"num_deleted":"0","num_feature":"106","num_nodes":"7","size_leaf_vector":"0"}},{"base_weights":[-7.5786635E-2,-1.6878918E-1,1.2456896E-1,-3.428819E-2,-2.9840904E-1,6.8142E-2,4.208533E-1],"categories":[],"categories_nodes":[],"categories_segments":[],"categories_sizes":[],"default_left":[1,1,1,0,0,0,0],"id":118,"left_children":[1,3,5,-1,-1,-1,-1],"loss_changes":[1.0593623E2,6.76775E1,3.0107822E1,0E0,0E0,0E0,0E0],"parents":[2147483647,0,0,1,1,2,2],"right_children":[2,4,6,-1,-1,-1,-1],"split_conditions":[2.05E1,1.25E1,3.65E1,-3.428819E-4,-2.9840905E-3,6.8142E-4,4.2085326E-3],"split_indices":[51,79,53,0,0,0,0],"split_type":[0,0,0,0,0,0,0],"sum_hessian":[5.6831045E3,3.881513E3,1.8015917E3,1.9055109E3,1.9760022E3,1.5144052E3,2.8718652E2],"tree_param":{"num_deleted":"0","num_feature":"106","num_nodes":"7","size_leaf_vector":"0"}},{"base_weights":[7.5786635E-2,1.6878918E-1,-1.24568984E-1,3.428818E-2,2.9840904E-1,-6.8142034E-2,-4.208532E-1],"categories":[],"categories_nodes":[],"categories_segments":[],"categories_sizes":[],"default_left":[1,1,1,0,0,0,0],"id":119,"left_children":[1,3,5,-1,-1,-1,-1],"loss_changes":[1.0593626E2,6.767751E1,3.0107794E1,0E0,0E0,0E0,0E0],"parents":[2147483647,0,0,1,1,2,2],"right_children":[2,4,6,-1,-1,-1,-1],"split_conditions":[2.05E1,1.25E1,3.65E1,3.4288177E-4,2.9840905E-3,-6.814203E-4,-4.2085317E-3],"split_indices":[51,79,53,0,0,0,0],"split_type":[0,0,0,0,0,0,0],"sum_hessian":[5.6831045E3,3.881513E3,1.8015916E3,1.9055107E3,1.9760022E3,1.514405E3,2.8718652E2],"tree_param":{"num_deleted":"0","num_feature":"106","num_nodes":"7","size_leaf_vector":"0"}},{"base_weights":[-7.506119E-2,2.1638464E-2,-2.6432958E-1,-1.8771969E-1,1.1928232E-1,-3.2776594E-1,-1.4713499E-2],"categories":[],"categories_nodes":[],"categories_segments":[],"categories_sizes":[],"default_left":[1,1,1,0,0,0,0],"id":120,"left_children":[1,3,5,-1,-1,-1,-1],"loss_changes":[1.03992485E2,7.691369E1,3.0418777E1,0E0,0E0,0E0,0E0],"parents":[2147483647,0,0,1,1,2,2],"right_children":[2,4,6,-1,-1,-1,-1],"split_conditions":[2.45E0,-1.95E0,5.05E0,-1.8771968E-3,1.1928232E-3,-3.2776594E-3,-1.4713498E-4],"split_indices":[25,77,77,0,0,0,0],"split_type":[0,0,0,0,0,0,0],"sum_hessian":[5.6806587E3,3.7603386E3,1.9203198E3,1.1957052E3,2.5646335E3,1.5309401E3,3.893798E2],"tree_param":{"num_deleted":"0","num_feature":"106","num_nodes":"7","size_leaf_vector":"0"}},{"base_weights":[7.5061195E-2,-2.1638455E-2,2.6432955E-1,1.8771967E-1,-1.19282305E-1,3.2776594E-1,1.47134755E-2],"categories":[],"categories_nodes":[],"categories_segments":[],"categories_sizes":[],"default_left":[1,1,1,0,0,0,0],"id":121,"left_children":[1,3,5,-1,-1,-1,-1],"loss_changes":[1.0399248E2,7.691369E1,3.0418777E1,0E0,0E0,0E0,0E0],"parents":[2147483647,0,0,1,1,2,2],"right_children":[2,4,6,-1,-1,-1,-1],"split_conditions":[2.45E0,-1.95E0,5.05E0,1.8771967E-3,-1.192823E-3,3.2776594E-3,1.4713475E-4],"split_indices":[25,77,77,0,0,0,0],"split_type":[0,0,0,0,0,0,0],"sum_hessian":[5.6806587E3,3.7603386E3,1.9203198E3,1.1957052E3,2.5646335E3,1.5309401E3,3.8937976E2],"tree_param":{"num_deleted":"0","num_feature":"106","num_nodes":"7","size_leaf_vector":"0"}},{"base_weights":[-7.434457E-2,2.1870726E-1,-1.3632523E-1,-6.1219513E-1,2.3631316E-1,-2.6769656E-1,1.8883308E-2],"categories":[],"categories_nodes":[],"categories_segments":[],"categories_sizes":[],"default_left":[1,1,1,0,0,0,0],"id":122,"left_children":[1,3,5,-1,-1,-1,-1],"loss_changes":[1.03183495E2,1.4654037E1,9.559976E1,0E0,0E0,0E0,0E0],"parents":[2147483647,0,0,1,1,2,2],"right_children":[2,4,6,-1,-1,-1,-1],"split_conditions":[-4.6499996E0,8.5E0,5.445E-1,-6.121951E-3,2.3631316E-3,-2.6769654E-3,1.8883307E-4],"split_indices":[25,33,55,0,0,0,0],"split_type":[0,0,0,0,0,0,0],"sum_hessian":[5.678161E3,9.908372E2,4.687324E3,1.9858364E1,9.709789E2,2.5382112E3,2.149113E3],"tree_param":{"num_deleted":"0","num_feature":"106","num_nodes":"7","size_leaf_vector":"0"}},{"base_weights":[7.434456E-2,-2.1870722E-1,1.363252E-1,6.1219513E-1,-2.3631312E-1,2.6769653E-1,-1.8883333E-2],"categories":[],"categories_nodes":[],"categories_segments":[],"categories_sizes":[],"default_left":[1,1,1,0,0,0,0],"id":123,"left_children":[1,3,5,-1,-1,-1,-1],"loss_changes":[1.0318347E2,1.4654034E1,9.559977E1,0E0,0E0,0E0,0E0],"parents":[2147483647,0,0,1,1,2,2],"right_children":[2,4,6,-1,-1,-1,-1],"split_conditions":[-4.6499996E0,8.5E0,5.445E-1,6.121951E-3,-2.3631311E-3,2.6769652E-3,-1.8883332E-4],"split_indices":[25,33,55,0,0,0,0],"split_type":[0,0,0,0,0,0,0],"sum_hessian":[5.678161E3,9.908372E2,4.687324E3,1.9858364E1,9.709789E2,2.5382112E3,2.149113E3],"tree_param":{"num_deleted":"0","num_feature":"106","num_nodes":"7","size_leaf_vector":"0"}},{"base_weights":[-7.3630236E-2,1.6640732E-2,-2.7192965E-1,1.2948811E-1,-1.6186203E-1,-3.2986704E-1,-2.316542E-2],"categories":[],"categories_nodes":[],"categories_segments":[],"categories_sizes":[],"default_left":[1,1,1,0,0,0,0],"id":124,"left_children":[1,3,5,-1,-1,-1,-1],"loss_changes":[1.0162726E2,7.8622734E1,2.558876E1,0E0,0E0,0E0,0E0],"parents":[2147483647,0,0,1,1,2,2],"right_children":[2,4,6,-1,-1,-1,-1],"split_conditions":[2.85E0,1.65E1,5.3500004E0,1.2948811E-3,-1.6186202E-3,-3.2986703E-3,-2.316542E-4],"split_indices":[25,80,77,0,0,0,0],"split_type":[0,0,0,0,0,0,0],"sum_hessian":[5.676032E3,3.9010776E3,1.7749545E3,2.3902585E3,1.5108192E3,1.4393927E3,3.3556186E2],"tree_param":{"num_deleted":"0","num_feature":"106","num_nodes":"7","size_leaf_vector":"0"}},{"base_weights":[7.3630236E-2,-1.6640726E-2,2.7192962E-1,-1.2948811E-1,1.6186205E-1,3.2986704E-1,2.3165334E-2],"categories":[],"categories_nodes":[],"categories_segments":[],"categories_sizes":[],"default_left":[1,1,1,0,0,0,0],"id":125,"left_children":[1,3,5,-1,-1,-1,-1],"loss_changes":[1.0162723E2,7.862274E1,2.558876E1,0E0,0E0,0E0,0E0],"parents":[2147483647,0,0,1,1,2,2],"right_children":[2,4,6,-1,-1,-1,-1],"split_conditions":[2.85E0,1.65E1,5.3500004E0,-1.2948811E-3,1.6186205E-3,3.2986703E-3,2.3165334E-4],"split_indices":[25,80,77,0,0,0,0],"split_type":[0,0,0,0,0,0,0],"sum_hessian":[5.676032E3,3.9010776E3,1.7749546E3,2.3902585E3,1.5108192E3,1.4393927E3,3.355619E2],"tree_param":{"num_deleted":"0","num_feature":"106","num_nodes":"7","size_leaf_vector":"0"}},{"base_weights":[-7.292809E-2,-1.6376476E-1,1.22498296E-1,-8.314616E-2,-3.715301E-1,5.187834E-1,8.155579E-2],"categories":[],"categories_nodes":[],"categories_segments":[],"categories_sizes":[],"default_left":[1,1,1,0,0,0,0],"id":126,"left_children":[1,3,5,-1,-1,-1,-1],"loss_changes":[1.007526E2,6.486236E1,2.91818E1,0E0,0E0,0E0,0E0],"parents":[2147483647,0,0,1,1,2,2],"right_children":[2,4,6,-1,-1,-1,-1],"split_conditions":[2.05E1,1.95E1,2.5E0,-8.314616E-4,-3.7153007E-3,5.1878337E-3,8.155579E-4],"split_indices":[51,80,85,0,0,0,0],"split_type":[0,0,0,0,0,0,0],"sum_hessian":[5.67347E3,3.8732817E3,1.8001885E3,2.791503E3,1.0817788E3,1.6747888E2,1.6327096E3],"tree_param":{"num_deleted":"0","num_feature":"106","num_nodes":"7","size_leaf_vector":"0"}},{"base_weights":[7.2928086E-2,1.6376476E-1,-1.2249835E-1,8.314618E-2,3.7153006E-1,-5.187834E-1,-8.155584E-2],"categories":[],"categories_nodes":[],"categories_segments":[],"categories_sizes":[],"default_left":[1,1,1,0,0,0,0],"id":127,"left_children":[1,3,5,-1,-1,-1,-1],"loss_changes":[1.00752625E2,6.486233E1,2.9181795E1,0E0,0E0,0E0,0E0],"parents":[2147483647,0,0,1,1,2,2],"right_children":[2,4,6,-1,-1,-1,-1],"split_conditions":[2.05E1,1.95E1,2.5E0,8.3146174E-4,3.7153005E-3,-5.1878337E-3,-8.155584E-4],"split_indices":[51,80,85,0,0,0,0],"split_type":[0,0,0,0,0,0,0],"sum_hessian":[5.67347E3,3.873282E3,1.8001885E3,2.791503E3,1.0817789E3,1.6747888E2,1.6327096E3],"tree_param":{"num_deleted":"0","num_feature":"106","num_nodes":"7","size_leaf_vector":"0"}},{"base_weights":[-7.2229505E-2,2.1541749E-1,-1.3311692E-1,-6.078826E-1,2.3287565E-1,9.4403744E-2,-2.1975599E-1],"categories":[],"categories_nodes":[],"categories_segments":[],"categories_sizes":[],"default_left":[1,1,1,0,0,0,0],"id":128,"left_children":[1,3,5,-1,-1,-1,-1],"loss_changes":[9.936978E1,1.4389343E1,9.2309326E1,0E0,0E0,0E0,0E0],"parents":[2147483647,0,0,1,1,2,2],"right_children":[2,4,6,-1,-1,